svm_type c_svc
kernel_type rbf
gamma 0.125
nr_class 2
total_sv 716
rho 0.0259753
label 1 0
probA -0.984029
probB -0.0401286
nr_sv 371 345
SV
0.9077917128070367 1:-0.333333 2:-1 3:-0.25 4:1 5:-1 6:0.333333 7:-0.333333 8:-0.777778 9:-1 10:-0.333333 11:-0.333333 12:-0.333333 13:-0.333333 14:0.2 15:-0.5 16:-0.5 17:-0.714286 18:-0.666667 19:0.333333 20:-0.333333 23:-0.333333 24:-1 25:-0.6 27:-1 28:-0.777778 29:-1 30:-0.777778 31:-1 32:-1 33:-1 34:-0.777778 35:-1 36:-1 37:-1 38:-1 39:-0.75 40:-1 41:-1 42:-0.2 43:-0.5 44:-0.333333 45:-0.333333 46:0.333333 47:-0.333333 48:-1 49:-0.333333 50:-0.333333 51:-0.5 52:-0.5 53:-0.5 54:-0.2 55:-1 56:-1 57:-1 58:-1 59:-1 60:-1 61:-1 62:-1 63:-1 64:-1 65:-1 66:-0.2 67:-0.111111 68:-0.777778 69:0.2 70:-0.428571 72:-1 73:-1 74:-1 75:-1 76:-1 77:-1 78:-1 79:-1 81:1 87:1 88:-1 89:-0.5 90:1 92:1 104:1 
1.565436533332536 1:-0.777778 2:-1 3:-0.75 4:-0.333333 5:-0.333333 6:-0.333333 7:-0.333333 8:-0.777778 9:-1 10:1 11:-0.333333 12:-0.333333 13:-0.333333 14:-0.6 15:0.5 17:-0.714286 18:-0.333333 19:0.333333 20:-0.333333 23:-0.333333 24:-1 25:-0.6 27:-0.111111 28:-1 29:-1 30:-1 31:-1 32:-1 33:0.111111 34:-0.333333 35:-1 36:0.111111 37:-1 38:-1 39:-1 40:-0.111111 41:-1 42:-0.6 43:-0.5 44:-0.333333 45:-0.333333 46:-0.333333 47:-0.333333 48:-0.5 49:-1 50:-0.333333 51:-0.5 52:-0.5 53:-0.5 54:-0.6 55:-1 56:-1 57:-1 58:-1 59:-1 60:-1 61:-1 62:-1 63:-0.555556 64:-1 65:-0.6 66:-0.6 67:0.777778 68:-0.555556 69:0.6 70:0.714286 76:1 78:0.5 79:1 80:1 89:-0.5 90:1 104:1 
1.958549944977187 1:-0.777778 2:-1 3:-0.75 4:-0.333333 5:-0.333333 6:-0.333333 7:-0.333333 8:-0.777778 9:-0.25 10:-0.333333 11:-0.333333 12:-0.333333 13:-0.333333 14:-0.6 15:-0.5 16:0.5 17:-0.714286 18:-0.333333 19:-0.333333 20:-0.333333 23:-0.333333 24:-1 25:-0.6 27:-1 28:-1 29:-1 30:-1 31:-1 32:-1 33:-1 34:-1 35:-1 36:-1 37:-0.333333 38:-1 39:-1 40:-1 41:-1 42:-1 43:-0.5 44:-0.333333 45:-0.333333 46:-1 47:-0.333333 48:-0.5 49:-0.333333 50:1 51:-0.5 52:-0.5 53:-0.5 54:-0.6 55:-1 56:-1 57:-1 58:-1 59:-1 60:-1 61:-1 62:-1 63:-1 64:-1 65:-0.2 66:0.6 67:0.111111 68:-0.777778 69:0.2 70:-0.428571 78:-0.5 79:1 81:1 89:-0.5 90:1 104:1 
0.9806372361996896 1:0.555556 2:0.777778 3:-1 4:-0.333333 5:-0.333333 6:-0.333333 7:1 8:-0.777778 9:-1 10:-0.333333 11:-0.333333 12:-0.333333 13:-0.333333 14:-0.6 16:0.5 17:-0.428571 18:-0.333333 19:-0.333333 20:0.333333 23:-0.333333 24:-1 25:-0.6 27:0.111111 28:-0.111111 29:-0.111111 30:-0.111111 31:-0.111111 32:-0.111111 33:-1 34:-1 35:-0.555556 36:-0.333333 37:-1 38:-1 39:-0.5 40:-0.111111 41:-1 42:-1 43:-0.5 44:0.333333 45:-0.333333 46:-0.333333 47:-0.333333 48:-1 49:-1 50:1 51:-0.5 52:-0.5 53:-0.5 54:-0.6 55:-0.111111 57:-0.333333 58:-1 59:-0.142857 61:-1 62:-1 63:-1 64:-1 65:-0.6 66:-0.6 67:-0.111111 68:-0.555556 69:0.2 70:-0.714286 78:-0.5 79:1 81:1 89:-0.5 91:1 99:1 104:1 
1.352767453162415 1:0.555556 2:-0.555556 3:-0.25 4:-0.333333 5:-0.333333 6:-0.333333 7:0.333333 8:-0.777778 9:-0.25 10:-0.333333 11:0.333333 12:0.333333 13:-0.333333 14:-0.6 15:-0.5 16:-0.5 17:-0.428571 18:-0.666667 19:0.333333 20:-0.333333 23:-0.333333 24:-1 25:-0.6 27:-0.777778 28:-0.777778 29:-0.777778 30:-1 31:-0.555556 32:-1 33:-0.555556 34:-0.555556 35:-1 36:0.111111 37:-0.777778 38:-1 39:-1 40:-0.555556 41:-1 42:-0.6 43:-0.5 44:0.333333 45:-0.333333 46:-0.333333 47:-0.333333 48:-1 49:0.333333 50:-0.333333 51:-0.5 52:-0.5 53:-0.5 54:0.6 55:-1 56:-1 57:-1 58:-1 59:-1 60:-1 61:-1 62:-1 63:-1 64:-1 65:-0.6 66:-0.6 67:-0.777778 68:-0.777778 69:-0.2 70:-0.714286 73:1 78:-0.5 79:1 81:1 89:-0.5 92:1 104:1 
1.284740838418159 1:-0.777778 2:-1 3:-0.75 4:-0.333333 5:-0.333333 6:-0.333333 7:-0.333333 8:-0.777778 9:-1 10:-0.333333 11:-0.333333 12:-0.333333 13:-0.333333 14:-0.6 16:0.5 17:0.714286 19:-0.333333 20:0.333333 23:-0.333333 24:-1 25:-0.6 27:0.111111 28:0.111111 29:-1 30:-1 31:-1 32:0.111111 33:-1 34:-1 35:-1 36:-1 37:-1 38:-1 39:-1 40:-0.555556 41:-1 42:-0.2 43:-0.5 44:-0.333333 45:-0.333333 46:-0.333333 47:-0.333333 48:-1 49:0.333333 50:-0.333333 51:-0.5 52:-0.5 53:-0.5 54:-0.6 55:-1 56:-1 57:-1 58:-1 59:-1 60:-0.25 61:-0.555556 62:-1 63:-1 64:-1 65:-0.2 66:-0.2 67:-0.333333 68:-0.555556 69:0.2 70:-1 71:-1 72:-1 73:-1 74:-1 75:-1 76:-1 77:-1 78:-1 79:-1 80:-1 81:-1 82:-1 83:-1 84:-1 85:-1 86:-1 87:-1 88:-1 89:-1 90:-1 91:-1 92:-1 93:-1 94:-1 95:-1 96:-1 97:-1 98:-1 99:-1 100:-1 101:-1 102:-1 103:-1 104:-1 
1.129895025591133 1:0.111111 2:0.333333 4:1 5:1 6:0.333333 7:0.333333 8:0.777778 9:0.5 10:1 11:-0.333333 12:0.333333 13:0.333333 14:0.2 15:-0.5 16:0.5 17:-0.428571 18:-0.333333 19:-0.333333 20:0.333333 23:-0.333333 24:-0.333333 25:0.6 26:-1 27:-1 28:-0.555556 29:-1 30:-1 31:-0.333333 32:-1 33:0.111111 34:-0.555556 35:-1 36:-1 37:-1 38:-1 39:-1 40:-0.555556 41:-1 42:-0.6 43:-0.5 44:-0.333333 45:-0.333333 46:-0.333333 47:-0.333333 48:-1 49:-1 50:1 51:-0.5 52:-0.5 54:-0.6 55:-1 56:-1 57:-1 58:-1 59:-1 60:-0.5 61:-1 62:-1 63:-1 64:-1 65:-0.6 66:-0.6 67:-0.333333 68:-0.555556 69:-0.2 70:-0.428571 76:1 78:-0.5 79:1 81:1 89:-0.5 91:1 104:1 
1.194472244337558 1:-0.777778 2:-1 3:-0.75 4:-0.333333 5:-0.333333 6:-0.333333 7:-0.333333 8:-0.777778 9:-1 10:-0.333333 11:-0.333333 12:-0.333333 13:-0.333333 14:-0.2 15:1 17:-0.428571 19:-0.333333 20:-0.333333 22:1 23:0.333333 24:-1 25:0.2 27:0.111111 28:0.111111 29:-1 30:-1 31:-1 32:-0.333333 33:-1 34:-0.333333 35:-1 36:-0.333333 37:-1 38:-1 39:-1 40:-1 41:-1 42:-0.2 44:-0.333333 45:1 46:0.333333 47:-0.333333 48:-0.5 49:-1 50:1 51:-0.5 52:-0.5 53:-0.5 54:0.6 55:-1 56:-1 57:-1 58:-1 59:-1 60:-1 61:-1 62:-1 63:-1 64:-1 65:-0.6 66:-0.6 67:-0.111111 68:-0.777778 69:-0.2 70:-0.142857 76:1 78:-0.5 79:1 80:1 87:1 89:-0.5 92:1 104:1 
1.13385204525712 1:-0.777778 2:-1 3:-0.75 4:-0.333333 5:-0.333333 6:-0.333333 7:-0.333333 8:-0.777778 9:-1 10:-0.333333 11:0.333333 12:-0.333333 13:-0.333333 14:-0.6 15:-0.5 16:-0.5 17:-0.714286 18:-0.666667 19:0.333333 20:0.333333 23:-0.333333 24:-1 25:-0.6 27:0.111111 28:-0.333333 29:-0.333333 30:-1 31:-0.333333 32:-1 33:-1 34:-0.333333 35:-1 36:-1 37:-1 38:-1 39:-1 40:-1 41:-1 42:-0.6 43:-0.5 44:-0.333333 45:-0.333333 46:-0.333333 47:-0.333333 48:-0.5 49:0.333333 50:1 51:-0.5 52:-0.5 53:-0.5 54:-0.6 55:-1 56:-1 57:-1 58:-1 59:-1 60:-1 61:-1 62:-1 63:-1 64:-1 65:-1 66:-1 67:-0.555556 68:-0.555556 69:-0.2 70:-0.428571 76:1 78:-0.5 80:1 87:1 89:-0.5 92:1 104:1 
1.223602177576794 1:-0.777778 2:-1 3:-0.75 4:-0.333333 5:-0.333333 6:-0.333333 7:-0.333333 8:-0.777778 9:-1 10:-0.333333 11:-0.333333 12:-0.333333 13:-0.333333 14:-0.6 15:-0.5 17:-0.714286 18:-0.666667 19:-0.333333 20:-0.333333 21:1 22:1 23:-0.333333 24:-0.555556 25:0.2 27:-0.111111 28:-0.555556 29:0.111111 30:-1 31:-0.555556 32:-1 33:-1 34:0.333333 35:-1 36:-0.555556 37:-1 38:-1 39:-0.75 40:-1 41:-1 42:-0.2 43:-0.5 44:-0.333333 45:-0.333333 46:-0.333333 47:-0.333333 48:-0.5 49:-1 50:-0.333333 51:-0.5 52:-0.5 53:-0.5 54:-0.6 55:-1 56:-1 57:-1 58:-1 59:-1 60:-1 61:-1 62:-1 63:-0.333333 64:-1 65:-0.6 66:0.6 67:-0.111111 68:-0.555556 69:0.2 70:-0.428571 72:1 78:-0.5 79:1 81:1 90:1 91:1 104:1 
2 1:-0.777778 2:-1 3:-0.75 4:-0.333333 5:-0.333333 6:-0.333333 7:-0.333333 8:-0.777778 9:-1 10:-0.333333 11:-0.333333 12:-0.333333 13:-0.333333 14:-0.6 16:0.5 17:-0.428571 18:-0.666667 19:-0.333333 20:-0.333333 22:1 23:-0.333333 24:-1 25:-0.6 27:-0.333333 28:-1 29:-1 30:-1 31:-1 32:-1 33:-1 34:-0.333333 35:-1 36:-1 37:-1 38:-1 39:-1 40:-1 41:-1 42:-0.6 43:-0.5 44:-0.333333 45:-0.333333 46:-0.333333 47:-0.333333 48:-0.5 49:-1 50:1 51:-0.5 52:-0.5 53:-0.5 54:-0.6 55:-1 56:-1 57:-1 58:-1 59:-1 60:-1 61:-0.555556 62:-1 63:-0.333333 64:-1 65:-0.6 66:-0.6 67:-0.111111 68:-0.777778 69:0.2 70:-0.428571 71:1 78:-0.5 79:1 81:1 89:-0.5 91:1 99:1 104:1 
1.121176307906379 1:-0.777778 2:-1 3:-0.75 4:-0.333333 5:-0.333333 6:-0.333333 7:-0.333333 8:-0.777778 9:-1 10:-0.333333 11:-0.333333 12:-0.333333 13:-0.333333 14:-0.2 15:-0.5 16:0.5 17:-0.428571 18:-0.333333 19:1 20:-0.333333 21:1 23:0.333333 24:-0.777778 25:-1 27:-0.555556 28:-0.111111 29:-0.111111 30:-1 31:-0.111111 32:-1 33:-0.333333 34:-0.333333 35:-1 36:-1 37:-0.333333 38:0.25 39:-0.25 40:-0.555556 41:0.6 42:-0.6 44:-0.333333 45:-0.333333 46:-0.333333 47:-0.333333 48:-0.5 49:-1 50:-0.333333 51:-1 52:-0.5 53:-0.5 54:-0.6 55:-1 56:-1 57:-1 58:-1 59:-1 60:-1 61:-0.333333 62:-1 63:-0.333333 64:-0.555556 65:-0.2 66:0.2 67:0.777778 68:-0.333333 69:0.6 70:0.714286 72:1 79:1 80:1 83:1 87:1 89:1 92:1 99:1 104:1 
0.8324226754412504 1:-0.777778 2:-1 3:-0.75 4:-0.333333 5:-0.333333 6:-0.333333 7:-0.333333 8:-0.333333 9:-0.25 10:-0.333333 11:-0.333333 12:0.333333 13:-0.333333 14:-0.6 15:-0.5 17:-0.428571 19:0.333333 20:-0.333333 22:1 23:-0.333333 24:-1 25:-0.6 27:-1 28:-0.555556 29:-0.777778 30:-1 31:-0.777778 32:-1 33:-0.333333 34:-0.555556 35:-1 36:-1 37:-1 38:-1 39:-0.75 40:-0.555556 41:-1 42:-0.6 43:-0.5 44:0.333333 45:-0.333333 46:-0.333333 47:-0.333333 48:-0.5 49:-1 50:1 51:0.5 52:-0.5 53:-0.5 54:0.6 55:-1 56:-1 57:-1 58:-0.777778 59:-1 60:-0.5 61:-0.555556 62:-1 63:-1 64:-1 65:-0.2 66:0.6 67:0.333333 68:-0.777778 69:-0.2 70:-0.428571 71:1 78:-0.5 79:1 87:1 89:-0.5 90:1 104:1 
0.9933235733044238 1:0.111111 2:0.333333 3:-0.25 4:1 5:-0.333333 6:-0.333333 7:-0.333333 8:0.111111 9:-0.5 10:-0.333333 11:-0.333333 12:0.333333 13:-0.333333 14:0.2 15:-0.5 16:-0.5 17:-0.428571 18:1 19:-0.333333 20:0.333333 21:1 22:1 23:0.333333 24:-0.333333 25:0.2 27:0.333333 28:0.111111 29:-1 30:1 31:0.333333 32:0.333333 33:-1 34:1 35:-0.555556 36:-0.555556 37:-0.555556 38:-1 39:-0.5 40:0.777778 41:-1 42:-0.6 43:1 44:0.333333 45:1 46:0.333333 47:0.333333 48:-1 49:-1 50:1 51:-0.5 52:-0.5 53:-0.5 54:-0.2 55:-1 56:-0.75 57:-0.666667 58:-1 59:-1 60:-0.75 61:-0.111111 62:-1 63:-0.333333 64:-0.333333 65:-0.2 66:-0.2 67:1 68:-0.777778 69:-0.2 70:-0.428571 76:1 78:-0.5 79:1 81:1 89:-0.5 91:1 104:1 
0.9153974036912297 1:0.777778 2:-1 4:-0.333333 5:1 6:0.333333 7:1 8:0.777778 9:-0.5 10:1 11:0.333333 12:0.333333 13:0.333333 14:-0.2 15:-0.5 16:-0.5 17:-0.142857 18:-0.333333 19:-0.333333 20:-0.333333 22:1 23:0.333333 24:1 25:0.6 26:1 27:0.555556 28:-0.555556 29:-0.777778 30:-0.777778 31:-1 32:-1 33:-0.333333 34:0.777778 35:-0.333333 36:-0.333333 37:-1 38:-0.75 39:-1 40:-0.555556 41:-1 42:-0.6 43:-0.5 44:0.333333 45:1 46:0.333333 47:0.333333 48:-1 49:0.333333 50:1 51:-1 52:-0.5 53:-0.5 54:-0.6 55:-1 56:-1 57:-1 58:-0.555556 59:-1 60:-1 61:-1 62:-1 63:-1 64:-1 65:0.2 66:0.2 67:-0.111111 68:-0.555556 69:0.2 70:-0.142857 73:1 78:-0.5 79:1 83:1 89:-0.5 91:1 104:1 
2 1:-0.777778 2:-1 3:-0.75 4:-0.333333 5:-0.333333 6:-0.333333 7:-0.333333 8:-0.777778 9:-1 10:-0.333333 11:-0.333333 12:-0.333333 13:-0.333333 14:-0.6 15:-0.5 16:-0.5 17:0.428571 19:0.333333 20:-0.333333 23:-0.333333 24:-1 25:-0.6 27:-1 28:-1 29:-1 30:-1 31:-1 32:-1 33:-1 34:-0.777778 35:-1 36:-1 37:-0.777778 38:-1 39:-1 40:-1 41:-1 42:-0.6 44:-0.333333 45:-0.333333 46:0.333333 47:-0.333333 48:-0.5 49:-1 50:0.333333 51:-0.5 52:-0.5 53:-0.5 54:-0.6 55:-1 56:-1 57:-1 58:-0.777778 59:-1 60:-1 61:-0.777778 62:-1 63:-0.777778 64:-1 65:-0.6 66:-0.6 67:-0.111111 68:-0.777778 69:-0.2 70:-0.428571 72:1 78:-0.5 79:1 81:1 89:-0.5 90:1 92:1 104:1 
1.446987740766734 1:-0.777778 2:-1 3:-0.75 4:-0.333333 5:-0.333333 6:-0.333333 7:-0.333333 8:-0.777778 9:-1 10:-0.333333 11:-0.333333 12:-0.333333 13:-0.333333 14:-0.2 15:0.5 16:-0.5 17:-0.142857 18:-0.333333 19:0.333333 20:-0.333333 23:-0.333333 24:-1 25:-0.6 26:-1 27:-0.333333 28:-1 29:-1 30:-1 31:-0.333333 32:-1 33:-1 34:-0.333333 35:-1 36:-1 37:-1 38:-1 39:-1 40:-0.333333 41:-1 42:-0.2 43:-0.5 44:0.333333 45:-0.333333 46:-0.333333 47:-0.333333 48:-1 49:-1 50:-0.333333 51:-0.5 52:-0.5 53:-0.5 54:-0.6 55:-1 56:-1 57:-1 58:-1 59:-1 60:-1 61:-1 62:-1 63:-1 64:-1 65:-1 66:-1 67:1 68:-0.555556 69:-0.2 70:0.714286 71:1 76:1 78:-0.5 79:1 80:1 87:1 89:-0.5 92:1 104:1 
0.8017619927698755 1:-0.777778 2:-1 3:-0.75 4:-0.333333 5:-0.333333 6:-0.333333 7:-0.333333 8:0.333333 9:-0.25 10:1 11:-0.333333 12:-0.333333 13:-0.333333 14:-0.6 16:0.5 17:-0.714286 18:-0.666667 19:0.333333 20:-0.333333 23:-1 24:-0.777778 25:-0.6 26:-1 27:0.111111 28:-0.333333 29:-0.333333 30:-0.333333 31:-0.333333 32:-0.333333 33:-1 34:0.111111 35:-0.111111 36:-0.333333 37:-1 38:-1 39:-0.25 40:-1 41:-1 42:-0.2 44:-0.333333 45:1 46:0.333333 47:-0.333333 48:-1 49:0.333333 50:0.333333 51:-0.5 52:-0.5 53:-0.5 54:0.2 55:-0.111111 56:-1 58:-1 59:-1 60:-1 61:-0.333333 62:-1 63:-1 64:-1 65:-1 66:-1 67:-0.111111 68:-0.555556 69:0.6 70:-0.142857 76:1 79:1 81:1 89:-0.5 92:1 104:1 
0.9166089169686216 1:-0.777778 2:-1 3:-0.75 4:-0.333333 5:-0.333333 6:-0.333333 7:-0.333333 8:-0.777778 9:-1 10:-1 11:-1 12:-1 13:-1 14:-0.6 15:-0.5 16:0.5 17:-1 18:-0.666667 19:0.333333 20:-1 23:-1 24:-1 25:-1 26:-1 27:0.555556 28:-0.111111 29:-1 30:-1 31:0.555556 32:-1 33:-1 34:-1 35:0.555556 36:-0.111111 37:-1 38:-1 39:-1 40:-1 41:-0.2 42:-0.2 44:-0.333333 45:-0.333333 46:-0.333333 47:-1 48:-1 49:-1 50:1 51:-0.5 52:-0.5 53:-0.5 54:-0.2 55:-1 56:-1 57:-1 58:-1 59:-1 60:-1 61:-0.333333 62:-1 63:-0.333333 64:-0.333333 65:-1 66:-1 67:0.777778 68:-0.777778 69:0.6 70:0.714286 72:1 78:0.5 79:1 86:1 89:-0.5 90:1 92:1 104:1 
0.6942119625945316 1:-0.777778 2:-1 3:-0.75 4:-0.333333 5:-0.333333 6:-0.333333 7:-0.333333 8:-0.777778 9:-1 10:-0.333333 11:-0.333333 12:-0.333333 13:-0.333333 14:-0.6 15:-1 16:-0.5 17:-0.428571 18:-0.666667 19:0.333333 20:-0.333333 22:1 23:-0.333333 24:-1 25:-0.6 26:-1 27:-0.333333 28:-0.333333 29:-1 30:-1 31:-0.333333 32:-1 33:-0.333333 34:-1 35:-1 36:-0.333333 37:-1 38:-1 39:-0.25 40:-0.333333 41:-1 42:-0.6 43:-0.5 44:-0.333333 45:-0.333333 46:-0.333333 47:0.333333 48:-0.5 49:-1 50:1 51:-0.5 52:-0.5 53:-0.5 54:-0.6 55:-1 56:-1 57:-1 58:-1 59:-1 60:-1 61:-0.333333 62:-1 63:-1 64:-1 65:-0.2 66:0.6 67:0.777778 68:-0.777778 69:0.2 70:-1 72:1 78:-0.5 79:1 80:1 81:1 89:-0.5 92:1 93:1 104:1 
1.289022464118145 1:-0.777778 2:-1 3:-0.75 4:-0.333333 5:-0.333333 6:-0.333333 7:-0.333333 8:-1 9:-0.75 10:-0.333333 11:-0.333333 12:-0.333333 13:-0.333333 14:0.2 15:-0.5 17:-0.714286 18:-0.333333 19:-0.333333 20:-0.333333 23:-0.333333 24:-1 25:-0.6 27:-0.333333 28:-1 29:-1 30:-1 31:-0.555556 32:-1 33:-1 34:-0.333333 35:-1 36:-1 37:-1 38:-1 39:-1 40:-0.777778 41:-1 42:-0.6 43:-0.5 44:-0.333333 45:-0.333333 46:-0.333333 47:-0.333333 48:-0.5 49:-1 50:-0.333333 51:-0.5 52:-0.5 53:-0.5 54:-0.2 55:-1 56:-1 57:-1 58:-1 59:-1 60:-1 61:-1 62:-1 63:-1 64:-1 65:-1 66:-1 67:-0.111111 68:-0.777778 69:0.2 70:-0.428571 72:1 73:1 74:-1 75:-1 76:-1 77:-1 78:-1 79:1 81:1 89:-0.5 90:1 104:1 
1.613482399026264 1:-0.777778 2:-1 3:-0.75 4:-0.333333 5:-0.333333 6:-0.333333 7:-0.333333 8:-0.777778 9:-1 10:-0.333333 11:-0.333333 12:-0.333333 13:-0.333333 14:-0.2 15:-0.5 16:0.5 17:-0.428571 18:-0.666667 19:-1 20:-1 23:-0.333333 24:-1 25:-0.6 26:-1 27:-0.333333 28:-0.333333 29:-1 30:-1 31:-0.333333 32:-0.333333 33:-1 34:-0.333333 35:-0.333333 36:-0.333333 37:-1 38:-1 39:-1 40:-0.333333 41:-1 42:-0.6 43:-0.5 44:-0.333333 45:-0.333333 46:-0.333333 47:-0.333333 48:-0.5 49:-1 50:1 51:-0.5 52:-0.5 53:-0.5 54:0.6 55:-1 56:-1 57:-1 58:-1 59:-1 60:-1 61:-1 62:-1 63:-1 64:-1 65:-1 66:-1 67:-0.111111 68:-0.777778 69:0.2 70:0.714286 72:1 78:-0.5 79:1 80:1 87:1 89:-0.5 90:1 92:1 104:1 
0.9474673713928922 1:-0.777778 2:-1 3:-0.75 4:-0.333333 5:-0.333333 6:-0.333333 7:-0.333333 8:-0.777778 9:-1 10:-0.333333 11:-0.333333 12:-0.333333 13:-0.333333 14:-0.6 16:-0.5 17:-0.714286 18:-0.666667 19:0.333333 20:-0.333333 23:-0.333333 24:-1 25:-0.6 26:-1 27:-0.333333 28:-0.333333 29:-1 30:-0.333333 31:-1 32:-1 33:-1 34:-1 35:-1 36:-0.333333 37:-1 38:-1 39:-0.25 40:-0.333333 41:-1 42:-0.6 44:1 45:-0.333333 46:-0.333333 47:-0.333333 48:-0.5 49:-1 50:1 51:-0.5 52:-0.5 53:-0.5 54:-0.6 55:-1 56:-1 57:-1 58:-1 59:-1 60:-1 61:-1 62:-1 63:-1 64:-1 65:-1 66:-1 67:-0.111111 68:-0.555556 69:-0.2 70:-0.142857 75:1 76:1 78:-0.5 79:1 81:1 89:-1 92:1 104:1 
2 1:-0.777778 2:-1 3:-0.75 4:-0.333333 5:-0.333333 6:-0.333333 7:-0.333333 8:-0.777778 9:-1 10:-0.333333 11:-0.333333 12:-0.333333 13:-0.333333 14:-0.6 15:-0.5 16:0.5 17:-0.714286 18:-1 19:0.333333 20:-0.333333 23:-1 24:-1 25:-0.6 26:-1 27:-1 28:-1 29:-1 30:-1 31:-1 32:-1 33:-1 34:-1 35:-0.333333 36:-1 37:-1 38:-1 39:-1 40:0.111111 41:-1 42:-0.2 43:-0.5 44:-0.333333 45:-0.333333 46:-0.333333 47:-0.333333 48:-1 49:-0.333333 50:-0.333333 51:-0.5 52:-0.5 53:-0.5 54:-0.6 55:-1 56:-1 57:-1 58:-1 59:-1 60:-1 61:-1 62:-1 63:-1 64:-1 65:-1 66:-1 67:-0.111111 68:-0.555556 69:-0.6 70:0.428571 77:1 78:-0.5 79:1 81:1 89:-0.5 90:1 92:1 104:1 
0.9106672669463489 1:0.555556 2:-0.555556 4:-0.333333 5:-0.333333 6:0.333333 7:1 8:0.555556 9:-0.5 10:1 11:-0.333333 12:0.333333 13:0.333333 14:-0.6 15:-0.5 16:-0.5 17:-0.714286 18:-0.666667 19:-0.333333 20:-0.333333 23:-0.333333 24:-1 25:-0.6 27:-0.333333 28:-1 29:-0.333333 30:-1 31:-0.555556 32:-0.555556 33:-1 34:-0.333333 35:-1 36:-1 37:-1 38:-1 39:-1 40:-0.555556 41:-1 42:-0.2 43:-0.5 44:-0.333333 45:-0.333333 46:-0.333333 47:-0.333333 48:-1 49:-1 50:-0.333333 51:-0.5 52:-0.5 53:-0.5 54:-0.6 55:0.333333 56:-1 57:-1 58:-1 59:-1 60:-1 61:-1 62:-1 63:-1 64:-1 65:-0.2 66:0.6 67:-0.111111 68:-0.555556 69:0.6 70:-0.714286 71:1 72:1 73:1 74:1 75:1 76:1 77:1 78:-0.5 79:1 81:1 89:-0.5 90:1 91:1 104:1 
0.9118825525938649 1:-0.777778 2:-1 3:-1 4:-0.333333 5:-0.333333 6:-0.333333 7:-0.333333 8:-0.777778 9:-1 10:-0.333333 11:-0.333333 12:-0.333333 13:-0.333333 14:-0.2 15:0.5 16:0.5 17:-1 18:-0.333333 19:-0.333333 20:-0.333333 23:0.333333 24:-1 25:-0.6 27:-1 28:-1 29:0.111111 30:-1 31:-1 32:0.777778 33:0.111111 34:0.777778 35:-1 36:-1 37:0.111111 38:-1 39:-1 40:-1 41:-1 42:-0.6 43:0.5 44:-0.333333 45:-0.333333 46:-0.333333 47:-0.333333 48:-1 49:-1 50:1 51:-0.5 52:-0.5 53:-0.5 54:-0.2 55:-1 56:-1 57:-1 58:-1 59:-1 60:-1 61:1 62:-1 63:-1 64:-1 65:0.2 66:0.6 67:0.111111 68:-0.777778 69:0.6 70:-0.142857 73:1 75:1 78:-1 79:1 82:1 85:1 89:0.5 90:1 104:1 
0.3758373503733545 1:-0.777778 2:-1 3:-0.75 4:-0.333333 5:-0.333333 6:-0.333333 7:-0.333333 8:-0.777778 9:-1 10:-0.333333 11:-0.333333 12:-0.333333 13:-0.333333 14:-0.6 16:0.5 17:0.142857 18:-0.333333 19:-0.333333 20:-0.333333 22:1 23:-0.333333 24:-1 25:-1 26:-1 27:-0.333333 28:-1 29:-1 30:-1 31:-1 32:-0.777778 33:-0.333333 34:-0.333333 35:-0.555556 36:-1 37:-1 38:-1 39:-1 40:-1 41:-1 42:-0.2 44:-0.333333 45:-0.333333 46:-0.333333 47:-0.333333 48:-0.5 49:-1 50:1 51:-0.5 52:-0.5 53:-0.5 54:-0.6 55:-1 56:-1 57:-0.333333 58:-1 59:-1 60:-1 61:-0.333333 62:-1 63:-0.555556 64:-1 65:-0.2 66:0.6 67:-0.111111 68:-0.777778 69:0.2 70:-0.714286 71:1 79:1 81:1 89:-0.5 90:1 92:1 104:1 
0.6585167396503628 1:-0.777778 2:-1 3:-0.75 4:-0.333333 5:-0.333333 6:-0.333333 7:-0.333333 8:-0.777778 9:-1 10:-0.333333 11:-0.333333 12:-0.333333 13:-0.333333 14:-0.6 15:-0.5 16:0.5 17:-0.714286 18:-0.666667 19:0.333333 20:-0.333333 23:-0.333333 24:-1 25:-0.6 27:0.333333 28:0.333333 29:0.333333 30:0.333333 31:0.111111 32:-1 33:-1 34:-1 35:0.333333 36:-1 37:-0.111111 38:-0.25 39:-1 40:0.333333 41:0.6 42:-0.2 43:-0.5 44:0.333333 45:-0.333333 46:-0.333333 47:-0.333333 48:-1 49:-1 50:-0.333333 51:-0.5 52:-0.5 53:-0.5 54:-0.6 55:-1 56:-1 57:-1 58:-1 59:-1 60:-1 61:-0.555556 62:-1 63:-0.555556 64:-1 65:-0.2 66:0.2 67:-0.111111 68:-0.777778 69:0.2 70:0.714286 73:1 79:1 83:1 89:-0.5 90:1 99:1 104:1 
0.9723837291793191 1:-0.777778 2:-0.111111 3:-0.25 4:-0.333333 5:-0.333333 6:-0.333333 7:-0.333333 8:-0.777778 9:-1 10:-0.333333 11:-0.333333 12:-0.333333 13:-0.333333 14:0.2 15:-1 16:0.5 17:-0.714286 18:-0.333333 19:-0.333333 20:0.333333 21:-1 22:1 23:-1 24:-1 25:-0.6 27:-0.555556 28:-1 29:-1 30:-1 31:-1 32:-1 33:-1 34:0.111111 35:-1 36:-0.111111 37:-1 38:-1 39:-1 40:-0.333333 41:0.2 42:-0.2 43:-0.5 44:-0.333333 45:-0.333333 46:-0.333333 47:-0.333333 48:-0.5 49:-0.333333 50:1 51:-0.5 52:-0.5 53:-0.5 54:-0.6 55:-1 56:-1 57:0.666667 58:-1 59:-1 61:-0.111111 62:-1 63:-0.333333 64:-1 65:-1 66:-1 67:-0.555556 68:-0.555556 69:-0.2 70:0.428571 72:1 78:-0.5 79:1 81:1 89:-0.5 93:1 99:1 104:1 
1.469376578279443 1:-0.777778 2:-1 3:-0.75 4:-0.333333 5:-0.333333 6:-0.333333 7:-0.333333 8:-0.777778 9:-1 10:-0.333333 11:-0.333333 12:-0.333333 13:-0.333333 14:-0.6 15:-0.5 16:-0.5 17:-0.714286 18:-0.666667 19:0.333333 20:-0.333333 23:-0.333333 24:-1 25:-1 26:-1 27:-0.333333 28:-1 29:-1 30:-1 31:-1 32:-0.333333 33:-1 34:-1 35:-1 36:-1 37:-1 38:-1 39:-1 40:-1 41:-1 42:-0.2 44:-0.333333 45:-0.333333 46:-0.333333 47:-0.333333 48:-0.5 49:-0.333333 50:-0.333333 51:-0.5 52:-0.5 53:-0.5 54:-0.6 55:0.111111 56:0.25 57:-1 58:-1 59:-0.142857 60:-0.5 61:-1 62:-1 63:-1 64:-1 65:0.2 66:-1 67:-0.111111 68:-0.555556 69:-0.2 70:-0.142857 71:1 79:1 81:1 89:-0.5 90:1 104:1 
1.869112758203521 1:-0.777778 2:-1 3:-0.75 4:-0.333333 5:-0.333333 6:-0.333333 7:-0.333333 8:-0.777778 9:-1 10:-0.333333 11:-0.333333 12:-0.333333 13:-0.333333 14:-0.6 15:-0.5 16:-0.5 17:-0.714286 18:-0.666667 19:-0.333333 20:-0.333333 23:-0.333333 24:-1 25:-1 26:-1 27:-0.333333 28:-1 29:-0.777778 30:-1 31:-1 32:-1 33:-1 34:-0.333333 35:-1 36:-1 37:-1 38:-1 39:-1 40:-1 41:-1 42:-0.6 43:-0.5 44:-0.333333 45:-0.333333 46:-0.333333 47:0.333333 48:-1 49:-1 50:-0.333333 51:-0.5 52:-0.5 53:-0.5 54:-0.6 55:-1 56:-1 57:-1 58:-1 59:-1 60:-1 61:-0.555556 62:-1 63:-1 64:-1 65:0.2 66:-1 67:1 68:-0.777778 69:0.2 70:-0.428571 71:1 79:1 87:1 89:-0.5 90:1 104:1 
1.063856338305818 1:-0.777778 2:-1 3:-0.75 4:-0.333333 5:-0.333333 6:-0.333333 7:-0.333333 8:-0.777778 9:-1 10:-0.333333 11:-0.333333 12:-0.333333 13:-0.333333 14:-1 15:-1 16:-1 17:-1 18:-1 19:-1 20:-1 21:-1 22:-1 23:-1 24:-1 25:-1 26:1 27:-0.333333 28:-0.333333 29:-1 30:-1 31:-1 32:-1 33:0.111111 34:0.111111 35:-1 36:0.777778 37:-0.333333 38:-1 39:-1 40:-1 41:-0.2 42:-0.6 43:0.5 44:-0.333333 45:-0.333333 46:-0.333333 47:-0.333333 48:-0.5 49:-0.333333 50:1 51:1 52:-0.5 53:-0.5 54:-0.2 55:-1 56:-1 57:-1 58:-1 59:-1 60:-1 61:-1 62:-1 63:-1 64:-1 65:-1 66:-1 67:-0.111111 68:-0.555556 69:-0.6 70:-0.714286 72:1 78:-1 79:1 81:1 89:-0.5 91:1 92:1 104:1 
0.7555940368186869 1:0.555556 2:-0.333333 3:-0.75 4:-0.333333 5:-0.333333 6:-0.333333 7:-0.333333 8:-0.777778 9:-1 10:-0.333333 11:-0.333333 12:-0.333333 13:-0.333333 14:-0.6 15:-0.5 16:0.5 17:0.714286 18:-0.666667 19:-0.333333 20:-0.333333 23:-0.333333 24:-1 25:-0.6 27:-0.333333 28:-1 29:-0.333333 30:-1 31:-1 32:-1 33:-1 34:-1 35:-1 36:-1 37:-1 38:-1 39:-1 40:0.111111 41:0.2 42:-0.2 44:-0.333333 45:-0.333333 46:-0.333333 47:-0.333333 48:-0.5 49:-1 50:-0.333333 51:-0.5 52:-0.5 53:-0.5 54:-0.6 55:-1 56:-1 57:-1 58:-1 59:-1 60:-1 61:-1 62:-1 63:-1 64:-1 65:-1 66:-1 67:-0.111111 68:-0.777778 69:-0.6 70:-0.714286 76:1 78:0.5 79:1 81:1 83:1 89:1 90:1 92:1 104:1 
2 1:0.111111 2:-0.333333 3:-0.25 4:-0.333333 5:-0.333333 6:-0.333333 7:-0.333333 8:0.111111 9:-0.25 10:-0.333333 11:-0.333333 12:-0.333333 13:-0.333333 14:-0.6 15:-0.5 16:-0.5 17:-0.428571 18:-0.333333 19:-0.333333 20:-0.333333 23:-0.333333 24:-1 25:-0.6 27:-1 28:-1 29:-1 30:-1 31:-0.555556 32:-1 33:-1 34:-0.333333 35:-0.333333 36:-1 37:-1 38:-1 39:-1 40:-0.333333 41:-1 42:-0.6 43:-0.5 44:-0.333333 45:-0.333333 46:0.333333 47:-0.333333 48:-1 49:-1 50:-0.333333 51:-0.5 52:-0.5 53:-0.5 54:-0.2 55:-1 56:-1 57:-1 58:-1 59:-1 60:-1 61:-1 62:-1 63:-1 64:-1 65:-1 66:-1 67:-0.111111 68:-0.777778 69:0.2 70:-0.428571 71:1 79:1 87:1 89:-0.5 90:1 99:1 104:1 
0.7665465285857028 1:0.555556 2:-0.555556 3:-0.75 4:-0.333333 5:0.333333 6:1 7:-0.333333 8:-1 9:-0.75 10:-0.333333 11:-0.333333 12:-0.333333 13:-0.333333 14:-0.6 15:1 16:-0.5 17:-0.714286 18:-0.666667 19:-0.333333 20:-0.333333 23:-0.333333 24:-1 25:-0.6 27:0.111111 28:-1 29:-1 30:-1 31:-1 32:-0.333333 33:-1 34:-1 35:-0.555556 36:-1 37:-1 38:-1 39:-1 40:-0.777778 41:-1 42:0.2 43:-0.5 44:-0.333333 45:-0.333333 46:-1 47:-0.333333 48:-1 49:-1 50:-0.333333 51:-0.5 52:-0.5 53:-0.5 54:-0.6 55:-0.333333 56:-1 57:-1 58:-1 59:-1 60:-1 61:-0.555556 62:-1 63:-1 64:-0.555556 65:-0.2 66:0.2 67:-0.111111 68:-0.555556 69:0.2 70:-0.142857 71:1 79:1 88:1 89:-0.5 90:1 104:1 
1.066804831592307 1:0.555556 2:0.111111 3:-0.5 4:-0.333333 5:-0.333333 6:-0.333333 7:1 8:-0.777778 9:-1 10:-0.333333 11:-0.333333 12:-0.333333 13:-0.333333 14:-0.6 15:-0.5 16:-0.5 17:-0.714286 19:0.333333 20:0.333333 21:1 23:-0.333333 24:-1 25:-0.6 27:-1 28:-0.111111 29:-1 30:-1 31:0.111111 32:-1 33:0.333333 34:-1 35:-0.777778 36:-0.333333 37:-1 39:-1 40:0.333333 41:-1 42:-0.2 43:1 44:-0.333333 45:-0.333333 46:0.333333 47:-0.333333 48:-0.5 49:-1 50:-0.333333 52:0.5 53:-0.5 54:-0.6 55:-1 56:-1 57:-1 58:-1 59:-1 60:-1 61:-1 62:-1 63:-0.333333 64:-1 65:-0.2 66:0.6 67:-0.111111 68:-0.555556 69:0.2 70:-0.714286 72:1 78:0.5 79:1 80:1 89:-0.5 90:1 91:1 96:1 104:1 
0.3742144796742745 1:0.333333 2:-0.333333 3:-0.25 4:-0.333333 5:-0.333333 6:-0.333333 7:-0.333333 8:0.333333 9:-0.25 10:-0.333333 11:-0.333333 12:0.333333 13:-0.333333 14:-0.6 15:-0.5 16:-0.5 17:-0.428571 18:-0.666667 19:0.333333 20:-0.333333 22:1 23:-0.333333 24:-1 25:-0.6 26:-1 27:-0.333333 28:-1 29:-1 30:-1 31:-0.333333 32:-1 33:-1 34:-1 35:-0.333333 36:-1 37:-1 38:-0.25 39:-1 40:-0.333333 41:-1 42:-0.2 43:-0.5 44:-0.333333 45:-0.333333 46:-0.333333 47:-0.333333 48:-0.5 49:-1 50:-0.333333 51:-0.5 52:-0.5 53:-0.5 54:-0.6 55:-1 56:-1 57:-1 58:-1 59:-1 60:-1 61:-0.333333 62:-1 63:-1 64:-1 65:-1 66:-1 67:-0.555556 68:-0.555556 69:-0.2 70:-0.428571 72:1 73:1 78:-0.5 79:1 81:1 89:-0.5 92:1 104:1 
0.7772400493920218 1:-0.333333 2:-0.333333 3:-0.25 4:-0.333333 5:-0.333333 6:-0.333333 7:-0.333333 8:-0.777778 9:-1 10:-0.333333 11:-0.333333 12:-0.333333 13:-0.333333 14:-0.6 15:-0.5 16:-0.5 17:-0.714286 18:-0.666667 19:0.333333 20:-1 23:-0.333333 24:-1 25:-0.6 26:-1 27:-0.333333 28:-1 29:-1 30:-1 31:-1 32:-1 33:-1 34:-1 35:-0.333333 36:-0.333333 37:-1 38:-1 39:-1 40:-0.333333 41:-1 42:-0.6 43:-0.5 44:0.333333 45:1 46:-0.333333 47:-0.333333 48:-0.5 49:-1 50:-0.333333 51:-0.5 52:-0.5 53:-0.5 54:-0.6 55:-0.333333 56:-1 57:-1 58:-1 59:-1 60:-1 61:-0.333333 62:-1 63:-0.333333 64:-1 65:-0.2 66:0.6 67:0.111111 68:-0.777778 69:0.6 70:0.142857 72:1 78:0.5 79:1 80:1 86:1 89:-0.5 90:1 104:1 
0.8542398979641427 1:0.777778 2:-0.111111 4:-0.333333 5:-0.333333 6:-0.333333 7:-0.333333 8:0.777778 9:-0.25 10:-0.333333 11:0.333333 12:0.333333 13:0.333333 14:-0.6 15:-0.5 16:-0.5 17:-0.142857 18:-0.333333 19:0.333333 20:-0.333333 21:1 22:1 23:-0.333333 24:-1 25:-0.6 26:-1 27:-0.333333 28:-0.333333 29:-1 30:-0.333333 31:-0.333333 32:-1 33:-0.333333 34:-1 35:-1 36:-0.333333 37:-1 38:-1 39:-0.25 40:-0.333333 41:-1 42:-0.2 44:-0.333333 45:-0.333333 46:0.333333 47:-0.333333 48:-0.5 49:-1 50:-0.333333 51:-0.5 52:-0.5 53:-0.5 54:-0.6 55:-1 56:-1 58:-0.333333 59:-1 60:-1 61:-0.333333 62:-1 63:-1 64:-1 65:-1 66:-1 67:-0.555556 68:-0.555556 69:0.6 70:0.714286 71:1 74:1 78:-0.5 79:1 81:1 89:-0.5 90:1 104:1 
1.353441883203425 1:0.555556 2:-0.333333 3:-0.5 4:-0.333333 5:-0.333333 6:-0.333333 7:-0.333333 8:-0.777778 9:-1 10:-0.333333 11:-0.333333 12:-0.333333 13:-0.333333 14:-0.2 15:-1 16:0.5 17:-0.428571 18:-0.666667 19:-1 20:-1 23:-0.333333 24:-1 25:-0.6 26:-1 27:0.111111 28:-1 29:0.111111 30:-1 31:-1 32:-1 33:-1 34:-1 35:-0.333333 36:0.111111 37:-1 38:-1 39:-1 40:-1 41:-1 42:0.2 43:-1 44:-0.333333 45:1 46:0.333333 47:-0.333333 48:-1 49:1 50:-0.333333 51:-0.5 52:-0.5 53:-0.5 54:-0.2 55:-0.333333 56:-1 57:-1 58:-1 59:-1 60:-1 61:-1 62:-1 63:-1 64:-1 65:-0.2 66:-0.2 67:-0.555556 68:-0.555556 69:-0.6 70:0.714286 72:1 78:-0.5 79:1 80:1 89:-0.5 90:1 104:1 
1.210885786864277 1:-0.777778 2:-1 3:-1 4:-1 5:-1 6:-1 7:-1 8:0.333333 10:1 11:-0.333333 12:-0.333333 13:0.333333 14:-0.6 15:-0.5 16:0.5 17:-0.714286 18:-0.666667 19:-0.333333 20:-0.333333 23:-0.333333 24:-1 25:-0.6 27:-0.555556 28:-1 29:-0.777778 30:-1 31:-1 32:-0.777778 33:-0.555556 34:-0.555556 35:-1 36:-1 37:-1 38:-1 39:-1 40:-0.333333 41:-1 42:-0.2 43:1 44:-0.333333 45:-0.333333 46:-0.333333 47:-0.333333 48:-0.5 49:-0.333333 50:-0.333333 51:-0.5 52:-0.5 53:-0.5 54:0.2 55:-1 56:-1 57:-1 58:-1 59:-1 60:-1 61:-1 62:-1 63:-0.555556 64:-1 65:-0.2 66:0.2 67:1 68:-0.777778 69:-0.2 70:0.142857 78:-0.5 79:1 81:1 89:-0.5 90:1 104:1 
0.7365285535726964 1:-0.777778 2:-1 3:-1 4:-1 5:-1 6:-1 7:-1 8:-0.777778 9:-1 10:-1 11:-1 12:-1 13:-1 14:-0.6 15:0.5 16:-0.5 17:-0.428571 18:-0.333333 19:-0.333333 20:-0.333333 23:-0.333333 24:-1 25:-0.6 27:0.333333 28:-0.555556 29:-1 30:-0.333333 31:-0.333333 32:-1 33:-0.555556 34:-0.333333 35:-1 36:-1 37:-1 38:-1 39:-1 40:-1 41:-1 42:-0.2 44:-0.333333 45:-0.333333 46:-0.333333 47:-0.333333 48:-1 49:-1 50:0.333333 51:-0.5 52:-0.5 53:-0.5 54:-0.6 55:-0.777778 56:-1 57:-0.333333 58:-0.333333 59:-1 60:-1 61:-0.555556 62:-1 63:-0.333333 64:-1 65:-0.2 66:-0.2 67:-0.111111 68:-0.555556 69:0.2 70:-0.714286 72:1 73:1 79:1 87:1 89:-0.5 93:1 99:1 104:1 
0.2885281697798935 1:0.777778 2:-0.333333 4:1 5:-0.333333 6:0.333333 7:-0.333333 8:0.777778 9:-0.5 10:-0.333333 11:-0.333333 12:-0.333333 13:-0.333333 14:-0.6 15:-0.5 17:-0.714286 18:-0.666667 19:0.333333 20:-0.333333 23:-0.333333 24:-1 25:-0.6 27:0.111111 28:-1 29:-1 30:-1 31:-1 32:-1 33:-1 34:-0.555556 35:-1 36:-1 37:-0.333333 38:-1 39:-1 40:-1 41:-1 42:-1 43:-0.5 44:-0.333333 45:-0.333333 46:-0.333333 47:-0.333333 48:-0.5 49:-0.333333 50:-0.333333 51:-0.5 52:-0.5 53:-0.5 54:-0.6 55:-0.333333 56:-1 57:-1 58:-1 59:-1 60:-1 61:-1 62:-1 63:-1 64:-1 65:-1 66:-1 67:-0.111111 68:-0.555556 69:0.6 70:-0.428571 72:1 78:-0.5 79:1 81:1 89:-0.5 92:1 104:1 
2 1:-0.777778 2:-1 3:-1 4:-1 5:-1 6:-1 7:-1 8:-0.777778 9:-1 10:-1 11:-1 12:-1 13:-1 14:-0.6 15:-0.5 16:-0.5 17:-0.714286 18:0.333333 19:-0.333333 20:0.333333 23:-0.333333 24:-1 25:-0.6 27:-1 28:-1 29:-0.333333 30:-1 31:-1 32:-1 33:-1 34:-1 35:-1 36:-1 37:-1 38:-1 39:-1 40:-1 41:-1 42:-0.6 43:-0.5 44:-0.333333 45:-0.333333 46:-0.333333 47:-0.333333 48:-0.5 49:-0.333333 50:-0.333333 51:-0.5 52:-0.5 53:-0.5 54:-0.6 55:-1 56:-1 57:-1 58:-1 59:-1 60:-1 61:-1 62:-1 63:-1 64:-1 65:-1 66:-1 67:-0.111111 68:-0.555556 69:0.2 70:-0.428571 78:-0.5 79:1 87:1 89:0.5 92:1 104:1 
1.001812880980865 1:0.555556 2:0.111111 4:-0.333333 5:-0.333333 6:-0.333333 7:-0.333333 8:0.555556 9:-0.25 10:-0.333333 11:-0.333333 12:-0.333333 13:-0.333333 14:-0.6 15:-0.5 16:-0.5 17:-0.714286 18:-0.333333 19:0.333333 20:-0.333333 21:1 22:1 23:-0.333333 24:-1 25:-0.6 27:-0.333333 28:-1 29:-1 30:-1 31:-1 32:-1 33:-1 34:0.111111 35:-1 36:-1 37:-1 38:-1 39:-1 40:-1 41:-1 42:-0.6 43:-0.5 44:-0.333333 45:-0.333333 46:-0.333333 47:-0.333333 48:-0.5 49:-0.333333 50:-0.333333 51:-0.5 52:-0.5 53:-0.5 54:-0.6 55:-1 56:-1 57:-1 58:-1 59:-1 60:-1 61:-0.333333 62:-1 63:0.111111 64:-1 65:-1 66:-1 67:-0.111111 68:-0.555556 69:0.2 70:-0.142857 72:1 78:-0.5 79:1 87:1 89:-0.5 92:1 104:1 
0.7842872631216897 1:-0.555556 2:-0.333333 3:-0.25 4:-0.333333 5:-0.333333 6:-0.333333 7:-0.333333 8:-0.777778 9:-1 10:-1 11:-1 12:-1 13:-1 14:-0.6 15:-0.5 16:-0.5 17:-0.428571 18:-0.666667 19:0.333333 20:-0.333333 23:-0.333333 24:-1 25:-0.6 27:-1 28:-1 29:-1 30:-0.333333 31:-1 32:-1 33:-1 34:-1 35:-1 36:-1 37:-1 38:-1 39:-1 40:-0.333333 41:-1 42:-0.6 43:0.5 44:0.333333 45:-0.333333 46:-0.333333 47:-0.333333 48:-0.5 49:-0.333333 50:-0.333333 51:-0.5 52:-0.5 53:-0.5 54:0.2 55:-1 56:-1 57:-1 58:-0.333333 59:-1 60:-1 61:-1 62:-1 63:-1 64:-1 65:-1 66:-1 67:-0.111111 68:-0.555556 69:-0.6 70:-0.428571 72:1 78:-0.5 79:1 81:1 89:-0.5 92:1 104:1 
1.083542172657582 1:0.111111 2:-0.333333 3:-0.5 4:-0.333333 5:-0.333333 6:-0.333333 7:-0.333333 8:-0.777778 9:-1 10:-1 11:-1 12:-1 13:-1 14:-0.6 15:-0.5 16:0.5 17:-0.428571 18:-0.333333 19:0.333333 20:-0.333333 22:1 23:-0.333333 24:-1 25:-0.6 27:-0.333333 28:-0.333333 29:-0.333333 30:-0.333333 31:0.111111 32:-0.333333 33:0.111111 34:-1 35:-0.333333 36:-0.333333 37:-1 38:-1 39:-1 40:-0.333333 41:-1 42:-0.6 43:-0.5 44:0.333333 45:-0.333333 46:-0.333333 47:1 48:-1 49:-1 50:1 51:-0.5 52:-0.5 53:-0.5 54:-0.2 55:-0.333333 56:-1 57:-1 58:-1 59:-1 60:-1 61:-1 62:-1 63:-1 64:-1 65:-1 66:-1 67:-0.111111 68:-0.555556 69:0.6 70:-1 72:1 78:-0.5 79:1 80:1 89:-0.5 92:1 104:1 
2 1:-0.777778 2:-1 3:-0.75 4:-0.333333 5:-0.333333 6:-0.333333 7:-0.333333 8:-0.777778 9:-0.75 10:-0.333333 11:-0.333333 12:-0.333333 13:-0.333333 14:-0.6 15:-0.5 16:-0.5 17:-0.428571 18:-0.666667 19:0.333333 20:-0.333333 23:-0.333333 24:-1 25:-0.6 27:-1 28:-1 29:-1 30:-0.333333 31:-1 32:-1 33:-1 34:-0.333333 35:-1 36:-1 37:-1 38:-1 39:-0.25 40:-0.333333 41:-1 42:-0.6 43:-0.5 44:-0.333333 45:-0.333333 46:-0.333333 47:-0.333333 48:-0.5 49:-0.333333 50:-0.333333 51:-0.5 52:-0.5 53:-0.5 54:-0.6 55:-1 56:-1 57:-1 58:-1 59:-1 60:-1 61:-1 62:-1 63:-1 64:-1 65:-1 66:-1 67:-0.777778 68:-0.777778 69:-0.2 70:-1 76:1 78:-0.5 79:1 80:1 87:1 89:-0.5 92:1 104:1 
1.12532679174407 1:-0.555556 2:-0.333333 3:-0.25 4:-0.333333 5:-0.333333 6:-0.333333 7:-0.333333 8:-0.777778 9:-1 10:-1 11:-1 12:-1 13:-1 14:-0.6 16:-0.5 17:-0.714286 18:-0.666667 19:0.333333 20:-0.333333 23:-0.333333 24:-1 25:-0.6 27:-1 28:-0.333333 29:-1 30:-1 31:-1 32:-1 33:-1 34:-0.333333 35:-1 36:-1 37:-1 38:-1 39:-1 40:-1 41:-1 42:-0.6 43:-0.5 44:0.333333 45:-0.333333 46:0.333333 47:-0.333333 48:-1 49:-1 50:-0.333333 51:-0.5 52:-0.5 53:-0.5 54:-0.6 55:-1 56:-1 57:-1 58:-1 59:-1 60:-1 61:-1 62:-1 63:-1 64:-1 65:-1 66:-1 67:-0.111111 68:-0.555556 69:0.2 70:-1 72:1 78:-0.5 79:1 80:1 87:1 89:-0.5 92:1 104:1 
1.03561063578682 1:-0.777778 2:-1 3:-1 4:-1 5:-1 6:-1 7:-1 8:-0.777778 9:-1 10:-1 11:-1 12:-1 13:-1 14:-0.6 15:-0.5 16:-0.5 17:-0.428571 18:-0.666667 19:0.333333 20:-0.333333 23:-0.333333 24:-1 25:-0.6 27:0.777778 28:-1 29:-0.777778 30:-1 31:1 32:-0.777778 33:-0.333333 34:-0.111111 35:-0.777778 36:1 37:0.111111 38:1 39:-0.75 40:-0.555556 41:-1 42:-1 43:-0.5 44:-0.333333 45:-0.333333 46:1 47:0.333333 48:-1 49:-1 50:-0.333333 51:-0.5 52:-0.5 53:-0.5 54:0.6 55:0.777778 56:-0.5 57:-1 58:-1 59:-1 60:-1 61:-1 62:-1 63:-1 64:0.777778 65:0.2 66:0.6 67:-0.555556 68:-0.777778 69:-0.2 70:-0.142857 74:1 78:-0.5 79:1 80:1 87:1 90:1 101:1 104:1 
1.287942095067224 1:0.333333 2:-0.333333 4:-0.333333 5:-0.333333 6:-0.333333 7:-0.333333 8:-0.777778 9:-1 10:-0.333333 11:-0.333333 12:-0.333333 13:-0.333333 14:-0.6 15:0.5 16:-0.5 17:-0.142857 18:-0.333333 19:-0.333333 20:-0.333333 21:1 22:1 23:-0.333333 24:-1 25:-0.6 27:-0.333333 28:-0.333333 29:-0.333333 30:-0.333333 31:-1 32:-1 33:-1 34:0.111111 35:0.555556 36:-0.333333 37:-1 38:-0.25 39:-1 40:-0.333333 41:-1 42:-0.2 43:-0.5 44:-0.333333 45:-0.333333 46:-0.333333 47:1 48:-1 49:-1 50:-0.333333 51:-0.5 52:-0.5 53:-0.5 54:-0.6 55:-1 56:-1 57:-1 58:-1 59:-1 60:-1 61:-1 62:-1 63:-1 64:-1 65:-1 66:-1 67:0.111111 68:-0.777778 69:0.6 70:-0.428571 72:1 78:-0.5 79:1 81:1 89:-0.5 92:1 104:1 
1.921178520796949 1:-0.777778 2:-1 3:-1 4:-1 5:-1 6:-1 7:-1 8:-0.777778 9:-1 10:-1 11:-1 12:-1 13:-1 14:-0.6 15:-0.5 16:0.5 17:-0.714286 18:-0.666667 19:-0.333333 20:-0.333333 23:-0.333333 24:-1 25:-0.6 27:-1 28:-1 29:-1 30:-1 31:-1 32:-1 33:-1 34:-0.111111 35:-1 36:-1 37:-1 38:-1 39:-1 40:-1 41:-1 42:-0.2 43:-0.5 44:-0.333333 45:-0.333333 46:-0.333333 47:-0.333333 48:-0.5 49:-0.333333 50:-0.333333 51:-0.5 52:-0.5 54:-0.6 55:-1 56:-1 57:-1 58:-1 59:-1 60:-1 61:-1 62:-0.5 63:-0.555556 64:-1 65:-0.2 66:0.2 67:0.777778 68:-0.555556 69:0.6 70:-0.714286 71:1 72:1 73:1 78:-0.5 79:1 87:1 89:0.5 91:1 92:1 99:1 104:1 
0.6197790865975672 1:-0.777778 2:-1 3:-1 4:-1 5:-1 6:-1 7:-1 8:-0.333333 10:-0.333333 11:-0.333333 12:0.333333 13:0.333333 14:-0.2 15:-0.5 16:-0.5 17:-0.714286 18:-0.666667 19:-0.333333 20:-0.333333 23:-0.333333 24:-1 25:-0.6 27:0.333333 28:-0.111111 29:-1 30:-1 31:-0.333333 32:-0.555556 33:0.111111 34:0.111111 35:-1 36:-1 37:-1 38:-0.25 39:-1 40:-1 41:-1 42:-0.6 43:-0.5 44:-0.333333 45:-0.333333 46:-0.333333 47:-0.333333 48:-1 49:-1 50:-0.333333 51:-0.5 52:-0.5 53:-0.5 54:-0.6 55:-1 56:-1 57:-1 58:-1 59:-1 60:-1 61:-1 62:-1 63:-1 64:-1 65:-1 66:-1 67:-0.111111 68:-0.555556 69:0.2 70:-0.428571 71:1 78:-0.5 79:1 81:1 89:-0.5 93:1 99:1 104:1 
1.031287210139241 1:0.555556 2:1 4:-1 5:1 6:0.333333 7:0.333333 8:-0.777778 9:-0.75 10:-0.333333 11:-0.333333 12:0.333333 13:0.333333 14:-0.2 15:-0.5 16:-0.5 17:-0.142857 18:-0.333333 19:-0.333333 20:-0.333333 23:-0.333333 24:-1 25:-0.6 27:1 28:1 29:-0.777778 30:-0.777778 31:-1 32:-0.555556 33:-1 34:0.777778 35:0.777778 36:-1 37:0.777778 38:1 39:-0.75 40:0.777778 41:-0.6 42:0.6 44:0.333333 45:-0.333333 46:-0.333333 47:-0.333333 48:-1 49:-1 50:-0.333333 51:-0.5 52:-0.5 53:-0.5 54:0.2 55:0.555556 56:1 57:0.666667 58:1 59:-1 60:1 61:-0.555556 62:-1 63:-0.555556 64:-0.333333 65:-0.6 66:-0.6 67:-0.555556 68:-0.555556 69:-0.6 70:-0.714286 71:1 78:-0.5 79:1 81:1 89:-0.5 93:1 101:1 104:1 
1.434438527872439 1:1 2:-0.555556 4:-0.333333 5:1 6:0.333333 7:1 8:1 9:-0.25 10:-0.333333 11:-0.333333 12:0.333333 13:0.333333 14:-0.6 15:-0.5 16:-0.5 17:-0.428571 18:-0.333333 19:-0.333333 20:0.333333 23:-0.333333 24:-1 25:-0.6 27:-1 28:-1 29:-1 30:-1 31:-1 32:-1 33:-1 34:-1 35:-1 36:-1 37:-1 38:-1 39:-1 40:-0.333333 41:-0.6 42:-0.2 43:-0.5 44:-0.333333 45:-0.333333 46:-0.333333 47:-0.333333 48:-0.5 49:-0.333333 50:-0.333333 51:-0.5 52:-0.5 53:-0.5 54:-0.6 55:-1 56:-1 57:-1 58:-1 59:-1 60:-1 61:-1 62:-1 63:-1 64:-1 65:-1 66:-1 67:-0.111111 68:-0.555556 69:0.2 70:0.714286 71:1 79:1 87:1 89:-0.5 90:1 92:1 104:1 
1.020232603298163 1:0.333333 2:0.555556 3:-0.25 4:-1 5:-0.333333 6:0.333333 7:1 8:-0.777778 9:-1 10:-0.333333 11:-0.333333 12:-0.333333 13:-0.333333 14:-0.6 15:-0.5 16:-0.5 17:-0.714286 18:-0.666667 19:0.333333 20:-0.333333 23:-0.333333 24:-1 25:-0.6 26:-1 27:0.777778 28:0.777778 29:-1 30:-1 31:0.777778 32:-0.555556 33:1 34:-1 35:-1 36:-1 37:-1 38:-1 39:-1 40:-1 41:-1 42:-0.2 43:-0.5 44:-0.333333 45:-0.333333 46:-0.333333 47:-0.333333 48:-1 49:-1 50:-0.333333 51:-0.5 52:-0.5 53:-0.5 54:-0.6 55:0.777778 56:-1 57:-1 58:-1 59:-1 60:-1 61:-1 62:-1 63:-1 64:-0.777778 65:-1 66:-1 67:-0.555556 68:-0.555556 69:-0.2 70:-0.428571 71:1 78:-0.5 79:1 80:1 89:-0.5 90:-1 91:-1 92:-1 93:-1 94:-1 95:-1 96:-1 97:-1 98:-1 99:-1 100:-1 101:-1 102:-1 103:-1 104:-1 
1.28933502401397 1:0.555556 2:0.555556 3:-1 4:-0.333333 5:-0.333333 6:0.333333 7:0.333333 8:0.555556 9:0.75 10:-0.333333 11:-0.333333 12:0.333333 13:0.333333 14:-0.6 15:-0.5 16:0.5 17:-0.428571 18:-0.666667 19:-0.333333 20:0.333333 23:-0.333333 24:-1 25:-0.6 27:0.111111 28:-1 29:0.111111 30:-0.111111 31:-0.111111 32:-0.333333 33:-0.111111 34:0.111111 35:0.111111 36:-1 37:-1 40:-1 41:-1 42:-0.2 43:-0.5 44:-0.333333 45:-0.333333 46:-0.333333 47:-0.333333 48:-1 49:-1 50:1 51:-0.5 52:-0.5 53:-0.5 54:-0.2 55:-1 56:-0.5 57:-1 58:-1 59:-1 60:-1 61:-0.111111 62:-1 63:-1 64:-1 65:-1 66:-1 67:-0.111111 68:-0.555556 69:0.2 70:-0.428571 71:1 79:1 87:1 89:0.5 91:1 92:1 104:1 
1.405948033336557 1:-0.777778 2:-1 3:-0.75 4:-0.333333 5:-0.333333 6:-0.333333 7:-0.333333 8:-0.777778 9:-1 10:-0.333333 11:-0.333333 12:-0.333333 13:0.333333 14:-0.2 15:-0.5 16:-0.5 17:-0.428571 18:-0.333333 19:-0.333333 20:-0.333333 21:1 23:-0.333333 24:-1 25:-0.6 26:-1 27:0.111111 28:-1 29:-0.333333 30:-0.333333 31:-1 32:-0.333333 33:-1 34:-0.333333 35:-1 36:-0.333333 37:-1 38:-0.25 39:-0.25 40:-0.333333 41:-1 42:-0.6 44:0.333333 45:0.333333 46:-0.333333 47:-0.333333 48:-1 49:-1 50:-0.333333 51:-0.5 52:-0.5 53:-0.5 54:-0.6 55:-1 56:-1 57:-1 58:-1 59:-1 60:-1 61:-1 62:-1 63:-1 64:-1 65:-1 66:-1 67:-0.111111 68:-0.777778 69:0.2 70:0.714286 77:1 78:-0.5 79:1 81:1 89:-0.5 92:1 104:1 
0.8039176275368265 1:0.111111 2:-0.333333 3:-0.25 4:-0.333333 5:-0.333333 6:-0.333333 7:-0.333333 8:-0.777778 9:-1 10:-0.333333 11:-0.333333 12:-0.333333 13:-0.333333 14:-0.6 15:-0.5 16:-0.5 17:-0.714286 18:-0.666667 19:0.333333 20:-1 23:-0.333333 24:-1 25:-0.6 26:-1 27:-0.333333 28:-0.333333 29:-1 30:-0.333333 31:-0.333333 32:-1 33:-0.333333 34:-0.333333 35:-1 36:-1 37:-1 38:-1 39:-0.25 40:-0.333333 41:-1 42:-0.6 43:-0.5 44:-0.333333 45:-0.333333 46:-0.333333 47:-0.333333 48:-1 49:0.333333 50:-0.333333 51:-0.5 52:-0.5 53:-0.5 54:0.6 55:-1 56:-0.25 57:-1 58:-1 59:-1 60:-1 61:-1 62:-1 63:-1 64:-1 65:-1 66:-1 67:-0.111111 68:-0.555556 69:-0.2 70:-0.428571 72:1 73:1 78:-0.5 79:1 81:1 89:-0.5 92:1 104:1 
1.009713515216977 1:0.555556 2:-0.333333 3:-0.25 4:-0.333333 5:1 6:-0.333333 7:-0.333333 8:0.777778 9:0.25 10:1 11:0.333333 12:0.333333 13:0.333333 14:-0.6 15:-0.5 17:-0.714286 18:-0.666667 19:0.333333 20:-1 23:-0.333333 24:-1 25:-0.6 27:0.777778 28:0.777778 29:-0.333333 30:-1 31:-1 32:-0.777778 33:-1 34:-0.333333 35:-1 36:-0.777778 37:-1 38:-1 39:-1 40:0.555556 41:-1 42:-0.2 44:0.333333 45:-0.333333 46:-0.333333 47:-0.333333 48:-0.5 49:0.333333 50:-0.333333 51:-0.5 52:-0.5 53:-0.5 54:-0.6 55:0.777778 56:-1 57:-1 58:-1 59:-1 60:0.25 61:-1 62:-1 63:-1 64:-1 65:-1 66:-1 67:-0.111111 68:-0.777778 69:-0.2 70:-0.142857 71:1 78:-0.5 79:1 81:1 89:-0.5 95:1 104:1 
1.333219282480763 1:-0.777778 2:-1 3:-0.75 4:-0.333333 5:-0.333333 6:-0.333333 7:-0.333333 8:0.555556 9:-0.25 10:-0.333333 11:-0.333333 12:-0.333333 13:-0.333333 14:-0.6 15:-0.5 16:-0.5 17:-0.428571 18:-0.666667 19:0.333333 20:-0.333333 23:-0.333333 24:-1 25:-0.6 26:-1 27:-1 28:-1 29:-1 30:-1 31:-1 32:-1 33:-1 34:-1 35:-1 36:-1 37:-1 38:-1 39:-1 40:-1 41:-1 42:-0.2 43:-0.5 44:-0.333333 45:-0.333333 46:-0.333333 47:-0.333333 48:-1 49:0.333333 50:-0.333333 51:-0.5 52:-0.5 53:-0.5 54:-0.6 55:-1 56:-1 57:-1 58:-1 59:-1 60:-0.25 61:-1 62:-1 63:-1 64:-1 65:-1 66:-1 67:-0.555556 68:-0.555556 69:-0.2 70:-0.142857 72:1 78:-0.5 79:1 80:1 92:1 104:1 
1.020480320429549 1:0.777778 2:-0.333333 3:-0.25 4:-0.333333 5:-0.333333 6:0.333333 7:1 8:-0.777778 9:-1 10:-0.333333 11:-0.333333 12:-0.333333 13:-0.333333 14:-0.6 15:-0.5 16:0.5 17:-0.428571 18:-0.666667 19:-0.333333 20:-0.333333 21:1 22:1 23:0.333333 24:-0.333333 25:-0.2 27:0.555556 28:-1 29:0.333333 30:0.333333 31:0.333333 32:0.333333 33:-1 34:0.111111 35:-1 36:-1 37:0.111111 38:0.25 39:0.25 40:-0.111111 41:-1 42:-0.6 44:0.333333 45:-0.333333 46:-0.333333 47:-0.333333 48:-0.5 49:-0.333333 50:-0.333333 51:-0.5 52:-0.5 53:-0.5 54:-0.6 55:-0.111111 56:-1 57:-1 58:-1 59:-1 60:-1 61:-1 62:-1 63:-0.333333 64:-1 65:-0.2 66:0.2 67:-0.555556 68:-0.555556 69:-0.2 70:-0.428571 71:1 78:-0.5 79:1 87:1 89:0.5 91:1 104:1 
1.662759038032564 1:-0.777778 2:-1 3:-0.75 4:-0.333333 5:-0.333333 6:-0.333333 7:-0.333333 8:-0.777778 9:-1 10:-0.333333 11:-0.333333 12:-0.333333 13:-0.333333 14:-0.6 15:-0.5 17:-0.714286 18:-0.666667 19:-1 20:-0.333333 21:1 22:1 23:-1 24:-1 25:-0.6 26:-1 27:-1 28:-1 29:-1 30:-1 31:-1 32:-1 33:-1 34:-1 35:-1 36:-1 37:-1 38:-1 39:-1 40:-1 41:-1 42:-0.6 43:-0.5 44:-0.333333 45:-0.333333 46:-0.333333 47:-0.333333 48:-1 49:-1 50:-0.333333 51:-0.5 52:-0.5 53:-0.5 54:-0.2 55:-1 56:-1 57:-1 58:-1 59:-1 60:-1 61:-1 62:-1 63:-1 64:-1 65:-1 66:-1 67:-0.111111 68:-0.555556 69:0.6 70:-0.142857 72:1 73:1 78:-0.5 79:1 87:1 89:-0.5 92:1 104:1 
0.8454569036840102 1:-0.777778 2:-1 3:-0.75 4:-0.333333 5:-0.333333 6:-0.333333 7:-0.333333 8:0.111111 9:-0.25 10:-0.333333 11:-0.333333 12:-0.333333 13:-0.333333 14:-0.2 15:-0.5 16:0.5 17:-0.428571 18:-0.666667 19:0.333333 20:-0.333333 23:-0.333333 24:-1 25:-0.6 26:-1 27:-0.333333 28:-1 29:-0.333333 30:-1 31:-1 32:-1 33:-1 34:-0.333333 35:-1 36:-1 37:-1 38:-1 39:-0.25 40:-0.333333 41:-1 42:-0.6 43:-0.5 44:-0.333333 45:-0.333333 46:-0.333333 47:-1 48:-1 49:-1 50:-1 51:-0.5 52:-0.5 53:-0.5 54:-0.6 55:-1 56:-1 58:-0.333333 59:-1 60:-1 61:-1 62:-1 63:-1 64:-1 65:-0.6 66:-0.6 67:-0.333333 68:-0.555556 69:0.2 70:-0.428571 72:1 78:-0.5 79:-1 80:-1 81:-1 82:-1 83:-1 84:-1 85:-1 86:-1 87:-1 88:-1 89:-0.5 90:1 92:1 104:1 
2 1:-1 2:-1 3:-1 4:-1 5:-1 6:-1 7:-1 8:-1 9:-1 10:-1 11:-1 12:-1 13:-1 14:-1 15:-1 16:-1 17:-1 18:-1 19:-1 20:-1 21:-1 22:-1 23:-1 24:-1 25:-1 26:-1 27:-1 28:-1 29:-1 30:-1 31:-1 32:-1 33:-1 34:-1 35:-1 36:-1 37:-1 38:-1 39:-1 40:-1 41:-1 42:-1 43:-1 44:-1 45:-1 46:-1 47:-1 48:-1 49:-1 50:-1 51:-1 52:-1 53:-1 54:-1 55:-1 56:-1 57:-1 58:-1 59:-1 60:-1 61:-1 62:-1 63:-1 64:-1 65:-1 66:-1 67:-1 68:-1 69:-1 70:-1 71:-1 72:-1 73:-1 74:-1 75:-1 76:-1 77:-1 78:-1 79:-1 80:-1 81:-1 82:-1 83:-1 84:-1 85:-1 86:-1 87:-1 88:-1 89:-1 90:-1 91:-1 92:-1 93:-1 94:-1 95:-1 96:-1 97:-1 98:-1 99:-1 100:-1 101:-1 102:-1 103:-1 104:-1 
2 1:-1 2:-1 3:-1 4:-1 5:-1 6:-1 7:-1 8:-1 9:-1 10:-1 11:-1 12:-1 13:-1 14:-1 15:-1 16:-1 17:-1 18:-1 19:-1 20:-1 21:-1 22:-1 23:-1 24:-1 25:-1 26:-1 27:-1 28:-1 29:-1 30:-1 31:-1 32:-1 33:-1 34:-1 35:-1 36:-1 37:-1 38:-1 39:-1 40:-1 41:-1 42:-1 43:-1 44:-1 45:-1 46:-1 47:-1 48:-1 49:-1 50:-1 51:-1 52:-1 53:-1 54:-1 55:-1 56:-1 57:-1 58:-1 59:-1 60:-1 61:-1 62:-1 63:-1 64:-1 65:-1 66:-1 67:-1 68:-1 69:-1 70:-1 71:-1 72:-1 73:-1 74:-1 75:-1 76:-1 77:-1 78:-1 79:-1 80:-1 81:-1 82:-1 83:-1 84:-1 85:-1 86:-1 87:-1 88:-1 89:-1 90:-1 91:-1 92:-1 93:-1 94:-1 95:-1 96:-1 97:-1 98:-1 99:-1 100:-1 101:-1 102:-1 103:-1 104:-1 
2 1:-1 2:-1 3:-1 4:-1 5:-1 6:-1 7:-1 8:-1 9:-1 10:-1 11:-1 12:-1 13:-1 14:-1 15:-1 16:-1 17:-1 18:-1 19:-1 20:-1 21:-1 22:-1 23:-1 24:-1 25:-1 26:-1 27:-1 28:-1 29:-1 30:-1 31:-1 32:-1 33:-1 34:-1 35:-1 36:-1 37:-1 38:-1 39:-1 40:-1 41:-1 42:-1 43:-1 44:-1 45:-1 46:-1 47:-1 48:-1 49:-1 50:-1 51:-1 52:-1 53:-1 54:-1 55:-1 56:-1 57:-1 58:-1 59:-1 60:-1 61:-1 62:-1 63:-1 64:-1 65:-1 66:-1 67:-1 68:-1 69:-1 70:-1 71:-1 72:-1 73:-1 74:-1 75:-1 76:-1 77:-1 78:-1 79:-1 80:-1 81:-1 82:-1 83:-1 84:-1 85:-1 86:-1 87:-1 88:-1 89:-1 90:-1 91:-1 92:-1 93:-1 94:-1 95:-1 96:-1 97:-1 98:-1 99:-1 100:-1 101:-1 102:-1 103:-1 104:-1 
2 1:-1 2:-1 3:-1 4:-1 5:-1 6:-1 7:-1 8:-1 9:-1 10:-1 11:-1 12:-1 13:-1 14:-1 15:-1 16:-1 17:-1 18:-1 19:-1 20:-1 21:-1 22:-1 23:-1 24:-1 25:-1 26:-1 27:-1 28:-1 29:-1 30:-1 31:-1 32:-1 33:-1 34:-1 35:-1 36:-1 37:-1 38:-1 39:-1 40:-1 41:-1 42:-1 43:-1 44:-1 45:-1 46:-1 47:-1 48:-1 49:-1 50:-1 51:-1 52:-1 53:-1 54:-1 55:-1 56:-1 57:-1 58:-1 59:-1 60:-1 61:-1 62:-1 63:-1 64:-1 65:-1 66:-1 67:-1 68:-1 69:-1 70:-1 71:-1 72:-1 73:-1 74:-1 75:-1 76:-1 77:-1 78:-1 79:-1 80:-1 81:-1 82:-1 83:-1 84:-1 85:-1 86:-1 87:-1 88:-1 89:-1 90:-1 91:-1 92:-1 93:-1 94:-1 95:-1 96:-1 97:-1 98:-1 99:-1 100:-1 101:-1 102:-1 103:-1 104:-1 
0.4027376710260088 1:-0.777778 2:-1 3:-0.75 4:-0.333333 5:-0.333333 6:-0.333333 7:-0.333333 8:-0.777778 9:-1 10:-0.333333 11:-0.333333 12:-0.333333 13:-0.333333 14:-0.6 15:-0.5 16:0.5 17:-0.142857 18:-0.333333 19:-0.333333 20:-0.333333 23:-0.333333 24:-1 25:-0.6 27:0.333333 28:-1 29:-1 30:-1 31:0.111111 32:-1 33:-1 34:-0.111111 35:-1 36:-1 37:-1 38:-1 39:-1 40:-1 41:-1 42:-0.6 43:-0.5 44:-0.333333 45:-0.333333 46:-0.333333 47:-0.333333 48:-1 49:-1 50:-1 51:-0.5 52:-0.5 53:-0.5 54:-0.6 55:-1 56:-1 57:-1 58:-1 59:-1 60:-0.25 61:-1 62:-1 63:-1 64:-1 65:-0.2 66:-1 67:-0.111111 68:-0.777778 69:-0.2 70:-0.142857 71:1 78:-0.5 79:1 87:1 89:0.5 91:1 99:1 104:1 
0.7190121888515736 1:0.777778 2:-0.555556 3:-0.25 4:-0.333333 5:-0.333333 6:-0.333333 7:-0.333333 8:0.777778 9:-0.25 10:1 11:0.333333 12:0.333333 13:0.333333 14:-0.6 15:-0.5 16:-0.5 17:-0.428571 18:-0.666667 19:-0.333333 20:-0.333333 23:-0.333333 24:-1 25:-0.6 27:0.333333 28:-1 29:-0.333333 30:-0.777778 31:-0.555556 32:-0.777778 33:-1 34:-0.111111 35:-1 36:-1 37:-1 38:-1 39:-1 40:-1 41:-1 42:-0.6 43:1 44:-0.333333 45:-0.333333 46:0.333333 47:-0.333333 48:-1 49:-1 50:-1 51:-0.5 52:-0.5 53:-0.5 54:0.6 55:-1 56:-1 57:-1 58:-1 59:-1 60:-1 61:-0.111111 62:-1 63:-1 64:-1 65:-0.2 66:-0.2 67:-0.555556 68:-0.555556 69:-0.2 70:-0.142857 71:1 78:-0.5 79:1 87:1 89:-0.5 90:1 91:1 104:1 
2 1:-0.777778 2:-1 3:-0.75 4:-0.333333 5:-0.333333 6:-0.333333 7:-0.333333 8:-0.777778 9:-1 10:-1 11:-1 12:-1 13:-1 14:-0.6 15:-0.5 16:0.5 17:-0.714286 18:-0.666667 19:-0.333333 20:0.333333 23:-0.333333 24:-1 25:-0.6 27:-1 28:-1 29:-0.333333 30:-0.111111 31:-0.111111 32:-1 33:-1 34:-1 35:-1 36:-1 37:-1 38:-1 40:-1 41:-1 42:-0.6 43:-0.5 44:-0.333333 45:-0.333333 46:-0.333333 47:-0.333333 48:-1 49:-1 50:-0.333333 51:-0.5 52:-0.5 53:-0.5 54:-0.6 55:-1 56:-1 57:-1 58:-1 59:-1 60:-1 61:-1 62:-1 63:-1 64:-1 65:-1 66:-1 67:-0.111111 68:-0.777778 69:0.2 70:-0.428571 71:1 79:1 81:1 89:-0.5 92:1 104:1 
2 1:-0.777778 2:-1 3:-0.75 4:-0.333333 5:-0.333333 6:-0.333333 7:-0.333333 8:-0.777778 9:-1 10:-0.333333 11:-0.333333 12:-0.333333 13:-0.333333 14:-0.6 15:-0.5 16:-0.5 17:-0.428571 18:-0.666667 19:-0.333333 20:-0.333333 23:-0.333333 24:-1 25:-0.6 27:-0.111111 28:-1 29:-0.111111 30:-0.333333 31:-1 32:-1 33:-1 34:-1 35:-1 36:-1 37:-1 38:-1 39:-1 40:-1 41:-1 42:-0.6 44:-0.333333 45:-0.333333 46:-0.333333 47:-0.333333 48:-1 49:-1 50:-0.333333 51:-0.5 52:-0.5 53:-0.5 54:-0.6 55:-1 56:-1 57:-1 58:-1 59:-1 60:-1 61:-1 62:-1 63:-1 64:-1 65:-1 66:-1 67:-0.333333 68:-0.555556 69:0.2 70:-0.428571 71:1 79:1 80:1 87:1 89:-0.5 90:1 91:1 104:1 
1.13138059376687 1:-0.777778 2:-1 3:-0.75 4:-0.333333 5:-0.333333 6:-0.333333 7:-0.333333 8:-0.777778 9:-1 10:-0.333333 11:-0.333333 12:-0.333333 13:-0.333333 14:-0.6 15:-0.5 16:0.5 17:-0.142857 18:-0.333333 19:-0.333333 20:0.333333 23:-0.333333 24:-0.111111 25:1 27:0.333333 28:-1 29:-1 30:-1 31:-0.111111 32:-0.333333 33:-1 34:-1 35:-1 36:-0.333333 37:-1 38:-1 39:-1 40:-1 41:-1 42:-0.6 43:1 44:-0.333333 45:-0.333333 46:-0.333333 47:-0.333333 48:-0.5 49:-0.333333 50:-0.333333 51:-0.5 52:-0.5 53:-0.5 54:-0.6 55:-1 56:-1 57:-1 58:-1 59:-1 60:-1 61:-0.333333 62:-1 63:-1 64:-1 65:-0.2 66:0.6 67:-0.111111 68:-0.777778 69:-0.2 70:-0.428571 71:1 78:-0.5 79:1 81:1 87:1 89:-0.5 90:1 91:1 99:1 104:1 
0.5420051075973834 1:-0.777778 2:-1 3:-0.75 4:-0.333333 5:-0.333333 6:-0.333333 7:-0.333333 8:-0.555556 9:0.75 10:-0.333333 11:-0.333333 12:0.333333 13:0.333333 14:-0.6 15:-0.5 16:0.5 17:-0.428571 18:-0.666667 19:-0.333333 20:-0.333333 23:-0.333333 24:-1 25:-0.6 27:0.111111 28:-1 29:-1 30:-1 31:-1 32:-1 33:-1 34:-1 35:-1 36:-1 37:-1 38:-1 39:-1 40:-0.333333 41:-1 42:-0.2 43:-0.5 44:-0.333333 45:-0.333333 46:0.333333 47:-0.333333 48:-0.5 49:-1 50:-0.333333 51:-0.5 52:-0.5 53:-0.5 54:-0.6 55:-0.333333 56:-1 57:-1 58:-1 59:-1 60:-1 61:-0.111111 62:-1 63:-1 64:-1 65:-0.2 66:0.6 67:1 68:-0.777778 69:0.2 70:-0.428571 72:1 73:1 79:1 80:1 87:1 89:0.5 90:1 104:1 
1.307365400517551 1:-0.777778 2:-1 3:-0.75 4:-0.333333 5:-0.333333 6:-0.333333 7:-0.333333 8:0.333333 10:-0.333333 11:0.333333 12:0.333333 13:0.333333 14:-0.2 15:-0.5 16:-0.5 17:-0.714286 18:-0.333333 19:-0.333333 20:0.333333 23:-0.333333 24:-1 25:-0.6 27:-1 28:-1 29:-1 30:-1 31:-1 32:-1 33:-1 34:-1 35:0.111111 36:-1 37:-1 38:-1 39:-1 40:-1 41:-1 42:-0.6 43:-0.5 44:-0.333333 45:-0.333333 46:-0.333333 47:-0.333333 48:-0.5 49:-0.333333 50:-0.333333 51:-0.5 52:-0.5 53:-0.5 54:-0.6 55:-1 56:-1 57:-1 58:-1 59:-1 60:-1 61:-1 62:-1 63:-1 64:-1 65:-1 66:-1 67:-0.111111 68:-0.555556 69:0.2 70:0.142857 71:1 78:-0.5 81:1 89:-0.5 90:1 93:1 104:1 
1.25807653726651 1:-0.777778 2:-1 3:-0.75 4:-0.333333 5:-0.333333 6:-0.333333 7:-0.333333 8:1 10:1 11:-0.333333 12:0.333333 13:0.333333 14:-0.2 15:-0.5 16:-0.5 17:-0.714286 18:-0.666667 19:-0.333333 20:0.333333 23:-0.333333 24:-1 25:-0.6 27:0.111111 28:-1 29:-0.111111 30:-1 31:0.111111 32:-0.111111 33:-1 34:-1 35:-0.111111 36:-1 37:-1 38:-1 39:-1 40:-0.333333 41:-1 42:-0.6 43:-0.5 44:-0.333333 45:-0.333333 46:0.333333 47:-0.333333 48:-0.5 49:-0.333333 50:-0.333333 51:-0.5 52:-0.5 53:-0.5 54:-0.6 55:-1 56:-1 57:-1 58:-1 59:-1 60:-1 61:-0.111111 62:-1 63:-1 64:-1 65:-0.6 66:-0.6 67:-0.111111 68:-0.555556 69:-0.2 70:-0.428571 71:1 72:1 81:1 89:-0.5 90:1 92:1 104:1 
0.8208405290350594 1:-0.777778 2:-1 3:-0.75 4:-0.333333 5:-0.333333 6:-0.333333 7:-0.333333 8:-0.777778 9:-1 10:-0.333333 11:-0.333333 12:-0.333333 13:-0.333333 14:-0.6 15:-0.5 16:0.5 17:-0.714286 18:-0.666667 19:-0.333333 20:0.333333 23:-0.333333 24:-1 25:-0.6 27:0.333333 28:-0.333333 29:-1 30:-1 31:-1 32:-1 33:-1 34:0.333333 35:-1 36:-1 37:-1 38:-1 39:-1 40:-1 41:-1 42:-0.6 43:-0.5 44:-0.333333 45:-0.333333 46:0.333333 47:-0.333333 48:-0.5 49:-0.333333 50:-0.333333 51:-0.5 52:-0.5 53:-0.5 54:-0.6 55:-1 56:0.25 57:0.333333 58:-1 59:-1 60:-1 61:-0.111111 62:-1 63:-1 64:-1 65:1 66:1 67:-0.111111 68:-0.555556 69:-0.2 70:-0.428571 71:1 81:1 90:1 91:1 104:1 
1.110396495443144 1:-0.777778 2:-1 3:-0.75 4:-0.333333 5:-0.333333 6:-0.333333 7:-0.333333 8:1 9:-0.5 10:-0.333333 11:-0.333333 12:0.333333 13:0.333333 14:-0.6 15:-0.5 16:0.5 17:-0.714286 18:-0.666667 19:-0.333333 20:0.333333 22:1 23:-0.333333 24:-1 25:-0.6 27:0.111111 28:-1 29:-0.555556 30:-1 31:-1 32:-0.111111 33:-1 34:-0.333333 35:-1 36:-1 37:-1 38:-1 39:-1 40:-0.333333 41:-1 42:-0.6 43:-0.5 44:-0.333333 45:-0.333333 46:0.333333 47:-0.333333 48:-0.5 49:-0.333333 50:-0.333333 51:-0.5 52:-0.5 53:-0.5 54:-0.6 55:-1 56:-1 57:-1 58:-0.111111 59:-1 60:-1 61:-1 62:-1 63:-1 64:-1 65:-1 66:-1 67:0.777778 68:-0.555556 69:0.2 70:-0.142857 71:1 72:1 73:1 79:1 81:1 91:1 92:1 99:1 104:1 
1.370331850467665 1:-0.777778 2:-1 3:-0.75 4:-0.333333 5:-0.333333 6:-0.333333 7:-0.333333 8:-0.777778 9:-1 10:-0.333333 11:-0.333333 12:-0.333333 13:-0.333333 14:-0.6 15:-0.5 16:0.5 17:-0.142857 18:-0.333333 19:-0.333333 20:0.333333 22:1 23:-0.333333 24:-0.111111 25:-0.2 27:0.111111 28:-0.555556 29:-0.333333 30:-0.333333 31:-0.333333 32:-1 33:-0.333333 34:0.111111 35:-1 36:-1 37:-1 38:-1 39:-1 40:-0.333333 41:-1 42:-0.6 43:1 44:-0.333333 45:-0.333333 46:0.333333 47:-0.333333 48:-0.5 49:-0.333333 50:-0.333333 51:-0.5 52:-0.5 53:-0.5 54:0.2 55:-1 56:-1 57:-1 58:-1 59:-1 60:-1 61:-0.111111 62:-1 63:-1 64:-1 65:-1 66:-1 67:-0.555556 68:-0.555556 69:-0.2 70:-0.428571 71:1 77:1 78:0.5 79:1 81:1 89:0.5 92:1 96:1 104:1 
2 1:-0.777778 2:-1 3:-0.75 4:-0.333333 5:-0.333333 6:-0.333333 7:-0.333333 8:-0.777778 9:-1 10:-0.333333 11:-0.333333 12:-0.333333 13:-0.333333 14:-0.6 15:-0.5 16:-0.5 17:-0.714286 18:-0.666667 19:-0.333333 20:0.333333 23:-0.333333 24:-1 25:-0.6 27:-1 28:-1 29:-1 30:-1 31:-0.333333 32:-1 33:-0.333333 34:-1 35:-1 36:-1 37:-1 38:-1 39:-1 40:-0.555556 41:-1 42:-0.6 43:-0.5 44:-0.333333 45:-0.333333 46:-0.333333 47:-0.333333 48:-0.5 49:-0.333333 50:-0.333333 51:-0.5 52:-0.5 53:-0.5 54:-0.2 55:-1 56:-1 57:-1 58:-1 59:-1 60:-1 61:-1 62:-1 63:-1 64:-1 65:-1 66:-1 67:-0.111111 68:-0.555556 69:-0.2 70:-0.428571 71:1 78:-0.5 81:1 89:-0.5 90:1 92:1 104:1 
2 1:-0.777778 2:-1 3:-0.75 4:-0.333333 5:-0.333333 6:-0.333333 7:-0.333333 8:-0.777778 9:-1 10:-0.333333 11:-0.333333 12:-0.333333 13:-0.333333 14:-0.6 15:-0.5 16:-0.5 17:-0.714286 18:-0.666667 19:-0.333333 20:0.333333 23:-0.333333 24:-1 25:-0.6 27:-1 28:-1 29:-1 30:-1 31:-1 32:-1 33:-1 34:-0.111111 35:-1 36:-1 37:-1 38:-1 39:-1 40:-0.555556 41:-1 42:-0.6 44:-0.333333 45:-0.333333 46:-0.333333 47:-0.333333 48:-0.5 49:-0.333333 50:-0.333333 52:0.5 53:-0.5 54:-0.6 55:-1 56:-1 57:-1 58:-1 59:-1 60:-1 61:-1 62:-1 63:-1 64:-1 65:-1 66:-1 67:-0.111111 68:-0.777778 69:-0.2 70:-0.428571 71:1 72:1 79:1 81:1 89:-0.5 90:1 91:1 96:1 104:1 
1.352643684431995 1:-0.333333 2:0.333333 3:0.25 4:-0.333333 5:-0.333333 6:-0.333333 7:1 8:-0.777778 9:-1 10:-1 11:-1 12:-1 13:-1 14:-0.2 15:-0.5 16:-0.5 17:-0.428571 18:-0.666667 19:-0.333333 20:-0.333333 23:-0.333333 24:-1 25:-0.6 27:-0.111111 28:-0.777778 29:-1 30:-1 31:-1 32:-1 33:-1 34:-1 35:-1 36:-1 37:-1 38:-1 39:-1 40:-1 41:-1 42:-0.6 44:-0.333333 45:-0.333333 46:0.333333 47:-0.333333 48:-0.5 49:-0.333333 50:-0.333333 51:-0.5 52:-0.5 53:-0.5 54:-0.6 55:-1 56:-1 57:-1 58:-1 59:-1 60:-1 61:-0.333333 62:-1 63:-1 64:-1 65:-1 66:-1 67:0.777778 68:-0.555556 69:0.2 70:-0.142857 76:1 79:1 88:1 89:-1 90:1 92:1 104:1 
0.743777323757655 1:-0.777778 2:-1 3:-1 4:-1 5:-1 6:-1 7:-1 8:0.111111 9:0.25 10:-0.333333 11:-0.333333 12:-0.333333 13:-0.333333 14:-0.6 15:-0.5 16:-0.5 17:-0.428571 18:0.333333 19:-0.333333 20:0.333333 23:-0.333333 24:-1 25:-0.6 27:-0.111111 28:-1 29:-0.111111 30:-0.555556 31:-1 32:-1 33:-1 34:-0.111111 35:-1 36:-1 37:-1 38:-1 39:-1 40:-0.333333 41:-1 42:0.6 44:-0.333333 45:-0.333333 46:-0.333333 47:-0.333333 48:-0.5 49:-0.333333 50:-0.333333 51:-0.5 52:-0.5 53:-0.5 54:-0.6 55:-0.111111 56:-1 57:-1 58:-1 59:-1 60:-1 61:-1 62:-1 63:-1 64:-1 65:-1 66:-1 67:-0.111111 68:-0.555556 69:0.2 70:-0.142857 71:1 79:1 87:1 89:-0.5 90:1 91:1 104:1 
1.108751597089045 1:-0.777778 2:-1 3:-1 4:-1 5:-1 6:-1 7:-1 8:-0.777778 9:-1 10:-1 11:-1 12:-1 13:-1 14:-0.6 16:-0.5 17:-0.714286 18:-0.333333 19:-0.333333 20:0.333333 23:-0.333333 24:-0.111111 25:0.6 27:-0.111111 28:-1 29:-1 30:-1 31:-1 32:-1 33:-1 34:0.111111 35:-1 36:-1 37:-1 38:-1 39:-1 40:-1 41:-1 42:0.6 43:-0.5 44:-0.333333 45:-0.333333 46:0.333333 47:-0.333333 48:-0.5 49:-0.333333 50:-0.333333 51:-0.5 52:-0.5 53:-0.5 54:-0.2 55:0.111111 56:-0.5 57:-1 58:-1 59:-1 61:-0.333333 62:-1 63:-1 64:-1 65:-1 66:-1 67:0.777778 68:-0.555556 69:0.2 70:-0.714286 71:1 72:1 78:1 79:1 81:1 89:-0.5 93:1 99:1 104:1 
2 1:-0.777778 2:-1 3:-1 4:-1 5:-1 6:-1 7:-1 8:-0.777778 9:-1 10:-1 11:-1 12:-1 13:-1 14:-0.6 15:-0.5 16:0.5 17:-0.428571 18:-0.333333 19:-0.333333 20:0.333333 23:-0.333333 24:-1 25:-0.6 27:-0.333333 28:-1 29:-0.555556 30:-0.555556 31:-0.555556 32:-0.333333 33:-1 34:-0.111111 35:-1 36:-1 37:-1 38:-1 39:-1 40:-1 41:-1 42:-0.6 43:-0.5 44:-0.333333 45:-0.333333 46:0.333333 47:-0.333333 48:-0.5 49:-0.333333 50:-0.333333 51:-0.5 52:-0.5 53:-0.5 54:-0.6 55:-1 56:-1 57:-1 58:-1 59:-1 60:-1 61:-1 62:-1 63:-1 64:-1 65:-1 66:-1 67:-0.333333 68:-0.555556 69:-0.6 70:-0.714286 72:1 79:1 81:1 89:-0.5 91:1 93:1 104:1 
1.638693377740289 1:-0.777778 2:-1 3:-1 4:-1 5:-1 6:-1 7:-1 8:-0.777778 9:-1 10:-1 11:-1 12:-1 13:-1 14:-0.6 15:-0.5 16:0.5 17:0.714286 18:-0.666667 19:-0.333333 20:0.333333 23:-0.333333 24:-1 25:-0.6 27:-0.555556 28:-1 29:-0.555556 30:-0.777778 31:-0.777778 32:-0.555556 33:-1 34:-0.333333 35:-1 36:-1 37:-1 38:-1 39:-1 40:-1 41:-1 42:-0.6 43:-0.5 44:-0.333333 45:-0.333333 46:-0.333333 47:-0.333333 48:-0.5 49:-0.333333 50:-0.333333 51:-0.5 52:-0.5 53:-0.5 54:-0.6 55:-1 56:-1 57:-1 58:-1 59:-1 60:-1 61:-1 62:-1 63:-1 64:-1 65:-1 66:-1 67:-0.777778 68:-0.555556 69:-0.2 70:-0.714286 71:1 72:1 79:1 81:1 89:-0.5 90:1 93:1 104:1 
1.275992217004477 1:-0.777778 2:-1 3:-1 4:-1 5:-1 6:-1 7:-1 8:-0.777778 9:-1 10:-1 11:-1 12:-1 13:-1 14:-0.6 15:-0.5 16:-0.5 17:-0.714286 18:-0.666667 19:-0.333333 20:-0.333333 23:-0.333333 24:-1 25:-0.6 27:0.111111 28:-1 29:-1 30:-0.555556 31:-0.555556 32:-0.555556 33:-1 34:-0.111111 35:-1 36:-1 37:-1 38:-1 39:-1 40:-0.777778 41:-1 42:-0.6 43:-0.5 44:-0.333333 45:-0.333333 46:0.333333 47:-0.333333 48:-0.5 49:-0.333333 50:-0.333333 51:-0.5 52:-0.5 53:-0.5 54:-0.6 55:-0.555556 56:-0.75 57:-0.666667 58:-0.777778 59:-0.714286 60:-0.75 61:-0.777778 62:-0.75 63:-0.777778 64:-0.777778 65:-0.6 66:-0.6 67:-0.111111 68:-0.555556 69:0.2 70:-0.428571 71:1 78:-0.5 79:1 81:1 89:-0.5 90:1 104:1 
0.3499319141316458 1:-0.777778 2:-1 3:-1 4:-1 5:-1 6:-1 7:-1 8:-0.777778 9:-1 10:-1 11:-1 12:-1 13:-1 14:-0.6 15:-0.5 16:0.5 17:-0.714286 18:-0.666667 19:-0.333333 20:0.333333 23:-0.333333 24:-1 25:-0.6 27:-0.333333 28:-1 29:-0.555556 30:-1 31:-1 32:-1 33:-1 34:-0.333333 35:-1 36:-1 37:-1 38:-1 39:-1 40:-1 41:-1 42:-0.6 43:-0.5 44:-0.333333 45:-0.333333 46:-0.333333 47:-0.333333 48:-0.5 49:0.333333 50:-0.333333 51:-0.5 52:-0.5 53:-0.5 54:-0.6 55:-0.777778 56:-1 57:-1 58:-1 59:-1 60:-1 61:-1 62:-1 63:-1 64:-1 65:-1 66:-1 67:-0.111111 68:-0.555556 69:-0.2 70:-0.428571 71:1 78:-0.5 79:1 81:1 89:-0.5 93:1 104:1 
0.6867076632973884 1:-0.777778 2:-1 3:-1 4:-1 5:-1 6:-1 7:-1 8:-0.777778 9:-1 10:-1 11:-1 12:-1 13:-1 14:-0.6 15:-0.5 16:-0.5 17:-0.714286 18:-0.666667 19:-0.333333 20:0.333333 23:-0.333333 24:-1 25:-0.6 27:-0.333333 28:-1 29:-0.777778 30:-1 31:-1 32:-0.777778 33:-1 34:-0.333333 35:-1 36:-1 37:-1 38:-1 39:-1 40:-1 41:-1 42:-0.6 43:-0.5 44:-0.333333 45:-0.333333 46:0.333333 47:-0.333333 48:-0.5 49:0.333333 50:-0.333333 51:-0.5 52:-0.5 53:-0.5 54:-0.6 55:-1 56:-1 57:-1 58:-1 59:-1 60:-1 61:-0.555556 62:-1 63:-1 64:-1 65:-1 66:-1 67:-0.111111 68:-0.777778 69:-0.2 70:-0.428571 71:1 78:-0.5 79:1 81:1 89:0.5 92:1 99:1 104:1 
2 1:0.555556 2:-0.555556 3:-0.25 4:-0.333333 5:-0.333333 6:-0.333333 7:-0.333333 8:-1 9:-1 10:-1 11:-1 12:-1 13:-1 14:-0.6 15:-0.5 16:-0.5 17:-0.714286 18:-0.333333 19:-0.333333 20:0.333333 23:-0.333333 24:-1 25:-0.6 27:-0.555556 28:-1 29:-1 30:-1 31:-1 32:-0.333333 33:-1 34:-0.333333 35:-0.555556 36:-1 37:-1 38:-0.75 39:-1 40:-1 41:-1 42:-0.6 43:-0.5 44:-0.333333 45:-0.333333 46:-0.333333 47:-0.333333 48:-0.5 49:-0.333333 50:-0.333333 51:-0.5 52:-0.5 53:-0.5 54:-0.6 55:-1 56:-1 57:-1 58:-1 59:-1 60:-1 61:-1 62:-1 63:-1 64:-1 65:-1 66:-1 67:-0.111111 68:-0.555556 69:-0.2 70:-0.428571 71:1 78:-0.5 79:1 81:1 89:-0.5 90:1 104:1 
1.811298351338477 1:-0.777778 2:-1 3:-1 4:-1 5:-1 6:-1 7:-1 8:-0.777778 9:-1 10:-1 11:-1 12:-1 13:-1 14:-0.2 15:-0.5 16:-0.5 17:-0.428571 18:-0.666667 19:-0.333333 20:0.333333 23:-0.333333 24:-1 25:-0.6 27:-1 28:-1 29:-1 30:-1 31:-1 32:-1 33:-0.555556 34:-1 35:-1 36:-1 37:-1 38:-1 39:-1 40:-1 41:-1 42:-0.6 43:-0.5 44:-0.333333 45:-0.333333 46:-0.333333 47:-0.333333 48:-0.5 49:-0.333333 50:-0.333333 51:-0.5 52:-0.5 53:-0.5 54:-0.6 55:-1 56:-1 57:-1 58:-1 59:-1 60:-0.5 61:-0.555556 62:-1 63:-1 64:-1 65:-1 66:-1 67:-0.111111 68:-0.555556 69:-0.2 70:-0.428571 72:1 78:-0.5 79:1 81:1 89:0.5 91:1 99:1 104:1 
1.251206628934444 1:-1 2:-1 3:-1 4:-1 5:-1 6:0.333333 7:-1 8:-1 9:-1 10:-1 11:-1 12:0.333333 13:0.333333 14:-0.6 16:0.5 17:-0.142857 18:-0.333333 19:-0.333333 20:-0.333333 23:-0.333333 24:-1 25:-0.6 27:-0.333333 28:-1 29:-1 30:-1 31:-1 32:-1 33:-1 34:-1 35:-1 36:-1 37:-1 38:-1 39:-1 40:-1 41:-1 42:-0.6 43:-0.5 44:-0.333333 45:-0.333333 46:0.333333 47:-0.333333 48:-0.5 49:0.333333 50:-0.333333 51:-0.5 52:-0.5 53:-0.5 54:-0.6 55:-0.555556 56:-1 57:-1 58:-1 59:-1 60:-1 61:-1 62:-1 63:-1 64:-1 65:-1 66:-1 67:-0.111111 68:-0.555556 69:-0.2 70:-0.428571 73:1 78:-0.5 79:1 80:1 89:-0.5 90:1 104:1 
2 1:-0.777778 2:-1 3:-1 4:-1 5:-1 6:-1 7:-1 8:-0.777778 9:-1 10:-1 11:-1 12:-1 13:-1 14:-0.6 15:-0.5 16:-0.5 17:-0.714286 18:-0.666667 19:0.333333 20:-0.333333 23:-0.333333 24:-1 25:-0.6 27:-0.333333 28:-1 29:-1 30:-1 31:-1 32:-0.777778 33:-1 34:-0.333333 35:-1 36:-1 37:-1 38:-1 39:-1 40:-1 41:-1 42:-0.6 43:-0.5 44:-0.333333 45:-0.333333 46:0.333333 47:-0.333333 48:-0.5 49:-0.333333 50:-0.333333 51:-0.5 52:-0.5 53:-0.5 54:-0.6 55:-1 56:-1 57:-1 58:-1 59:-1 60:-1 61:-1 62:-1 63:-1 64:-1 65:-1 66:-1 67:1 68:-0.777778 69:-0.2 70:-0.428571 71:1 78:-0.5 79:1 81:1 89:-0.5 90:1 104:1 
0.5511799884104125 1:-0.777778 2:-1 3:-1 4:-1 5:-1 6:-1 7:-1 8:-0.777778 9:-1 10:-1 11:-1 12:-1 13:-1 14:-0.6 15:-0.5 16:0.5 17:-0.714286 18:-1 19:-0.333333 20:0.333333 23:-0.333333 24:-1 25:-0.6 27:-0.111111 28:-1 29:-0.555556 30:-0.555556 31:-1 32:-1 33:-1 34:-0.333333 35:-1 36:-1 37:-1 38:-1 39:-1 40:-1 41:-1 42:-0.6 43:-0.5 44:-0.333333 45:-0.333333 46:-0.333333 47:-0.333333 48:-0.5 49:0.333333 50:-0.333333 51:-0.5 52:-0.5 53:-0.5 54:-0.6 55:-1 56:-1 57:-1 58:-1 59:-1 60:-1 61:-1 62:-1 63:-1 64:-1 65:-1 66:-1 67:-0.333333 68:-0.777778 69:0.2 70:-0.714286 71:1 78:-0.5 79:1 81:1 89:-0.5 93:1 104:1 
2 1:-0.777778 2:-1 3:-1 4:-1 5:-1 6:-1 7:-1 8:-0.777778 9:-1 10:-1 11:-1 12:-1 13:-1 14:-0.6 15:-0.5 16:-0.5 17:-0.428571 18:-0.666667 19:-0.333333 20:-0.333333 23:-0.333333 24:-1 25:-0.6 27:-0.333333 28:-1 29:-0.777778 30:-1 31:-1 32:-0.777778 33:-1 34:-0.111111 35:-1 36:-1 37:-1 38:-1 39:-1 40:-1 41:-1 42:-0.6 43:-0.5 44:-0.333333 45:-0.333333 46:0.333333 47:-0.333333 48:-0.5 49:-0.333333 50:-0.333333 51:-0.5 52:-0.5 53:-0.5 54:-0.2 55:-1 56:-1 57:-1 58:-1 59:-1 60:-1 61:-0.555556 62:-1 63:-1 64:-1 65:-1 66:-1 67:-0.111111 68:-0.777778 69:-0.2 70:-0.428571 71:1 78:-0.5 79:1 87:1 89:-0.5 90:1 91:1 104:1 
2 1:-0.777778 2:-1 3:-1 4:-1 5:-1 6:-1 7:-1 8:-0.777778 9:-1 10:-1 11:-1 12:-1 13:-1 14:-0.6 15:-0.5 16:-0.5 17:-0.714286 18:-0.666667 19:0.333333 20:-0.333333 23:-0.333333 24:-1 25:-0.6 27:-0.555556 28:-1 29:-1 30:-1 31:-1 32:-1 33:-1 34:-0.555556 35:-1 36:-1 37:-1 38:-1 39:-1 40:-0.333333 41:-1 42:-0.6 43:-0.5 44:-0.333333 45:-0.333333 46:-0.333333 47:-0.333333 48:-0.5 49:-0.333333 50:-0.333333 51:-0.5 52:-0.5 53:-0.5 54:-0.6 55:-0.777778 56:-1 57:-1 58:-1 59:-1 60:-1 61:-1 62:-1 63:-1 64:-1 65:-1 66:-1 67:1 68:-0.777778 69:-0.2 70:-0.428571 71:1 78:-0.5 79:1 81:1 89:-0.5 90:1 104:1 
2 1:-0.777778 2:-1 3:-1 4:-1 5:-1 6:-1 7:-1 8:-0.777778 9:-1 10:-1 11:-1 12:-1 13:-1 14:-0.2 15:-0.5 16:-0.5 17:-0.428571 18:-0.666667 19:-0.333333 20:0.333333 22:1 23:-0.333333 24:-1 25:-0.6 27:-1 28:-1 29:-1 30:-1 31:-1 32:-1 33:-1 34:-1 35:-1 36:-1 37:-1 38:-1 39:-1 40:-1 41:-1 42:-0.6 43:-0.5 44:-0.333333 45:-0.333333 46:-0.333333 47:-0.333333 48:-0.5 49:-0.333333 50:0.333333 51:-0.5 52:-0.5 53:-0.5 54:0.6 55:-1 56:-1 57:-1 58:-1 59:-1 60:-1 61:-0.333333 62:-1 63:-1 64:-1 65:-1 66:-1 67:1 68:-0.777778 69:-0.2 70:-0.428571 71:1 78:-0.5 79:1 87:1 89:-0.5 90:1 91:1 104:1 
1.359454154043856 1:0.111111 2:-0.555556 3:-0.25 4:-0.333333 5:-0.333333 6:-0.333333 7:-0.333333 8:-0.777778 9:-1 10:-1 11:-1 12:-1 13:-1 14:-0.6 15:-0.5 16:-0.5 17:-0.714286 18:-0.666667 19:0.333333 20:-0.333333 23:-0.333333 24:-0.777778 25:-0.6 27:-0.333333 28:-1 29:-1 30:-1 31:-1 32:-0.555556 33:-1 34:-0.333333 35:-0.555556 36:-1 37:-1 38:-1 39:-1 40:-0.333333 41:-1 42:-0.6 43:-0.5 44:-0.333333 45:-0.333333 46:-0.333333 47:-0.333333 48:-1 49:-1 50:-0.333333 51:-0.5 52:-0.5 53:-0.5 54:-0.6 55:-1 56:-1 57:-1 58:-1 59:-1 60:-1 61:-1 62:-1 63:-1 64:-1 65:-1 66:-1 67:1 68:-0.777778 69:-0.2 70:-0.428571 71:1 78:-0.5 79:1 81:1 89:0.5 90:1 104:1 
1.020709698705148 1:-0.777778 2:-1 3:-1 4:-1 5:-1 6:-1 7:-1 8:-0.777778 9:-1 10:-1 11:-1 12:-1 13:-1 14:-0.6 15:-0.5 16:-0.5 17:-0.714286 18:-0.666667 19:0.333333 20:-0.333333 23:-0.333333 24:-1 25:-0.6 27:-1 28:-1 29:-1 30:-1 31:-1 32:-1 33:-1 34:-1 35:-1 36:-1 37:-1 38:-1 39:-1 40:-0.555556 41:-1 42:-0.6 43:-0.5 44:-0.333333 45:-0.333333 46:-0.333333 47:-0.333333 48:-0.5 49:-1 50:-0.333333 51:-0.5 52:-0.5 53:-0.5 54:-0.6 55:-0.555556 56:-1 57:-1 58:-1 59:-1 60:-0.75 61:-0.555556 62:-1 63:-1 64:-1 65:-0.2 66:0.6 67:1 68:-0.777778 69:-0.2 70:-0.428571 71:1 72:-1 73:-1 74:-1 75:-1 76:-1 77:-1 78:-0.5 80:-1 81:1 82:-1 83:-1 84:-1 85:-1 86:-1 87:-1 88:-1 89:-0.5 90:1 92:1 104:1 
0.4417462062576871 1:-0.777778 2:-1 3:-1 4:-1 5:-1 6:-1 7:-1 8:-0.777778 9:-1 10:-1 11:-1 12:-1 13:-1 14:-0.6 15:-0.5 16:-0.5 17:-0.714286 18:-0.666667 19:0.333333 20:-0.333333 23:-0.333333 24:-1 25:-0.6 27:-0.111111 28:-1 29:-1 30:-1 31:-1 32:-0.555556 33:-1 34:-0.333333 35:-0.555556 36:-0.777778 37:-1 38:-1 39:-1 40:-1 41:-1 42:-0.6 43:-0.5 44:-0.333333 45:-0.333333 46:0.333333 47:-0.333333 48:-1 49:-1 50:-0.333333 51:-0.5 52:-0.5 53:-0.5 54:-0.6 55:-1 56:-1 57:-1 58:-1 59:-1 60:-1 61:-1 62:-1 63:-1 64:-1 65:-1 66:-1 67:1 68:-0.777778 69:-0.2 70:-0.428571 71:1 72:-1 73:-1 74:-1 75:-1 76:-1 77:-1 78:-0.5 81:1 89:-0.5 90:1 104:1 
0.3026869038259467 1:-0.777778 2:-1 3:-1 4:-1 5:-1 6:-1 7:-1 8:-0.777778 9:-1 10:-1 11:-1 12:-1 13:-1 14:-0.6 15:-0.5 16:-0.5 17:-0.714286 18:-0.666667 19:-0.333333 20:0.333333 23:-0.333333 24:-1 25:-0.6 27:-0.333333 28:-1 29:-1 30:-1 31:-1 32:-0.555556 33:-1 34:-0.333333 35:-1 36:-1 37:-1 38:-1 39:-1 40:-0.555556 41:-1 42:-0.6 43:-0.5 44:-0.333333 45:-0.333333 46:0.333333 47:-0.333333 48:-0.5 49:0.333333 50:0.333333 51:-0.5 52:-0.5 53:-0.5 54:-0.6 55:-1 56:-1 57:-1 58:-1 59:-1 60:-1 61:-1 62:-1 63:-1 64:-1 65:-1 66:-1 67:1 68:-0.777778 69:-0.2 70:-0.428571 71:1 78:-0.5 81:1 89:-0.5 90:1 104:1 
2 1:-0.777778 2:-1 3:-1 4:-1 5:-1 6:-1 7:-1 8:-0.777778 9:-1 10:-1 11:-1 12:-1 13:-1 14:-0.2 15:-0.5 16:0.5 17:-0.714286 18:-0.666667 19:-0.333333 20:-0.333333 23:-0.333333 24:-1 25:-0.6 27:-0.333333 28:-1 29:-0.555556 30:-1 31:-1 32:-0.555556 33:-1 34:-0.111111 35:-1 36:-1 37:-1 38:-1 39:-1 40:-0.333333 41:-1 42:-0.6 44:-0.333333 45:-0.333333 46:0.333333 47:-0.333333 48:-1 49:-1 50:-0.333333 51:-0.5 52:-0.5 53:-0.5 54:-0.6 55:-1 56:-1 57:-1 58:-1 59:-1 60:-1 61:-0.333333 62:-1 63:-1 64:-1 65:-0.2 66:0.2 67:-0.111111 68:-0.555556 69:-0.2 70:-0.428571 71:1 79:1 81:1 89:-0.5 90:1 91:1 92:1 104:1 
0.4102537322284541 1:-0.777778 2:-1 3:-1 4:-1 5:-1 6:-1 7:-1 8:-0.777778 9:-1 10:-1 11:-1 12:-1 13:-1 14:-0.2 15:-0.5 16:-0.5 17:-0.428571 18:-0.666667 19:-0.333333 20:0.333333 23:-0.333333 24:-1 25:-0.6 27:0.111111 28:-0.777778 29:-0.555556 30:-1 31:-1 32:-0.333333 33:-1 34:-0.555556 35:-1 36:-1 37:-1 38:-1 39:-1 40:-0.333333 41:-1 42:-0.6 43:-0.5 44:-0.333333 45:-0.333333 46:-0.333333 47:-0.333333 48:-1 49:0.333333 50:-0.333333 51:-0.5 52:-0.5 53:-0.5 54:-0.2 55:-0.333333 56:-0.75 57:-1 58:-1 59:-1 60:-0.25 61:-0.333333 62:-1 63:-1 64:-1 65:-0.2 66:0.6 67:-0.111111 68:-0.555556 69:-0.2 70:-0.428571 72:1 78:-0.5 79:1 81:1 89:-0.5 91:1 104:1 
1.829755179509243 1:-0.777778 2:-1 3:-1 4:-1 5:-1 6:-1 7:-1 8:-0.777778 9:-1 10:-1 11:-1 12:-1 13:-1 14:-0.6 15:-0.5 16:0.5 17:-0.428571 18:-0.333333 19:-0.333333 20:0.333333 23:-0.333333 24:-1 25:-0.6 27:-1 28:-1 29:-1 30:-1 31:-0.555556 32:-1 33:-1 34:-1 35:-1 36:-1 37:-1 38:-0.25 39:-1 40:-1 41:-1 42:-0.6 43:-0.5 44:-0.333333 45:-0.333333 46:-0.333333 47:-0.333333 48:-1 49:-1 50:-0.333333 51:-0.5 52:-0.5 53:-0.5 54:-0.6 55:-1 56:-1 57:-1 58:-1 59:-1 60:-1 61:-1 62:-1 63:-1 64:-1 65:-1 66:-1 67:-0.111111 68:-0.777778 69:-0.2 70:-0.142857 71:1 78:-0.5 79:1 81:1 92:1 93:1 99:1 104:1 
1.985236351538091 1:-0.777778 2:-1 3:-1 4:-1 5:-1 6:-1 7:-1 8:-0.777778 9:-1 10:-1 11:-1 12:-1 13:-1 14:-0.6 15:-0.5 17:-0.428571 18:-0.666667 19:-0.333333 20:0.333333 23:-0.333333 24:-1 25:-0.6 27:-0.111111 28:-1 29:-1 30:-1 31:-1 32:-0.555556 33:-1 34:-0.111111 35:-1 36:-1 37:-1 38:-1 39:-1 40:-1 41:-1 42:-0.6 43:-0.5 44:-0.333333 45:-0.333333 46:-0.333333 47:-0.333333 48:-1 49:-1 50:-0.333333 51:-0.5 52:-0.5 53:-0.5 54:-0.6 55:-1 56:-1 57:-1 58:-1 59:-1 60:-1 61:-0.333333 62:-1 63:-1 64:-1 65:-0.2 66:0.6 67:-0.111111 68:-0.555556 69:-0.2 70:0.428571 73:1 79:1 81:1 89:0.5 90:1 96:1 104:1 
2 1:-0.777778 2:-1 3:-1 4:-1 5:-1 6:-1 7:-1 8:-0.777778 9:-1 10:-1 11:-1 12:-1 13:-1 14:-0.6 15:-0.5 16:0.5 17:-0.428571 18:-0.333333 19:-0.333333 20:0.333333 23:-0.333333 24:-1 25:-0.6 27:-1 28:-1 29:-1 30:-1 31:-1 32:-0.111111 33:-1 34:-1 35:-0.333333 36:-1 37:-1 38:-1 39:-1 40:-1 41:-1 42:-0.6 43:-0.5 44:-0.333333 45:-0.333333 46:-0.333333 47:-0.333333 48:-1 49:-1 50:-0.333333 51:-0.5 52:-0.5 53:-0.5 54:0.6 55:-1 56:-1 57:-1 58:-1 59:-1 60:-1 61:-1 62:-1 63:-1 64:-1 65:-0.2 66:0.2 67:1 68:-0.777778 69:-0.2 70:-0.142857 71:1 78:-0.5 79:1 81:1 87:1 90:1 91:1 92:1 104:1 
2 1:-0.777778 2:-1 3:-1 4:-1 5:-1 6:-1 7:-1 8:-0.777778 9:-1 10:-1 11:-1 12:-1 13:-1 14:-0.6 15:-0.5 16:-0.5 17:-0.714286 18:-0.666667 19:0.333333 20:-0.333333 23:-0.333333 24:-1 25:-0.6 27:-1 28:-1 29:-1 30:-1 31:-1 32:-1 33:-1 34:-1 35:-1 36:-1 37:-1 38:-1 39:-1 40:-0.333333 41:-1 42:-0.6 43:-0.5 44:-0.333333 45:-0.333333 46:-0.333333 47:-0.333333 48:-1 49:-1 50:-0.333333 51:-0.5 52:-0.5 53:-0.5 54:-0.2 55:-1 56:-1 57:-1 58:-1 59:-1 60:-1 61:-1 62:-1 63:-1 64:-1 65:-1 66:-1 67:-0.111111 68:-0.555556 69:-0.2 70:-0.142857 71:1 72:1 78:-0.5 79:1 80:1 92:1 104:1 
2 1:-0.777778 2:-1 3:-1 4:-1 5:-1 6:-1 7:-1 8:-0.777778 9:-1 10:-1 11:-1 12:-1 13:-1 14:-1 15:-0.5 16:-0.5 17:-0.714286 18:-0.666667 19:-0.333333 20:0.333333 23:-0.333333 24:-1 25:-0.6 27:-1 28:-1 29:-1 30:-1 31:-1 32:-1 33:-1 34:-1 35:-1 36:-1 37:-1 38:-1 39:-1 40:-1 41:-1 42:-0.6 43:-0.5 44:-0.333333 45:-0.333333 46:-0.333333 47:-0.333333 48:-1 49:-1 50:-0.333333 51:-0.5 52:-0.5 53:-0.5 54:-0.6 55:-1 56:-1 57:-1 58:-1 59:-1 60:-1 61:-0.333333 62:-1 63:-1 64:-1 65:-1 66:-1 67:-0.111111 68:-0.555556 69:-0.2 70:-0.142857 71:1 78:-0.5 79:1 81:1 89:-0.5 90:1 91:1 104:1 
0.9021558801012513 1:-0.777778 2:-1 3:-1 4:-1 5:-1 6:-1 7:-1 8:0.333333 9:-1 10:1 11:-0.333333 12:-0.333333 13:-0.333333 14:-0.6 15:-0.5 16:-0.5 17:-0.714286 18:-0.666667 19:0.333333 20:-0.333333 23:-0.333333 24:-1 25:-1 26:-1 27:-0.333333 28:-1 29:-0.333333 30:-1 31:-1 32:-1 33:-1 34:-0.111111 35:-1 36:-1 37:-1 38:-1 39:-1 40:-1 41:-1 42:-0.6 43:-0.5 44:-0.333333 45:-0.333333 46:-0.333333 47:-0.333333 48:-1 49:-1 50:-1 51:-0.5 52:-0.5 53:-0.5 54:0.6 55:-1 56:-1 57:-1 58:-1 59:-1 60:-1 61:-0.333333 62:-1 63:-1 64:-1 65:-1 66:-1 67:-0.111111 68:-0.555556 69:-0.6 70:-0.142857 71:-1 72:-1 73:-1 74:-1 75:-1 76:-1 77:-1 78:-0.5 79:1 85:1 89:-0.5 92:1 104:1 
2 1:-0.777778 2:-1 3:-1 4:-1 5:-1 6:-1 7:-1 8:-0.777778 9:-1 10:-1 11:-1 12:-1 13:-1 14:-0.6 15:-0.5 16:-0.5 17:-0.714286 18:-0.666667 19:0.333333 20:-0.333333 23:-0.333333 24:-1 25:-0.6 26:-1 27:-1 28:-1 29:-1 30:-1 31:-1 32:-1 33:-1 34:-1 35:-1 36:-1 37:-1 38:-1 39:-1 40:-1 41:-1 42:-0.6 43:-0.5 44:-0.333333 45:-0.333333 46:-0.333333 47:-0.333333 48:-0.5 49:-1 50:-0.333333 51:-0.5 52:-0.5 53:-0.5 54:-0.6 55:-1 56:-1 57:-1 58:-1 59:-1 60:-1 61:-1 62:-1 63:-1 64:-1 65:-1 66:-1 67:0.777778 68:-0.555556 69:0.6 70:-0.714286 72:1 78:-0.5 79:1 87:1 89:-0.5 92:1 104:1 
1.41183351276584 1:0.111111 2:-0.555556 3:-0.25 4:-0.333333 5:-0.333333 6:-0.333333 7:-0.333333 8:-0.777778 9:-1 10:-1 11:-1 12:-1 13:-1 14:-0.6 15:-0.5 16:-0.5 17:-0.714286 18:-0.666667 19:-0.333333 20:-0.333333 23:-0.333333 24:-1 25:-0.6 26:-1 27:-0.333333 28:-1 29:-1 30:-1 31:-1 32:-0.333333 33:-1 34:-1 35:-1 36:-1 37:-1 38:-1 39:-0.25 40:-1 41:-1 42:-0.6 43:-0.5 44:-0.333333 45:-0.333333 46:-0.333333 47:-0.333333 48:-1 49:-1 50:-1 51:-0.5 52:-0.5 53:-0.5 54:-0.6 55:-1 56:-1 57:-1 58:-1 59:-1 60:-1 61:-1 62:-1 63:-1 64:-1 65:-1 66:-1 67:1 68:-0.777778 69:-0.2 70:-0.428571 72:1 78:-0.5 79:1 81:1 89:-0.5 92:1 104:1 
2 1:-0.777778 2:-1 3:-1 4:-1 5:-1 6:-1 7:-1 8:-0.777778 9:-1 10:-1 11:-1 12:-1 13:-1 14:-0.6 15:-0.5 16:0.5 17:-0.428571 18:-0.666667 19:-0.333333 20:0.333333 23:-0.333333 24:-1 25:-0.6 27:-1 28:-1 29:-1 30:-1 31:-1 32:-1 33:-1 34:-1 35:-1 36:-1 37:-1 38:-0.25 39:-1 40:-1 41:-1 42:-0.6 44:-0.333333 45:-0.333333 46:0.333333 47:-0.333333 48:-1 49:0.333333 50:-0.333333 51:-0.5 52:-0.5 53:-0.5 54:-0.6 55:-1 56:-1 57:-1 58:-1 59:-1 60:-1 61:-1 62:-1 63:-1 64:-1 65:-1 66:-1 67:-0.333333 68:-0.555556 69:-0.2 70:-0.142857 71:1 78:-0.5 79:1 81:1 89:-0.5 90:1 91:1 92:1 104:1 
1.760695099959899 1:0.111111 2:-0.333333 3:-0.25 4:-0.333333 5:-0.333333 6:-0.333333 7:-0.333333 8:0.111111 9:-0.25 10:-0.333333 11:-0.333333 12:-0.333333 13:-0.333333 14:-0.6 16:0.5 17:-0.714286 18:-0.666667 19:0.333333 20:-1 22:1 23:-0.333333 24:-1 25:-0.6 26:-1 27:-1 28:-1 29:-1 30:-1 31:-1 32:-1 33:-1 34:-0.333333 35:-1 36:-0.333333 37:-1 38:-1 39:-1 40:-0.333333 41:-1 42:-0.6 43:0.5 44:0.333333 45:-0.333333 46:-0.333333 47:-0.333333 48:-0.5 49:-0.333333 50:-0.333333 51:-0.5 52:-0.5 53:-0.5 54:-0.2 55:-1 56:-1 57:-1 58:-1 59:-1 60:-1 61:-1 62:-1 63:-1 64:-1 65:-1 66:-1 67:-0.777778 68:-0.555556 69:0.6 70:-0.142857 72:1 78:-0.5 79:1 81:1 89:-0.5 92:1 104:1 
0.5102995100754052 1:0.555556 2:-0.555556 3:1 4:-0.333333 5:-0.333333 6:-0.333333 7:-0.333333 8:-0.777778 9:-1 10:-1 11:-1 12:-1 13:-1 14:-0.6 15:-0.5 16:0.5 17:-0.714286 18:-0.666667 19:-0.333333 20:0.333333 23:-0.333333 24:-0.555556 25:-0.2 27:0.333333 28:-0.777778 29:-0.777778 30:-0.777778 31:-0.555556 32:-0.777778 33:-0.555556 34:-0.111111 35:-1 36:-1 37:-1 38:-0.25 39:-1 40:-1 41:-1 42:-0.6 43:-0.5 44:-0.333333 45:-0.333333 46:-0.333333 47:-0.333333 48:-1 49:-1 50:-0.333333 51:-0.5 52:-0.5 53:-0.5 54:-0.6 55:-1 56:-1 57:-1 58:-1 59:-1 60:-1 61:-1 62:-1 63:-1 64:-1 65:-1 66:-1 67:0.777778 68:-0.777778 69:-0.2 70:-0.428571 71:1 81:1 90:1 91:1 104:1 
0.8928199106213212 1:-0.777778 2:-1 3:-1 4:-1 5:-1 6:-1 7:-1 8:-0.777778 9:-1 10:-1 11:-1 12:-1 13:-1 14:-0.6 15:-0.5 16:-0.5 17:-0.428571 18:-0.666667 19:0.333333 20:-0.333333 23:-0.333333 24:-1 25:-0.6 27:-0.333333 28:-0.333333 29:-1 30:-1 31:-1 32:-1 33:-0.333333 34:-1 35:-1 36:-0.333333 37:-1 38:-1 39:-0.25 40:-0.333333 41:-1 42:-0.2 43:-0.5 44:-0.333333 45:-0.333333 46:-0.333333 47:-0.333333 48:-1 49:-1 50:1 51:-0.5 52:-0.5 53:-0.5 54:-0.2 55:-1 56:-1 57:-1 58:-1 59:-1 60:-1 61:-1 62:-1 63:-1 64:-1 65:-0.2 66:0.6 67:0.777778 68:-0.555556 69:-0.6 70:-0.714286 73:1 74:1 75:1 76:1 77:1 78:-0.5 79:1 80:1 89:-0.5 92:1 104:1 
2 1:-0.777778 2:-1 3:-1 4:-1 5:-1 6:-1 7:-1 8:-0.777778 9:-1 10:-1 11:-1 12:-1 13:-1 14:-0.6 15:-0.5 16:0.5 17:-0.714286 18:-0.666667 19:0.333333 20:-0.333333 23:-0.333333 24:-1 25:-0.6 27:-1 28:-1 29:-1 30:-1 31:-1 32:-1 33:-1 34:-1 35:-1 36:-1 37:-1 38:-1 39:-1 40:-1 41:-1 42:-0.6 44:-0.333333 45:1 46:0.333333 47:-0.333333 48:-1 49:-1 50:-0.333333 51:-0.5 52:-0.5 53:-0.5 54:-0.2 55:-1 56:-1 57:-1 58:-1 59:-1 60:-1 61:-1 62:-1 63:-1 64:-1 65:-1 66:-1 67:1 68:-0.777778 69:0.6 70:0.142857 72:1 73:1 78:-0.5 79:1 87:1 89:-0.5 92:1 104:1 
0.1008322648182751 1:-0.777778 2:-1 3:-1 4:-1 5:-1 6:-1 7:-1 8:-0.777778 9:-1 10:-1 11:-1 12:-1 13:-1 14:-0.6 15:-0.5 16:-0.5 17:-0.714286 18:-0.666667 19:0.333333 20:-0.333333 23:-0.333333 24:-1 25:-0.6 27:-0.333333 28:-0.333333 29:-0.333333 30:-1 31:-1 32:-1 33:-1 34:-0.333333 35:-1 36:-1 37:-1 38:-1 39:-0.25 40:-0.333333 41:-1 42:-0.6 43:-0.5 44:-0.333333 45:-0.333333 46:-0.333333 47:-0.333333 48:-1 49:-1 50:-0.333333 51:-0.5 52:-0.5 53:-0.5 54:-0.6 55:-1 56:-1 58:-0.333333 59:-1 60:-1 61:-1 62:-1 63:-1 64:-0.333333 65:-0.2 66:0.6 67:-0.555556 68:-0.555556 69:-0.6 70:-0.428571 72:1 73:1 78:-0.5 81:1 89:-0.5 92:1 104:1 
1.169585713703091 1:-0.777778 2:-1 3:-1 4:-1 5:-1 6:-1 7:-1 8:-0.777778 9:-1 10:-1 11:-1 12:-1 13:-1 14:-0.6 15:-0.5 16:-0.5 17:-0.714286 18:-0.666667 19:0.333333 20:-0.333333 23:-0.333333 24:-1 25:-0.6 27:-0.333333 28:-1 29:-1 30:-1 31:-1 32:-1 33:-1 34:-1 35:-1 36:-1 37:-1 38:-1 39:-1 40:-1 41:-1 42:-0.6 43:-0.5 44:-0.333333 45:-0.333333 46:-0.333333 47:-0.333333 48:-1 49:-1 50:-0.333333 51:-0.5 52:-0.5 53:-0.5 54:-0.6 55:-1 56:-0.25 57:-1 58:-1 59:-1 60:-1 61:-0.555556 62:-1 63:-1 64:-1 65:-0.6 66:-0.6 67:-0.111111 68:-0.555556 69:-0.2 70:-0.428571 71:1 78:-0.5 81:1 89:-0.5 90:1 99:1 104:1 
1.262043951381366 1:-0.777778 2:-1 3:-1 4:-1 5:-1 6:-1 7:-1 8:-0.777778 9:-1 10:-1 11:-1 12:-1 13:-1 14:-0.6 15:-0.5 16:0.5 17:-0.714286 18:-0.666667 19:0.333333 20:-0.333333 23:-0.333333 24:-0.777778 25:-0.6 26:-1 27:-0.333333 28:0.111111 29:-1 30:-1 31:-1 32:-1 33:-1 34:0.111111 35:-1 36:-1 37:-1 38:-1 39:-0.25 40:-0.333333 41:-1 42:-0.6 43:-0.5 44:-0.333333 45:-0.333333 46:-0.333333 47:-0.333333 48:-1 49:-1 50:0.333333 51:-0.5 52:-0.5 53:-0.5 54:-0.2 55:-0.333333 56:-1 57:-1 58:-1 59:-1 60:-1 61:-1 62:-1 63:-1 64:-0.333333 65:-0.2 66:-0.2 67:-0.777778 68:-0.555556 69:-0.2 70:-0.714286 72:1 78:-0.5 81:1 89:-0.5 90:1 92:1 104:1 
1.394270089462038 1:-0.777778 2:-1 3:-1 4:-1 5:-1 6:-1 7:-1 8:-0.777778 9:-1 10:-1 11:-1 12:-1 13:-1 14:-0.6 15:-0.5 16:-0.5 17:-0.714286 18:-0.666667 19:0.333333 20:-0.333333 23:-0.333333 24:-1 25:-0.6 27:-0.333333 28:-1 29:-1 30:-1 31:-1 32:-1 33:-1 34:-0.333333 35:-1 36:-1 37:-1 38:-1 39:-1 40:-1 41:-1 42:-0.6 43:-0.5 44:-0.333333 45:-0.333333 46:0.333333 47:-0.333333 48:-1 49:-1 50:-0.333333 51:-0.5 52:-0.5 53:-0.5 54:-0.6 55:-1 56:-1 57:-1 58:-1 59:-1 60:-1 61:-1 62:-1 63:-1 64:-1 65:-1 66:-1 67:0.555556 68:-0.555556 69:-0.2 70:-0.428571 72:1 79:1 87:1 89:-0.5 90:1 91:1 103:1 104:1 
0.4699443096055899 1:-0.333333 2:-0.333333 3:-0.25 4:-0.333333 5:-0.333333 6:-0.333333 7:-0.333333 8:-0.777778 9:-1 10:-1 11:-1 12:-1 13:-1 14:-0.6 15:-0.5 16:-0.5 17:-0.714286 18:-0.666667 19:-0.333333 20:-0.333333 23:-0.333333 24:-1 25:-0.6 27:-0.555556 28:-1 29:-1 30:-1 31:-1 32:-1 33:-1 34:-1 35:-1 36:-1 37:-1 38:-1 39:-1 40:-1 41:-1 42:-0.6 43:-0.5 44:-0.333333 45:-0.333333 46:-0.333333 47:-0.333333 48:-0.5 49:-1 50:-0.333333 51:-0.5 52:-0.5 53:-0.5 54:-0.6 55:-0.555556 56:-1 57:-1 58:-1 59:-1 60:-1 61:-1 62:-1 63:-1 64:-1 65:-1 66:-1 67:-0.111111 68:-0.555556 69:-0.2 70:-0.428571 71:1 78:-0.5 81:1 89:-0.5 90:1 99:1 104:1 
0.7735495572347126 1:-0.777778 2:-1 3:-1 4:-1 5:-1 6:-1 7:-1 8:-0.777778 9:-1 10:-1 11:-1 12:-1 13:-1 14:-0.6 15:-0.5 16:-0.5 17:-0.714286 18:-0.666667 19:0.333333 20:-0.333333 23:-0.333333 24:-1 25:-0.6 27:-0.333333 28:-1 29:-1 30:-1 31:-1 32:-1 33:-1 34:-1 35:-1 36:-1 37:-1 38:-1 39:-1 40:-1 41:-1 42:-1 43:-1 44:-1 45:-1 46:-1 47:-1 48:-1 49:-1 50:-0.333333 51:-0.5 52:-0.5 53:-0.5 54:-0.6 55:-0.555556 56:-0.75 57:-1 58:-1 59:-1 60:-1 61:-0.333333 62:-1 63:-1 64:-1 65:-0.2 66:0.6 67:-0.111111 68:-0.555556 69:0.2 70:-0.428571 72:1 78:-0.5 80:1 82:1 83:1 84:1 85:1 86:1 87:1 88:1 89:-0.5 93:1 99:1 104:1 
0.5562684545277663 1:0.333333 2:-0.111111 3:0.75 4:-0.333333 5:-0.333333 6:-0.333333 7:1 8:-0.777778 9:-1 10:-1 11:-1 12:-1 13:-1 14:-0.6 15:-0.5 16:0.5 17:-0.714286 18:-0.666667 19:-0.333333 20:-0.333333 23:-0.333333 24:-1 25:-0.6 27:-0.555556 28:-1 29:-1 30:-1 31:-1 32:-1 33:-1 34:-1 35:-1 36:-1 37:-1 38:-1 39:-1 40:-1 41:-1 42:-0.6 43:-0.5 44:-0.333333 45:-0.333333 46:-0.333333 47:-0.333333 48:-1 49:-1 50:-0.333333 51:-0.5 52:-0.5 53:-0.5 54:-0.6 55:-1 56:-1 57:-1 58:-1 59:-1 60:-1 61:-1 62:-1 63:-1 64:-1 65:-1 66:-1 67:1 68:-0.555556 69:-0.2 70:-0.428571 71:1 78:-0.5 81:1 89:-0.5 90:1 104:1 
2 1:-0.333333 2:-1 3:-1 4:-1 5:-1 6:-1 7:-1 8:-0.777778 9:-1 10:-1 11:-1 12:-1 13:-1 14:-0.6 16:-0.5 17:-0.142857 18:-0.333333 19:0.333333 20:-0.333333 23:-0.333333 24:-1 25:-0.6 27:-1 28:-1 29:-1 30:-1 31:-1 32:-1 33:-1 34:-1 35:-1 36:-1 37:-1 38:-1 39:-1 40:-1 41:-1 42:-0.6 43:-0.5 44:-0.333333 45:-0.333333 46:0.333333 47:-0.333333 48:-1 49:-1 50:-0.333333 51:-0.5 52:-0.5 53:-0.5 54:-0.6 55:-1 56:-1 57:-1 58:-1 59:-1 60:-1 61:-1 62:-1 63:-1 64:-1 65:-1 66:-1 67:-0.111111 68:-0.555556 69:-0.2 70:-0.428571 71:1 78:-0.5 81:1 89:-0.5 91:1 104:1 
0.5457120964596712 1:0.111111 2:-0.333333 3:-0.5 4:-0.333333 5:-0.333333 6:-0.333333 7:-0.333333 8:-0.777778 9:-1 10:-1 11:-1 12:-1 13:-1 14:-0.2 15:-0.5 16:0.5 17:-0.714286 18:-1 19:0.333333 20:-1 22:1 23:-0.333333 24:-1 25:-0.6 26:-1 27:-0.333333 28:-1 29:-1 30:-1 31:-0.333333 32:-1 33:-1 34:-1 35:-1 36:-1 37:-1 38:-1 39:-1 40:-0.333333 41:-1 42:-0.6 44:-0.333333 45:-0.333333 46:-0.333333 47:-0.333333 48:-0.5 49:-1 50:-0.333333 51:-0.5 52:-0.5 53:-0.5 54:-0.2 55:-1 56:-1 57:-1 58:-1 59:-1 60:-1 61:-1 62:-1 63:-1 64:-1 65:-1 66:-1 67:-0.777778 68:-0.555556 69:0.6 70:-0.142857 75:1 78:-0.5 81:1 89:-0.5 92:1 104:1 
1.214751884098553 1:0.555556 2:-0.333333 3:-0.25 4:-0.333333 5:-0.333333 6:-0.333333 7:-0.333333 8:-0.777778 9:-1 10:-1 11:-1 12:-1 13:-1 14:-0.6 15:-0.5 16:-0.5 17:-1 18:-1 19:0.333333 20:-0.333333 23:-0.333333 24:-1 25:-0.6 27:-1 28:-1 29:-0.333333 30:-1 31:0.111111 32:-1 33:-1 34:-0.333333 35:0.111111 36:-1 37:-1 38:-1 39:-1 40:-1 41:-1 42:-0.6 43:-0.5 44:-0.333333 45:-0.333333 46:-0.333333 47:-0.333333 48:-1 49:-1 50:-0.333333 51:-0.5 52:-0.5 53:-0.5 54:-0.2 55:-1 56:-1 57:-1 58:-1 59:-1 60:-1 61:-1 62:-1 63:-1 64:-1 65:-1 66:-1 67:-0.111111 68:-0.555556 69:-0.2 70:-0.142857 72:1 78:-0.5 79:1 80:1 89:-0.5 90:1 92:1 104:1 
0.5866989125904568 1:0.555556 2:-0.555556 4:-0.333333 5:-0.333333 6:-0.333333 7:-0.333333 8:0.777778 9:-0.5 10:-0.333333 11:-0.333333 12:-0.333333 13:-0.333333 14:-0.2 15:-0.5 16:-0.5 17:-0.714286 18:-0.666667 19:0.333333 20:-0.333333 23:-0.333333 24:-1 25:-0.6 27:-0.777778 28:-1 29:-1 30:-1 31:-0.777778 32:-1 33:-1 34:-0.111111 35:-1 36:-1 37:-1 38:-1 39:-1 40:-1 41:-1 42:-0.2 43:-0.5 44:-0.333333 45:-0.333333 46:-0.333333 47:-0.333333 48:-1 49:-1 50:-0.333333 51:-0.5 52:-0.5 53:-0.5 54:-0.2 55:-1 56:-1 58:-1 59:-1 60:-1 61:-1 62:-1 63:-1 64:-1 65:-1 66:-1 67:-0.111111 68:-0.555556 69:-0.2 70:0.714286 71:1 79:1 88:1 89:-1 90:1 104:1 
1.408115066918276 1:0.333333 2:-0.555556 3:0.75 4:-0.333333 5:-0.333333 6:-0.333333 7:-0.333333 8:0.111111 9:-0.5 10:-0.333333 11:-0.333333 12:-0.333333 13:-0.333333 14:-0.6 15:-0.5 16:-0.5 17:-0.714286 18:-0.666667 19:-0.333333 20:-0.333333 23:-0.333333 24:-1 25:-0.6 27:-0.333333 28:-1 29:-1 30:-0.333333 31:-0.333333 32:-1 33:-0.555556 34:-0.111111 35:-1 36:-1 37:-1 38:-1 39:-1 40:-1 41:-1 42:-0.6 43:-0.5 44:-0.333333 45:-0.333333 46:-0.333333 47:-0.333333 48:-1 49:-1 50:-0.333333 51:-0.5 52:-0.5 53:-0.5 54:-0.6 55:-1 56:-1 57:-1 58:-1 59:-1 60:-1 61:-0.333333 62:-1 63:-1 64:-1 65:-1 66:-1 67:1 68:-0.777778 69:-0.2 70:0.714286 71:1 79:1 87:1 89:-0.5 90:1 104:1 
2 1:0.111111 2:-0.333333 3:-0.25 4:-0.333333 5:-0.333333 6:-0.333333 7:-0.333333 8:0.111111 9:-0.25 10:-0.333333 11:-0.333333 12:-0.333333 13:-0.333333 14:-0.6 15:-0.5 16:-0.5 17:-0.714286 18:-1 19:0.333333 20:-0.333333 23:-0.333333 24:-1 25:-0.6 26:-1 27:-1 28:-1 29:-0.333333 30:-0.333333 31:-1 32:-1 33:-1 34:0.111111 35:-1 36:-1 37:-1 38:-1 39:-1 40:-0.333333 41:-1 42:-0.6 43:-0.5 44:-0.333333 45:-0.333333 46:0.333333 47:-0.333333 48:-0.5 49:-1 50:-1 51:-0.5 52:-0.5 53:-0.5 54:0.2 55:-1 56:-0.25 57:-1 58:-1 59:-1 60:-1 61:-1 62:-1 63:-1 64:-1 65:-1 66:-1 67:-0.111111 68:-0.555556 69:0.6 70:-0.142857 72:1 78:-0.5 79:1 80:1 87:1 89:-0.5 90:1 104:1 
1.375599678038382 1:0.333333 2:-0.333333 4:-0.333333 5:-0.333333 6:-0.333333 7:-0.333333 8:-1 9:-1 10:-0.333333 11:0.333333 12:-0.333333 13:-0.333333 14:-0.6 15:-0.5 16:-0.5 17:-0.714286 18:-0.666667 19:0.333333 20:-0.333333 23:-0.333333 24:-1 25:-0.6 27:-1 28:-1 29:-1 30:-1 31:-0.333333 32:-1 33:-1 34:-1 35:-1 36:-1 37:-1 38:-0.25 39:-1 40:-0.333333 41:-1 42:-0.6 43:-0.5 44:-0.333333 45:-0.333333 46:-0.333333 47:-0.333333 48:-1 49:-1 50:-0.333333 51:-0.5 52:-0.5 53:-0.5 54:-0.2 55:-1 56:-1 57:-1 58:-1 59:-1 60:-1 61:-1 62:-1 63:-1 64:-1 65:-1 66:-1 67:-0.111111 68:-0.555556 69:0.6 70:-0.142857 72:1 78:-0.5 79:1 80:1 85:1 87:1 92:1 104:1 
2 1:-0.777778 2:-1 3:-0.75 4:-0.333333 5:-0.333333 6:0.333333 7:-0.333333 8:-0.777778 9:-1 10:-0.333333 11:-0.333333 12:-0.333333 13:-0.333333 14:-0.6 15:-0.5 16:0.5 17:-0.714286 19:0.333333 20:-0.333333 21:1 23:-0.333333 24:-1 25:-0.6 27:-1 28:-1 29:-1 30:-1 31:-0.333333 32:-1 33:-1 34:-0.333333 35:-1 36:-1 37:-1 38:-1 39:-1 40:-1 41:-1 42:-0.6 43:-0.5 44:-0.333333 45:-0.333333 46:-0.333333 47:-0.333333 48:-1 49:-1 50:-0.333333 51:-0.5 52:-0.5 53:-0.5 54:-0.2 55:-1 56:-1 57:-1 58:-0.333333 59:-1 60:-1 61:-1 62:-1 63:-1 64:-1 65:-1 66:-1 67:-0.111111 68:-0.555556 69:0.6 70:-0.142857 72:1 78:-0.5 79:1 80:1 87:1 89:-0.5 92:1 104:1 
2 1:-0.777778 2:-1 3:-0.75 4:-0.333333 5:-0.333333 6:-0.333333 7:-0.333333 8:-0.777778 9:-1 10:-0.333333 11:-0.333333 12:-0.333333 13:-0.333333 14:-0.6 15:-0.5 16:-0.5 17:-0.714286 18:-0.666667 19:0.333333 20:-0.333333 23:-0.333333 24:-1 25:-0.6 27:-1 28:-1 29:-1 30:-1 31:-1 32:-1 33:-1 34:-1 35:-1 36:-1 37:-1 38:-1 39:-1 40:-1 41:-1 42:-0.6 43:-0.5 44:-0.333333 45:-0.333333 46:-0.333333 47:-0.333333 48:-1 49:-1 50:-0.333333 51:-0.5 52:-0.5 53:-0.5 54:-0.2 55:-1 56:-1 57:-1 58:-1 59:-1 60:-1 61:-1 62:-1 63:-1 64:-1 65:-1 66:-1 67:-0.111111 68:-0.555556 69:-0.2 70:-0.142857 72:1 78:-0.5 81:1 89:-0.5 92:1 104:1 
1.103382496233668 1:0.555556 2:-1 3:-0.25 4:-0.333333 5:-0.333333 6:-0.333333 7:-0.333333 8:-0.777778 9:-1 10:-0.333333 11:-0.333333 12:-0.333333 13:-0.333333 14:-0.6 15:-0.5 16:-0.5 17:-0.714286 18:-0.666667 19:0.333333 20:-0.333333 23:-0.333333 24:-1 25:-0.6 27:-1 28:-1 29:-1 30:-1 31:-1 32:-1 33:-1 34:-1 35:-1 36:-1 37:-1 38:-1 39:-1 40:-1 41:-1 42:-0.6 43:-0.5 44:-0.333333 45:1 46:0.333333 47:-0.333333 48:-1 49:-1 50:-0.333333 51:-0.5 52:-0.5 53:-0.5 54:-0.6 55:-1 56:-1 58:-0.333333 59:-1 60:-1 61:-1 62:-1 63:-1 64:-1 65:-1 66:-1 67:-0.777778 68:-0.555556 69:0.2 70:-0.142857 76:1 78:-0.5 81:1 89:-0.5 92:1 104:1 
2 1:-0.777778 2:-1 3:-0.75 4:-0.333333 5:-0.333333 6:-0.333333 7:-0.333333 8:-0.777778 9:-1 10:-0.333333 11:-0.333333 12:-0.333333 13:-0.333333 14:-0.6 15:-0.5 16:-0.5 17:-0.714286 18:-0.666667 19:0.333333 20:-0.333333 23:-0.333333 24:-1 25:-0.6 27:-1 28:-1 29:-1 30:-1 31:-1 32:-1 33:-1 34:-1 35:-0.333333 36:-1 37:-1 38:-1 39:-1 40:-0.333333 41:-1 42:-0.6 43:-0.5 44:-0.333333 45:-0.333333 46:-0.333333 47:-0.333333 48:-1 49:-1 50:-0.333333 51:-0.5 52:-0.5 53:-0.5 54:-0.6 55:-1 56:-1 57:-1 58:-1 59:-1 60:-1 61:-1 62:-1 63:-1 64:-1 65:-0.2 66:0.2 67:-0.111111 68:-0.555556 69:-0.2 70:-0.428571 72:1 73:1 78:-0.5 81:1 89:-0.5 92:1 104:1 
1.997997475148926 1:-0.777778 2:-1 3:-0.75 4:-0.333333 5:-0.333333 6:-0.333333 7:-0.333333 8:-0.777778 9:-1 10:-0.333333 11:-0.333333 12:-0.333333 13:-0.333333 14:0.2 15:-0.5 16:0.5 17:0.142857 18:-0.333333 19:-0.333333 20:0.333333 23:-0.333333 24:-1 25:-0.6 27:-0.555556 28:-1 29:-1 30:-1 31:-1 32:-0.555556 33:-0.111111 34:-1 35:-1 36:-1 37:-1 38:-1 39:-1 40:-1 41:-1 42:-0.6 43:-0.5 44:-0.333333 45:-0.333333 46:-0.333333 47:-0.333333 48:-1 49:-1 50:-0.333333 51:-0.5 52:-0.5 53:-0.5 54:-0.6 55:-1 56:-1 57:-1 58:-1 59:-1 60:-1 61:-0.555556 62:-1 63:-1 64:-1 65:-1 66:-1 67:-0.111111 68:-0.777778 69:-0.2 70:-0.428571 71:1 79:1 87:1 90:1 91:1 104:1 
1.053734617420047 1:0.777778 2:-0.333333 3:-0.25 4:-0.333333 5:-0.333333 6:-0.333333 7:-0.333333 8:0.111111 9:-1 10:-0.333333 11:-0.333333 12:-0.333333 13:-0.333333 14:-0.2 15:-0.5 16:0.5 17:-0.714286 18:-0.666667 19:0.333333 20:-0.333333 23:-0.333333 24:-1 25:-0.6 27:-1 28:-1 29:-1 30:-1 31:-1 32:-1 33:-1 34:-1 35:-1 36:-1 37:-1 38:-1 39:-1 40:0.111111 41:-1 42:-0.6 43:-0.5 44:-0.333333 45:-0.333333 46:-0.333333 47:-0.333333 48:-1 49:-1 50:-0.333333 51:-0.5 52:-0.5 53:-0.5 54:-0.6 55:-1 56:-1 57:-1 58:-1 59:-1 60:-1 61:-1 62:-1 63:-1 64:-1 65:-0.6 66:-0.6 67:-0.111111 68:-0.555556 69:-0.2 70:-0.142857 71:1 72:1 78:-0.5 79:1 81:1 89:-0.5 92:1 104:1 
2 1:-0.777778 2:-1 3:-0.75 4:-0.333333 5:-0.333333 6:-0.333333 7:-0.333333 8:-0.777778 9:-1 10:-0.333333 11:-0.333333 12:-0.333333 13:-0.333333 14:-0.6 15:-0.5 16:-0.5 17:-0.142857 18:-0.333333 19:0.333333 20:-0.333333 23:-0.333333 24:-1 25:-0.6 27:-1 28:-1 29:-1 30:-1 31:-1 32:-1 33:-1 34:-1 35:-1 36:-1 37:-1 38:-1 39:-1 40:-1 41:-1 42:-0.6 43:-0.5 44:-0.333333 45:-0.333333 46:0.333333 47:-0.333333 48:-1 49:-1 50:-0.333333 51:-0.5 52:-0.5 53:-0.5 54:-0.6 55:-1 56:-1 57:-1 58:-1 59:-1 60:-1 61:-1 62:-1 63:-1 64:-1 65:-0.2 66:0.2 67:0.333333 68:-0.777778 69:0.2 70:-0.142857 71:1 76:1 78:-0.5 79:1 80:1 87:1 89:-0.5 92:1 104:1 
1.975025235597455 1:-0.777778 2:-1 3:-0.75 4:-0.333333 5:-0.333333 6:-0.333333 7:-0.333333 8:0.333333 9:-1 10:-0.333333 11:-0.333333 12:-0.333333 13:-0.333333 14:-0.6 15:-0.5 17:-0.714286 18:-0.666667 19:0.333333 20:-0.333333 23:-0.333333 24:-1 25:-0.6 27:-0.333333 28:-0.333333 29:-0.333333 30:-1 31:-1 32:0.111111 33:-1 34:-1 35:-1 36:-0.333333 37:-1 38:-1 39:-1 40:-1 41:-1 42:-0.6 43:-0.5 44:-0.333333 45:-0.333333 46:-0.333333 47:-0.333333 48:-1 49:-1 50:1 51:-0.5 52:-0.5 53:-0.5 54:-0.2 55:-1 56:-1 57:-1 58:-1 59:-1 60:-1 61:-1 62:-1 63:-1 64:-1 65:-1 66:-1 67:-0.111111 68:-0.555556 69:0.2 70:-0.142857 71:1 78:-0.5 79:1 87:1 89:-0.5 92:1 104:1 
1.556634659469887 1:-0.777778 2:-1 3:-1 4:-1 5:-1 6:-1 7:-1 8:-1 9:-1 10:-1 11:-1 12:-1 13:-1 14:-0.6 15:-0.5 16:-0.5 17:-0.714286 18:-0.666667 19:0.333333 20:-0.333333 23:-0.333333 24:-1 25:-0.6 27:-0.333333 28:-1 29:-0.555556 30:-1 31:-1 32:-0.555556 33:-1 34:-0.333333 35:-1 36:-1 37:-1 38:-1 39:-1 40:-1 41:-1 42:-0.6 43:-0.5 44:-0.333333 45:-1 46:-0.333333 47:-0.333333 48:-0.5 49:-0.333333 50:-0.333333 51:-0.5 52:-0.5 53:-0.5 54:-0.6 55:-1 56:-1 57:-1 58:-1 59:-1 60:-1 61:-1 62:-1 63:-1 64:-1 65:-0.2 66:0.2 67:-0.111111 68:-0.555556 69:-0.2 70:-0.428571 72:1 87:1 90:1 91:1 104:1 
1.394217221022544 1:-0.777778 2:-1 3:-0.75 4:-0.333333 5:-0.333333 6:-0.333333 7:-0.333333 8:-0.777778 9:-1 10:-0.333333 11:-0.333333 12:-0.333333 13:-0.333333 14:0.2 15:-0.5 16:-0.5 17:-1 18:-1 19:0.333333 20:-0.333333 23:-0.333333 24:-1 25:-0.6 27:-0.333333 28:-1 29:-0.333333 30:-1 31:-1 32:-1 33:-1 34:0.111111 35:-0.333333 36:-1 37:-1 38:-1 39:-1 40:0.111111 41:-1 42:-1 43:-0.5 44:-0.333333 45:-0.333333 46:-0.333333 47:-0.333333 48:-1 49:0.333333 50:-0.333333 51:-0.5 52:-0.5 53:-1 54:0.6 55:-1 56:-1 57:-1 58:-1 59:-1 60:-1 61:-1 62:-1 63:-1 64:-1 65:-0.6 66:-0.6 67:-0.111111 68:-0.555556 69:0.2 70:0.714286 71:1 72:1 78:-0.5 79:1 87:1 89:-0.5 92:1 104:1 
2 1:-0.777778 2:-1 3:-0.75 4:-0.333333 5:-0.333333 6:-0.333333 7:-0.333333 8:-0.777778 9:-1 10:-0.333333 11:-0.333333 12:-0.333333 13:-0.333333 14:-0.6 15:-0.5 16:-0.5 17:-0.714286 18:-1 19:0.333333 20:-0.333333 23:-0.333333 24:-1 25:-0.6 27:-1 28:-1 29:-1 30:-1 31:-0.333333 32:-0.333333 33:-1 34:-0.333333 35:-1 36:-1 37:-1 38:-1 39:-1 40:-0.333333 41:-1 42:-0.6 43:-0.5 44:-0.333333 45:-0.333333 46:-0.333333 47:-1 48:-1 49:-1 50:-1 51:-1 52:-0.5 53:-0.5 54:-0.6 55:-1 56:-1 57:-1 58:-1 59:-1 60:-1 61:-1 62:-1 63:-1 64:-1 65:-0.6 66:-0.6 67:-0.111111 68:-0.555556 69:-0.6 70:-0.142857 71:1 78:-0.5 79:1 81:1 89:-0.5 92:1 104:1 
0.8111771456467738 1:1 2:-0.555556 3:-0.5 4:-0.333333 5:-0.333333 6:-0.333333 7:0.333333 8:-0.777778 9:-1 10:-1 11:-1 12:-1 13:-1 14:0.2 15:-0.5 16:0.5 17:-0.428571 18:-0.666667 19:-0.333333 20:0.333333 23:-0.333333 24:-1 25:-0.6 27:-0.555556 28:-1 29:-1 30:-1 31:-1 32:-0.111111 33:-1 34:-1 35:-1 36:-1 37:-1 38:-1 39:-1 40:-1 41:-1 42:-0.6 43:-0.5 44:-0.333333 45:-0.333333 46:0.333333 47:-0.333333 48:-0.5 49:0.333333 50:-0.333333 51:-0.5 52:-0.5 53:-0.5 54:-0.6 55:-1 56:-1 57:-1 58:-1 59:-1 60:-1 61:-0.333333 62:-1 63:-1 64:-1 65:-0.2 66:0.2 67:-0.111111 68:-0.555556 69:-0.2 70:-0.428571 73:1 79:1 80:1 89:0.5 90:1 91:1 104:1 
0.1508887596677762 1:-0.333333 2:-0.333333 3:-0.25 4:-0.333333 5:-0.333333 6:-0.333333 7:-0.333333 8:-0.777778 9:-1 10:-0.333333 11:-0.333333 12:-0.333333 13:-0.333333 14:-0.2 15:-0.5 16:0.5 17:-0.428571 18:-1 19:0.333333 20:-0.333333 23:-0.333333 24:-1 25:-0.6 27:0.111111 28:-1 29:-1 30:-1 31:-1 32:-1 33:-1 34:-0.333333 35:-1 36:-1 37:-1 38:-1 39:-1 40:0.111111 41:-1 42:-0.2 43:-0.5 44:-0.333333 45:-0.333333 46:-0.333333 47:-0.333333 48:-1 49:-1 50:-1 51:-0.5 52:-0.5 53:-0.5 54:-0.6 55:-1 56:-1 57:-1 58:-1 59:-1 60:-1 61:-1 62:-1 63:-1 64:-1 65:-0.6 66:-0.6 67:0.777778 68:-0.555556 69:0.2 70:-0.428571 71:1 78:-0.5 79:1 81:1 89:-0.5 92:1 104:1 
2 1:-0.777778 2:-1 3:-0.75 4:-0.333333 5:-0.333333 6:-0.333333 7:-0.333333 8:-0.777778 9:-1 10:-0.333333 11:-0.333333 12:-0.333333 13:-0.333333 14:-0.6 16:-0.5 17:-0.428571 18:-1 19:0.333333 20:-1 23:-0.333333 24:-1 25:-0.6 27:-1 28:-1 29:-1 30:-1 31:-1 32:-1 33:-1 34:-1 35:-0.333333 36:-1 37:-1 38:-1 39:-1 40:-1 41:-1 42:-1 44:-0.333333 45:1 46:0.333333 47:-0.333333 48:-1 49:-1 50:-0.333333 51:-0.5 52:-0.5 53:-0.5 54:0.6 55:-1 56:-1 57:-1 58:-1 59:-1 60:-1 61:-1 62:-1 63:-1 64:-1 65:-0.6 66:-0.6 67:0.777778 68:-0.555556 69:0.2 70:-0.142857 75:1 78:-0.5 79:1 81:1 89:-0.5 92:1 104:1 
2 1:-0.777778 2:-1 3:-0.75 4:-0.333333 5:-0.333333 6:-0.333333 7:-0.333333 8:-0.555556 9:-0.25 10:-0.333333 11:-0.333333 12:-0.333333 13:-0.333333 14:-0.2 15:-1 16:0.5 17:-0.428571 19:0.333333 20:-0.333333 23:-0.333333 24:-1 25:-0.6 27:-1 28:-1 29:-1 30:-0.333333 31:-0.333333 32:-1 33:-1 34:-1 35:-0.333333 36:-1 37:-1 38:-1 39:-0.25 40:-1 41:-1 42:-0.6 43:-0.5 44:-0.333333 45:-0.333333 46:-0.333333 47:-0.333333 48:-0.5 49:-1 50:-0.333333 51:-1 52:-0.5 53:-0.5 54:-0.6 55:-1 56:-1 57:-1 58:-1 59:-1 60:-1 61:-1 62:-1 63:-1 64:-1 65:-0.2 66:-0.2 67:0.333333 68:-0.777778 69:-0.2 70:-0.142857 72:1 78:-0.5 79:1 81:1 89:-0.5 92:1 104:1 
1.771351906227064 1:-0.777778 2:-1 3:-1 4:-1 5:-1 6:-1 7:-1 8:-0.777778 9:-1 10:-1 11:-1 12:-1 13:-1 14:-0.6 15:-0.5 16:-0.5 17:-0.428571 18:-0.666667 19:-0.333333 20:0.333333 23:-0.333333 24:-1 25:-0.6 27:-1 28:-1 29:-0.333333 30:-1 31:-0.333333 32:-1 33:-0.111111 34:-1 35:-1 36:-1 37:-1 38:-1 39:-1 40:-1 41:-1 42:-0.6 43:-0.5 44:-0.333333 45:-0.333333 46:0.333333 47:0.333333 48:-0.5 49:-0.333333 50:0.333333 51:-0.5 52:-0.5 53:-0.5 54:-0.2 55:-1 56:-1 57:-1 58:-1 59:-1 60:-1 61:-1 62:-1 63:-1 64:-1 65:-0.2 66:0.6 67:0.555556 68:-0.555556 69:-0.2 70:-0.428571 78:-0.5 79:1 87:1 89:-0.5 91:1 92:1 99:1 104:1 
0.331705765637848 1:-0.777778 2:-1 3:-1 4:-1 5:-1 6:-1 7:-1 8:-0.777778 9:-1 10:-1 11:-1 12:-1 13:-1 14:-0.6 15:0.5 16:-0.5 17:-0.142857 18:-0.333333 19:-0.333333 20:-0.333333 23:-0.333333 24:-1 25:-0.6 27:0.333333 28:-1 29:-0.333333 30:-1 31:-1 32:-0.111111 33:-1 34:-1 35:-1 36:-1 37:-1 38:-1 39:-1 40:-1 41:-1 42:0.2 43:-0.5 44:-0.333333 45:-0.333333 46:0.333333 47:-0.333333 48:-0.5 49:-0.333333 50:-0.333333 51:-0.5 52:-0.5 53:-0.5 54:-0.2 55:-0.333333 56:-1 57:-1 58:-1 59:-1 60:-1 61:-1 62:-1 63:-1 64:-1 65:-0.2 66:0.2 67:-0.111111 68:-0.555556 69:-0.2 70:-0.428571 76:1 78:-0.5 79:1 87:1 91:1 95:1 104:1 
0.2976571404275984 1:-0.777778 2:-1 3:-1 4:-1 5:-1 6:-1 7:-1 8:-0.777778 9:-1 10:-1 11:-1 12:-1 13:-1 14:0.2 15:-0.5 16:-0.5 17:0.142857 18:0.333333 19:-0.333333 20:0.333333 23:-0.333333 24:-1 25:-0.6 27:0.111111 28:-0.111111 29:-0.111111 30:-0.555556 31:-0.555556 32:-1 33:-1 34:-0.111111 35:-1 36:-1 37:-1 38:-1 39:-0.25 40:-1 41:-1 42:-0.6 43:-0.5 44:-0.333333 45:-0.333333 46:-0.333333 47:-0.333333 48:-0.5 49:-0.333333 50:-0.333333 51:-0.5 52:-0.5 53:-0.5 54:-0.2 55:-1 56:-1 57:-1 58:-1 59:-1 60:-1 61:-1 62:-1 63:-1 64:-0.111111 65:-0.2 66:0.2 67:0.555556 68:-0.555556 69:-0.2 70:-0.428571 74:1 79:1 87:1 89:0.5 90:1 91:1 99:1 104:1 
2 1:-0.777778 2:-1 3:-0.75 4:-0.333333 5:-0.333333 6:-0.333333 7:-0.333333 8:-0.777778 9:-1 10:-0.333333 11:-0.333333 12:-0.333333 13:-0.333333 14:-0.6 15:-0.5 16:0.5 17:-0.714286 18:-1 19:0.333333 20:-0.333333 21:-1 23:-0.333333 24:-1 25:-0.6 26:-1 27:-1 28:-1 29:-1 30:-1 31:-1 32:-1 33:-1 34:-1 35:-1 36:-1 37:-1 38:-1 39:-1 40:-1 41:-1 42:-0.6 43:-0.5 44:-0.333333 45:-0.333333 46:-0.333333 47:-0.333333 48:-1 49:-1 50:-1 51:-0.5 52:-0.5 53:-0.5 54:-0.6 55:-1 56:-1 57:-1 58:-1 59:-1 60:-1 61:-1 62:-1 63:-1 64:-1 65:-0.6 66:-0.6 67:-0.111111 68:-0.555556 69:0.2 70:0.714286 72:1 78:-0.5 79:1 80:1 89:-0.5 92:1 104:1 
1.570492759375757 1:-0.777778 2:-1 3:-0.75 4:-0.333333 5:-0.333333 6:-0.333333 7:-0.333333 8:-0.777778 9:-1 10:-0.333333 11:-0.333333 12:-0.333333 13:-0.333333 14:-0.2 15:-0.5 16:0.5 17:-0.428571 18:-1 19:0.333333 20:-0.333333 21:1 23:-0.333333 24:-1 25:-0.6 27:-0.333333 28:-1 29:-1 30:-1 31:-1 32:-1 33:-1 34:-1 35:-1 36:-1 37:-1 38:-1 39:-1 40:-1 41:-1 42:-0.2 43:-0.5 44:-1 45:-0.333333 46:-0.333333 47:-0.333333 48:-0.5 49:-1 50:-1 51:-0.5 52:-0.5 53:-0.5 54:-0.6 55:-1 56:-1 57:-1 58:-1 59:-1 60:-1 61:-1 62:-1 63:-1 64:-1 65:-0.6 66:-0.6 67:1 68:-0.777778 69:0.2 70:-0.142857 76:1 78:-0.5 79:1 82:1 89:-0.5 92:1 104:1 
1.142375912612575 1:-0.777778 2:-1 3:-0.75 4:-0.333333 5:-0.333333 6:-0.333333 7:-0.333333 8:-0.777778 9:-1 10:-0.333333 11:-0.333333 12:-0.333333 13:-0.333333 14:-0.6 15:-0.5 16:-0.5 17:-0.714286 18:-1 19:0.333333 20:-0.333333 21:1 22:1 23:-1 24:-1 25:-0.6 27:-1 28:-1 29:-1 30:-1 31:-1 32:-0.333333 33:-1 34:-0.333333 35:-0.333333 36:-1 37:-1 38:-1 39:-1 40:0.111111 41:-1 42:-0.6 43:-0.5 44:-0.333333 45:-0.333333 46:-0.333333 47:-0.333333 48:-0.5 49:-0.333333 50:-1 51:-0.5 52:-0.5 53:-0.5 54:-0.6 55:-0.333333 56:0.25 57:-1 58:-1 59:-1 60:-1 61:-1 62:-1 63:-1 64:-1 65:-0.2 66:0.2 67:-0.777778 68:-0.555556 69:-0.2 70:0.714286 72:1 73:1 78:-0.5 79:1 81:1 89:-0.5 92:1 104:1 
2 1:-0.777778 2:-1 3:-0.75 4:-0.333333 5:-0.333333 6:-0.333333 7:-0.333333 8:-0.777778 9:-1 10:-0.333333 11:-0.333333 12:-0.333333 13:-0.333333 14:-0.6 15:-0.5 16:-0.5 17:-0.714286 18:-0.666667 19:0.333333 20:-0.333333 23:-0.333333 24:-1 25:-0.6 27:-1 28:-1 29:-1 30:-1 31:-1 32:-1 33:-1 34:-1 35:-1 36:-1 37:-1 38:-1 39:-0.25 40:-0.333333 41:-1 42:-0.6 43:-0.5 44:-0.333333 45:-0.333333 46:-1 47:-0.333333 48:-0.5 49:-1 50:-1 51:-0.5 52:-0.5 53:-0.5 54:0.6 55:-1 56:-1 57:-1 58:-1 59:-1 60:-1 61:-1 62:-1 63:-1 64:-1 65:-0.2 66:0.2 67:-0.777778 68:-0.555556 69:0.2 70:-0.142857 76:1 78:-0.5 79:1 81:1 89:-0.5 92:1 104:1 
2 1:-0.777778 2:-1 3:-0.75 4:-0.333333 5:-0.333333 6:-0.333333 7:-0.333333 8:-0.777778 9:-1 10:-0.333333 11:-0.333333 12:-0.333333 13:-0.333333 14:-0.6 15:-0.5 16:0.5 17:-0.714286 18:-1 19:0.333333 20:-1 23:-0.333333 24:-1 25:-0.6 27:-1 28:-1 29:-1 30:-1 31:-1 32:-1 33:-1 34:-1 35:-1 36:-1 37:-1 38:-1 39:-1 40:-1 41:-1 42:-0.6 43:-0.5 44:-0.333333 45:-0.333333 46:-0.333333 47:-0.333333 48:-1 49:-1 50:-1 51:-0.5 52:-0.5 53:-0.5 54:-0.6 55:-1 56:-1 57:-1 58:-1 59:-1 60:-1 61:-1 62:-1 63:-1 64:-1 65:-0.6 66:-0.6 67:0.333333 68:-0.777778 69:-1 70:0.714286 72:1 78:-0.5 79:1 85:1 87:1 89:-0.5 90:1 104:1 
1.901558008224311 1:-0.777778 2:-1 3:-0.75 4:-0.333333 5:-0.333333 6:-0.333333 7:-0.333333 8:-0.777778 9:-1 10:-0.333333 11:-0.333333 12:-0.333333 13:-0.333333 14:-0.6 15:-0.5 16:0.5 17:-0.714286 18:-0.666667 19:0.333333 20:-0.333333 23:-0.333333 24:-1 25:-1 26:-1 27:-1 28:-1 29:-1 30:-0.333333 31:-1 32:-1 33:-1 34:-1 35:-1 36:-1 37:-1 38:-1 39:-1 40:-1 41:-1 42:-0.2 43:-0.5 44:-0.333333 45:-0.333333 46:-0.333333 47:-0.333333 48:-1 49:-1 50:-1 51:-0.5 52:-0.5 53:-0.5 54:-0.6 55:-1 56:-1 57:-1 58:-1 59:-1 60:-1 61:-1 62:-1 63:-1 64:-1 65:-0.2 66:0.6 67:-0.111111 68:-0.555556 69:0.2 70:-0.428571 72:1 78:-0.5 79:1 87:1 92:1 104:1 
