svm_type c_svc
kernel_type rbf
gamma 0.125
nr_class 2
total_sv 508
rho 0.671718
label 4 0
probA -2.96485
probB -0.267067
nr_sv 86 422
SV
1.586335656658639 1:0.777778 2:-1 4:-0.333333 5:1 6:0.333333 7:1 8:0.777778 9:-0.5 10:1 11:0.333333 12:0.333333 13:0.333333 14:-0.2 15:-0.5 16:-0.5 17:-0.142857 18:-0.333333 19:-0.333333 20:-0.333333 22:1 23:0.333333 24:1 25:0.6 26:1 27:0.555556 28:-0.555556 29:-0.777778 30:-0.777778 31:-1 32:-1 33:-0.333333 34:0.777778 35:-0.333333 36:-0.333333 37:-1 38:-0.75 39:-1 40:-0.555556 41:-1 42:-0.6 43:-0.5 44:0.333333 45:1 46:0.333333 47:0.333333 48:-1 49:0.333333 50:1 51:-1 52:-0.5 53:-0.5 54:-0.6 55:-1 56:-1 57:-1 58:-0.555556 59:-1 60:-1 61:-1 62:-1 63:-1 64:-1 65:0.2 66:0.2 67:-0.111111 68:-0.555556 69:0.2 70:-0.142857 73:1 78:-0.5 79:1 83:1 89:-0.5 91:1 104:1 
1.995804076809494 1:-0.777778 2:-1 3:-0.75 4:-0.333333 5:-0.333333 6:-0.333333 7:-0.333333 8:-0.777778 9:-1 10:-0.333333 11:-0.333333 12:-0.333333 13:-0.333333 14:-0.2 15:-0.5 16:0.5 17:-0.428571 18:-0.666667 19:-1 20:-1 23:-0.333333 24:-1 25:-0.6 26:-1 27:-0.333333 28:-0.333333 29:-1 30:-1 31:-0.333333 32:-0.333333 33:-1 34:-0.333333 35:-0.333333 36:-0.333333 37:-1 38:-1 39:-1 40:-0.333333 41:-1 42:-0.6 43:-0.5 44:-0.333333 45:-0.333333 46:-0.333333 47:-0.333333 48:-0.5 49:-1 50:1 51:-0.5 52:-0.5 53:-0.5 54:0.6 55:-1 56:-1 57:-1 58:-1 59:-1 60:-1 61:-1 62:-1 63:-1 64:-1 65:-1 66:-1 67:-0.111111 68:-0.777778 69:0.2 70:0.714286 72:1 78:-0.5 79:1 80:1 87:1 89:-0.5 90:1 92:1 104:1 
2 1:-0.777778 2:-1 3:-0.75 4:-0.333333 5:-0.333333 6:-0.333333 7:-0.333333 8:-0.777778 9:-1 10:-0.333333 11:-0.333333 12:-0.333333 13:-0.333333 14:-0.6 15:-0.5 16:0.5 17:-0.714286 18:-0.666667 19:0.333333 20:-1 21:1 22:1 23:-0.333333 24:-0.333333 25:0.2 26:-1 27:-0.333333 28:-1 29:-1 30:-1 31:-1 32:-1 33:-1 34:-1 35:0.111111 36:-1 37:-1 38:-1 39:-1 40:-1 41:-1 42:-0.2 43:-0.5 44:-0.333333 45:-0.333333 46:-0.333333 47:-0.333333 48:-0.5 49:0.333333 50:-0.333333 51:-0.5 52:-0.5 53:-0.5 54:-0.6 55:-1 56:-1 57:-1 58:-1 59:-1 60:-1 61:-1 62:-1 63:-1 64:-1 65:-1 66:-1 67:-0.111111 68:-0.555556 69:0.2 70:-0.142857 72:1 78:-0.5 79:1 81:1 89:-0.5 90:1 104:1 
2 1:-0.777778 2:-1 3:-0.75 4:-0.333333 5:-0.333333 6:-0.333333 7:-0.333333 8:-0.777778 9:-1 10:-0.333333 11:-0.333333 12:-0.333333 13:-0.333333 14:-0.6 16:-0.5 17:-0.714286 18:-0.666667 19:0.333333 20:-0.333333 23:-0.333333 24:-1 25:-0.6 26:-1 27:-0.333333 28:-0.333333 29:-1 30:-0.333333 31:-1 32:-1 33:-1 34:-1 35:-1 36:-0.333333 37:-1 38:-1 39:-0.25 40:-0.333333 41:-1 42:-0.6 44:1 45:-0.333333 46:-0.333333 47:-0.333333 48:-0.5 49:-1 50:1 51:-0.5 52:-0.5 53:-0.5 54:-0.6 55:-1 56:-1 57:-1 58:-1 59:-1 60:-1 61:-1 62:-1 63:-1 64:-1 65:-1 66:-1 67:-0.111111 68:-0.555556 69:-0.2 70:-0.142857 75:1 76:1 78:-0.5 79:1 81:1 89:-1 92:1 104:1 
2 1:-0.777778 2:-1 3:-0.75 4:-0.333333 5:-0.333333 6:-0.333333 7:-0.333333 8:-0.777778 9:-1 10:-0.333333 11:-0.333333 12:-0.333333 13:-0.333333 14:-0.6 16:0.5 17:0.142857 18:-0.333333 19:-0.333333 20:-0.333333 22:1 23:-0.333333 24:-1 25:-1 26:-1 27:-0.333333 28:-1 29:-1 30:-1 31:-1 32:-0.777778 33:-0.333333 34:-0.333333 35:-0.555556 36:-1 37:-1 38:-1 39:-1 40:-1 41:-1 42:-0.2 44:-0.333333 45:-0.333333 46:-0.333333 47:-0.333333 48:-0.5 49:-1 50:1 51:-0.5 52:-0.5 53:-0.5 54:-0.6 55:-1 56:-1 57:-0.333333 58:-1 59:-1 60:-1 61:-0.333333 62:-1 63:-0.555556 64:-1 65:-0.2 66:0.6 67:-0.111111 68:-0.777778 69:0.2 70:-0.714286 71:1 79:1 81:1 89:-0.5 90:1 92:1 104:1 
2 1:-0.777778 2:-1 3:-0.75 4:-0.333333 5:-0.333333 6:-0.333333 7:-0.333333 8:-0.777778 9:-1 10:-0.333333 11:-0.333333 12:-0.333333 13:-0.333333 14:-0.6 15:-0.5 16:-0.5 17:-1 18:-0.666667 19:0.333333 20:-0.333333 21:-1 22:1 23:-0.333333 24:-1 25:-0.6 27:-1 28:-1 29:-1 30:-1 31:-0.333333 32:-0.333333 33:-0.333333 34:-0.333333 35:-1 36:-1 37:-1 38:-1 39:-1 40:-1 41:-1 42:-0.2 44:-0.333333 45:-0.333333 46:-0.333333 47:-0.333333 48:-0.5 49:0.333333 50:-0.333333 51:-0.5 52:-0.5 53:-0.5 54:-0.6 55:-1 56:-1 57:-1 58:-1 59:-1 60:-1 61:-0.333333 62:-1 63:-1 64:-1 65:-0.2 66:0.6 67:-0.777778 68:-0.555556 69:-0.2 70:-0.428571 72:1 78:-0.5 79:1 81:1 89:-0.5 92:1 104:1 
1.661290604454084 1:0.555556 2:0.111111 3:-0.5 4:-0.333333 5:-0.333333 6:-0.333333 7:1 8:-0.777778 9:-1 10:-0.333333 11:-0.333333 12:-0.333333 13:-0.333333 14:-0.6 15:-0.5 16:-0.5 17:-0.714286 19:0.333333 20:0.333333 21:1 23:-0.333333 24:-1 25:-0.6 27:-1 28:-0.111111 29:-1 30:-1 31:0.111111 32:-1 33:0.333333 34:-1 35:-0.777778 36:-0.333333 37:-1 39:-1 40:0.333333 41:-1 42:-0.2 43:1 44:-0.333333 45:-0.333333 46:0.333333 47:-0.333333 48:-0.5 49:-1 50:-0.333333 52:0.5 53:-0.5 54:-0.6 55:-1 56:-1 57:-1 58:-1 59:-1 60:-1 61:-1 62:-1 63:-0.333333 64:-1 65:-0.2 66:0.6 67:-0.111111 68:-0.555556 69:0.2 70:-0.714286 72:1 78:0.5 79:1 80:1 89:-0.5 90:1 91:1 96:1 104:1 
1.423558194579699 1:-0.777778 2:-1 3:-0.75 4:-0.333333 5:-0.333333 6:-0.333333 7:-0.333333 8:-0.777778 9:-1 10:-0.333333 11:-0.333333 12:-0.333333 13:-0.333333 14:-0.6 16:-0.5 17:-0.714286 18:-0.666667 19:0.333333 20:-0.333333 23:-0.333333 24:-1 25:-0.6 26:-1 27:-1 28:-1 29:-1 30:-0.333333 31:-1 32:-1 33:-1 34:-0.333333 35:-0.333333 36:-0.333333 37:-1 38:-1 39:-1 40:-1 41:-1 42:-0.6 43:-0.5 44:0.333333 45:-0.333333 46:-0.333333 47:-0.333333 48:-1 49:-0.333333 50:1 51:-0.5 52:-0.5 53:-0.5 54:-0.6 55:-1 56:-1 57:-1 58:-1 59:-1 60:-1 61:-1 62:-1 63:-1 64:-1 65:-1 66:-1 67:-0.111111 68:-0.333333 69:0.6 70:0.714286 72:1 79:1 80:1 86:1 89:-0.5 92:1 93:1 104:1 
1.719697495375782 1:0.555556 2:-0.333333 3:-0.5 4:-0.333333 5:-0.333333 6:-0.333333 7:-0.333333 8:-0.777778 9:-1 10:-0.333333 11:-0.333333 12:-0.333333 13:-0.333333 14:-0.2 15:-1 16:0.5 17:-0.428571 18:-0.666667 19:-1 20:-1 23:-0.333333 24:-1 25:-0.6 26:-1 27:0.111111 28:-1 29:0.111111 30:-1 31:-1 32:-1 33:-1 34:-1 35:-0.333333 36:0.111111 37:-1 38:-1 39:-1 40:-1 41:-1 42:0.2 43:-1 44:-0.333333 45:1 46:0.333333 47:-0.333333 48:-1 49:1 50:-0.333333 51:-0.5 52:-0.5 53:-0.5 54:-0.2 55:-0.333333 56:-1 57:-1 58:-1 59:-1 60:-1 61:-1 62:-1 63:-1 64:-1 65:-0.2 66:-0.2 67:-0.555556 68:-0.555556 69:-0.6 70:0.714286 72:1 78:-0.5 79:1 80:1 89:-0.5 90:1 104:1 
1.818626527868205 1:-0.777778 2:-1 3:-1 4:-1 5:-1 6:-1 7:-1 8:0.333333 10:1 11:-0.333333 12:-0.333333 13:0.333333 14:-0.6 15:-0.5 16:0.5 17:-0.714286 18:-0.666667 19:-0.333333 20:-0.333333 23:-0.333333 24:-1 25:-0.6 27:-0.555556 28:-1 29:-0.777778 30:-1 31:-1 32:-0.777778 33:-0.555556 34:-0.555556 35:-1 36:-1 37:-1 38:-1 39:-1 40:-0.333333 41:-1 42:-0.2 43:1 44:-0.333333 45:-0.333333 46:-0.333333 47:-0.333333 48:-0.5 49:-0.333333 50:-0.333333 51:-0.5 52:-0.5 53:-0.5 54:0.2 55:-1 56:-1 57:-1 58:-1 59:-1 60:-1 61:-1 62:-1 63:-0.555556 64:-1 65:-0.2 66:0.2 67:1 68:-0.777778 69:-0.2 70:0.142857 78:-0.5 79:1 81:1 89:-0.5 90:1 104:1 
2 1:-0.777778 2:-1 3:-1 4:-1 5:-1 6:-1 7:-1 8:-0.777778 9:-1 10:-1 11:-1 12:-1 13:-1 14:-0.6 15:0.5 16:-0.5 17:-0.428571 18:-0.333333 19:-0.333333 20:-0.333333 23:-0.333333 24:-1 25:-0.6 27:0.333333 28:-0.555556 29:-1 30:-0.333333 31:-0.333333 32:-1 33:-0.555556 34:-0.333333 35:-1 36:-1 37:-1 38:-1 39:-1 40:-1 41:-1 42:-0.2 44:-0.333333 45:-0.333333 46:-0.333333 47:-0.333333 48:-1 49:-1 50:0.333333 51:-0.5 52:-0.5 53:-0.5 54:-0.6 55:-0.777778 56:-1 57:-0.333333 58:-0.333333 59:-1 60:-1 61:-0.555556 62:-1 63:-0.333333 64:-1 65:-0.2 66:-0.2 67:-0.111111 68:-0.555556 69:0.2 70:-0.714286 72:1 73:1 79:1 87:1 89:-0.5 93:1 99:1 104:1 
2 1:-0.777778 2:-1 3:-1 4:-1 5:-1 6:-1 7:-1 8:-0.777778 9:-1 10:-1 11:-1 12:-1 13:-1 14:-0.6 15:-0.5 16:-0.5 17:-0.714286 18:-0.666667 19:-0.333333 20:-0.333333 23:-0.333333 24:-1 25:-0.6 27:-1 28:-1 29:-1 30:-1 31:-1 32:-1 33:-1 34:-0.333333 35:-0.333333 36:-1 37:-1 38:-1 39:-1 40:-0.333333 41:-1 42:-0.6 44:-0.333333 45:-0.333333 46:-0.333333 47:-0.333333 48:-0.5 49:-1 50:-0.333333 51:-0.5 52:-0.5 53:-0.5 54:-0.6 55:-1 56:-1 57:-1 58:-1 59:-1 60:-1 61:-1 62:-1 63:-1 64:-1 65:-1 66:-1 67:-0.777778 68:-0.777778 69:-0.2 70:-0.142857 71:1 78:-0.5 79:1 80:1 87:1 89:-0.5 91:1 92:1 104:1 
2 1:-0.777778 2:-1 3:-1 4:-1 5:-1 6:-1 7:-1 8:0.777778 9:-0.25 10:-0.333333 11:-0.333333 12:0.333333 13:0.333333 14:-0.6 15:-0.5 16:0.5 17:-0.428571 18:-0.666667 19:-0.333333 20:-0.333333 23:-0.333333 24:-1 25:-0.6 27:-1 28:-1 29:-0.333333 30:-1 31:-0.777778 32:-1 33:-1 34:-0.555556 35:-0.333333 36:-1 37:-1 38:-1 39:-1 40:-0.333333 41:-1 42:-0.6 43:-0.5 44:-0.333333 45:-0.333333 46:-0.333333 47:-0.333333 48:-0.5 49:-0.333333 50:-0.333333 51:-0.5 52:-0.5 53:-0.5 54:-0.6 55:-1 56:-1 57:-1 58:-1 59:-1 60:-1 61:-1 62:-1 63:-1 64:-1 65:-1 66:-1 67:-0.111111 68:-0.777778 69:-0.2 70:-1 72:1 79:1 81:1 89:0.5 90:1 99:1 104:1 
1.946514359180749 1:-0.777778 2:-1 3:-1 4:-1 5:-1 6:-1 7:-1 8:-0.777778 9:-1 10:-1 11:-1 12:-1 13:-1 14:-0.6 17:-0.142857 18:-0.666667 19:0.333333 20:-0.333333 23:-0.333333 24:-1 25:-0.6 27:-1 28:-1 29:-0.333333 30:-0.333333 31:-0.333333 32:-1 33:-1 34:-0.333333 35:-1 36:-0.333333 37:-1 38:-1 39:-1 40:-0.333333 41:-1 42:-0.2 43:-0.5 44:0.333333 45:-0.333333 46:-0.333333 47:-0.333333 48:-0.5 49:-0.333333 50:1 51:-0.5 52:-0.5 53:-0.5 54:-0.2 55:-1 56:-0.25 58:-0.333333 59:-1 60:-1 61:-1 62:-1 63:-1 64:-1 65:-1 66:-1 67:-0.333333 68:-0.555556 69:-0.2 70:-0.428571 71:1 72:1 78:-0.5 79:1 87:1 89:-0.5 92:1 104:1 
2 1:0.555556 2:0.111111 4:-0.333333 5:-0.333333 6:-0.333333 7:-0.333333 8:0.555556 9:-0.25 10:-0.333333 11:-0.333333 12:-0.333333 13:-0.333333 14:-0.6 15:-0.5 16:-0.5 17:-0.714286 18:-0.333333 19:0.333333 20:-0.333333 21:1 22:1 23:-0.333333 24:-1 25:-0.6 27:-0.333333 28:-1 29:-1 30:-1 31:-1 32:-1 33:-1 34:0.111111 35:-1 36:-1 37:-1 38:-1 39:-1 40:-1 41:-1 42:-0.6 43:-0.5 44:-0.333333 45:-0.333333 46:-0.333333 47:-0.333333 48:-0.5 49:-0.333333 50:-0.333333 51:-0.5 52:-0.5 53:-0.5 54:-0.6 55:-1 56:-1 57:-1 58:-1 59:-1 60:-1 61:-0.333333 62:-1 63:0.111111 64:-1 65:-1 66:-1 67:-0.111111 68:-0.555556 69:0.2 70:-0.142857 72:1 78:-0.5 79:1 87:1 89:-0.5 92:1 104:1 
1.69612538192631 1:-0.777778 2:-1 3:-1 4:-1 5:-1 6:-1 7:-1 8:-0.777778 9:-1 10:-1 11:-1 12:-1 13:-1 14:-0.2 15:-0.5 16:0.5 17:1 18:-0.333333 19:-0.333333 20:0.333333 21:1 22:1 23:-0.333333 24:-1 25:-0.6 27:-1 28:-1 29:-1 30:-1 31:-0.111111 32:-0.333333 33:-0.555556 34:-0.111111 35:-0.333333 36:-0.333333 37:-1 38:-1 39:-1 40:-1 41:-1 42:-0.6 43:1 44:-0.333333 45:-0.333333 46:0.333333 47:-0.333333 48:-0.5 49:-0.333333 50:1 51:-0.5 52:-0.5 53:-0.5 54:-0.6 55:-0.777778 56:-1 57:-1 58:-1 59:-1 60:-1 61:-1 62:-1 63:-1 64:-1 65:-0.2 66:0.6 67:-0.111111 68:-0.777778 69:0.6 70:-0.142857 71:1 79:1 80:1 89:-0.5 90:1 91:1 104:1 
2 1:0.111111 2:-0.333333 3:-0.5 4:-0.333333 5:-0.333333 6:-0.333333 7:-0.333333 8:-0.777778 9:-1 10:-1 11:-1 12:-1 13:-1 14:-0.6 15:-0.5 16:0.5 17:-0.428571 18:-0.333333 19:0.333333 20:-0.333333 22:1 23:-0.333333 24:-1 25:-0.6 27:-0.333333 28:-0.333333 29:-0.333333 30:-0.333333 31:0.111111 32:-0.333333 33:0.111111 34:-1 35:-0.333333 36:-0.333333 37:-1 38:-1 39:-1 40:-0.333333 41:-1 42:-0.6 43:-0.5 44:0.333333 45:-0.333333 46:-0.333333 47:1 48:-1 49:-1 50:1 51:-0.5 52:-0.5 53:-0.5 54:-0.2 55:-0.333333 56:-1 57:-1 58:-1 59:-1 60:-1 61:-1 62:-1 63:-1 64:-1 65:-1 66:-1 67:-0.111111 68:-0.555556 69:0.6 70:-1 72:1 78:-0.5 79:1 80:1 89:-0.5 92:1 104:1 
2 1:-0.777778 2:-1 3:-0.75 4:-0.333333 5:-0.333333 6:-0.333333 7:-0.333333 8:-0.777778 9:-1 10:-0.333333 11:-0.333333 12:-0.333333 13:-0.333333 14:-0.6 15:-0.5 17:-0.714286 18:-0.333333 19:0.333333 20:-0.333333 23:-0.333333 24:-1 25:-0.6 26:-1 27:-1 28:-1 29:-0.333333 30:-1 31:-1 32:-1 33:-1 34:-0.333333 35:-1 36:-1 37:-1 38:-1 39:-1 40:-1 41:-1 42:-0.6 43:-0.5 44:0.333333 45:-0.333333 46:-0.333333 47:-0.333333 48:-1 49:-1 50:-0.333333 51:-0.5 52:-0.5 53:-0.5 54:-0.6 55:-1 56:-1 57:-1 58:-1 59:-1 60:-1 61:-1 62:-1 63:-1 64:-1 65:-1 66:-1 67:-0.111111 68:-0.555556 69:0.6 70:-0.142857 72:1 78:-0.5 79:1 80:1 87:1 90:1 104:1 
1.926075111131317 1:-0.777778 2:-1 3:-0.75 4:-0.333333 5:-0.333333 6:-0.333333 7:-0.333333 8:-0.777778 9:-1 10:-0.333333 11:-0.333333 12:-0.333333 13:-0.333333 14:-0.2 15:-0.5 16:0.5 17:-0.714286 18:-0.666667 19:-0.333333 20:-0.333333 23:-0.333333 24:0.111111 25:0.6 27:-1 28:-1 29:-1 30:-1 31:-1 32:-1 33:-1 34:-1 35:-1 36:-1 37:-1 38:0.25 39:0.25 40:-1 41:-1 42:-0.6 43:-0.5 44:1 45:0.333333 46:-0.333333 47:-0.333333 48:-1 49:-1 50:-0.333333 51:-0.5 52:-0.5 53:-0.5 54:-0.6 55:0.111111 56:-1 57:-1 58:-1 59:-1 60:-1 61:-1 62:-1 63:-1 64:-1 65:-1 66:-1 67:-0.111111 68:-0.555556 69:-0.2 70:-0.428571 71:1 79:1 80:1 90:1 104:1 
2 1:-1 2:-1 3:-1 4:-1 5:-1 6:-1 7:-1 8:-1 9:-1 10:-1 11:-1 12:-1 13:-1 14:-1 15:-1 16:-1 17:-1 18:-1 19:-1 20:-1 21:-1 22:-1 23:-1 24:-1 25:-1 26:-1 27:-1 28:-1 29:-1 30:-1 31:-1 32:-1 33:-1 34:-1 35:-1 36:-1 37:-1 38:-1 39:-1 40:-1 41:-1 42:-1 43:-1 44:-1 45:-1 46:-1 47:-1 48:-1 49:-1 50:-1 51:-1 52:-1 53:-1 54:-1 55:-1 56:-1 57:-1 58:-1 59:-1 60:-1 61:-1 62:-1 63:-1 64:-1 65:-1 66:-1 67:-1 68:-1 69:-1 70:-1 71:-1 72:-1 73:-1 74:-1 75:-1 76:-1 77:-1 78:-1 79:-1 80:-1 81:-1 82:-1 83:-1 84:-1 85:-1 86:-1 87:-1 88:-1 89:-1 90:-1 91:-1 92:-1 93:-1 94:-1 95:-1 96:-1 97:-1 98:-1 99:-1 100:-1 101:-1 102:-1 103:-1 104:-1 
2 1:-1 2:-1 3:-1 4:-1 5:-1 6:-1 7:-1 8:-1 9:-1 10:-1 11:-1 12:-1 13:-1 14:-1 15:-1 16:-1 17:-1 18:-1 19:-1 20:-1 21:-1 22:-1 23:-1 24:-1 25:-1 26:-1 27:-1 28:-1 29:-1 30:-1 31:-1 32:-1 33:-1 34:-1 35:-1 36:-1 37:-1 38:-1 39:-1 40:-1 41:-1 42:-1 43:-1 44:-1 45:-1 46:-1 47:-1 48:-1 49:-1 50:-1 51:-1 52:-1 53:-1 54:-1 55:-1 56:-1 57:-1 58:-1 59:-1 60:-1 61:-1 62:-1 63:-1 64:-1 65:-1 66:-1 67:-1 68:-1 69:-1 70:-1 71:-1 72:-1 73:-1 74:-1 75:-1 76:-1 77:-1 78:-1 79:-1 80:-1 81:-1 82:-1 83:-1 84:-1 85:-1 86:-1 87:-1 88:-1 89:-1 90:-1 91:-1 92:-1 93:-1 94:-1 95:-1 96:-1 97:-1 98:-1 99:-1 100:-1 101:-1 102:-1 103:-1 104:-1 
2 1:0.333333 2:-0.333333 3:-0.25 4:-0.333333 5:-0.333333 6:-0.333333 7:-0.333333 8:-0.777778 9:-1 10:-0.333333 11:-0.333333 12:-0.333333 13:-0.333333 14:-0.2 15:-0.5 16:-0.5 17:-0.714286 18:-1 19:0.333333 20:-0.333333 23:-0.333333 24:-1 25:-0.6 26:-1 27:-0.333333 28:-1 29:-0.333333 30:-1 31:-1 32:-0.333333 33:-1 34:-0.333333 35:-1 36:-1 37:-1 38:-1 39:-1 40:-1 41:-1 42:-0.2 43:-0.5 44:-0.333333 45:-0.333333 46:0.333333 47:-0.333333 48:-1 49:-1 50:-1 51:-0.5 52:-0.5 53:-0.5 54:-0.2 55:-1 56:-1 57:-1 58:-1 59:-1 60:-1 61:-1 62:-1 63:-1 64:-1 65:-1 66:-1 67:-0.555556 68:-0.555556 69:0.6 70:-0.142857 76:1 78:-0.5 79:1 81:1 89:-0.5 90:1 104:1 
2 1:-0.777778 2:-1 3:-1 4:-1 5:-1 6:-1 7:-1 8:-0.777778 9:-1 10:-1 11:-1 12:-1 13:-1 14:-0.6 15:-0.5 16:0.5 17:-0.714286 18:-0.666667 19:-0.333333 20:-0.333333 23:-0.333333 24:-1 25:-0.6 27:-1 28:-1 29:-1 30:-1 31:-1 32:-0.555556 33:-0.555556 34:-0.111111 35:-1 36:-1 37:-1 38:-1 39:-1 40:-0.555556 41:-1 42:-0.6 43:-0.5 44:-0.333333 45:-0.333333 46:-0.333333 47:-0.333333 48:-0.5 49:-1 50:0.333333 51:-0.5 52:-0.5 53:-0.5 54:-0.2 55:-1 56:-1 57:-1 58:-1 59:-1 60:-1 61:-1 62:-1 63:-1 64:-1 65:-0.2 66:0.2 67:-0.111111 68:-0.555556 69:-0.2 70:-0.142857 71:1 79:1 81:1 89:-0.5 90:1 91:1 104:1 
2 1:-0.777778 2:-1 3:-1 4:-1 5:-1 6:-1 7:-1 8:-0.777778 9:-1 10:-1 11:-1 12:-1 13:-1 14:-0.6 15:-0.5 16:-0.5 17:-0.714286 18:-0.666667 19:0.333333 20:-0.333333 23:-0.333333 24:-1 25:-0.6 27:-1 28:-1 29:-1 30:-1 31:-1 32:-1 33:-1 34:-1 35:-0.333333 36:-1 37:-1 38:-1 39:-1 40:-1 41:-1 42:-0.6 43:-0.5 44:-0.333333 45:-0.333333 46:0.333333 47:-0.333333 48:-1 49:-1 50:-0.333333 51:-0.5 52:-0.5 53:-0.5 54:-0.6 55:-1 56:-1 57:-1 58:-0.333333 59:-1 60:-1 61:-1 62:-1 63:-1 64:-1 65:-1 66:-1 67:0.333333 68:-0.555556 69:-0.2 70:-0.142857 76:1 78:-0.5 79:1 86:1 89:0.5 92:1 104:1 
2 1:0.555556 2:-0.555556 4:-0.333333 5:-0.333333 6:-0.333333 7:-0.333333 8:0.777778 9:-0.5 10:-0.333333 11:-0.333333 12:-0.333333 13:-0.333333 14:-0.2 15:-0.5 16:-0.5 17:-0.714286 18:-0.666667 19:0.333333 20:-0.333333 23:-0.333333 24:-1 25:-0.6 27:-0.777778 28:-1 29:-1 30:-1 31:-0.777778 32:-1 33:-1 34:-0.111111 35:-1 36:-1 37:-1 38:-1 39:-1 40:-1 41:-1 42:-0.2 43:-0.5 44:-0.333333 45:-0.333333 46:-0.333333 47:-0.333333 48:-1 49:-1 50:-0.333333 51:-0.5 52:-0.5 53:-0.5 54:-0.2 55:-1 56:-1 58:-1 59:-1 60:-1 61:-1 62:-1 63:-1 64:-1 65:-1 66:-1 67:-0.111111 68:-0.555556 69:-0.2 70:0.714286 71:1 79:1 88:1 89:-1 90:1 104:1 
2 1:-0.777778 2:-1 3:-0.75 4:-0.333333 5:-0.333333 6:-0.333333 7:-0.333333 8:-0.777778 9:-1 10:-0.333333 11:-0.333333 12:-0.333333 13:-0.333333 14:-0.6 15:-0.5 16:-0.5 17:-0.714286 18:-0.666667 19:0.333333 20:-0.333333 23:-0.333333 24:-1 25:-0.6 27:-1 28:-1 29:-1 30:-1 31:-1 32:-1 33:-1 34:-1 35:-0.333333 36:-1 37:-1 38:-1 39:-1 40:-1 41:-1 42:-0.2 43:-1 44:-0.333333 45:-1 46:0.333333 47:-1 48:-0.5 49:0.333333 50:-0.333333 51:-0.5 52:-0.5 53:-0.5 54:-0.6 55:-1 56:-1 57:-1 58:-1 59:-1 60:-1 61:-1 62:-1 63:-1 64:-1 65:-0.2 66:0.2 67:-0.333333 68:-0.555556 69:-0.2 70:-0.428571 71:1 79:1 87:1 89:0.5 92:1 99:1 104:1 
2 1:-0.777778 2:-1 3:-0.75 4:-0.333333 5:-0.333333 6:-0.333333 7:-0.333333 8:-0.777778 9:-1 10:-0.333333 11:-0.333333 12:-0.333333 13:-0.333333 14:-0.6 15:-0.5 16:0.5 17:-0.714286 18:-0.666667 19:0.333333 20:-0.333333 23:-0.333333 24:-1 25:-0.6 27:-1 28:-1 29:-1 30:-1 31:-1 32:-1 33:-1 34:-1 35:-1 36:-1 37:-1 38:-1 39:-1 40:-1 41:-1 42:-0.6 43:-0.5 44:-0.333333 45:-0.333333 46:-0.333333 47:-0.333333 48:-0.5 49:-0.333333 50:-0.333333 51:-0.5 52:-0.5 53:-0.5 54:-0.6 55:-1 56:-1 57:-1 58:-1 59:-1 60:-1 61:-1 62:-1 63:-1 64:-1 65:-0.6 66:-0.6 67:-0.111111 68:-0.555556 69:0.2 70:-0.142857 72:1 78:-0.5 79:1 87:1 92:1 104:1 
2 1:-0.777778 2:-1 3:-0.75 4:-0.333333 5:-0.333333 6:-0.333333 7:-0.333333 8:-0.777778 9:-1 10:-0.333333 11:-0.333333 12:-0.333333 13:-0.333333 14:-0.6 15:-0.5 16:0.5 17:-0.714286 18:-0.666667 19:-0.333333 20:-0.333333 23:-0.333333 24:-1 25:-0.6 27:0.111111 28:-1 29:-1 30:-1 31:-1 32:-0.333333 33:-1 34:-0.111111 35:0.111111 36:-1 37:-1 38:-1 39:-1 40:-1 41:-1 42:-0.6 43:-0.5 44:-0.333333 45:-0.333333 46:0.333333 47:-0.333333 48:-0.5 49:-0.333333 50:-0.333333 51:-0.5 52:-0.5 53:-0.5 54:-0.6 55:-1 56:-1 57:-1 58:-1 59:-1 60:-1 61:-1 62:-1 63:-1 64:-1 65:-0.6 66:-0.6 67:0.555556 68:-0.555556 69:-0.2 70:0.714286 72:1 78:-0.5 79:1 80:1 89:-0.5 91:1 99:1 104:1 
2 1:-0.777778 2:-1 3:-0.75 4:-0.333333 5:-0.333333 6:-0.333333 7:-0.333333 8:-0.777778 9:-1 10:-0.333333 11:-0.333333 12:-0.333333 13:-0.333333 14:-0.6 16:-0.5 17:-0.714286 18:-0.666667 19:0.333333 20:-0.333333 23:-0.333333 24:-1 25:-0.6 27:-1 28:-1 29:-1 30:-1 31:-1 32:-1 33:-1 34:-0.333333 35:-1 36:-1 37:-1 38:-1 39:-1 40:-0.333333 41:-1 42:-0.6 43:-0.5 44:-0.333333 45:-0.333333 46:-0.333333 47:-0.333333 48:-0.5 49:-0.333333 50:-0.333333 51:-0.5 52:-0.5 53:-0.5 54:0.6 55:-1 56:-1 57:-1 58:-1 59:-1 60:-1 61:-1 62:-1 63:-1 64:-1 65:-0.2 66:0.2 67:0.333333 68:-0.777778 69:-0.2 70:-0.142857 76:1 78:-0.5 79:1 87:1 89:-0.5 92:1 104:1 
2 1:-0.777778 2:-1 3:-0.75 4:-0.333333 5:-0.333333 6:-0.333333 7:-0.333333 8:-0.777778 9:-1 10:-0.333333 11:-0.333333 12:-0.333333 13:-0.333333 14:-0.6 15:-0.5 16:0.5 17:-0.714286 18:-0.666667 19:0.333333 20:0.333333 23:-0.333333 24:-1 25:-0.6 27:-1 28:-1 29:-1 30:-1 31:-1 32:-1 33:-1 34:-1 35:-0.333333 36:-0.333333 37:-1 38:-1 39:-1 40:-1 41:-1 42:-0.6 43:-0.5 44:-0.333333 45:-0.333333 46:-0.333333 47:-0.333333 48:-0.5 49:-0.333333 50:-0.333333 51:-0.5 52:-0.5 53:-0.5 54:-0.6 55:-1 56:-1 57:-1 58:-1 59:-1 60:-1 61:-1 62:-1 63:-1 64:-1 65:-0.6 66:-0.6 67:-0.111111 68:-0.555556 69:-0.2 70:-0.142857 72:1 78:-0.5 79:1 81:1 89:-0.5 92:1 104:1 
1.567290821445553 1:0.111111 2:1 3:-0.5 4:1 5:-0.333333 6:-0.333333 7:-0.333333 8:0.333333 9:-0.25 10:-0.333333 11:-0.333333 12:-0.333333 13:-0.333333 14:-0.6 15:-0.5 16:-0.5 17:-0.714286 18:-0.666667 19:0.333333 20:-0.333333 23:-0.333333 24:-1 25:-0.6 27:0.555556 28:-1 29:-1 30:-0.333333 31:0.333333 32:-1 33:-1 34:-0.555556 35:-0.555556 36:0.555556 37:-1 38:-1 39:-0.25 40:-0.777778 41:-1 42:-0.6 43:-0.5 44:-0.333333 45:-0.333333 46:-0.333333 47:-0.333333 48:-0.5 49:-0.333333 50:-0.333333 51:-0.5 52:-0.5 53:-0.5 54:0.6 55:-1 56:-1 57:-1 58:-1 59:-1 60:-1 61:0.111111 62:-1 63:0.111111 64:0.111111 65:-0.2 66:0.6 67:-0.777778 68:-0.555556 69:-0.6 70:-0.714286 71:1 78:-0.5 79:1 81:1 89:-0.5 92:1 93:1 99:1 104:1 
2 1:-0.555556 2:-0.333333 3:-0.25 4:-0.333333 5:-0.333333 6:-0.333333 7:-0.333333 8:-0.777778 9:-1 10:-0.333333 11:-0.333333 12:-0.333333 13:-0.333333 14:-0.6 15:-0.5 16:0.5 17:-0.714286 18:-0.666667 19:0.333333 20:-0.333333 23:-0.333333 24:-1 25:-0.6 27:-1 28:-1 29:-1 30:-1 31:-1 32:-1 33:-1 34:-1 35:-1 36:-1 37:-1 38:-1 39:-1 40:-1 41:-1 42:-0.6 43:-0.5 44:-0.333333 45:-0.333333 46:-0.333333 47:-0.333333 48:-0.5 49:-0.333333 50:-0.333333 51:-0.5 52:-0.5 53:-0.5 54:-0.6 55:-1 56:-1 57:-1 58:-1 59:-1 60:-1 61:-1 62:-1 63:-1 64:-1 65:-0.6 66:-0.6 67:-0.111111 68:-0.555556 69:0.2 70:-0.142857 71:1 78:-0.5 79:1 81:1 89:-0.5 92:1 104:1 
2 1:-0.777778 2:-1 3:-0.75 4:-0.333333 5:-0.333333 6:-0.333333 7:-0.333333 8:-0.777778 9:-1 10:-0.333333 11:-0.333333 12:-0.333333 13:-0.333333 14:-0.6 15:-0.5 16:0.5 17:-0.714286 18:-0.666667 19:-0.333333 20:0.333333 23:-0.333333 24:-1 25:-0.6 27:-0.333333 28:-1 29:-1 30:-1 31:-1 32:-1 33:-1 34:-0.111111 35:-1 36:-1 37:-1 38:-0.25 39:-1 40:-1 41:-1 42:-0.6 43:-0.5 44:-0.333333 45:-0.333333 46:-0.333333 47:-0.333333 48:-0.5 49:-0.333333 50:-0.333333 51:-0.5 52:-0.5 53:-0.5 54:0.6 55:-1 56:-1 57:-1 58:-1 59:-1 60:-1 61:-0.333333 62:-1 63:-1 64:-1 65:-0.6 66:-0.6 67:1 68:-0.555556 69:-0.2 70:-0.428571 71:1 78:-0.5 79:1 81:1 89:-0.5 90:1 92:1 104:1 
1.856577653202247 1:-0.777778 2:-1 3:-0.75 4:-0.333333 5:-0.333333 6:-0.333333 7:-0.333333 8:-0.777778 9:-1 10:-0.333333 11:-0.333333 12:-0.333333 13:-0.333333 14:-0.6 15:-0.5 16:0.5 17:-0.714286 18:-0.666667 19:0.333333 20:-0.333333 23:-0.333333 24:-1 25:-0.6 27:-1 28:-1 29:-1 30:-0.333333 31:-1 32:-1 33:-1 34:-0.333333 35:-0.333333 36:-0.333333 37:-1 38:-1 39:-1 40:-0.333333 41:-1 42:-0.6 43:-0.5 44:0.333333 45:-0.333333 46:-0.333333 47:-0.333333 48:-0.5 49:-0.333333 50:1 51:-0.5 52:-0.5 53:-0.5 54:-0.6 55:-1 56:-1 57:-1 58:-1 59:-1 60:-1 61:-1 62:-1 63:-0.333333 64:-1 65:-0.6 66:-0.6 67:-0.111111 68:-0.555556 69:-0.2 70:0.714286 72:1 74:1 78:-0.5 79:1 81:1 89:-0.5 92:1 104:1 
2 1:-0.777778 2:-1 3:-0.75 4:-0.333333 5:-0.333333 6:-0.333333 7:-0.333333 8:-0.777778 9:-1 10:-0.333333 11:-0.333333 12:-0.333333 13:-0.333333 14:-0.6 15:-0.5 16:-0.5 17:-0.428571 18:0.333333 19:-0.333333 20:-0.333333 23:-0.333333 24:-1 25:-0.6 26:1 27:0.111111 28:-0.333333 29:-1 30:-1 31:-1 32:-1 33:-1 34:-0.111111 35:-1 36:-1 37:-1 39:-1 40:-1 41:-1 42:-0.2 43:-0.5 44:-0.333333 45:-0.333333 46:-0.333333 47:-0.333333 48:-0.5 49:-0.333333 50:-0.333333 51:-0.5 52:-0.5 53:-0.5 54:-0.6 55:-0.555556 56:-1 57:-1 58:-1 59:-1 60:-1 61:-1 62:-1 63:-1 64:-1 65:-0.2 66:0.2 67:-0.333333 68:-0.555556 69:-0.2 70:-0.428571 71:1 78:-0.5 79:1 81:1 89:0.5 92:1 99:1 104:1 
2 1:-0.777778 2:-1 3:-0.75 4:-0.333333 5:-0.333333 6:-0.333333 7:-0.333333 8:-0.777778 9:-1 10:-0.333333 11:-0.333333 12:-0.333333 13:-0.333333 14:-0.2 15:-0.5 16:-0.5 17:-0.428571 18:-0.666667 19:-0.333333 20:-0.333333 23:-0.333333 24:-1 25:-0.6 26:1 27:-0.333333 28:-0.333333 29:-0.333333 30:-1 31:-1 32:-0.333333 33:-1 34:-0.333333 35:-1 36:0.111111 37:-0.333333 38:-1 39:-1 40:-1 41:-1 42:-0.6 43:-0.5 44:-0.333333 45:-0.333333 46:-0.333333 47:-0.333333 48:-0.5 49:-0.333333 50:-0.333333 51:-0.5 52:-0.5 53:-0.5 54:-0.6 55:-1 56:-1 57:-1 58:-1 59:-1 60:-1 61:-1 62:-1 63:-1 64:-1 65:-0.6 66:0.6 67:-0.777778 68:-0.555556 69:-0.6 70:-0.428571 72:1 78:-0.5 79:1 81:1 89:-0.5 90:1 92:1 104:1 
1.483173516481585 1:0.333333 2:-0.333333 3:-0.25 4:-0.333333 5:1 6:0.333333 7:-0.333333 8:-0.777778 9:-1 10:-0.333333 11:-0.333333 12:-0.333333 13:-0.333333 14:-0.6 15:-0.5 16:-0.5 17:-0.714286 18:-0.333333 19:0.333333 20:-0.333333 23:-0.333333 24:-1 25:-0.6 27:-1 28:-1 29:-1 30:-0.333333 31:-1 32:-1 33:-1 34:-0.333333 35:0.333333 36:-1 37:-1 38:-1 39:-1 40:-0.555556 41:-1 42:-0.6 43:1 44:-0.333333 45:-0.333333 46:-0.333333 47:-0.333333 48:-0.5 49:-0.333333 50:1 51:-0.5 52:-0.5 53:-0.5 54:-0.2 55:-1 56:-1 57:-1 58:-1 59:-1 60:-1 61:-1 62:-1 63:-1 64:0.333333 65:0.2 66:0.6 67:-0.111111 68:-0.555556 69:0.2 70:-0.428571 72:1 73:1 78:-0.5 79:1 81:1 88:1 89:0.5 90:1 92:1 104:1 
1.943457613958949 1:-0.777778 2:-1 3:-0.75 4:-0.333333 5:-0.333333 6:-0.333333 7:-0.333333 8:-0.777778 9:-1 10:-0.333333 11:-0.333333 12:-0.333333 13:-0.333333 14:-0.2 15:-0.5 16:0.5 17:-0.428571 18:-0.333333 19:0.333333 20:-0.333333 23:-0.333333 24:-1 25:-0.6 27:0.111111 28:-1 29:-1 30:-1 31:-0.111111 32:0.111111 33:-1 34:0.333333 35:-1 36:-1 37:-1 38:-1 39:-1 40:0.111111 41:-1 42:-0.6 43:1 44:-0.333333 45:-0.333333 46:0.333333 47:-0.333333 48:-0.5 49:-0.333333 50:-0.333333 51:-0.5 52:-0.5 53:-0.5 54:-0.6 55:-0.333333 56:-1 57:-1 58:-1 59:-1 60:-1 61:-1 62:-1 63:-1 64:0.111111 65:0.2 66:0.2 67:-0.111111 68:-0.777778 69:0.2 70:0.142857 71:1 78:-0.5 79:1 81:1 83:1 89:-0.5 90:1 92:1 104:1 
2 1:0.111111 2:-0.555556 3:-0.75 4:-0.333333 5:-0.333333 6:1 7:0.333333 8:-0.777778 9:-1 10:-0.333333 11:-0.333333 12:-0.333333 13:-0.333333 14:-0.6 15:-0.5 16:-0.5 17:-0.714286 18:-0.666667 19:-0.333333 20:-0.333333 23:-0.333333 24:-1 25:-0.6 27:-0.555556 28:-0.555556 29:-1 30:-1 31:-1 32:-1 33:-1 34:-0.555556 35:-1 36:-1 37:-1 38:-1 39:-1 40:-1 41:-1 42:-0.6 43:-0.5 44:-0.333333 45:-0.333333 46:-0.333333 47:-0.333333 48:-0.5 49:-0.333333 50:-0.333333 51:-0.5 52:-0.5 53:-0.5 54:-0.6 55:-1 56:-1 57:-1 58:-1 59:-1 60:-1 61:-1 62:-1 63:-1 64:-1 65:-0.2 66:0.6 67:-0.111111 68:-0.555556 69:-0.2 70:-0.428571 72:1 78:-0.5 79:1 88:1 89:-0.5 92:1 93:1 104:1 
2 1:-0.777778 2:-1 3:-0.75 4:-0.333333 5:-0.333333 6:-0.333333 7:-0.333333 8:-0.777778 9:-1 10:-0.333333 11:-0.333333 12:-0.333333 13:-0.333333 14:-0.6 15:-0.5 16:-0.5 17:-0.714286 18:-0.666667 19:0.333333 20:-0.333333 23:-0.333333 24:-1 25:-0.6 27:-1 28:-1 29:-1 30:-1 31:-1 32:-1 33:-1 34:-0.333333 35:-1 36:-0.333333 37:-1 38:-1 39:-1 40:-1 41:-1 42:-0.6 43:-0.5 44:-0.333333 45:-0.333333 46:-0.333333 47:-0.333333 48:-0.5 49:-0.333333 50:-0.333333 51:-0.5 52:-0.5 53:-0.5 54:-0.2 55:-1 56:-1 57:-1 58:-1 59:-1 60:-1 61:-0.333333 62:-1 63:-0.333333 64:-1 65:-0.6 66:-0.6 67:1 68:-0.777778 69:0.2 70:-0.142857 72:1 78:-0.5 79:1 80:1 87:1 89:-0.5 92:1 104:1 
1.444946403038689 1:0.333333 2:-0.333333 4:1 5:-0.333333 6:0.333333 7:-0.333333 8:0.333333 9:-1 10:-0.333333 11:-0.333333 12:0.333333 13:0.333333 14:-0.6 15:-0.5 16:0.5 17:-0.714286 18:-0.666667 19:-0.333333 20:-0.333333 23:-0.333333 24:-1 25:-0.6 27:-0.333333 28:-0.333333 29:-0.333333 30:-1 31:-1 32:-1 33:-1 34:-0.555556 35:-1 36:-0.333333 37:-1 38:-0.25 39:-1 40:-1 41:-1 42:-0.6 43:1 44:-0.333333 45:-0.333333 46:-0.333333 47:-0.333333 48:-0.5 49:-0.333333 50:1 51:-0.5 52:-0.5 53:-0.5 54:-0.6 55:-1 56:-1 57:-1 58:-0.333333 59:-1 60:-1 61:-1 62:-1 63:-1 64:-1 65:-0.2 66:0.2 67:-0.111111 68:-0.555556 69:0.2 70:-0.428571 73:1 78:-0.5 79:1 80:1 89:-0.5 104:1 
1.933071633855152 1:0.111111 2:-0.333333 3:-0.25 4:1 5:1 6:-0.333333 7:0.333333 8:-0.777778 9:-1 10:-0.333333 11:-0.333333 12:-0.333333 13:-0.333333 14:-0.6 15:-0.5 16:0.5 17:-0.714286 18:-0.666667 19:0.333333 20:0.333333 22:1 23:-0.333333 24:-1 25:-0.6 27:0.111111 28:-1 29:-0.333333 30:-1 31:0.333333 32:-1 33:-1 34:-1 35:-1 36:-1 37:-1 38:-1 39:-1 40:-1 41:-1 42:-0.6 43:-0.5 44:-0.333333 45:-0.333333 46:0.333333 47:-0.333333 48:-0.5 49:-0.333333 50:-0.333333 51:-0.5 52:-0.5 53:-0.5 54:-0.6 55:-1 56:-1 57:-1 58:-1 59:-1 60:-1 61:-0.111111 62:-1 63:-1 64:-1 65:0.2 66:0.6 67:1 68:-0.777778 69:-0.2 70:0.714286 72:1 78:0.5 79:1 81:1 82:1 89:-0.5 90:1 99:1 104:1 
1.677923741635523 1:1 2:0.111111 4:-0.333333 5:-0.333333 6:-0.333333 7:1 8:1 10:-0.333333 11:-0.333333 12:0.333333 13:0.333333 14:-0.6 15:0.5 16:-0.5 17:-0.142857 18:-0.333333 19:-0.333333 20:0.333333 23:-0.333333 24:-1 25:-0.6 27:0.111111 28:-1 29:-1 30:-1 31:-1 32:-0.111111 33:-0.555556 34:0.111111 35:-1 36:-1 37:-1 39:-1 40:-1 41:-1 42:-0.6 43:-0.5 44:-0.333333 45:-0.333333 46:-0.333333 47:-0.333333 48:1 49:0.333333 50:-0.333333 51:-0.5 52:-0.5 53:-0.5 54:-0.6 55:-1 56:-1 57:-1 58:-1 59:-1 60:-1 61:-0.111111 62:-1 63:-1 64:-1 65:-0.6 66:-0.6 67:0.333333 68:-0.555556 69:-0.2 70:-0.142857 71:1 78:-0.5 79:1 88:1 89:-0.5 92:1 99:1 104:1 
2 1:0.111111 2:-0.111111 3:-0.25 4:-0.333333 5:-0.333333 6:0.333333 7:-0.333333 8:-0.555556 9:-0.5 10:-0.333333 11:-0.333333 12:-0.333333 13:0.333333 14:-0.2 15:-0.5 16:-0.5 17:-0.714286 18:-0.666667 19:-0.333333 20:-0.333333 23:-0.333333 24:-1 25:-0.6 27:-0.333333 28:-0.555556 29:-0.555556 30:-1 31:-0.555556 32:-1 33:-1 34:-0.333333 35:-1 36:-1 37:-1 38:-1 39:-1 40:-0.555556 41:-1 42:-0.6 43:-0.5 44:-0.333333 45:-0.333333 46:-0.333333 47:-0.333333 48:-0.5 49:0.333333 50:-0.333333 51:-0.5 52:-0.5 53:-0.5 54:-0.6 55:-1 56:-1 57:-1 58:-1 59:-1 60:-1 61:-1 62:-0.25 63:-1 64:-1 65:-0.6 66:0.2 67:-0.777778 68:-0.555556 69:-0.2 70:-0.142857 71:1 76:1 79:1 81:1 87:1 89:-0.5 90:1 96:1 104:1 
2 1:-0.777778 2:-1 3:-0.75 4:-0.333333 5:-0.333333 6:-0.333333 7:-0.333333 8:-0.777778 9:-0.5 10:-0.333333 11:-0.333333 12:-0.333333 13:-0.333333 14:-0.6 16:-0.5 17:-0.714286 18:-0.333333 19:-0.333333 20:-0.333333 23:-0.333333 24:-1 25:-0.6 27:-0.555556 28:-1 29:-0.555556 30:-0.555556 31:-1 32:-0.333333 33:-1 34:-0.333333 35:-0.777778 36:-1 37:-1 39:-0.75 40:-0.111111 41:-1 42:-0.6 43:-0.5 44:-0.333333 45:-0.333333 46:-0.333333 47:-0.333333 48:-0.5 49:-0.333333 50:-0.333333 51:-0.5 52:-0.5 53:-0.5 54:-0.6 55:-1 56:-1 57:-1 58:-1 59:-1 60:-1 61:-1 62:-1 63:-1 64:-1 65:-0.6 66:-0.6 67:1 68:-0.777778 69:-0.2 70:-0.142857 76:1 78:-0.5 79:1 80:1 89:-0.5 92:1 104:1 
1.625569149044454 1:-0.777778 2:-1 3:-0.75 4:-0.333333 5:-0.333333 6:-0.333333 7:-0.333333 8:-0.777778 9:-1 10:-0.333333 11:-0.333333 12:-0.333333 13:-0.333333 14:0.2 15:-0.5 16:-0.5 17:-0.428571 18:-0.666667 19:-0.333333 20:-0.333333 23:-0.333333 24:-1 25:-0.6 27:0.333333 28:-0.333333 29:0.333333 30:-1 31:0.777778 32:0.111111 33:0.333333 34:0.777778 35:0.777778 36:-1 37:-1 38:0.25 39:-1 40:0.555556 41:-1 42:-0.6 43:-0.5 44:-0.333333 45:-0.333333 46:0.333333 47:-0.333333 48:-0.5 49:-0.333333 50:-0.333333 51:-0.5 52:-0.5 53:-0.5 54:-0.6 55:0.111111 56:-1 57:-1 58:-1 59:-1 60:0.5 61:0.333333 63:0.333333 64:-1 65:-0.2 66:-0.6 67:-0.333333 68:-0.555556 69:-0.2 70:-0.428571 76:1 78:-0.5 81:1 89:-0.5 90:1 91:1 104:1 
2 1:0.333333 2:-0.555556 3:-0.75 4:-0.333333 5:-0.333333 6:0.333333 7:-0.333333 8:0.333333 9:-1 10:-0.333333 11:-0.333333 12:-0.333333 13:-0.333333 14:-0.6 16:-0.5 17:-0.142857 18:-0.333333 19:-0.333333 20:-0.333333 23:-0.333333 24:-1 25:-0.6 27:-0.333333 28:-0.333333 29:-0.555556 30:-1 31:-0.555556 32:-1 33:-0.555556 34:-0.333333 35:-1 36:-1 37:-1 38:-1 39:-1 40:-1 41:-1 42:-0.2 43:-0.5 44:-0.333333 45:-0.333333 46:-0.333333 47:-0.333333 48:-0.5 49:-0.333333 50:-0.333333 51:-0.5 52:-0.5 53:-0.5 54:-0.6 55:-1 56:-1 57:-1 58:-1 59:-1 60:-1 61:-1 62:-1 63:-1 64:-1 65:0.2 66:-0.6 67:-0.777778 68:-0.777778 69:-0.6 70:-0.428571 71:1 78:-0.5 81:1 89:-0.5 104:1 
1.961499065425783 1:0.111111 2:-0.333333 3:-0.25 4:-0.333333 5:-0.333333 6:-0.333333 7:-0.333333 8:0.111111 9:-1 10:-0.333333 11:-0.333333 12:-0.333333 13:-0.333333 14:-0.6 15:-0.5 16:0.5 17:-0.714286 18:-0.666667 19:-0.333333 20:-0.333333 23:-0.333333 24:-0.777778 25:-0.6 27:-0.333333 28:-0.333333 29:-0.555556 30:-0.333333 31:-1 32:-0.555556 33:-0.333333 34:-0.555556 35:-1 36:-1 37:-1 38:-0.25 39:-0.5 40:-1 41:-1 42:-0.6 43:0.5 44:-0.333333 45:0.333333 46:0.333333 47:-0.333333 49:-0.333333 50:-0.333333 51:-0.5 52:-0.5 53:-0.5 54:-0.6 55:-1 56:-1 57:-1 58:-1 59:-1 60:-1 61:-1 62:-1 63:-1 64:-1 65:-1 66:0.6 67:-0.111111 68:-0.555556 69:0.2 70:-0.142857 74:1 78:0.5 81:1 89:-0.5 104:1 
1.499152386646231 1:-0.777778 2:-1 3:-0.75 4:-0.333333 5:-0.333333 6:-0.333333 7:-0.333333 8:-0.777778 9:-1 10:-0.333333 11:-0.333333 12:-0.333333 13:-0.333333 14:-0.6 15:-0.5 16:0.5 17:0.142857 18:-0.666667 19:0.333333 20:-0.333333 23:-0.333333 24:-1 25:-0.6 27:0.333333 28:0.111111 29:-1 30:-0.111111 31:-1 32:0.555556 33:-1 34:0.555556 35:0.777778 36:0.333333 37:0.111111 38:-1 39:-1 40:0.111111 41:-1 42:-0.6 43:-0.5 44:-0.333333 45:-0.333333 46:-0.333333 47:-0.333333 48:-0.5 49:-0.333333 50:1 51:-0.5 52:-0.5 53:-0.5 54:-0.2 55:0.111111 56:-1 57:-1 58:0.111111 59:-1 60:0.25 61:-1 62:-1 63:-0.777778 64:0.333333 65:-0.2 66:0.6 67:-0.777778 68:-0.555556 69:-0.2 70:-0.142857 72:1 81:1 89:0.5 92:1 93:1 95:1 104:1 
1.558844736270918 1:-0.777778 2:0.333333 3:0.25 4:-0.333333 5:-0.333333 6:-0.333333 7:-0.333333 8:-0.777778 9:-0.75 10:-1 11:-0.333333 12:-0.333333 13:-0.333333 14:-0.6 16:-0.5 17:0.142857 19:-0.333333 20:-0.333333 23:-0.333333 24:-1 25:-0.6 27:0.333333 28:-0.111111 29:0.333333 30:0.333333 31:-1 32:-1 33:-1 34:0.111111 35:-1 36:-0.111111 37:-1 38:-1 39:-1 40:-0.333333 41:-1 42:-0.6 43:-0.5 44:-0.333333 45:-0.333333 46:-0.333333 47:-0.333333 48:-0.5 49:-0.333333 50:-0.333333 51:-0.5 52:-0.5 53:-0.5 54:0.2 55:-1 56:-1 57:-1 58:-1 59:-1 60:-0.25 61:-0.111111 62:-1 63:-1 64:-1 65:-0.2 66:0.6 67:-0.777778 68:-0.555556 69:-0.2 70:0.142857 73:1 79:1 80:1 91:1 96:1 104:1 
2 1:-0.777778 2:-1 3:-0.75 4:-0.333333 5:-0.333333 6:-0.333333 7:-0.333333 8:-0.777778 9:-1 10:-0.333333 11:-0.333333 12:-0.333333 13:-0.333333 14:-0.6 15:0.5 16:-0.5 17:-0.142857 18:-0.666667 19:0.333333 20:0.333333 22:1 23:-0.333333 24:-0.555556 25:-0.6 27:-0.555556 28:-0.555556 29:-1 30:-1 31:-1 32:-1 33:-1 34:-0.333333 35:-0.333333 36:-1 37:-1 38:-1 39:-0.5 40:-1 41:-1 42:-0.2 43:-0.5 44:-0.333333 45:-0.333333 46:-0.333333 47:-0.333333 48:-0.5 49:-0.333333 50:-0.333333 51:-0.5 52:-0.5 53:-0.5 54:-0.6 55:-0.333333 56:-1 57:-1 58:-1 59:-1 60:-1 61:-1 62:-1 63:-1 64:-1 65:-0.6 66:-0.6 67:-0.111111 68:-0.555556 69:0.2 70:-0.142857 71:1 78:-0.5 79:1 81:1 89:-0.5 104:1 
2 1:-0.777778 2:-1 3:-0.75 4:-0.333333 5:-0.333333 6:-0.333333 7:-0.333333 8:-0.777778 9:-1 10:-0.333333 11:-0.333333 12:-0.333333 13:-0.333333 14:-0.6 15:-0.5 16:0.5 17:1 18:-0.333333 19:-0.333333 20:0.333333 23:-0.333333 24:-1 25:-0.6 27:-1 28:-1 29:-0.333333 30:-1 31:-1 32:-1 33:-1 34:-0.333333 35:-0.333333 36:-1 37:-1 38:-1 39:-1 40:-1 41:-1 42:-0.6 43:-0.5 44:-0.333333 45:1 46:0.333333 47:-0.333333 48:-0.5 49:-0.333333 50:-0.333333 51:-0.5 52:-0.5 53:-0.5 54:-0.6 55:-1 56:-1 57:-1 58:-1 59:-1 60:-1 61:-0.333333 62:-1 63:-1 64:-1 65:-0.6 66:0.6 67:-0.555556 68:-0.555556 69:0.2 70:-0.142857 72:1 78:-0.5 79:1 81:1 89:-0.5 104:1 
2 1:-0.777778 2:-1 3:-0.75 4:-0.333333 5:-0.333333 6:-0.333333 7:-0.333333 8:-1 9:-0.75 10:-0.333333 11:-0.333333 12:-0.333333 13:-0.333333 14:-0.6 15:-0.5 16:-0.5 17:-0.142857 18:-0.333333 19:-0.333333 20:-0.333333 23:-0.333333 24:-0.333333 25:0.6 27:-1 28:-1 29:-0.555556 30:-1 31:-1 32:-0.333333 33:-1 34:-0.333333 35:-1 36:-1 37:-1 38:-1 39:-1 40:-1 41:-1 42:-0.6 43:-0.5 44:-0.333333 45:-0.333333 46:-0.333333 47:-0.333333 48:-0.5 49:0.333333 50:-0.333333 51:-0.5 52:-0.5 53:-0.5 54:0.6 55:-1 56:-1 57:-1 58:-1 59:-1 60:-1 61:-1 62:-1 63:-0.333333 64:-0.555556 65:-0.2 66:0.6 67:-0.777778 68:-0.777778 69:0.6 70:-0.428571 76:1 81:1 89:-0.5 91:1 96:1 104:1 
2 1:0.555556 2:-0.111111 3:-0.5 4:-0.333333 5:1 6:0.333333 7:-0.333333 8:-0.777778 9:-1 10:-0.333333 11:-0.333333 12:-0.333333 13:-0.333333 14:-0.6 15:-0.5 16:-0.5 17:-0.714286 18:-0.666667 19:-0.333333 20:-0.333333 23:-0.333333 24:-1 25:-0.6 27:-0.555556 28:-1 29:-0.555556 30:-1 31:-1 32:-0.333333 33:-1 34:-0.111111 35:-1 36:-1 37:-1 38:-1 39:-0.5 40:-0.333333 41:-1 42:-0.6 43:-0.5 44:-0.333333 45:0.333333 46:-0.333333 47:-0.333333 48:-0.5 49:-0.333333 50:-0.333333 51:-0.5 52:-0.5 53:-0.5 54:-0.2 55:-1 56:-1 58:-1 59:-1 60:-1 61:-0.111111 62:-1 63:-0.555556 64:-1 65:-0.2 66:-0.6 67:-0.777778 68:-0.555556 69:-0.6 70:-0.428571 71:1 78:-0.5 81:1 85:1 89:-0.5 91:1 93:1 104:1 
2 1:-0.777778 2:-0.111111 4:-0.333333 5:-0.333333 6:-0.333333 7:-0.333333 8:-0.777778 9:0.25 10:-0.333333 11:-0.333333 12:-0.333333 13:-0.333333 14:-0.2 15:-0.5 16:-0.5 17:-0.428571 18:-0.666667 19:-0.333333 20:-0.333333 22:1 23:-0.333333 24:-1 25:-0.6 27:-0.333333 28:-0.555556 29:-1 30:-1 31:-1 32:-0.333333 33:-1 34:-0.333333 35:-1 36:-0.333333 37:-1 38:-1 39:-1 40:-1 41:-1 42:-0.2 43:-0.5 44:-0.333333 45:-0.333333 46:-0.333333 47:-0.333333 48:-0.5 49:-0.333333 50:-0.333333 51:-0.5 52:-0.5 53:-0.5 54:-0.2 55:-0.111111 56:-0.5 57:-1 58:-1 59:-1 60:-1 61:-1 62:-1 63:-1 64:-1 65:-0.6 66:-0.6 67:-0.333333 68:-0.555556 69:0.2 70:-0.142857 76:1 78:-0.5 81:1 89:-0.5 104:1 
2 1:-0.777778 2:-0.555556 3:-0.75 4:-0.333333 5:-0.333333 6:-0.333333 7:-0.333333 8:-0.777778 9:-1 10:-0.333333 11:-0.333333 12:-0.333333 13:-0.333333 14:-0.2 16:0.5 17:-0.142857 18:-0.333333 19:-0.333333 20:0.333333 23:-0.333333 24:-1 25:-0.2 27:-0.333333 28:-0.555556 29:-0.555556 30:-1 31:-1 32:-1 33:-1 34:-0.333333 35:-1 36:-1 37:-1 38:-1 39:-0.25 40:-1 41:-1 42:-0.2 43:-0.5 44:-0.333333 45:1 46:0.333333 47:-0.333333 48:-0.5 49:-0.333333 50:-0.333333 51:-0.5 52:-0.5 53:-0.5 54:-0.2 55:-0.333333 56:-0.75 57:-0.333333 58:-0.333333 59:-1 60:-1 61:-1 62:-1 63:-1 64:-1 65:-1 66:-0.2 67:-0.111111 68:-0.555556 69:0.2 70:-0.142857 71:1 76:1 78:-0.5 79:1 80:1 104:1 
1.819831785164627 1:-0.777778 2:-0.777778 3:-0.75 4:-0.333333 5:-0.333333 6:-0.333333 7:-0.333333 8:-0.777778 9:-0.75 10:-0.333333 11:-0.333333 12:-0.333333 13:-0.333333 14:-0.6 15:-0.5 16:-0.5 17:-0.714286 18:-0.666667 19:-0.333333 20:-0.333333 23:-0.333333 24:-0.777778 25:-0.6 27:0.333333 28:-0.555556 29:-1 30:-1 31:-0.111111 32:-1 33:-1 34:-0.111111 35:-1 36:-0.555556 37:-1 38:-1 39:-1 40:-0.111111 41:-1 42:-0.6 43:-0.5 44:-0.333333 45:-0.333333 46:0.333333 47:-0.333333 48:-0.5 49:-0.333333 50:-0.333333 51:-0.5 52:-0.5 53:-0.5 54:0.2 55:0.111111 56:-1 57:-1 58:-1 59:-1 60:-1 61:0.111111 62:-1 63:-1 64:-0.111111 65:-0.6 66:-0.6 67:-0.111111 68:-0.555556 69:0.6 70:0.428571 75:1 77:1 79:1 80:1 89:0.5 91:1 100:1 104:1 
1.813508359847068 1:0.111111 2:0.111111 3:-0.75 4:-0.333333 5:-0.333333 6:-0.333333 7:-0.333333 8:-0.777778 9:-0.75 10:-0.333333 11:-0.333333 12:-0.333333 13:-0.333333 14:-0.6 15:-0.5 17:-0.428571 18:-0.666667 19:-0.333333 20:-0.333333 22:1 23:-0.333333 24:-0.111111 25:-0.6 27:0.111111 28:-0.333333 29:-1 30:-1 31:-1 32:-1 33:-1 34:-0.111111 35:0.555556 36:-0.333333 37:-1 38:-1 39:0.75 40:0.111111 41:-1 42:-0.2 43:-0.5 44:-0.333333 45:-0.333333 46:-0.333333 47:-0.333333 48:-0.5 49:-0.333333 50:-0.333333 51:-0.5 52:-0.5 53:-0.5 54:-0.6 55:-1 56:-1 57:-1 58:-1 59:-1 60:-1 61:-1 62:-1 63:-1 64:0.777778 65:-0.2 66:0.2 67:-0.333333 68:-0.555556 69:-0.6 70:-0.714286 72:1 73:1 79:1 87:1 89:0.5 92:1 93:1 104:1 
1.630771523514011 1:0.111111 2:0.111111 3:-0.75 4:-0.333333 5:1 6:1 7:-0.333333 8:-0.777778 9:-0.75 10:-0.333333 11:-0.333333 12:-0.333333 13:-0.333333 14:-0.2 15:-0.5 16:-0.5 17:-0.714286 18:-0.666667 19:-0.333333 20:-0.333333 23:-0.333333 24:-0.777778 25:-0.6 27:0.777778 28:-1 29:0.111111 30:-1 31:-1 32:-1 33:-1 34:-0.111111 35:-1 36:-0.333333 37:-1 38:-1 39:0.75 40:-0.111111 41:-1 42:-0.2 43:-0.5 44:-0.333333 45:-0.333333 46:0.333333 47:-0.333333 48:-0.5 49:-0.333333 50:-0.333333 51:-0.5 52:-0.5 53:-0.5 54:0.6 55:1 56:-1 57:-1 58:-1 59:-1 60:0.5 61:0.333333 62:-1 63:-1 64:-1 65:-0.6 66:-0.6 67:-0.111111 68:-0.555556 69:0.2 70:0.142857 74:1 76:1 79:1 80:1 87:1 89:0.5 91:1 92:1 96:1 104:1 
2 1:-0.333333 2:1 3:1 4:0.333333 5:-0.333333 6:-0.333333 7:0.333333 8:-0.777778 9:-1 10:-0.333333 11:-0.333333 12:-0.333333 13:-0.333333 14:-0.6 15:-0.5 16:-0.5 17:-0.142857 18:-0.333333 19:-0.333333 20:-0.333333 23:-0.333333 24:-0.333333 25:-0.2 27:-0.333333 28:-0.333333 29:-1 30:-1 31:-1 32:-1 33:-1 34:-1 35:-0.333333 36:-1 37:-1 38:-1 39:-1 40:0.111111 41:-1 42:-0.2 43:-0.5 44:-0.333333 45:-0.333333 46:-0.333333 47:-0.333333 48:-0.5 49:-0.333333 50:-0.333333 51:-0.5 52:-0.5 53:-0.5 54:-0.2 55:-0.777778 57:-1 58:-1 59:-1 60:-1 61:-0.333333 62:-1 63:-1 64:-1 65:-0.6 66:-0.6 67:-0.111111 68:-0.555556 69:0.2 70:-0.714286 73:1 78:-0.5 79:1 81:1 89:-0.5 92:1 104:1 
2 1:-0.777778 2:-1 3:-0.75 4:-0.333333 5:-0.333333 6:-0.333333 7:-0.333333 8:-0.777778 9:-1 10:-0.333333 11:-0.333333 12:-0.333333 13:-0.333333 14:-0.6 16:-0.5 17:-0.714286 18:-0.333333 19:0.333333 20:-0.333333 23:-0.333333 24:-0.777778 25:-0.6 27:0.333333 28:-1 29:-0.111111 30:-0.555556 31:-1 32:-1 33:-1 34:0.333333 35:-1 36:-0.111111 37:-1 38:-1 39:-1 40:-1 41:-1 42:-0.6 43:-0.5 44:-0.333333 45:-0.333333 46:-0.333333 47:-0.333333 48:-0.5 49:-0.333333 50:-0.333333 51:-0.5 52:-0.5 53:-0.5 54:0.6 55:0.111111 56:-1 57:-1 58:-1 59:-1 60:-1 61:0.111111 62:-1 63:-0.111111 64:0.111111 65:-0.2 66:0.2 67:-0.777778 68:-0.777778 69:-0.2 70:-0.428571 72:1 73:1 79:1 80:1 87:1 91:1 104:1 
1.538406454256261 1:0.555556 2:0.777778 3:-0.5 4:1 5:1 6:-0.333333 7:1 8:0.777778 9:0.75 10:-0.333333 11:-0.333333 12:-0.333333 13:-0.333333 14:-0.6 15:-0.5 16:-0.5 17:-0.428571 18:-0.666667 19:-0.333333 20:-0.333333 23:-0.333333 24:-1 25:-0.6 27:-0.333333 28:-0.333333 29:-0.333333 30:-0.333333 31:-0.111111 32:0.333333 33:-1 34:0.111111 35:-0.333333 36:-1 37:-1 38:-0.25 39:-0.25 40:-0.333333 41:-1 42:-0.6 43:-0.5 44:-0.333333 45:-0.333333 46:-0.333333 47:-0.333333 48:-0.5 49:-0.333333 50:-0.333333 51:-0.5 52:-0.5 53:-0.5 54:0.6 55:0.333333 56:-0.25 58:-0.333333 59:-0.142857 60:-1 61:0.777778 62:-1 63:-1 64:0.333333 65:-0.2 66:0.2 67:-0.333333 68:-0.555556 69:-0.6 70:-0.142857 72:1 73:1 78:-0.5 79:1 80:1 87:1 104:1 
1.472682214380716 1:0.333333 2:-0.333333 3:-0.25 4:1 5:0.333333 6:-0.333333 7:0.333333 8:-0.777778 9:-1 10:-0.333333 11:-0.333333 12:-0.333333 13:-0.333333 14:-0.6 15:-0.5 16:-0.5 17:-0.714286 18:-0.666667 19:-0.333333 20:-0.333333 21:1 22:1 23:-0.333333 24:0.111111 25:0.2 27:-1 28:-1 29:-1 30:-1 31:-1 32:-0.333333 33:-1 34:0.333333 35:-1 36:0.111111 37:-1 38:-1 39:-0.25 40:0.111111 41:-1 42:-0.2 43:-0.5 44:-0.333333 45:-0.333333 46:-0.333333 47:-0.333333 48:-0.5 49:-0.333333 50:-0.333333 51:-0.5 52:-0.5 53:-0.5 54:0.6 55:-1 56:-1 57:-1 58:-1 59:-1 60:-1 61:-1 62:-1 63:-1 64:-1 65:-0.6 66:0.2 67:-0.111111 68:-0.555556 69:-0.6 70:-0.714286 73:1 74:1 78:-0.5 79:1 81:1 89:-0.5 90:1 104:1 
1.415821503882002 1:0.777778 2:0.111111 4:1 5:0.333333 6:0.333333 7:0.333333 8:0.777778 9:-0.25 10:0.333333 11:0.333333 12:0.333333 13:0.333333 14:0.6 15:-0.5 16:-0.5 17:-0.428571 18:-0.333333 19:-0.333333 20:0.333333 23:-0.333333 24:-1 25:-0.6 27:0.111111 28:-0.333333 29:-0.333333 30:-1 31:0.111111 32:0.111111 33:-1 34:0.111111 35:-1 36:-1 37:-1 38:-1 39:-1 40:-1 41:-1 42:0.2 43:-0.5 44:-0.333333 45:-0.333333 46:-0.333333 47:-0.333333 48:-0.5 49:-0.333333 50:-0.333333 51:-0.5 52:-0.5 53:-0.5 54:-0.2 55:-1 56:-1 57:-1 58:-1 59:-1 60:-1 61:0.111111 62:-1 63:-1 64:-0.111111 65:-0.2 66:0.2 67:-0.111111 68:-0.555556 69:0.6 70:0.714286 73:1 78:-0.5 79:1 87:1 89:-0.5 90:1 101:1 104:1 
1.905117173288841 1:-0.333333 2:-1 3:-0.25 4:1 5:0.333333 6:-0.333333 7:0.333333 8:-0.777778 9:-1 10:-0.333333 11:-0.333333 12:-0.333333 13:-0.333333 14:-0.6 15:-0.5 16:0.5 17:-0.714286 18:-0.666667 19:0.333333 20:-0.333333 23:-0.333333 24:-1 25:-0.6 27:-1 28:-1 29:-1 30:-1 31:-1 32:-0.333333 33:-1 34:0.111111 35:-1 36:-0.333333 37:-1 38:-1 39:-1 40:-1 41:-1 42:-0.6 43:-0.5 44:-0.333333 45:-0.333333 46:-0.333333 47:-0.333333 48:-0.5 49:-0.333333 50:-0.333333 51:-0.5 52:-0.5 53:-0.5 54:-0.6 55:-1 56:-1 57:-1 58:0.333333 59:-1 60:-1 61:-0.333333 62:-0.5 63:-0.333333 64:-0.333333 65:-0.2 66:0.2 67:-0.111111 68:-0.555556 69:0.2 70:-0.714286 73:1 78:-0.5 79:1 80:1 89:-0.5 90:1 104:1 
1.681396057939882 1:0.555556 2:-0.555556 3:-0.25 4:-0.333333 5:-0.333333 6:-0.333333 7:-0.333333 8:-0.777778 9:-0.75 10:-0.333333 11:-0.333333 12:-0.333333 13:-0.333333 14:-0.6 15:-0.5 16:0.5 17:-0.714286 18:-0.333333 19:-0.333333 20:-0.333333 22:1 23:0.333333 24:-0.333333 25:0.2 27:-0.111111 28:-0.333333 29:-1 30:-1 31:-0.333333 32:0.111111 33:-0.333333 34:-0.555556 35:-0.333333 36:-1 37:-1 38:-1 39:-1 40:0.555556 41:-1 42:-0.2 43:-0.5 44:-0.333333 45:-0.333333 46:-0.333333 47:-0.333333 48:-0.5 49:0.333333 50:-0.333333 51:-0.5 52:-0.5 54:-0.2 55:-0.777778 56:-1 57:-1 58:-1 59:-1 60:-1 61:-0.333333 62:-1 63:-1 64:-1 65:-0.2 66:0.6 67:-0.777778 68:-0.555556 69:-0.2 70:-0.714286 76:1 79:1 81:1 89:-0.5 95:1 101:1 104:1 
2 1:-0.777778 2:-1 3:-0.75 4:-0.333333 5:-0.333333 6:-0.333333 7:-0.333333 8:0.333333 9:-0.5 10:-0.333333 11:-0.333333 12:-0.333333 13:-0.333333 14:-0.2 15:-0.5 16:0.5 17:-0.714286 18:-0.666667 19:0.333333 20:-0.333333 23:-0.333333 24:-1 25:-0.6 27:-1 28:-1 29:-1 30:-1 31:-1 32:-1 33:-0.333333 34:-0.333333 35:-1 36:-1 37:-1 38:-1 39:-0.5 40:-1 41:-1 42:-0.2 43:-0.5 44:-0.333333 45:1 46:-0.333333 47:-0.333333 48:-0.5 49:-0.333333 50:-0.333333 51:-0.5 52:-0.5 53:-0.5 54:-0.2 55:-1 56:-1 57:-1 58:-1 59:-1 60:-1 61:-1 62:-1 63:-0.111111 64:-1 65:-0.6 66:-0.6 67:-0.111111 68:-0.333333 69:-0.6 70:-0.142857 72:1 73:1 78:-0.5 79:1 81:1 89:-0.5 92:1 96:1 104:1 
2 1:-0.777778 2:-1 3:-0.75 4:-0.333333 5:-0.333333 6:-0.333333 7:-0.333333 8:-0.333333 9:-0.25 10:0.333333 11:0.333333 12:0.333333 13:0.333333 14:-0.6 15:-0.5 16:0.5 17:-0.142857 18:-0.333333 19:-0.333333 20:0.333333 23:-0.333333 24:-0.333333 25:0.6 27:-1 28:-1 29:-0.333333 30:-1 31:-0.333333 32:-1 33:-0.333333 34:-0.333333 35:-1 36:-0.333333 37:-1 38:-1 39:-1 40:-1 41:-1 42:-0.6 43:-0.5 44:-0.333333 45:-0.333333 46:-0.333333 47:-0.333333 48:-0.5 49:-0.333333 50:-0.333333 51:-0.5 52:-0.5 53:-0.5 54:-0.6 55:-1 56:-1 57:-1 58:-1 59:-1 60:-1 61:-1 62:-1 63:-1 64:-1 65:-0.6 66:-0.6 67:-0.111111 68:-0.777778 69:-0.6 70:-0.714286 72:1 78:-0.5 79:1 81:1 89:-0.5 93:1 95:1 104:1 
1.340296966851112 1:0.333333 2:-0.555556 3:-0.25 4:-0.333333 5:-0.333333 6:0.333333 7:1 8:-0.777778 9:-1 10:-0.333333 11:-0.333333 12:-0.333333 13:-0.333333 14:0.2 15:-0.5 16:0.5 17:-0.428571 18:-0.333333 19:0.333333 20:0.333333 23:0.333333 24:-1 25:-0.6 27:0.111111 28:-0.333333 29:-1 30:-1 31:-1 32:-1 33:-1 34:0.333333 35:-0.333333 36:0.333333 37:-1 38:-1 39:-1 40:-0.111111 41:-1 42:-0.2 43:1 44:-0.333333 45:-0.333333 46:-0.333333 47:-0.333333 48:-0.5 49:-0.333333 50:1 51:-0.5 52:-0.5 53:-0.5 54:0.6 55:-0.111111 56:-1 57:-1 58:-1 59:-1 60:-1 61:-1 62:-1 63:0.111111 64:-0.333333 65:-0.6 66:-0.6 67:-0.111111 68:-0.555556 69:0.2 70:-0.142857 72:1 78:-0.5 79:1 80:1 89:-0.5 90:1 92:1 104:1 
1.518257203549484 1:0.777778 2:0.111111 4:-0.333333 5:1 6:0.333333 7:1 8:0.111111 9:-0.5 10:1 11:-0.333333 12:-0.333333 13:0.333333 14:-0.2 15:0.5 17:-0.428571 18:-0.333333 19:-0.333333 20:-0.333333 22:1 23:-0.333333 24:-1 25:-0.6 27:-0.333333 28:-1 29:-1 30:-1 31:0.111111 32:-1 33:-1 34:0.333333 35:-0.111111 36:-0.333333 37:-1 38:-1 39:-0.25 40:-0.555556 41:-1 42:-0.6 43:1 44:-0.333333 45:1 46:0.333333 47:-0.333333 48:-0.5 49:-0.333333 50:-0.333333 51:-0.5 52:-0.5 53:-0.5 54:0.6 55:-0.111111 56:-1 57:-1 58:-1 59:-1 60:-0.25 61:-0.333333 62:-1 63:-1 64:-0.333333 65:-0.2 66:0.2 67:-0.777778 68:-0.777778 69:1 70:-0.714286 72:1 73:1 78:-0.5 79:1 81:1 83:1 89:0.5 90:1 92:1 104:1 
1.33969447258965 1:-0.777778 2:-0.333333 3:-0.25 4:-0.333333 5:-0.333333 6:-0.333333 7:-0.333333 8:-0.777778 9:-1 10:-0.333333 11:-0.333333 12:-0.333333 13:-0.333333 14:-0.6 15:-0.5 16:-0.5 17:-0.428571 18:-0.666667 19:-0.333333 20:-0.333333 23:0.333333 24:-1 25:-0.6 27:-1 28:-1 29:-1 30:-1 31:-1 32:-0.777778 33:-1 34:-0.111111 35:-1 36:-0.333333 37:-1 38:-1 39:-1 40:-0.111111 41:-1 42:-0.6 43:1 44:-0.333333 45:-0.333333 46:-0.333333 47:-0.333333 48:-0.5 49:-0.333333 50:0.333333 51:-0.5 52:-0.5 53:-0.5 54:0.6 55:-1 56:-1 57:-1 58:-1 59:-1 60:-1 61:-1 62:-1 63:-1 64:-1 65:-0.2 66:0.2 67:1 68:-0.777778 69:0.2 70:-0.142857 77:1 78:0.5 79:1 81:1 89:-0.5 91:1 96:1 100:1 104:1 
2 1:-0.777778 2:-0.777778 3:-0.75 4:-0.333333 5:-0.333333 6:-0.333333 7:-0.333333 8:-0.777778 9:-0.75 10:-0.333333 11:-0.333333 12:-0.333333 13:-0.333333 14:-0.6 15:-0.5 16:0.5 17:-0.714286 18:-0.666667 19:0.333333 20:-0.333333 21:1 23:-0.333333 24:-0.333333 25:0.2 27:-1 28:-1 29:-1 30:-1 31:-1 32:-1 33:-1 34:0.111111 35:-1 36:-1 37:-1 38:-1 39:-1 40:-1 41:-1 42:-0.6 43:-0.5 44:-0.333333 45:-0.333333 46:-0.333333 47:-0.333333 48:-0.5 49:-0.333333 50:-0.333333 51:-0.5 52:-0.5 53:-0.5 54:-0.6 55:-1 56:-1 57:-1 58:-1 59:-1 60:-1 61:-1 62:-1 63:-1 64:-1 65:-0.6 66:-0.6 67:-0.777778 68:-0.777778 69:0.2 70:0.714286 71:1 78:-0.5 79:1 81:1 89:-0.5 90:1 104:1 
1.662866328665164 1:0.555556 2:-0.555556 3:-0.25 4:-0.333333 5:-0.333333 6:-0.333333 7:-0.333333 8:-0.777778 9:-0.75 10:-0.333333 11:-0.333333 12:-0.333333 13:-0.333333 14:-0.6 15:-0.5 16:-0.5 17:-0.714286 18:-0.333333 19:0.333333 20:0.333333 23:-0.333333 24:-1 25:-0.6 27:-0.333333 28:-0.333333 29:-1 30:-0.333333 31:-0.111111 32:-1 33:-1 34:-0.111111 35:-1 36:-0.555556 37:-1 38:-1 40:-0.111111 41:-1 42:-0.2 43:1 44:-0.333333 45:-0.333333 46:-0.333333 47:-0.333333 48:-0.5 49:-0.333333 50:-0.333333 51:-0.5 52:-0.5 53:-0.5 54:-0.6 55:-1 56:-1 57:-1 58:-1 59:-1 60:-1 61:-0.111111 62:-1 63:-1 64:-0.111111 65:-0.2 66:0.6 67:1 68:-0.555556 69:-0.2 70:-0.142857 72:1 78:-0.5 79:1 80:1 91:1 96:1 104:1 
1.569765253461738 1:-0.777778 2:-1 3:-0.75 4:-0.333333 5:-0.333333 6:-0.333333 7:-0.333333 8:0.777778 9:-0.25 10:-0.333333 11:-0.333333 12:-0.333333 13:0.333333 14:0.6 15:-0.5 16:0.5 17:-0.428571 18:-0.333333 19:-0.333333 20:-0.333333 21:1 22:1 23:0.333333 24:-1 25:-0.6 27:0.333333 28:-0.555556 29:-0.333333 30:-0.333333 31:-0.333333 32:-1 33:-1 34:-0.111111 35:-1 36:0.111111 37:-1 38:-1 39:-1 40:-0.333333 41:-1 42:0.2 43:1 44:-0.333333 45:-0.333333 46:-0.333333 47:-0.333333 48:-0.5 49:-0.333333 50:-0.333333 51:-0.5 52:-0.5 53:-0.5 54:-0.6 55:-1 56:-1 57:-1 58:-1 59:-1 60:0.5 61:0.333333 62:-1 63:-0.555556 64:0.333333 65:-0.2 66:0.2 67:-0.111111 68:-0.555556 69:-0.2 70:-0.428571 75:1 76:1 78:-0.5 79:1 81:1 89:0.5 90:1 92:1 104:1 
1.437994124583404 1:0.555556 2:-0.333333 3:-0.25 4:-0.333333 5:1 6:0.333333 7:1 8:-0.777778 9:0.75 10:1 11:1 12:-0.333333 13:-0.333333 14:-0.2 17:-0.428571 18:-0.333333 19:0.333333 20:-0.333333 23:-0.333333 24:-1 25:-0.6 27:0.111111 28:-1 29:-0.555556 30:-1 31:-1 32:-1 33:-1 34:0.111111 35:-1 36:-1 37:-1 38:-1 39:-0.5 40:-0.555556 41:-1 42:-0.2 43:1 44:-0.333333 45:-0.333333 46:0.333333 47:-0.333333 48:-0.5 49:-0.333333 50:-0.333333 51:-0.5 52:-0.5 53:-0.5 54:0.6 55:-1 56:-1 57:-1 58:-1 59:-1 60:-1 61:0.555556 62:-1 63:-0.333333 64:0.555556 65:-0.2 66:0.2 67:-0.111111 68:-0.555556 69:-0.2 70:-0.428571 72:1 74:1 78:-0.5 79:1 81:1 83:1 89:0.5 90:1 92:1 104:1 
1.656026579093375 1:-0.777778 2:-1 3:-0.75 4:-0.333333 5:-0.333333 6:-0.333333 7:-0.333333 8:-0.777778 9:-1 10:-0.333333 11:-0.333333 12:-0.333333 13:-0.333333 14:-0.6 15:-0.5 16:-0.5 17:-0.428571 18:-0.333333 19:-0.333333 20:-0.333333 23:0.333333 24:-0.555556 25:0.6 27:-1 28:-1 29:-0.333333 30:-0.333333 31:-1 32:-0.333333 33:-1 34:0.111111 35:-0.333333 36:-0.333333 37:-1 38:-1 39:-0.25 40:0.111111 41:-1 42:-0.2 43:-0.5 44:-0.333333 45:-0.333333 46:-0.333333 47:-0.333333 48:-0.5 49:-0.333333 50:-0.333333 51:-0.5 52:-0.5 53:-0.5 54:-0.6 55:-1 56:-1 58:-0.333333 59:-0.428571 60:-1 61:-0.111111 62:-1 63:-1 64:-1 65:-0.2 66:0.6 67:1 68:-0.555556 69:-0.2 70:-0.428571 71:1 78:0.5 79:1 80:1 89:-0.5 90:1 95:1 104:1 
1.611802079689033 1:-0.777778 2:-1 3:-0.75 4:-0.333333 5:-0.333333 6:-0.333333 7:-0.333333 8:0.333333 9:-0.25 10:1 11:-0.333333 12:1 13:1 14:-0.6 16:0.5 17:0.714286 18:-0.333333 19:0.333333 20:-0.333333 23:-0.333333 24:-1 25:-0.6 27:-0.333333 28:-0.555556 29:-1 30:-1 31:-1 32:-0.333333 33:-1 34:0.333333 35:-1 36:-0.333333 37:-1 38:-1 39:-1 40:0.111111 41:-1 42:-0.6 43:-0.5 44:-0.333333 45:-0.333333 46:0.333333 47:-0.333333 48:-0.5 49:-0.333333 50:1 51:-0.5 52:-0.5 53:-0.5 54:0.2 55:-1 56:-1 57:-1 58:-1 59:-1 60:-1 61:-1 62:-1 63:-1 64:-0.111111 65:-0.2 66:-0.6 67:-0.111111 68:-0.777778 69:0.2 70:-0.714286 72:1 79:1 80:1 89:0.5 90:1 92:1 104:1 
1.685099606482698 1:-0.111111 2:-0.333333 3:-0.25 4:-0.333333 5:-0.333333 6:0.333333 7:-0.333333 8:-0.111111 9:-0.5 10:1 11:-0.333333 12:-0.333333 13:-0.333333 14:-0.6 15:-0.5 16:-0.5 17:-0.714286 18:-0.666667 19:-0.333333 20:-0.333333 23:-0.333333 24:-1 25:-0.6 27:-0.333333 28:-0.555556 29:-1 30:-0.333333 31:-0.333333 32:-1 33:-1 34:-0.555556 35:-1 36:-0.111111 37:-1 38:-1 39:-1 40:-0.111111 41:-1 42:-0.6 43:-0.5 44:-0.333333 45:-0.333333 46:-0.333333 47:-0.333333 48:-0.5 49:-0.333333 50:1 51:-0.5 52:-0.5 53:-0.5 54:-0.6 55:-1 56:-1 57:-1 58:-1 59:-1 60:-1 61:-0.555556 62:-1 63:-1 64:-1 65:-0.2 66:0.6 67:1 68:-0.777778 69:-0.2 70:-0.142857 72:1 78:-0.5 79:1 81:1 89:-0.5 90:1 92:1 99:1 104:1 
1.679051310179092 1:0.333333 2:-0.333333 4:-0.333333 5:-0.333333 6:-0.333333 7:-0.333333 8:0.777778 9:-0.25 10:-0.333333 11:-0.333333 12:0.333333 13:-0.333333 14:0.2 15:-0.5 16:0.5 17:-0.428571 19:-0.333333 20:0.333333 23:1 24:-0.777778 25:-0.6 27:0.111111 28:-1 29:-1 30:-1 31:-1 32:-1 33:-1 34:-0.333333 35:-1 36:-1 37:0.111111 38:0.25 39:-1 40:-0.333333 41:-1 42:-0.6 44:-0.333333 45:-0.333333 46:1 47:-0.333333 48:-0.5 49:-0.333333 50:1 51:-0.5 52:-0.5 53:-0.5 54:-0.6 55:0.111111 56:-1 58:-0.333333 59:-1 60:-1 61:-0.333333 62:-1 63:-0.333333 64:-0.333333 65:0.2 66:-0.6 67:-0.555556 68:-0.555556 69:0.2 70:-0.428571 72:1 73:1 78:-0.5 79:1 80:1 89:0.5 91:1 104:1 
2 1:-0.777778 2:-1 3:-0.75 4:-0.333333 5:-0.333333 6:-0.333333 7:-0.333333 8:-0.777778 9:-1 10:-0.333333 11:-0.333333 12:-0.333333 13:-0.333333 14:-0.6 15:-0.5 17:-0.142857 18:-0.333333 19:-0.333333 20:-0.333333 23:-0.333333 24:-0.333333 25:-0.2 27:-1 28:-1 29:-1 30:-1 31:-1 32:-1 33:-1 34:-1 35:-1 36:-0.333333 37:-1 38:-1 39:-1 40:-1 41:-1 42:-0.6 43:-0.5 44:-0.333333 45:-0.333333 46:-0.333333 47:-0.333333 48:-0.5 49:-0.333333 50:-0.333333 51:-0.5 52:-0.5 53:-0.5 54:0.6 55:-0.333333 56:-1 57:-1 58:-1 59:-1 60:-1 61:-1 62:-1 63:-1 64:-1 65:-0.6 66:-0.6 67:-0.111111 68:-0.555556 69:0.2 70:-0.714286 76:1 79:1 83:1 89:0.5 91:1 104:1 
1.612328469789552 1:-0.777778 2:-1 3:-0.75 4:-0.333333 5:-0.333333 6:-0.333333 7:-0.333333 8:0.111111 9:-0.75 10:-0.333333 11:-0.333333 12:0.333333 13:0.333333 14:-0.6 15:-0.5 16:0.5 17:0.142857 18:-0.333333 19:-0.333333 20:-0.333333 23:-0.333333 24:0.333333 25:-0.6 27:-0.333333 28:-0.333333 29:-1 30:-1 31:-0.333333 32:-0.333333 33:-1 34:-0.333333 35:-0.333333 36:-1 37:-1 38:-1 39:-1 40:-1 41:-1 42:-0.2 44:-0.333333 45:-0.333333 46:-0.333333 47:-0.333333 48:-0.5 49:-0.333333 50:-0.333333 51:-0.5 52:-0.5 53:-0.5 54:-0.2 55:-0.333333 56:-1 57:-1 58:-1 59:-1 60:-1 61:-0.333333 62:-1 63:-1 64:-1 65:0.2 66:-0.2 67:-0.333333 68:-0.555556 69:0.2 70:-0.428571 74:1 76:1 79:1 81:1 89:0.5 91:1 92:1 104:1 
2 1:0.333333 2:-0.111111 4:-0.333333 5:-0.333333 6:-0.333333 7:-0.333333 8:-0.777778 9:-0.75 10:-0.333333 11:-0.333333 12:-0.333333 13:-0.333333 14:-0.6 15:-0.5 16:-0.5 17:-0.714286 18:-0.666667 19:-0.333333 20:-0.333333 23:0.333333 24:-1 25:-0.6 27:-1 28:-1 29:-0.111111 30:-1 31:-1 32:-1 33:-1 34:-1 35:0.333333 36:-1 37:-1 38:-1 39:-1 40:-1 41:-1 42:-0.6 43:-0.5 44:0.333333 45:-0.333333 46:-0.333333 47:-0.333333 48:-0.5 49:-0.333333 50:-0.333333 51:-0.5 52:-0.5 53:-0.5 54:-0.6 55:-1 56:-1 57:-1 58:-1 59:-1 60:-1 61:-0.111111 62:-1 63:-1 64:-0.111111 65:-0.2 66:0.6 67:-0.111111 68:-0.555556 69:0.2 70:-0.142857 72:1 73:1 78:0.5 79:1 81:1 89:0.5 100:1 104:1 
1.532600841777711 1:-0.333333 2:0.777778 3:-0.5 4:-0.333333 5:-0.333333 6:-0.333333 7:0.333333 8:-0.777778 9:-1 10:-0.333333 11:-0.333333 12:-0.333333 13:-0.333333 14:-0.2 17:0.142857 18:-0.666667 19:-0.333333 20:-0.333333 23:-0.333333 24:-1 25:-0.6 27:-1 28:-1 29:-0.333333 30:-1 31:-1 32:-0.555556 33:-1 34:0.777778 35:-0.333333 36:-1 37:-1 38:-1 39:-1 40:-0.555556 41:-1 42:-0.2 43:-0.5 44:-0.333333 45:-0.333333 46:-0.333333 47:-0.333333 48:-0.5 49:-0.333333 50:-0.333333 51:-0.5 52:-0.5 53:-0.5 54:0.6 55:-1 56:-1 57:-1 58:-1 59:-1 60:-1 61:-1 62:-1 63:-1 64:-1 65:-1 66:-1 67:-0.111111 68:-0.333333 69:0.2 70:-0.714286 74:1 76:1 77:1 78:0.5 79:1 81:1 90:1 92:1 104:1 
2 1:-0.777778 2:-1 3:-0.75 4:-0.333333 5:-0.333333 6:-0.333333 7:-0.333333 8:-0.777778 9:-1 10:-0.333333 11:-0.333333 12:-0.333333 13:-0.333333 14:-0.6 15:-0.5 16:-0.5 17:-0.714286 18:-0.666667 19:-0.333333 20:-0.333333 23:0.333333 24:-1 25:-0.6 27:-1 28:-1 29:-0.333333 30:-1 31:-1 32:-1 33:-1 34:-0.333333 35:-1 36:-1 37:-1 38:-1 39:-1 40:-1 41:-1 42:-0.6 43:-0.5 44:-0.333333 45:-0.333333 46:0.333333 47:-0.333333 48:-0.5 49:-0.333333 50:-0.333333 51:-0.5 52:-0.5 53:-0.5 54:-0.6 55:-1 56:-1 57:-1 58:-1 59:-1 60:-1 61:-1 62:-1 63:-1 64:-1 65:-0.6 66:-0.6 67:-0.777778 68:-0.555556 69:0.2 70:-0.428571 72:1 73:1 78:-0.5 79:1 80:1 90:1 104:1 
1.868682591818841 1:0.111111 2:0.111111 3:-0.5 4:-0.333333 5:1 6:0.333333 7:-0.333333 8:0.111111 9:0.25 10:1 11:-0.333333 12:0.333333 13:0.333333 14:-0.2 15:-0.5 16:0.5 17:0.142857 18:-0.666667 19:-0.333333 20:-0.333333 23:-0.333333 24:-0.333333 25:0.6 27:-1 28:-1 29:-0.333333 30:-1 31:-1 32:-1 33:-1 34:0.111111 35:-0.333333 36:-1 37:-1 38:-1 39:-1 40:-0.333333 41:-1 42:-0.2 43:-0.5 44:-0.333333 45:-0.333333 46:-0.333333 47:-0.333333 48:-0.5 49:-0.333333 50:-0.333333 51:-0.5 52:-0.5 53:-0.5 54:-0.2 55:-1 56:-1 57:-1 58:-1 59:-1 60:-1 61:-1 62:-1 63:-1 64:-1 65:-0.2 66:0.6 67:1 68:-0.777778 69:0.2 70:0.714286 71:1 78:-0.5 79:1 87:1 90:1 104:1 
2 1:-0.777778 2:-1 3:-0.75 4:-0.333333 5:-0.333333 6:-0.333333 7:-0.333333 8:-0.777778 9:-1 10:-0.333333 11:-0.333333 12:-0.333333 13:-0.333333 14:-0.6 15:-0.5 16:0.5 17:0.714286 18:-0.666667 19:-0.333333 20:-0.333333 23:-0.333333 24:-1 25:-0.6 27:-1 28:-1 29:-0.555556 30:-1 31:-0.333333 32:-1 33:-1 34:-0.333333 35:-1 36:-1 37:-1 38:-1 39:-1 40:-0.333333 41:-1 42:-0.2 43:-0.5 44:-0.333333 45:-0.333333 46:-0.333333 47:-0.333333 48:-0.5 49:-0.333333 50:-0.333333 51:-0.5 52:-0.5 53:-0.5 54:0.6 55:-1 56:-1 57:-1 58:-1 59:-1 60:-1 61:-1 62:-1 63:-1 64:-1 65:-0.6 66:-0.6 67:-0.777778 68:1 69:-0.6 70:-0.142857 71:1 73:1 78:-0.5 79:1 81:1 89:-0.5 90:1 104:1 
-0.1689443360208395 1:-0.333333 2:-1 3:-0.25 4:1 5:-1 6:0.333333 7:-0.333333 8:-0.777778 9:-1 10:-0.333333 11:-0.333333 12:-0.333333 13:-0.333333 14:0.2 15:-0.5 16:-0.5 17:-0.714286 18:-0.666667 19:0.333333 20:-0.333333 23:-0.333333 24:-1 25:-0.6 27:-1 28:-0.777778 29:-1 30:-0.777778 31:-1 32:-1 33:-1 34:-0.777778 35:-1 36:-1 37:-1 38:-1 39:-0.75 40:-1 41:-1 42:-0.2 43:-0.5 44:-0.333333 45:-0.333333 46:0.333333 47:-0.333333 48:-1 49:-0.333333 50:-0.333333 51:-0.5 52:-0.5 53:-0.5 54:-0.2 55:-1 56:-1 57:-1 58:-1 59:-1 60:-1 61:-1 62:-1 63:-1 64:-1 65:-1 66:-0.2 67:-0.111111 68:-0.777778 69:0.2 70:-0.428571 72:-1 73:-1 74:-1 75:-1 76:-1 77:-1 78:-1 79:-1 81:1 87:1 88:-1 89:-0.5 90:1 92:1 104:1 
-0.3182529922631297 1:1 2:-0.555556 3:-0.25 4:-0.333333 5:-0.333333 6:0.333333 7:-0.333333 8:-0.777778 9:-0.75 10:1 11:-0.333333 12:0.333333 13:0.333333 14:-0.6 15:-0.5 16:0.5 17:-0.714286 19:-0.333333 20:0.333333 21:1 23:-0.333333 24:-1 25:-0.6 27:-1 28:-1 29:0.111111 30:-1 31:-1 32:-1 33:-1 34:0.111111 35:-1 36:0.111111 37:-1 38:-1 39:-1 40:-0.333333 41:-0.2 42:-0.6 43:-0.5 44:-0.333333 45:-0.333333 46:-0.333333 47:-0.333333 48:-0.5 49:-0.333333 50:1 51:-0.5 52:-0.5 53:-0.5 54:-0.6 55:-1 56:-1 57:-1 58:-1 59:-1 60:-1 61:-0.555556 62:-1 63:-1 64:-1 65:-0.6 66:-0.6 67:-0.777778 68:-0.777778 69:0.2 70:-0.428571 71:1 72:-1 73:-1 74:-1 75:-1 76:-1 77:-1 78:-0.5 79:1 80:-1 81:1 82:-1 83:-1 84:-1 85:-1 86:-1 87:-1 88:-1 89:-0.5 90:-1 91:-1 92:1 93:-1 94:-1 95:-1 96:-1 97:-1 98:-1 99:-1 100:-1 101:-1 102:-1 103:-1 104:-1 
-0.7850048662108265 1:-0.777778 2:-1 3:-0.75 4:-0.333333 5:-0.333333 6:-0.333333 7:-0.333333 8:-0.777778 9:-1 10:-0.333333 11:-0.333333 12:-0.333333 13:-0.333333 14:-0.6 15:-0.5 16:0.5 17:-0.428571 18:-0.666667 19:-0.333333 20:-0.333333 21:1 23:-0.333333 24:-0.333333 25:0.2 27:-1 28:-1 29:-0.555556 30:-1 31:-1 32:-1 33:-0.555556 34:0.111111 35:-0.777778 36:-1 37:-1 38:-1 39:-1 40:-1 41:-1 42:-0.2 44:-0.333333 45:-0.333333 46:-0.333333 47:-0.333333 48:-0.5 49:-1 50:-0.333333 51:-0.5 52:-0.5 54:-0.6 55:-0.555556 56:-1 57:-1 58:-1 59:-1 60:-0.25 61:-0.555556 62:-1 63:-0.555556 64:-0.333333 65:-0.6 66:-0.6 67:0.333333 68:-0.777778 69:0.2 70:0.714286 71:1 72:-1 76:1 78:-0.5 79:1 80:1 83:1 89:-0.5 90:1 104:1 
-0.6066377825004522 1:-0.777778 2:-1 3:-0.75 4:-0.333333 5:-0.333333 6:-0.333333 7:-0.333333 8:-0.777778 9:-1 10:1 11:-0.333333 12:-0.333333 13:-0.333333 14:-0.6 15:0.5 17:-0.714286 18:-0.333333 19:0.333333 20:-0.333333 23:-0.333333 24:-1 25:-0.6 27:-0.111111 28:-1 29:-1 30:-1 31:-1 32:-1 33:0.111111 34:-0.333333 35:-1 36:0.111111 37:-1 38:-1 39:-1 40:-0.111111 41:-1 42:-0.6 43:-0.5 44:-0.333333 45:-0.333333 46:-0.333333 47:-0.333333 48:-0.5 49:-1 50:-0.333333 51:-0.5 52:-0.5 53:-0.5 54:-0.6 55:-1 56:-1 57:-1 58:-1 59:-1 60:-1 61:-1 62:-1 63:-0.555556 64:-1 65:-0.6 66:-0.6 67:0.777778 68:-0.555556 69:0.6 70:0.714286 76:1 78:0.5 79:1 80:1 89:-0.5 90:1 104:1 
-0.3725477462929301 1:0.555556 2:-0.333333 3:-0.5 4:1 5:-0.333333 6:0.333333 7:1 8:-0.777778 9:-1 10:-0.333333 11:-0.333333 12:-0.333333 13:-0.333333 14:-0.6 15:-0.5 16:-0.5 17:-0.714286 18:-0.666667 19:0.333333 20:-0.333333 23:-0.333333 24:-1 25:-0.6 27:-0.777778 28:-1 29:-1 30:-1 31:-0.777778 32:-0.333333 33:-0.111111 34:-0.111111 35:-1 36:-0.555556 37:-0.555556 38:-1 39:-1 40:-0.333333 41:-0.2 42:-0.2 43:1 44:-0.333333 45:-0.333333 46:-0.333333 47:-0.333333 48:-0.5 49:-1 50:-0.333333 51:-0.5 52:-0.5 53:-0.5 54:-0.6 55:0.555556 57:0.666667 58:-1 59:-1 60:0.25 61:-1 63:-0.555556 64:-1 65:-0.6 66:-0.6 67:-0.111111 68:-0.555556 69:0.6 70:-0.714286 72:1 78:0.5 79:1 80:1 89:-0.5 92:1 104:1 
-0.008305281039697427 1:-0.777778 2:-1 3:-0.75 4:-0.333333 5:-0.333333 6:-0.333333 7:-0.333333 8:-0.777778 9:-1 10:-0.333333 11:-0.333333 12:-0.333333 13:-0.333333 14:-0.6 15:-0.5 16:-0.5 17:-0.714286 18:-0.666667 19:0.333333 20:-0.333333 23:-0.333333 24:-1 25:-0.6 27:-0.555556 28:-1 29:-1 30:-1 31:-1 32:-1 33:-1 34:-1 35:-1 36:-1 37:-1 38:-0.5 39:-0.25 40:-1 41:-1 42:-1 43:-0.5 44:-0.333333 45:-0.333333 46:-0.333333 47:-0.333333 48:-0.5 49:-0.333333 50:-0.333333 51:-0.5 52:-0.5 53:-0.5 54:-0.6 55:0.111111 56:0.25 57:-1 58:-1 59:-1 60:0.25 61:-0.333333 62:-1 63:-1 64:-1 65:-0.2 66:0.6 67:-0.555556 68:-0.777778 69:0.2 70:-0.428571 71:1 76:1 78:-0.5 79:1 81:1 89:-0.5 90:1 104:1 
-0.4057229105113034 1:-0.777778 2:-1 3:-0.75 4:-0.333333 5:-0.333333 6:-0.333333 7:-0.333333 8:-0.777778 9:-0.25 10:-0.333333 11:-0.333333 12:-0.333333 13:-0.333333 14:-0.6 15:-0.5 16:0.5 17:-0.714286 18:-0.333333 19:-0.333333 20:-0.333333 23:-0.333333 24:-1 25:-0.6 27:-1 28:-1 29:-1 30:-1 31:-1 32:-1 33:-1 34:-1 35:-1 36:-1 37:-0.333333 38:-1 39:-1 40:-1 41:-1 42:-1 43:-0.5 44:-0.333333 45:-0.333333 46:-1 47:-0.333333 48:-0.5 49:-0.333333 50:1 51:-0.5 52:-0.5 53:-0.5 54:-0.6 55:-1 56:-1 57:-1 58:-1 59:-1 60:-1 61:-1 62:-1 63:-1 64:-1 65:-0.2 66:0.6 67:0.111111 68:-0.777778 69:0.2 70:-0.428571 78:-0.5 79:1 81:1 89:-0.5 90:1 104:1 
-0.3163893976357205 1:0.555556 2:0.777778 3:-1 4:-0.333333 5:-0.333333 6:-0.333333 7:1 8:-0.777778 9:-1 10:-0.333333 11:-0.333333 12:-0.333333 13:-0.333333 14:-0.6 16:0.5 17:-0.428571 18:-0.333333 19:-0.333333 20:0.333333 23:-0.333333 24:-1 25:-0.6 27:0.111111 28:-0.111111 29:-0.111111 30:-0.111111 31:-0.111111 32:-0.111111 33:-1 34:-1 35:-0.555556 36:-0.333333 37:-1 38:-1 39:-0.5 40:-0.111111 41:-1 42:-1 43:-0.5 44:0.333333 45:-0.333333 46:-0.333333 47:-0.333333 48:-1 49:-1 50:1 51:-0.5 52:-0.5 53:-0.5 54:-0.6 55:-0.111111 57:-0.333333 58:-1 59:-0.142857 61:-1 62:-1 63:-1 64:-1 65:-0.6 66:-0.6 67:-0.111111 68:-0.555556 69:0.2 70:-0.714286 78:-0.5 79:1 81:1 89:-0.5 91:1 99:1 104:1 
-0.3049887784665041 1:-0.333333 2:-0.777778 3:-0.75 4:1 5:-0.333333 6:-1 7:-0.333333 8:-0.777778 9:-1 10:-0.333333 11:-0.333333 12:-0.333333 13:-0.333333 14:-0.2 15:-0.5 16:-0.5 17:-0.714286 18:-0.666667 19:-0.333333 20:-0.333333 23:-0.333333 24:-1 25:0.6 27:-0.555556 28:-0.555556 29:-1 30:-1 31:-1 32:-0.333333 33:-0.111111 34:-1 35:-1 36:-1 37:-0.555556 38:-1 39:-1 40:-1 41:-0.2 42:-0.6 43:-0.5 44:0.333333 45:-0.333333 46:-0.333333 47:-0.333333 48:-0.5 49:-0.333333 50:1 51:-0.5 52:-0.5 53:-0.5 54:-0.2 55:-0.777778 56:-1 57:-0.666667 58:-1 59:-1 60:-0.25 61:-1 62:-1 63:-1 64:-0.555556 65:-0.2 66:0.6 67:-1 68:-1 69:-1 70:-1 71:-1 73:1 77:1 78:-0.5 79:-1 80:-1 81:-1 82:-1 83:-1 84:-1 85:-1 86:-1 87:-1 88:-1 89:-1 91:1 104:1 
-0.2056572988446021 1:-0.777778 2:-1 3:-0.75 4:-0.333333 5:-0.333333 6:-0.333333 7:-0.333333 8:-0.777778 9:-1 10:-0.333333 11:-0.333333 12:-0.333333 13:-0.333333 14:0.2 15:-0.5 16:-0.5 17:-0.714286 18:-1 19:-1 20:1 23:-0.333333 24:-0.777778 25:-0.6 26:-1 27:0.555556 28:-0.333333 29:-1 30:-1 31:-0.555556 32:-1 33:-1 34:-0.555556 35:-1 36:-0.555556 37:-1 38:-1 39:-1 40:-1 41:-0.2 42:0.6 43:1 44:-0.333333 45:-0.333333 46:0.333333 47:-0.333333 48:-0.5 49:-1 50:1 52:-0.5 53:-0.5 54:-0.6 55:-1 56:-1 57:-1 58:-1 59:-1 60:-1 61:-0.777778 62:-1 63:-0.555556 64:-1 65:-0.2 66:0.2 67:1 68:-0.777778 69:-0.2 70:-0.142857 71:1 78:-0.5 79:1 87:1 93:1 104:1 
-0.3386830428418434 1:-0.777778 2:-1 3:-0.75 4:-0.333333 5:-0.333333 6:-0.333333 7:-0.333333 8:-0.777778 9:-1 10:-0.333333 11:-0.333333 12:-0.333333 13:-0.333333 14:-0.2 15:-0.5 16:0.5 17:0.714286 19:-0.333333 20:0.333333 23:-0.333333 24:-1 25:-0.6 27:0.111111 28:-1 29:-1 30:-1 31:0.111111 32:-1 33:-1 34:-0.555556 35:-1 36:-1 37:-0.555556 38:-1 39:-1 40:-1 41:-0.6 42:-0.2 43:-0.5 44:-0.333333 45:-0.333333 46:0.333333 47:-0.333333 48:0.5 49:-1 50:-0.333333 51:-0.5 52:-0.5 54:0.6 55:-1 56:-1 57:-0.333333 58:-0.555556 59:-1 60:-1 61:-0.555556 62:-1 63:-1 64:-1 65:-0.2 66:-0.6 67:-0.777778 68:-0.777778 69:-0.2 70:-0.142857 74:1 78:-0.5 79:1 81:1 89:-0.5 90:1 104:1 
-0.2623689071795407 1:-0.777778 2:-0.777778 3:-0.75 4:-0.333333 5:-0.333333 6:-0.333333 7:-0.333333 8:-0.777778 9:-1 10:-0.333333 11:-0.333333 12:-0.333333 13:-0.333333 14:-0.6 15:-0.5 16:-0.5 17:-0.714286 18:-0.666667 19:0.333333 20:-0.333333 23:-0.333333 24:-1 25:-0.6 26:1 27:-1 28:-1 29:-1 30:-0.777778 31:-1 32:-1 33:-1 34:-1 35:-1 36:-1 37:-1 38:-1 39:-1 40:-1 41:-1 42:-0.2 43:-0.5 44:-0.333333 45:1 46:0.333333 47:-0.333333 48:0.5 49:-1 50:-0.333333 51:-0.5 52:-0.5 53:-0.5 54:-0.6 55:-1 56:-1 57:-0.333333 58:-1 59:-1 60:-1 61:-1 62:-1 63:-1 64:-1 65:-0.2 66:0.6 67:-0.111111 68:-0.555556 69:0.2 70:-1 71:-1 72:-1 73:-1 74:-1 75:-1 76:-1 77:-1 78:-1 79:-1 80:-1 81:-1 82:-1 83:-1 84:-1 85:-1 86:-1 87:-1 88:-1 89:-1 90:-1 91:-1 92:-1 93:-1 94:-1 95:-1 96:-1 97:-1 98:-1 99:-1 100:-1 101:-1 102:-1 103:-1 104:-1 
-0.3883241400628347 1:0.555556 2:-0.555556 3:-0.25 4:-0.333333 5:-0.333333 6:-0.333333 7:0.333333 8:-0.777778 9:-0.25 10:-0.333333 11:0.333333 12:0.333333 13:-0.333333 14:-0.6 15:-0.5 16:-0.5 17:-0.428571 18:-0.666667 19:0.333333 20:-0.333333 23:-0.333333 24:-1 25:-0.6 27:-0.777778 28:-0.777778 29:-0.777778 30:-1 31:-0.555556 32:-1 33:-0.555556 34:-0.555556 35:-1 36:0.111111 37:-0.777778 38:-1 39:-1 40:-0.555556 41:-1 42:-0.6 43:-0.5 44:0.333333 45:-0.333333 46:-0.333333 47:-0.333333 48:-1 49:0.333333 50:-0.333333 51:-0.5 52:-0.5 53:-0.5 54:0.6 55:-1 56:-1 57:-1 58:-1 59:-1 60:-1 61:-1 62:-1 63:-1 64:-1 65:-0.6 66:-0.6 67:-0.777778 68:-0.777778 69:-0.2 70:-0.714286 73:1 78:-0.5 79:1 81:1 89:-0.5 92:1 104:1 
-0.2484023895444597 1:-0.777778 2:-1 3:-0.75 4:-0.333333 5:-0.333333 6:-0.333333 7:-0.333333 8:-0.777778 9:-1 10:-0.333333 11:-0.333333 12:-0.333333 13:-0.333333 14:-0.6 16:0.5 17:0.714286 19:-0.333333 20:0.333333 23:-0.333333 24:-1 25:-0.6 27:0.111111 28:0.111111 29:-1 30:-1 31:-1 32:0.111111 33:-1 34:-1 35:-1 36:-1 37:-1 38:-1 39:-1 40:-0.555556 41:-1 42:-0.2 43:-0.5 44:-0.333333 45:-0.333333 46:-0.333333 47:-0.333333 48:-1 49:0.333333 50:-0.333333 51:-0.5 52:-0.5 53:-0.5 54:-0.6 55:-1 56:-1 57:-1 58:-1 59:-1 60:-0.25 61:-0.555556 62:-1 63:-1 64:-1 65:-0.2 66:-0.2 67:-0.333333 68:-0.555556 69:0.2 70:-1 71:-1 72:-1 73:-1 74:-1 75:-1 76:-1 77:-1 78:-1 79:-1 80:-1 81:-1 82:-1 83:-1 84:-1 85:-1 86:-1 87:-1 88:-1 89:-1 90:-1 91:-1 92:-1 93:-1 94:-1 95:-1 96:-1 97:-1 98:-1 99:-1 100:-1 101:-1 102:-1 103:-1 104:-1 
-0.3140451647643878 1:-0.777778 2:-1 3:-0.75 4:-0.333333 5:-0.333333 6:-0.333333 7:-0.333333 8:-0.111111 9:1 10:1 11:-0.333333 12:0.333333 13:0.333333 14:-1 16:0.5 17:-0.714286 18:-0.666667 19:0.333333 20:-0.333333 23:-0.333333 24:-0.333333 25:-0.6 27:-0.333333 28:-1 29:-0.555556 30:-1 31:-0.333333 32:0.111111 33:0.777778 34:-1 35:-1 36:-1 37:0.111111 38:0.75 39:-0.75 40:1 41:-1 42:-0.6 43:-0.5 44:0.333333 45:-0.333333 46:-1 47:-0.333333 48:-1 49:-1 50:-0.333333 51:-0.5 52:-0.5 53:-1 54:-0.6 55:-1 56:-1 57:-1 58:-1 59:-1 60:-1 61:-1 62:-1 63:-1 64:-1 65:-0.2 66:-0.2 67:-0.777778 68:-0.777778 69:0.6 70:-0.714286 71:1 72:1 78:0.5 79:1 81:1 87:1 89:0.5 90:1 99:1 104:1 
-0.4140589500394072 1:0.111111 2:0.333333 4:1 5:1 6:0.333333 7:0.333333 8:0.777778 9:0.5 10:1 11:-0.333333 12:0.333333 13:0.333333 14:0.2 15:-0.5 16:0.5 17:-0.428571 18:-0.333333 19:-0.333333 20:0.333333 23:-0.333333 24:-0.333333 25:0.6 26:-1 27:-1 28:-0.555556 29:-1 30:-1 31:-0.333333 32:-1 33:0.111111 34:-0.555556 35:-1 36:-1 37:-1 38:-1 39:-1 40:-0.555556 41:-1 42:-0.6 43:-0.5 44:-0.333333 45:-0.333333 46:-0.333333 47:-0.333333 48:-1 49:-1 50:1 51:-0.5 52:-0.5 54:-0.6 55:-1 56:-1 57:-1 58:-1 59:-1 60:-0.5 61:-1 62:-1 63:-1 64:-1 65:-0.6 66:-0.6 67:-0.333333 68:-0.555556 69:-0.2 70:-0.428571 76:1 78:-0.5 79:1 81:1 89:-0.5 91:1 104:1 
-0.6611644286563118 1:-0.777778 2:-1 3:-0.75 4:-0.333333 5:-0.333333 6:-0.333333 7:-0.333333 8:-0.777778 9:-1 10:-0.333333 11:-0.333333 12:-0.333333 13:-0.333333 14:-0.2 15:1 17:-0.428571 19:-0.333333 20:-0.333333 22:1 23:0.333333 24:-1 25:0.2 27:0.111111 28:0.111111 29:-1 30:-1 31:-1 32:-0.333333 33:-1 34:-0.333333 35:-1 36:-0.333333 37:-1 38:-1 39:-1 40:-1 41:-1 42:-0.2 44:-0.333333 45:1 46:0.333333 47:-0.333333 48:-0.5 49:-1 50:1 51:-0.5 52:-0.5 53:-0.5 54:0.6 55:-1 56:-1 57:-1 58:-1 59:-1 60:-1 61:-1 62:-1 63:-1 64:-1 65:-0.6 66:-0.6 67:-0.111111 68:-0.777778 69:-0.2 70:-0.142857 76:1 78:-0.5 79:1 80:1 87:1 89:-0.5 92:1 104:1 
-0.2308357752458708 1:-0.777778 2:-1 3:-0.75 4:-0.333333 5:-0.333333 6:-0.333333 7:-0.333333 8:-0.777778 9:-1 10:-0.333333 11:0.333333 12:-0.333333 13:-0.333333 14:-0.6 15:-0.5 16:-0.5 17:-0.714286 18:-0.666667 19:0.333333 20:0.333333 23:-0.333333 24:-1 25:-0.6 27:0.111111 28:-0.333333 29:-0.333333 30:-1 31:-0.333333 32:-1 33:-1 34:-0.333333 35:-1 36:-1 37:-1 38:-1 39:-1 40:-1 41:-1 42:-0.6 43:-0.5 44:-0.333333 45:-0.333333 46:-0.333333 47:-0.333333 48:-0.5 49:0.333333 50:1 51:-0.5 52:-0.5 53:-0.5 54:-0.6 55:-1 56:-1 57:-1 58:-1 59:-1 60:-1 61:-1 62:-1 63:-1 64:-1 65:-1 66:-1 67:-0.555556 68:-0.555556 69:-0.2 70:-0.428571 76:1 78:-0.5 80:1 87:1 89:-0.5 92:1 104:1 
-0.9724671967649805 1:-0.777778 2:-1 3:-0.75 4:-0.333333 5:-0.333333 6:-0.333333 7:-0.333333 8:-0.777778 9:-1 10:-0.333333 11:-0.333333 12:-0.333333 13:-0.333333 14:-0.6 15:-0.5 17:-0.714286 18:-0.666667 19:-0.333333 20:-0.333333 21:1 22:1 23:-0.333333 24:-0.555556 25:0.2 27:-0.111111 28:-0.555556 29:0.111111 30:-1 31:-0.555556 32:-1 33:-1 34:0.333333 35:-1 36:-0.555556 37:-1 38:-1 39:-0.75 40:-1 41:-1 42:-0.2 43:-0.5 44:-0.333333 45:-0.333333 46:-0.333333 47:-0.333333 48:-0.5 49:-1 50:-0.333333 51:-0.5 52:-0.5 53:-0.5 54:-0.6 55:-1 56:-1 57:-1 58:-1 59:-1 60:-1 61:-1 62:-1 63:-0.333333 64:-1 65:-0.6 66:0.6 67:-0.111111 68:-0.555556 69:0.2 70:-0.428571 72:1 78:-0.5 79:1 81:1 90:1 91:1 104:1 
-0.2221516149515177 1:-0.777778 2:-1 3:-0.75 4:-0.333333 5:-0.333333 6:-0.333333 7:-0.333333 8:-0.777778 9:-1 10:-0.333333 11:-0.333333 12:-0.333333 13:-0.333333 14:-0.6 15:-0.5 16:0.5 17:-0.714286 18:-0.333333 19:-0.333333 20:0.333333 23:-0.333333 24:-0.777778 25:-0.6 26:1 27:0.111111 28:-0.333333 29:-1 30:-1 31:-0.333333 32:0.111111 33:-1 34:0.111111 35:-1 36:-1 37:-0.333333 38:-1 39:-1 40:-0.333333 41:1 42:-0.2 43:0.5 44:-0.333333 45:-0.333333 46:-0.333333 47:-0.333333 48:-1 49:-1 50:-0.333333 51:-0.5 52:-0.5 53:-0.5 54:-0.6 55:-1 56:-1 57:-1 58:-1 59:-1 60:-1 61:-1 62:-1 63:-0.111111 64:-0.333333 65:0.2 66:-0.6 67:0.777778 68:-0.777778 69:0.2 70:-0.714286 72:1 73:1 78:0.5 79:1 80:1 83:1 87:1 91:1 92:1 93:1 104:1 
-0.2002557711737391 1:-0.777778 2:-1 3:-0.75 4:-0.333333 5:-0.333333 6:-0.333333 7:-0.333333 8:-0.777778 9:-1 10:-0.333333 11:-0.333333 12:-0.333333 13:-0.333333 14:-0.6 16:0.5 17:-0.428571 18:-0.666667 19:-0.333333 20:-0.333333 22:1 23:-0.333333 24:-1 25:-0.6 27:-0.333333 28:-1 29:-1 30:-1 31:-1 32:-1 33:-1 34:-0.333333 35:-1 36:-1 37:-1 38:-1 39:-1 40:-1 41:-1 42:-0.6 43:-0.5 44:-0.333333 45:-0.333333 46:-0.333333 47:-0.333333 48:-0.5 49:-1 50:1 51:-0.5 52:-0.5 53:-0.5 54:-0.6 55:-1 56:-1 57:-1 58:-1 59:-1 60:-1 61:-0.555556 62:-1 63:-0.333333 64:-1 65:-0.6 66:-0.6 67:-0.111111 68:-0.777778 69:0.2 70:-0.428571 71:1 78:-0.5 79:1 81:1 89:-0.5 91:1 99:1 104:1 
-0.2580103557860984 1:-0.777778 2:-1 3:-0.75 4:-0.333333 5:-0.333333 6:-0.333333 7:-0.333333 8:-0.777778 9:-1 10:-0.333333 11:-0.333333 12:-0.333333 13:-0.333333 14:-0.2 15:-0.5 16:0.5 17:-0.428571 18:-0.333333 19:1 20:-0.333333 21:1 23:0.333333 24:-0.777778 25:-1 27:-0.555556 28:-0.111111 29:-0.111111 30:-1 31:-0.111111 32:-1 33:-0.333333 34:-0.333333 35:-1 36:-1 37:-0.333333 38:0.25 39:-0.25 40:-0.555556 41:0.6 42:-0.6 44:-0.333333 45:-0.333333 46:-0.333333 47:-0.333333 48:-0.5 49:-1 50:-0.333333 51:-1 52:-0.5 53:-0.5 54:-0.6 55:-1 56:-1 57:-1 58:-1 59:-1 60:-1 61:-0.333333 62:-1 63:-0.333333 64:-0.555556 65:-0.2 66:0.2 67:0.777778 68:-0.333333 69:0.6 70:0.714286 72:1 79:1 80:1 83:1 87:1 89:1 92:1 99:1 104:1 
-0.274660031865445 1:0.111111 2:0.111111 3:-0.5 4:-0.333333 5:-0.333333 6:0.333333 7:-0.333333 8:0.111111 9:0.25 10:-0.333333 11:-0.333333 12:-0.333333 13:-0.333333 14:-0.6 15:-0.5 16:0.5 17:-0.428571 19:0.333333 20:-0.333333 23:-0.333333 24:-1 25:-0.6 26:-1 27:-1 28:-1 29:-1 30:-1 31:-1 32:-1 33:-1 34:-0.333333 35:-1 36:-1 37:-1 38:-1 39:-1 40:-1 41:-1 42:-0.6 43:-0.5 44:-0.333333 45:-0.333333 46:-0.333333 47:-0.333333 48:-0.5 49:-1 50:-0.333333 51:-0.5 52:-0.5 53:-0.5 54:-0.2 55:-1 56:-1 57:-1 58:-1 59:-1 60:-1 61:-1 62:-1 63:-1 64:-1 65:-1 66:-1 67:0.777778 68:-0.777778 69:0.6 70:-0.142857 72:1 79:1 80:1 87:1 89:0.5 90:1 104:1 
-0.2769500514379528 1:-0.777778 2:-1 3:-0.75 4:-0.333333 5:-0.333333 6:-0.333333 7:-0.333333 8:-0.333333 9:-0.25 10:-0.333333 11:-0.333333 12:0.333333 13:-0.333333 14:-0.6 15:-0.5 17:-0.428571 19:0.333333 20:-0.333333 22:1 23:-0.333333 24:-1 25:-0.6 27:-1 28:-0.555556 29:-0.777778 30:-1 31:-0.777778 32:-1 33:-0.333333 34:-0.555556 35:-1 36:-1 37:-1 38:-1 39:-0.75 40:-0.555556 41:-1 42:-0.6 43:-0.5 44:0.333333 45:-0.333333 46:-0.333333 47:-0.333333 48:-0.5 49:-1 50:1 51:0.5 52:-0.5 53:-0.5 54:0.6 55:-1 56:-1 57:-1 58:-0.777778 59:-1 60:-0.5 61:-0.555556 62:-1 63:-1 64:-1 65:-0.2 66:0.6 67:0.333333 68:-0.777778 69:-0.2 70:-0.428571 71:1 78:-0.5 79:1 87:1 89:-0.5 90:1 104:1 
-0.1379056164347805 1:-0.777778 2:-1 3:-0.75 4:-0.333333 5:-0.333333 6:-0.333333 7:-0.333333 8:-0.777778 9:-0.75 10:-0.333333 11:-0.333333 12:-0.333333 13:-0.333333 14:-0.6 15:-0.5 16:-0.5 17:-0.714286 18:-0.666667 19:0.333333 20:-0.333333 23:-0.333333 24:-1 25:-0.6 27:-1 28:-1 29:-1 30:-1 31:-1 32:-1 33:-1 34:-1 35:0.555556 36:-1 37:-1 38:-1 39:-1 40:-1 41:-1 42:-0.6 43:-0.5 44:-0.333333 45:-0.333333 46:-0.333333 47:-0.333333 48:-0.5 49:-1 50:-0.333333 51:-0.5 52:-0.5 53:-0.5 54:-0.6 55:-1 56:-1 57:-1 58:-1 59:-1 60:-1 61:-1 62:-1 63:-1 64:-1 65:-1 66:-1 67:0.777778 68:-0.777778 69:0.6 70:-0.428571 71:1 78:-0.5 79:1 81:1 89:-0.5 91:1 92:1 104:1 
-0.4540140168600313 1:0.111111 2:0.333333 3:-0.25 4:1 5:-0.333333 6:-0.333333 7:-0.333333 8:0.111111 9:-0.5 10:-0.333333 11:-0.333333 12:0.333333 13:-0.333333 14:0.2 15:-0.5 16:-0.5 17:-0.428571 18:1 19:-0.333333 20:0.333333 21:1 22:1 23:0.333333 24:-0.333333 25:0.2 27:0.333333 28:0.111111 29:-1 30:1 31:0.333333 32:0.333333 33:-1 34:1 35:-0.555556 36:-0.555556 37:-0.555556 38:-1 39:-0.5 40:0.777778 41:-1 42:-0.6 43:1 44:0.333333 45:1 46:0.333333 47:0.333333 48:-1 49:-1 50:1 51:-0.5 52:-0.5 53:-0.5 54:-0.2 55:-1 56:-0.75 57:-0.666667 58:-1 59:-1 60:-0.75 61:-0.111111 62:-1 63:-0.333333 64:-0.333333 65:-0.2 66:-0.2 67:1 68:-0.777778 69:-0.2 70:-0.428571 76:1 78:-0.5 79:1 81:1 89:-0.5 91:1 104:1 
-0.3248975594324638 1:-0.777778 2:-1 3:-0.75 4:-0.333333 5:-0.333333 6:-0.333333 7:-0.333333 8:-0.777778 9:-1 10:-0.333333 11:-0.333333 12:-0.333333 13:-0.333333 14:-0.6 15:-0.5 16:0.5 17:-0.714286 18:-0.666667 19:0.333333 20:-0.333333 23:-0.333333 24:-1 25:-0.6 26:-1 27:-1 28:-1 29:-1 30:-1 31:-1 32:-1 33:-1 34:-1 35:-1 36:-1 37:-1 38:-1 39:-1 40:-1 41:-1 42:-0.6 43:-0.5 44:-0.333333 45:-0.333333 46:-0.333333 47:0.333333 48:-0.5 49:-1 50:-0.333333 51:-0.5 52:-0.5 53:-0.5 54:-0.6 55:-1 56:-1 57:-1 58:-1 59:-1 60:-1 61:-1 62:-1 63:-0.333333 64:-1 65:-1 66:-1 67:-0.111111 68:-0.777778 69:0.2 70:-0.142857 72:1 78:-0.5 79:1 81:1 89:-0.5 90:1 92:1 104:1 
-1.264748990544355 1:-0.555556 2:-0.111111 4:-0.333333 5:-0.333333 6:-0.333333 7:-0.333333 8:-0.777778 9:-1 10:-0.333333 11:-0.333333 12:-0.333333 13:-0.333333 14:-0.6 15:-0.5 16:0.5 17:-0.714286 18:-0.666667 19:0.333333 20:-0.333333 23:-0.333333 24:-1 25:-0.6 26:-1 27:-1 28:-1 29:-1 30:-1 31:-1 32:-1 33:-0.333333 34:-0.333333 35:-0.333333 36:-0.333333 37:-1 38:-1 39:-1 40:-0.333333 41:-1 42:-0.6 43:-0.5 44:-0.333333 45:0.333333 46:-0.333333 47:-0.333333 48:-0.5 49:-1 50:1 51:-0.5 52:-0.5 53:-0.5 54:-0.6 55:-1 56:-1 57:-1 58:-1 59:-1 60:-1 61:-1 62:-1 63:-1 64:-1 65:-1 66:-1 67:0.777778 68:-0.777778 69:-0.6 70:-0.142857 76:1 78:-0.5 79:1 81:1 89:-0.5 90:1 92:1 104:1 
-0.2044748691425924 1:-0.777778 2:-1 3:-0.75 4:-0.333333 5:-0.333333 6:-0.333333 7:-0.333333 8:-0.777778 9:-1 10:-0.333333 11:-0.333333 12:-0.333333 13:-0.333333 14:-0.6 15:-0.5 17:-0.142857 18:-0.333333 19:-0.333333 20:0.333333 22:1 23:-0.333333 24:-0.555556 25:0.6 27:-1 28:-1 29:-1 30:-1 31:-0.555556 32:-1 33:1 34:-1 35:-1 36:-1 37:-1 38:-1 39:-1 40:-1 41:-1 42:-0.6 43:1 44:0.333333 45:0.333333 46:-0.333333 47:-0.333333 48:-1 49:-1 50:1 51:-0.5 52:-0.5 53:-0.5 54:0.6 55:-1 56:-1 57:-1 58:-1 59:-1 60:-1 61:-1 62:-1 63:-1 64:-1 65:-1 66:-1 67:0.777778 68:-0.777778 69:0.2 70:-0.142857 71:1 74:1 78:-0.5 79:1 87:1 89:-0.5 90:1 91:1 104:1 
-0.4029284861325011 1:-0.777778 2:-1 3:-0.75 4:-0.333333 5:-0.333333 6:-0.333333 7:-0.333333 8:-0.777778 9:-1 10:-0.333333 11:-0.333333 12:-0.333333 13:-0.333333 14:-0.6 15:-0.5 16:-0.5 17:0.428571 19:0.333333 20:-0.333333 23:-0.333333 24:-1 25:-0.6 27:-1 28:-1 29:-1 30:-1 31:-1 32:-1 33:-1 34:-0.777778 35:-1 36:-1 37:-0.777778 38:-1 39:-1 40:-1 41:-1 42:-0.6 44:-0.333333 45:-0.333333 46:0.333333 47:-0.333333 48:-0.5 49:-1 50:0.333333 51:-0.5 52:-0.5 53:-0.5 54:-0.6 55:-1 56:-1 57:-1 58:-0.777778 59:-1 60:-1 61:-0.777778 62:-1 63:-0.777778 64:-1 65:-0.6 66:-0.6 67:-0.111111 68:-0.777778 69:-0.2 70:-0.428571 72:1 78:-0.5 79:1 81:1 89:-0.5 90:1 92:1 104:1 
-0.06053154129843769 1:1 2:-0.777778 3:-0.25 4:1 5:1 6:0.333333 7:0.333333 8:-0.777778 9:-1 10:-0.333333 11:-0.333333 12:-0.333333 13:-0.333333 14:-0.6 15:-0.5 16:0.5 17:-0.714286 18:-0.333333 19:-0.333333 20:-0.333333 23:-0.333333 24:-1 25:-0.6 27:-1 28:-1 29:-1 30:-1 31:-1 32:-0.333333 33:-1 34:-1 35:-0.111111 36:-1 37:-1 38:-1 39:-1 40:-1 41:-1 42:-0.6 43:-0.5 44:-0.333333 45:-0.333333 46:-0.333333 47:-0.333333 48:-1 49:-1 50:-0.333333 51:-0.5 52:-0.5 53:-0.5 54:-0.6 55:-1 56:-1 57:-1 58:-1 59:-1 60:-1 61:-1 62:-1 63:-0.555556 64:-0.555556 65:-0.6 66:-0.6 67:-0.111111 68:-0.777778 69:0.2 70:0.714286 71:1 79:1 82:1 89:-0.5 92:1 104:1 
-0.3591052168305517 1:0.111111 2:-0.333333 3:-0.25 4:1 5:-0.333333 6:-0.333333 7:-0.333333 8:-0.777778 9:-0.75 10:-1 11:-0.333333 12:-0.333333 13:-0.333333 14:-0.6 15:-0.5 16:-0.5 17:-0.714286 18:-0.666667 19:0.333333 20:-0.333333 23:-0.333333 24:-1 25:-0.6 27:-1 28:-0.555556 29:-1 30:-1 31:-0.333333 32:-1 33:-0.111111 34:-0.555556 35:-0.111111 36:-1 37:-1 38:-1 39:-1 40:-0.555556 41:-1 42:-0.6 44:0.333333 45:-0.333333 46:-0.333333 47:-0.333333 48:-0.5 49:-0.333333 50:-0.333333 51:-0.5 52:-0.5 53:-0.5 54:-0.2 55:-1 56:-1 57:-1 58:-1 59:-1 60:-1 61:-0.333333 62:-1 63:-1 64:-0.333333 65:-1 66:-1 67:1 68:-0.777778 69:1 70:0.714286 71:1 72:1 78:0.5 79:1 80:1 87:1 89:-0.5 92:1 99:1 104:1 
-0.1887327211592836 1:-0.777778 2:-1 3:-1 4:-0.333333 5:-0.333333 6:-0.333333 7:-0.333333 8:0.111111 9:-0.25 10:1 11:-0.333333 12:-0.333333 13:-0.333333 14:-0.2 15:-0.5 16:-0.5 17:-0.428571 18:-0.666667 19:0.333333 20:-0.333333 23:-0.333333 24:-1 25:-0.6 27:-1 28:-1 29:-1 30:-1 31:-1 32:-0.333333 33:-1 34:-1 35:-1 36:-1 37:-1 38:-1 39:-1 40:-1 41:-1 42:-0.2 43:-0.5 44:-0.333333 45:-0.333333 46:-0.333333 47:-0.333333 48:-0.5 49:0.333333 50:-0.333333 51:-0.5 52:-0.5 53:-0.5 54:-0.6 55:-1 56:-1 57:-1 58:-1 59:-1 60:-1 61:-1 62:-1 63:-1 64:-1 65:-1 66:-1 67:-0.111111 68:-0.555556 69:0.2 70:0.428571 76:1 78:0.5 79:1 80:1 89:-0.5 91:1 92:1 104:1 
-0.5829143329763732 1:-0.777778 2:-1 3:-0.75 4:-0.333333 5:-0.333333 6:-0.333333 7:-0.333333 8:-0.777778 9:-1 10:-0.333333 11:-0.333333 12:-0.333333 13:-0.333333 14:-0.2 15:0.5 16:-0.5 17:-0.142857 18:-0.333333 19:0.333333 20:-0.333333 23:-0.333333 24:-1 25:-0.6 26:-1 27:-0.333333 28:-1 29:-1 30:-1 31:-0.333333 32:-1 33:-1 34:-0.333333 35:-1 36:-1 37:-1 38:-1 39:-1 40:-0.333333 41:-1 42:-0.2 43:-0.5 44:0.333333 45:-0.333333 46:-0.333333 47:-0.333333 48:-1 49:-1 50:-0.333333 51:-0.5 52:-0.5 53:-0.5 54:-0.6 55:-1 56:-1 57:-1 58:-1 59:-1 60:-1 61:-1 62:-1 63:-1 64:-1 65:-1 66:-1 67:1 68:-0.555556 69:-0.2 70:0.714286 71:1 76:1 78:-0.5 79:1 80:1 87:1 89:-0.5 92:1 104:1 
-0.7265174506115374 1:-0.777778 2:-1 3:-0.75 4:-0.333333 5:-0.333333 6:-0.333333 7:-0.333333 8:0.333333 9:-0.25 10:1 11:-0.333333 12:-0.333333 13:-0.333333 14:-0.6 16:0.5 17:-0.714286 18:-0.666667 19:0.333333 20:-0.333333 23:-1 24:-0.777778 25:-0.6 26:-1 27:0.111111 28:-0.333333 29:-0.333333 30:-0.333333 31:-0.333333 32:-0.333333 33:-1 34:0.111111 35:-0.111111 36:-0.333333 37:-1 38:-1 39:-0.25 40:-1 41:-1 42:-0.2 44:-0.333333 45:1 46:0.333333 47:-0.333333 48:-1 49:0.333333 50:0.333333 51:-0.5 52:-0.5 53:-0.5 54:0.2 55:-0.111111 56:-1 58:-1 59:-1 60:-1 61:-0.333333 62:-1 63:-1 64:-1 65:-1 66:-1 67:-0.111111 68:-0.555556 69:0.6 70:-0.142857 76:1 79:1 81:1 89:-0.5 92:1 104:1 
-0.3145136946016714 1:-0.111111 2:1 4:0.333333 5:1 6:0.333333 7:1 8:0.777778 9:0.5 10:1 11:-0.333333 12:0.333333 13:0.333333 14:-0.6 16:1 17:-0.142857 18:-0.333333 19:-0.333333 20:-0.333333 23:-0.333333 24:-1 25:-0.6 27:-0.333333 28:-1 29:-1 30:-0.555556 31:-1 32:-1 33:-1 34:-0.555556 35:0.333333 36:-1 37:-0.555556 38:-1 39:-0.5 40:-0.333333 41:-0.2 42:-0.2 43:-0.5 44:-0.333333 45:-0.333333 46:-0.333333 47:-0.333333 48:-1 49:-1 50:-0.333333 51:-0.5 52:-0.5 54:-0.6 55:-1 56:-1 57:-1 58:-1 59:-1 60:-1 61:-1 62:-1 63:-0.333333 64:-1 65:-0.2 66:0.6 67:-0.111111 68:-0.555556 69:0.2 70:-0.428571 72:-1 73:-1 74:-1 75:-1 76:-1 77:-1 78:-0.5 79:-1 80:-1 82:-1 83:-1 84:-1 85:-1 86:-1 87:-1 88:-1 89:-0.5 90:1 91:1 104:1 
-0.01677115618676299 1:-0.777778 2:-1 3:-0.75 4:-0.333333 5:-0.333333 6:-0.333333 7:-0.333333 8:-0.777778 9:-0.75 10:-0.333333 11:-0.333333 12:-0.333333 13:-0.333333 14:-0.6 15:-0.5 16:-0.5 17:-0.428571 18:-0.666667 19:0.333333 20:0.333333 21:1 22:1 23:0.333333 24:-1 25:-0.6 27:-1 28:-1 29:-1 30:-1 31:-1 32:-1 33:-1 34:-1 35:-1 36:-1 37:-1 38:-1 39:-1 40:-0.333333 41:-0.6 42:-0.6 43:-0.5 44:-0.333333 45:-0.333333 46:-0.333333 47:-0.333333 48:-1 49:-1 50:1 51:-0.5 52:-0.5 53:-0.5 54:-0.6 55:-1 56:-1 57:-1 58:-0.333333 59:-1 60:-1 61:-1 62:-1 63:-1 64:-1 65:-0.2 66:-1 67:0.111111 68:-0.777778 69:0.2 70:-0.428571 74:-1 75:-1 76:-1 77:-1 79:1 80:1 90:1 91:1 104:1 
-0.6541659641061619 1:0.111111 2:-0.333333 3:-0.25 4:-0.333333 5:-0.333333 6:-0.333333 7:-0.333333 8:-0.777778 9:-1 10:-0.333333 11:-0.333333 12:-0.333333 13:-0.333333 14:-0.6 15:-0.5 16:-0.5 17:-0.714286 18:-0.666667 19:0.333333 20:-1 23:-1 24:-1 25:-0.6 26:-1 27:-1 28:-0.333333 29:-0.333333 30:-1 31:-1 32:-0.333333 33:-1 34:-1 35:-0.333333 36:-0.333333 37:-1 38:-1 39:-0.25 40:-1 41:-1 42:-0.6 44:0.333333 45:-0.333333 46:-0.333333 47:-0.333333 48:-0.5 49:-0.333333 50:-0.333333 51:-0.5 52:-0.5 53:-0.5 54:-0.6 55:-1 56:-1 57:-1 58:-1 59:-1 60:-1 61:-1 62:-1 63:-1 64:-1 65:-1 66:-1 67:-0.777778 68:-0.777778 69:0.2 70:-0.142857 72:1 78:-0.5 79:1 81:1 89:-0.5 92:1 104:1 
-0.3962437618504862 1:-0.777778 2:-0.777778 3:-0.75 4:-0.333333 5:-0.333333 6:-0.333333 7:-0.333333 8:0.777778 9:0.5 10:-0.333333 11:-0.333333 12:0.333333 13:-1 14:0.2 15:-0.5 16:0.5 17:-0.714286 18:-0.666667 19:-0.333333 20:-0.333333 23:-0.333333 24:-1 25:-1 26:-1 27:0.111111 28:0.111111 29:0.777778 30:-1 31:0.333333 32:0.333333 33:0.555556 34:0.111111 35:-1 36:0.333333 37:0.333333 38:-1 40:0.111111 41:0.2 42:-0.6 44:-0.333333 45:-0.333333 46:-0.333333 47:-0.333333 48:-0.5 49:-0.333333 50:1 51:-0.5 52:-0.5 53:-0.5 54:-0.6 55:-1 56:-1 57:-1 58:-1 59:-1 60:-1 61:0.111111 62:-1 63:-0.111111 64:-0.111111 65:-1 66:-1 67:-0.333333 68:-0.555556 69:-0.6 70:-0.428571 72:1 78:-0.5 79:1 81:1 89:-0.5 92:1 99:1 104:1 
-0.2583278036390995 1:-0.777778 2:-1 3:-0.75 4:-0.333333 5:-0.333333 6:-0.333333 7:-0.333333 8:-0.777778 9:-1 10:-0.333333 11:-0.333333 12:-0.333333 13:-0.333333 14:-0.2 15:-0.5 16:0.5 17:-0.428571 18:-1 19:-1 20:-1 23:-0.333333 24:-1 25:-0.6 26:-1 27:-1 28:-0.333333 29:-1 30:-1 31:-1 32:-1 33:-1 34:-1 35:-1 36:-0.333333 37:-1 38:-1 39:-1 40:-1 41:-1 42:-1 43:-1 44:-1 45:-1 46:0.333333 47:-0.333333 48:-0.5 49:-1 50:-0.333333 51:-0.5 52:-0.5 53:-0.5 54:-0.6 55:-1 56:-1 57:-1 58:-1 59:-1 60:-1 61:-1 62:-1 63:-1 64:-1 65:-0.2 66:0.2 67:-0.111111 68:-0.777778 69:0.2 70:0.714286 72:1 78:-0.5 79:1 81:1 89:-0.5 92:1 104:1 
-0.3462576825058711 1:-0.777778 2:-1 3:-0.75 4:-0.333333 5:-0.333333 6:-0.333333 7:-0.333333 8:-0.777778 9:-1 10:-0.333333 11:-0.333333 12:-0.333333 13:-0.333333 14:-0.2 15:-1 16:0.5 17:-0.714286 18:-0.666667 19:-1 20:-1 21:-1 23:0.333333 24:0.111111 25:-1 26:-1 27:-0.555556 28:-1 29:-1 30:-1 31:-1 32:-0.111111 33:-1 34:-1 35:-1 36:-1 37:-1 38:-1 39:-1 40:-1 41:0.6 42:-0.6 43:-0.5 44:-0.333333 45:-0.333333 46:-0.333333 47:-0.333333 48:-0.5 49:-0.333333 50:-0.333333 51:-0.5 52:-0.5 53:-0.5 54:-0.6 55:-1 56:-1 57:-1 58:-1 59:-1 60:-1 61:-0.333333 62:-1 63:-1 64:-1 65:-0.6 66:-1 67:-0.111111 68:-1 69:-0.2 70:0.714286 73:1 78:-0.5 79:1 80:1 90:1 92:1 104:1 
-0.5703906685332816 1:-0.777778 2:-1 3:-0.75 4:-0.333333 5:-0.333333 6:-0.333333 7:-0.333333 8:-0.777778 9:-1 10:-1 11:-1 12:-1 13:-1 14:-0.6 15:-0.5 16:0.5 17:-1 18:-0.666667 19:0.333333 20:-1 23:-1 24:-1 25:-1 26:-1 27:0.555556 28:-0.111111 29:-1 30:-1 31:0.555556 32:-1 33:-1 34:-1 35:0.555556 36:-0.111111 37:-1 38:-1 39:-1 40:-1 41:-0.2 42:-0.2 44:-0.333333 45:-0.333333 46:-0.333333 47:-1 48:-1 49:-1 50:1 51:-0.5 52:-0.5 53:-0.5 54:-0.2 55:-1 56:-1 57:-1 58:-1 59:-1 60:-1 61:-0.333333 62:-1 63:-0.333333 64:-0.333333 65:-1 66:-1 67:0.777778 68:-0.777778 69:0.6 70:0.714286 72:1 78:0.5 79:1 86:1 89:-0.5 90:1 92:1 104:1 
-0.6747104420521748 1:-0.777778 2:-1 3:-0.75 4:-0.333333 5:-0.333333 6:-0.333333 7:-0.333333 8:-0.777778 9:-1 10:-0.333333 11:-0.333333 12:-0.333333 13:-0.333333 14:-0.6 15:-1 16:-0.5 17:-0.428571 18:-0.666667 19:0.333333 20:-0.333333 22:1 23:-0.333333 24:-1 25:-0.6 26:-1 27:-0.333333 28:-0.333333 29:-1 30:-1 31:-0.333333 32:-1 33:-0.333333 34:-1 35:-1 36:-0.333333 37:-1 38:-1 39:-0.25 40:-0.333333 41:-1 42:-0.6 43:-0.5 44:-0.333333 45:-0.333333 46:-0.333333 47:0.333333 48:-0.5 49:-1 50:1 51:-0.5 52:-0.5 53:-0.5 54:-0.6 55:-1 56:-1 57:-1 58:-1 59:-1 60:-1 61:-0.333333 62:-1 63:-1 64:-1 65:-0.2 66:0.6 67:0.777778 68:-0.777778 69:0.2 70:-1 72:1 78:-0.5 79:1 80:1 81:1 89:-0.5 92:1 93:1 104:1 
-0.3656707384377556 1:-0.777778 2:-1 3:-0.75 4:-0.333333 5:-0.333333 6:-0.333333 7:-0.333333 8:-0.777778 9:-1 10:-0.333333 11:-0.333333 12:-0.333333 13:-0.333333 14:-0.6 15:-0.5 16:0.5 17:-0.714286 18:-1 19:0.333333 20:-0.333333 23:-1 24:-1 25:-0.6 26:-1 27:-1 28:-1 29:-1 30:-1 31:-1 32:-1 33:-1 34:-1 35:-0.333333 36:-1 37:-1 38:-1 39:-1 40:0.111111 41:-1 42:-0.2 43:-0.5 44:-0.333333 45:-0.333333 46:-0.333333 47:-0.333333 48:-1 49:-0.333333 50:-0.333333 51:-0.5 52:-0.5 53:-0.5 54:-0.6 55:-1 56:-1 57:-1 58:-1 59:-1 60:-1 61:-1 62:-1 63:-1 64:-1 65:-1 66:-1 67:-0.111111 68:-0.555556 69:-0.6 70:0.428571 77:1 78:-0.5 79:1 81:1 89:-0.5 90:1 92:1 104:1 
-0.4541287762628198 1:0.555556 2:-0.555556 4:-0.333333 5:-0.333333 6:0.333333 7:1 8:0.555556 9:-0.5 10:1 11:-0.333333 12:0.333333 13:0.333333 14:-0.6 15:-0.5 16:-0.5 17:-0.714286 18:-0.666667 19:-0.333333 20:-0.333333 23:-0.333333 24:-1 25:-0.6 27:-0.333333 28:-1 29:-0.333333 30:-1 31:-0.555556 32:-0.555556 33:-1 34:-0.333333 35:-1 36:-1 37:-1 38:-1 39:-1 40:-0.555556 41:-1 42:-0.2 43:-0.5 44:-0.333333 45:-0.333333 46:-0.333333 47:-0.333333 48:-1 49:-1 50:-0.333333 51:-0.5 52:-0.5 53:-0.5 54:-0.6 55:0.333333 56:-1 57:-1 58:-1 59:-1 60:-1 61:-1 62:-1 63:-1 64:-1 65:-0.2 66:0.6 67:-0.111111 68:-0.555556 69:0.6 70:-0.714286 71:1 72:1 73:1 74:1 75:1 76:1 77:1 78:-0.5 79:1 81:1 89:-0.5 90:1 91:1 104:1 
-0.5183101942918168 1:-0.777778 2:-1 3:-1 4:-0.333333 5:-0.333333 6:-0.333333 7:-0.333333 8:-0.777778 9:-1 10:-0.333333 11:-0.333333 12:-0.333333 13:-0.333333 14:-0.2 15:0.5 16:0.5 17:-1 18:-0.333333 19:-0.333333 20:-0.333333 23:0.333333 24:-1 25:-0.6 27:-1 28:-1 29:0.111111 30:-1 31:-1 32:0.777778 33:0.111111 34:0.777778 35:-1 36:-1 37:0.111111 38:-1 39:-1 40:-1 41:-1 42:-0.6 43:0.5 44:-0.333333 45:-0.333333 46:-0.333333 47:-0.333333 48:-1 49:-1 50:1 51:-0.5 52:-0.5 53:-0.5 54:-0.2 55:-1 56:-1 57:-1 58:-1 59:-1 60:-1 61:1 62:-1 63:-1 64:-1 65:0.2 66:0.6 67:0.111111 68:-0.777778 69:0.6 70:-0.142857 73:1 75:1 78:-1 79:1 82:1 85:1 89:0.5 90:1 104:1 
-0.2897499863855452 1:-0.777778 2:-1 3:-0.75 4:-0.333333 5:-0.333333 6:-0.333333 7:-0.333333 8:-0.777778 9:-1 10:-0.333333 11:-0.333333 12:-0.333333 13:-0.333333 14:-0.6 15:-0.5 16:0.5 17:-0.714286 18:-0.666667 19:0.333333 20:-0.333333 23:-0.333333 24:-1 25:-0.6 27:0.333333 28:0.333333 29:0.333333 30:0.333333 31:0.111111 32:-1 33:-1 34:-1 35:0.333333 36:-1 37:-0.111111 38:-0.25 39:-1 40:0.333333 41:0.6 42:-0.2 43:-0.5 44:0.333333 45:-0.333333 46:-0.333333 47:-0.333333 48:-1 49:-1 50:-0.333333 51:-0.5 52:-0.5 53:-0.5 54:-0.6 55:-1 56:-1 57:-1 58:-1 59:-1 60:-1 61:-0.555556 62:-1 63:-0.555556 64:-1 65:-0.2 66:0.2 67:-0.111111 68:-0.777778 69:0.2 70:0.714286 73:1 79:1 83:1 89:-0.5 90:1 99:1 104:1 
-0.2298298942743274 1:-0.777778 2:-1 3:-0.75 4:-0.333333 5:-0.333333 6:-0.333333 7:-0.333333 8:-0.777778 9:-1 10:-0.333333 11:-0.333333 12:-0.333333 13:-0.333333 14:-0.2 15:-0.5 16:0.5 17:0.142857 18:-0.333333 19:0.333333 20:-0.333333 21:1 22:1 23:-0.333333 24:-1 25:-0.6 27:-1 28:-1 29:-1 30:-1 31:-1 32:-1 33:-1 34:-0.333333 35:-0.555556 36:-1 37:-1 38:-1 39:-1 40:-1 41:-1 42:-0.6 43:-0.5 44:-0.333333 45:-0.333333 46:-0.333333 47:-0.333333 48:-0.5 49:-1 50:-0.333333 51:-0.5 52:-0.5 53:-0.5 54:-0.6 55:-1 56:-1 57:-1 58:-0.555556 59:-1 60:-1 61:-1 62:-1 63:-1 64:-1 65:-1 66:-1 67:-0.111111 68:-0.777778 69:0.2 70:-0.142857 71:1 78:-0.5 79:1 80:1 89:0.5 91:1 104:1 
-0.4532613035684103 1:-0.777778 2:-0.111111 3:-0.25 4:-0.333333 5:-0.333333 6:-0.333333 7:-0.333333 8:-0.777778 9:-1 10:-0.333333 11:-0.333333 12:-0.333333 13:-0.333333 14:0.2 15:-1 16:0.5 17:-0.714286 18:-0.333333 19:-0.333333 20:0.333333 21:-1 22:1 23:-1 24:-1 25:-0.6 27:-0.555556 28:-1 29:-1 30:-1 31:-1 32:-1 33:-1 34:0.111111 35:-1 36:-0.111111 37:-1 38:-1 39:-1 40:-0.333333 41:0.2 42:-0.2 43:-0.5 44:-0.333333 45:-0.333333 46:-0.333333 47:-0.333333 48:-0.5 49:-0.333333 50:1 51:-0.5 52:-0.5 53:-0.5 54:-0.6 55:-1 56:-1 57:0.666667 58:-1 59:-1 61:-0.111111 62:-1 63:-0.333333 64:-1 65:-1 66:-1 67:-0.555556 68:-0.555556 69:-0.2 70:0.428571 72:1 78:-0.5 79:1 81:1 89:-0.5 93:1 99:1 104:1 
-0.2195715484735025 1:-0.777778 2:-1 3:-0.75 4:-0.333333 5:-0.333333 6:-0.333333 7:-0.333333 8:-0.777778 9:-1 10:-0.333333 11:-0.333333 12:-0.333333 13:-0.333333 14:-1 15:-0.5 16:-0.5 17:-1 18:-0.333333 19:0.333333 20:-0.333333 23:-0.333333 24:-0.111111 25:0.6 27:-1 28:-1 29:-1 30:-1 31:-1 32:-1 33:-1 34:-1 35:-1 36:-0.333333 37:-1 38:-1 39:-1 40:-1 41:0.2 42:-0.6 44:-0.333333 45:-0.333333 46:0.333333 47:-0.333333 48:-0.5 49:-1 50:-0.333333 51:-0.5 52:-0.5 53:-0.5 54:-0.6 55:-1 56:-1 57:-1 58:-1 59:-1 60:-1 61:-0.111111 62:-1 63:-0.333333 64:-1 65:-1 66:-1 67:0.777778 68:-0.555556 69:0.6 70:0.428571 71:1 78:-0.5 79:1 80:1 89:-0.5 90:1 91:1 92:1 104:1 
-0.02243775489081944 1:0.333333 2:-0.333333 3:-0.25 4:-0.333333 5:-0.333333 6:-0.333333 7:-0.333333 8:-0.777778 9:-1 10:-0.333333 11:-0.333333 12:-0.333333 13:-0.333333 14:-0.6 15:-0.5 17:-0.714286 18:-0.666667 19:0.333333 20:-0.333333 22:1 23:-1 24:-1 25:-1 26:-1 27:-1 28:-1 29:-1 30:-1 31:-1 32:-0.333333 33:-1 34:-0.333333 35:-1 36:-1 37:-1 38:-1 39:-1 40:-0.333333 41:-1 42:-0.6 43:-0.5 44:-0.333333 45:-0.333333 46:-0.333333 47:-0.333333 48:-0.5 49:-1 50:-0.333333 51:-0.5 52:-0.5 53:-0.5 54:-0.6 55:-1 56:-1 57:-1 58:-1 59:-1 60:-1 61:-1 62:-1 63:-1 64:-1 65:-1 66:-1 67:0.777778 68:-0.777778 69:0.6 70:0.428571 72:1 78:-0.5 79:1 81:1 89:-0.5 90:1 92:1 104:1 
-0.01348919126091692 1:-0.777778 2:-1 3:-0.75 4:-0.333333 5:-0.333333 6:-0.333333 7:-0.333333 8:-0.777778 9:-1 10:-0.333333 11:-0.333333 12:-0.333333 13:-0.333333 14:-0.6 15:-0.5 16:-0.5 17:-0.714286 18:-0.666667 19:0.333333 20:-0.333333 23:-0.333333 24:-1 25:-1 26:-1 27:-0.333333 28:-1 29:-1 30:-1 31:-1 32:-0.333333 33:-1 34:-1 35:-1 36:-1 37:-1 38:-1 39:-1 40:-1 41:-1 42:-0.2 44:-0.333333 45:-0.333333 46:-0.333333 47:-0.333333 48:-0.5 49:-0.333333 50:-0.333333 51:-0.5 52:-0.5 53:-0.5 54:-0.6 55:0.111111 56:0.25 57:-1 58:-1 59:-0.142857 60:-0.5 61:-1 62:-1 63:-1 64:-1 65:0.2 66:-1 67:-0.111111 68:-0.555556 69:-0.2 70:-0.142857 71:1 79:1 81:1 89:-0.5 90:1 104:1 
-0.5468919749964539 1:-0.777778 2:-1 3:-0.75 4:-0.333333 5:-0.333333 6:-0.333333 7:-0.333333 8:-0.777778 9:-1 10:-0.333333 11:-0.333333 12:-0.333333 13:-0.333333 14:-1 15:-1 16:-1 17:-1 18:-1 19:-1 20:-1 21:-1 22:-1 23:-1 24:-1 25:-1 26:1 27:-0.333333 28:-0.333333 29:-1 30:-1 31:-1 32:-1 33:0.111111 34:0.111111 35:-1 36:0.777778 37:-0.333333 38:-1 39:-1 40:-1 41:-0.2 42:-0.6 43:0.5 44:-0.333333 45:-0.333333 46:-0.333333 47:-0.333333 48:-0.5 49:-0.333333 50:1 51:1 52:-0.5 53:-0.5 54:-0.2 55:-1 56:-1 57:-1 58:-1 59:-1 60:-1 61:-1 62:-1 63:-1 64:-1 65:-1 66:-1 67:-0.111111 68:-0.555556 69:-0.6 70:-0.714286 72:1 78:-1 79:1 81:1 89:-0.5 91:1 92:1 104:1 
-0.2138732130546635 1:0.555556 2:-0.333333 3:-0.75 4:-0.333333 5:-0.333333 6:-0.333333 7:-0.333333 8:-0.777778 9:-1 10:-0.333333 11:-0.333333 12:-0.333333 13:-0.333333 14:-0.6 15:-0.5 16:0.5 17:0.714286 18:-0.666667 19:-0.333333 20:-0.333333 23:-0.333333 24:-1 25:-0.6 27:-0.333333 28:-1 29:-0.333333 30:-1 31:-1 32:-1 33:-1 34:-1 35:-1 36:-1 37:-1 38:-1 39:-1 40:0.111111 41:0.2 42:-0.2 44:-0.333333 45:-0.333333 46:-0.333333 47:-0.333333 48:-0.5 49:-1 50:-0.333333 51:-0.5 52:-0.5 53:-0.5 54:-0.6 55:-1 56:-1 57:-1 58:-1 59:-1 60:-1 61:-1 62:-1 63:-1 64:-1 65:-1 66:-1 67:-0.111111 68:-0.777778 69:-0.6 70:-0.714286 76:1 78:0.5 79:1 81:1 83:1 89:1 90:1 92:1 104:1 
-0.2659437762823013 1:0.555556 2:-0.555556 3:-0.75 4:-0.333333 5:0.333333 6:1 7:-0.333333 8:-1 9:-0.75 10:-0.333333 11:-0.333333 12:-0.333333 13:-0.333333 14:-0.6 15:1 16:-0.5 17:-0.714286 18:-0.666667 19:-0.333333 20:-0.333333 23:-0.333333 24:-1 25:-0.6 27:0.111111 28:-1 29:-1 30:-1 31:-1 32:-0.333333 33:-1 34:-1 35:-0.555556 36:-1 37:-1 38:-1 39:-1 40:-0.777778 41:-1 42:0.2 43:-0.5 44:-0.333333 45:-0.333333 46:-1 47:-0.333333 48:-1 49:-1 50:-0.333333 51:-0.5 52:-0.5 53:-0.5 54:-0.6 55:-0.333333 56:-1 57:-1 58:-1 59:-1 60:-1 61:-0.555556 62:-1 63:-1 64:-0.555556 65:-0.2 66:0.2 67:-0.111111 68:-0.555556 69:0.2 70:-0.142857 71:1 79:1 88:1 89:-0.5 90:1 104:1 
-0.2602619877426953 1:-0.777778 2:-1 3:-0.75 4:-0.333333 5:-0.333333 6:-0.333333 7:-0.333333 8:-0.777778 9:-1 10:-0.333333 11:-0.333333 12:-0.333333 13:-0.333333 14:-0.6 15:-0.5 16:-0.5 17:-0.714286 18:-0.333333 19:-0.333333 20:-0.333333 21:1 22:1 23:-0.333333 24:-0.333333 25:0.6 26:-1 27:-1 28:-1 29:-1 30:-0.333333 31:-1 32:-1 33:-1 34:-0.333333 35:-1 36:-1 37:-1 38:-1 39:-1 40:-1 41:-1 42:-1 43:-1 44:-1 45:-1 46:-1 47:-1 48:-1 49:-1 50:-1 51:-1 52:-1 53:-1 54:-1 55:-1 56:-1 57:-1 58:-1 59:-1 60:-1 61:-1 62:-1 63:-1 64:-1 65:-1 66:-1 67:-1 68:-1 69:-1 70:-1 71:-1 72:-1 73:-1 74:-1 75:-1 76:-1 77:-1 78:-1 79:-1 80:-1 81:-1 82:-1 83:-1 84:-1 85:-1 86:-1 87:-1 88:-1 89:-1 90:-1 91:-1 92:-1 93:-1 94:-1 95:-1 96:-1 97:-1 98:-1 99:-1 100:-1 101:-1 102:-1 103:-1 104:-1 
-0.4684733783279945 1:-0.333333 2:-0.333333 3:-0.25 4:-0.333333 5:-0.333333 6:-0.333333 7:-0.333333 8:-0.777778 9:-1 10:-0.333333 11:-0.333333 12:-0.333333 13:-0.333333 14:-0.6 15:-0.5 16:-0.5 17:-0.714286 18:-0.666667 19:0.333333 20:-1 23:-0.333333 24:-1 25:-0.6 26:-1 27:-0.333333 28:-1 29:-1 30:-1 31:-1 32:-1 33:-1 34:-1 35:-0.333333 36:-0.333333 37:-1 38:-1 39:-1 40:-0.333333 41:-1 42:-0.6 43:-0.5 44:0.333333 45:1 46:-0.333333 47:-0.333333 48:-0.5 49:-1 50:-0.333333 51:-0.5 52:-0.5 53:-0.5 54:-0.6 55:-0.333333 56:-1 57:-1 58:-1 59:-1 60:-1 61:-0.333333 62:-1 63:-0.333333 64:-1 65:-0.2 66:0.6 67:0.111111 68:-0.777778 69:0.6 70:0.142857 72:1 78:0.5 79:1 80:1 86:1 89:-0.5 90:1 104:1 
-0.4241295564863727 1:0.777778 2:-0.111111 4:-0.333333 5:-0.333333 6:-0.333333 7:-0.333333 8:0.777778 9:-0.25 10:-0.333333 11:0.333333 12:0.333333 13:0.333333 14:-0.6 15:-0.5 16:-0.5 17:-0.142857 18:-0.333333 19:0.333333 20:-0.333333 21:1 22:1 23:-0.333333 24:-1 25:-0.6 26:-1 27:-0.333333 28:-0.333333 29:-1 30:-0.333333 31:-0.333333 32:-1 33:-0.333333 34:-1 35:-1 36:-0.333333 37:-1 38:-1 39:-0.25 40:-0.333333 41:-1 42:-0.2 44:-0.333333 45:-0.333333 46:0.333333 47:-0.333333 48:-0.5 49:-1 50:-0.333333 51:-0.5 52:-0.5 53:-0.5 54:-0.6 55:-1 56:-1 58:-0.333333 59:-1 60:-1 61:-0.333333 62:-1 63:-1 64:-1 65:-1 66:-1 67:-0.555556 68:-0.555556 69:0.6 70:0.714286 71:1 74:1 78:-0.5 79:1 81:1 89:-0.5 90:1 104:1 
-0.2898306609909567 1:-0.777778 2:-1 3:-0.75 4:-0.333333 5:-0.333333 6:-0.333333 7:-0.333333 8:-0.777778 9:-1 10:-0.333333 11:-0.333333 12:-0.333333 13:-0.333333 14:-0.2 15:-0.5 16:0.5 17:-0.428571 18:-0.666667 19:0.333333 20:-0.333333 21:1 23:-0.333333 24:-1 25:-0.6 26:-1 27:-1 28:-1 29:-0.333333 30:-1 31:-0.333333 32:-0.333333 33:-1 34:-1 35:-1 36:-1 37:-1 38:-1 39:-1 40:-0.333333 41:-1 42:-0.2 43:-0.5 44:-0.333333 45:1 46:0.333333 47:-0.333333 48:-1 49:-1 50:-0.333333 51:-0.5 52:-0.5 53:-0.5 54:-0.6 55:-1 56:-1 57:-1 58:-1 59:-1 60:-1 61:-1 62:-1 63:-1 64:-1 65:-0.2 66:0.6 67:-1 68:-0.777778 69:-0.2 70:-0.142857 71:1 78:-1 79:1 80:1 89:-0.5 90:1 104:1 
-1.277065005642376 1:-0.777778 2:-1 3:-1 4:-1 5:-1 6:-1 7:-1 8:-0.777778 9:-1 10:-1 11:-1 12:-1 13:-1 14:-0.6 16:0.5 17:-0.142857 18:-0.666667 19:0.333333 20:-0.333333 23:-0.333333 24:-1 25:-0.6 27:-1 28:-1 29:-0.333333 30:-1 31:-1 32:-1 33:-1 34:-1 35:-1 36:-0.333333 37:-1 38:-1 39:-1 40:-1 41:-1 42:-0.6 43:-0.5 44:0.333333 45:-0.333333 46:-0.333333 47:-0.333333 48:-0.5 49:-0.333333 50:1 51:-0.5 52:-0.5 53:-0.5 54:-0.6 55:-1 56:-1 57:-1 58:-1 59:-1 60:-1 61:-1 62:-1 63:-1 64:-1 65:-1 66:-1 67:-0.111111 68:-0.555556 69:0.6 70:0.714286 71:1 78:-0.5 79:1 81:1 89:-0.5 91:1 104:1 
-0.28535820700942 1:0.777778 2:-0.333333 4:1 5:-0.333333 6:0.333333 7:-0.333333 8:0.777778 9:-0.5 10:-0.333333 11:-0.333333 12:-0.333333 13:-0.333333 14:-0.6 15:-0.5 17:-0.714286 18:-0.666667 19:0.333333 20:-0.333333 23:-0.333333 24:-1 25:-0.6 27:0.111111 28:-1 29:-1 30:-1 31:-1 32:-1 33:-1 34:-0.555556 35:-1 36:-1 37:-0.333333 38:-1 39:-1 40:-1 41:-1 42:-1 43:-0.5 44:-0.333333 45:-0.333333 46:-0.333333 47:-0.333333 48:-0.5 49:-0.333333 50:-0.333333 51:-0.5 52:-0.5 53:-0.5 54:-0.6 55:-0.333333 56:-1 57:-1 58:-1 59:-1 60:-1 61:-1 62:-1 63:-1 64:-1 65:-1 66:-1 67:-0.111111 68:-0.555556 69:0.6 70:-0.428571 72:1 78:-0.5 79:1 81:1 89:-0.5 92:1 104:1 
-0.2740463566633534 1:-0.777778 2:-1 3:-1 4:-1 5:-1 6:-1 7:-1 8:-0.777778 9:-1 10:-1 11:-1 12:-1 13:-1 14:-0.6 15:-0.5 16:0.5 17:-0.714286 18:-0.666667 19:0.333333 20:-0.333333 22:1 23:-0.333333 24:-1 25:-0.6 27:-1 28:-1 29:-1 30:-1 31:-1 32:-1 33:-1 34:-1 35:-1 36:-1 37:-1 38:-1 39:-1 40:-1 41:-1 42:-0.6 44:-0.333333 45:-0.333333 46:-0.333333 47:-0.333333 48:-0.5 49:-0.333333 50:-0.333333 51:-0.5 52:-0.5 53:-0.5 54:-0.6 55:-1 56:-1 57:-1 58:-1 59:-1 60:-1 61:-1 62:-1 63:-1 64:-1 65:-1 66:-1 67:-0.111111 68:-0.555556 69:0.2 70:-0.142857 76:1 78:-0.5 80:1 89:-0.5 92:1 104:1 
