svm_type c_svc
kernel_type rbf
gamma 0.03125
nr_class 2
total_sv 435
rho -0.333961
label 10 0
probA -1.12526
probB 0.592739
nr_sv 146 289
SV
8 1:-0.777778 2:-1 3:-0.75 4:-0.333333 5:-0.333333 6:-0.333333 7:-0.6 8:-0.777778 9:-0.25 10:-0.333333 11:-0.333333 12:-0.333333 13:-0.333333 14:-0.6 15:-0.5 16:0.5 17:-0.714286 18:-0.333333 19:-0.333333 20:-0.333333 24:-1 25:-0.6 27:-1 28:-1 29:-1 30:-1 31:-1 32:-1 33:-1 34:-1 35:-1 36:-1 37:-0.333333 38:-1 39:-1 40:-1 41:-1 42:-1 43:-0.5 44:-0.333333 45:-0.333333 46:-1 47:-0.333333 48:-0.5 49:-0.333333 50:1 51:-0.5 52:-0.5 53:-0.5 54:-0.6 55:-1 56:-1 57:-1 58:-1 59:-1 60:-1 61:-1 62:-1 63:-1 64:-1 65:-0.2 66:0.6 67:0.111111 68:-0.5 69:0.2 70:-0.428571 78:-0.5 79:1 81:1 89:-0.5 90:1 104:1 
4.893404497971347 1:0.555556 2:-0.555556 3:-0.25 4:-0.333333 5:-0.333333 6:-0.333333 7:-0.2 8:-0.777778 9:-0.25 10:-0.333333 11:0.333333 12:0.333333 13:-0.333333 14:-0.6 15:-0.5 16:-0.5 17:-0.428571 18:-0.666667 19:0.333333 20:-0.333333 24:-1 25:-0.6 27:-0.777778 28:-0.777778 29:-0.777778 30:-1 31:-0.555556 32:-1 33:-0.555556 34:-0.555556 35:-1 36:0.111111 37:-0.777778 38:-1 39:-1 40:-0.555556 41:-1 42:-0.6 43:-0.5 44:0.333333 45:-0.333333 46:-0.333333 47:-0.333333 48:-1 49:0.333333 50:-0.333333 51:-0.5 52:-0.5 53:-0.5 54:0.6 55:-1 56:-1 57:-1 58:-1 59:-1 60:-1 61:-1 62:-1 63:-1 64:-1 65:-0.6 66:-0.6 67:-0.777778 68:-0.5 69:-0.2 70:-0.714286 73:1 78:-0.5 79:1 81:1 89:-0.5 92:1 104:1 
8 1:-0.777778 2:-1 3:-0.75 4:-0.333333 5:-0.333333 6:-0.333333 7:-0.6 8:-0.777778 9:-1 10:-0.333333 11:0.333333 12:-0.333333 13:-0.333333 14:-0.6 15:-0.5 16:-0.5 17:-0.714286 18:-0.666667 19:0.333333 20:0.333333 24:-1 25:-0.6 27:0.111111 28:-0.333333 29:-0.333333 30:-1 31:-0.333333 32:-1 33:-1 34:-0.333333 35:-1 36:-1 37:-1 38:-1 39:-1 40:-1 41:-1 42:-0.6 43:-0.5 44:-0.333333 45:-0.333333 46:-0.333333 47:-0.333333 48:-0.5 49:0.333333 50:1 51:-0.5 52:-0.5 53:-0.5 54:-0.6 55:-1 56:-1 57:-1 58:-1 59:-1 60:-1 61:-1 62:-1 63:-1 64:-1 65:-1 66:-1 67:-0.555556 69:-0.2 70:-0.428571 76:1 78:-0.5 80:1 87:1 89:-0.5 92:1 104:1 
7.318680557051704 1:-0.777778 2:-1 3:-0.75 4:-0.333333 5:-0.333333 6:-0.333333 7:-0.6 8:-0.333333 9:-0.25 10:-0.333333 11:-0.333333 12:0.333333 13:-0.333333 14:-0.6 15:-0.5 17:-0.428571 19:0.333333 20:-0.333333 22:1 24:-1 25:-0.6 27:-1 28:-0.555556 29:-0.777778 30:-1 31:-0.777778 32:-1 33:-0.333333 34:-0.555556 35:-1 36:-1 37:-1 38:-1 39:-0.75 40:-0.555556 41:-1 42:-0.6 43:-0.5 44:0.333333 45:-0.333333 46:-0.333333 47:-0.333333 48:-0.5 49:-1 50:1 51:0.5 52:-0.5 53:-0.5 54:0.6 55:-1 56:-1 57:-1 58:-0.777778 59:-1 60:-0.5 61:-0.555556 62:-1 63:-1 64:-1 65:-0.2 66:0.6 67:0.333333 68:-0.5 69:-0.2 70:-0.428571 71:1 78:-0.5 79:1 87:1 89:-0.5 90:1 104:1 
8 1:-0.555556 2:-0.111111 4:-0.333333 5:-0.333333 6:-0.333333 7:-0.6 8:-0.777778 9:-1 10:-0.333333 11:-0.333333 12:-0.333333 13:-0.333333 14:-0.6 15:-0.5 16:0.5 17:-0.714286 18:-0.666667 19:0.333333 20:-0.333333 24:-1 25:-0.6 26:-1 27:-1 28:-1 29:-1 30:-1 31:-1 32:-1 33:-0.333333 34:-0.333333 35:-0.333333 36:-0.333333 37:-1 38:-1 39:-1 40:-0.333333 41:-1 42:-0.6 43:-0.5 44:-0.333333 45:0.333333 46:-0.333333 47:-0.333333 48:-0.5 49:-1 50:1 51:-0.5 52:-0.5 53:-0.5 54:-0.6 55:-1 56:-1 57:-1 58:-1 59:-1 60:-1 61:-1 62:-1 63:-1 64:-1 65:-1 66:-1 67:0.777778 68:-0.5 69:-0.6 70:-0.142857 76:1 78:-0.5 79:1 81:1 89:-0.5 90:1 92:1 104:1 
4.001031130916497 1:-0.777778 2:-1 3:-0.75 4:-0.333333 5:-0.333333 6:-0.333333 7:-0.6 8:-0.777778 9:-1 10:-0.333333 11:-0.333333 12:-0.333333 13:-0.333333 14:-0.6 15:-0.5 17:-0.142857 18:-0.333333 19:-0.333333 20:0.333333 22:1 24:-0.555556 25:0.6 27:-1 28:-1 29:-1 30:-1 31:-0.555556 32:-1 33:1 34:-1 35:-1 36:-1 37:-1 38:-1 39:-1 40:-1 41:-1 42:-0.6 43:1 44:0.333333 45:0.333333 46:-0.333333 47:-0.333333 48:-1 49:-1 50:1 51:-0.5 52:-0.5 53:-0.5 54:0.6 55:-1 56:-1 57:-1 58:-1 59:-1 60:-1 61:-1 62:-1 63:-1 64:-1 65:-1 66:-1 67:0.777778 68:-0.5 69:0.2 70:-0.142857 71:1 74:1 78:-0.5 79:1 87:1 89:-0.5 90:1 91:1 104:1 
1.688575199983099 1:0.777778 2:-1 4:-0.333333 5:1 6:0.333333 7:0.2 8:0.777778 9:-0.5 10:1 11:0.333333 12:0.333333 13:0.333333 14:-0.2 15:-0.5 16:-0.5 17:-0.142857 18:-0.333333 19:-0.333333 20:-0.333333 22:1 23:1 24:1 25:0.6 26:1 27:0.555556 28:-0.555556 29:-0.777778 30:-0.777778 31:-1 32:-1 33:-0.333333 34:0.777778 35:-0.333333 36:-0.333333 37:-1 38:-0.75 39:-1 40:-0.555556 41:-1 42:-0.6 43:-0.5 44:0.333333 45:1 46:0.333333 47:0.333333 48:-1 49:0.333333 50:1 51:-1 52:-0.5 53:-0.5 54:-0.6 55:-1 56:-1 57:-1 58:-0.555556 59:-1 60:-1 61:-1 62:-1 63:-1 64:-1 65:0.2 66:0.2 67:-0.111111 69:0.2 70:-0.142857 73:1 78:-0.5 79:1 83:1 89:-0.5 91:1 104:1 
8 1:-0.777778 2:-1 3:-0.75 4:-0.333333 5:-0.333333 6:-0.333333 7:-0.6 8:-0.777778 9:-1 10:-0.333333 11:-0.333333 12:-0.333333 13:-0.333333 14:0.2 15:-0.5 16:-0.5 17:-0.714286 18:-0.666667 19:-0.333333 20:0.333333 21:1 22:1 24:-1 25:-0.6 27:-1 28:-1 29:-1 30:-1 31:-1 32:-1 33:-1 34:-1 35:-1 36:-1 37:-1 38:-1 39:-1 40:-1 41:-0.6 42:-0.6 44:0.333333 45:-0.333333 46:-0.333333 47:-0.333333 48:-0.5 49:-0.333333 50:0.333333 51:-0.5 52:-0.5 53:-0.5 54:0.6 55:-1 56:-1 57:-1 58:-1 59:-1 60:-1 61:-1 62:-1 63:-0.555556 64:-1 65:-1 66:-1 67:-0.111111 68:-0.5 69:0.2 70:-0.428571 71:1 78:-0.5 79:1 80:1 101:1 104:1 
8 1:-0.777778 2:-1 3:-1 4:-0.333333 5:-0.333333 6:-0.333333 7:-0.6 8:0.111111 9:-0.25 10:1 11:-0.333333 12:-0.333333 13:-0.333333 14:-0.2 15:-0.5 16:-0.5 17:-0.428571 18:-0.666667 19:0.333333 20:-0.333333 24:-1 25:-0.6 27:-1 28:-1 29:-1 30:-1 31:-1 32:-0.333333 33:-1 34:-1 35:-1 36:-1 37:-1 38:-1 39:-1 40:-1 41:-1 42:-0.2 43:-0.5 44:-0.333333 45:-0.333333 46:-0.333333 47:-0.333333 48:-0.5 49:0.333333 50:-0.333333 51:-0.5 52:-0.5 53:-0.5 54:-0.6 55:-1 56:-1 57:-1 58:-1 59:-1 60:-1 61:-1 62:-1 63:-1 64:-1 65:-1 66:-1 67:-0.111111 69:0.2 70:0.428571 76:1 78:0.5 79:1 80:1 89:-0.5 91:1 92:1 104:1 
8 1:-0.777778 2:-1 3:-0.75 4:-0.333333 5:-0.333333 6:-0.333333 7:-0.6 8:-0.777778 9:-1 10:-0.333333 11:-0.333333 12:-0.333333 13:-0.333333 14:-0.2 15:0.5 16:-0.5 17:-0.142857 18:-0.333333 19:0.333333 20:-0.333333 24:-1 25:-0.6 26:-1 27:-0.333333 28:-1 29:-1 30:-1 31:-0.333333 32:-1 33:-1 34:-0.333333 35:-1 36:-1 37:-1 38:-1 39:-1 40:-0.333333 41:-1 42:-0.2 43:-0.5 44:0.333333 45:-0.333333 46:-0.333333 47:-0.333333 48:-1 49:-1 50:-0.333333 51:-0.5 52:-0.5 53:-0.5 54:-0.6 55:-1 56:-1 57:-1 58:-1 59:-1 60:-1 61:-1 62:-1 63:-1 64:-1 65:-1 66:-1 67:1 69:-0.2 70:0.714286 71:1 76:1 78:-0.5 79:1 80:1 87:1 89:-0.5 92:1 104:1 
2.603956300676222 1:-0.777778 2:-1 3:-0.75 4:-0.333333 5:-0.333333 6:-0.333333 7:-0.6 8:0.333333 9:-0.25 10:1 11:-0.333333 12:-0.333333 13:-0.333333 14:-0.6 16:0.5 17:-0.714286 18:-0.666667 19:0.333333 20:-0.333333 23:-1 24:-0.777778 25:-0.6 26:-1 27:0.111111 28:-0.333333 29:-0.333333 30:-0.333333 31:-0.333333 32:-0.333333 33:-1 34:0.111111 35:-0.111111 36:-0.333333 37:-1 38:-1 39:-0.25 40:-1 41:-1 42:-0.2 44:-0.333333 45:1 46:0.333333 47:-0.333333 48:-1 49:0.333333 50:0.333333 51:-0.5 52:-0.5 53:-0.5 54:0.2 55:-0.111111 56:-1 58:-1 59:-1 60:-1 61:-0.333333 62:-1 63:-1 64:-1 65:-1 66:-1 67:-0.111111 69:0.6 70:-0.142857 76:1 79:1 81:1 89:-0.5 92:1 104:1 
1.498643103606307 1:-0.111111 2:1 4:0.333333 5:1 6:0.333333 7:0.2 8:0.777778 9:0.5 10:1 11:-0.333333 12:0.333333 13:0.333333 14:-0.6 16:1 17:-0.142857 18:-0.333333 19:-0.333333 20:-0.333333 24:-1 25:-0.6 27:-0.333333 28:-1 29:-1 30:-0.555556 31:-1 32:-1 33:-1 34:-0.555556 35:0.333333 36:-1 37:-0.555556 38:-1 39:-0.5 40:-0.333333 41:-0.2 42:-0.2 43:-0.5 44:-0.333333 45:-0.333333 46:-0.333333 47:-0.333333 48:-1 49:-1 50:-0.333333 51:-0.5 52:-0.5 54:-0.6 55:-1 56:-1 57:-1 58:-1 59:-1 60:-1 61:-1 62:-1 63:-0.333333 64:-1 65:-0.2 66:0.6 67:-0.111111 69:0.2 70:-0.428571 72:-1 73:-1 74:-1 75:-1 76:-1 77:-1 78:-0.5 79:-1 80:-1 82:-1 83:-1 84:-1 85:-1 86:-1 87:-1 88:-1 89:-0.5 90:1 91:1 104:1 
5.790261023952289 1:-0.777778 2:-1 3:-0.75 4:-0.333333 5:-0.333333 6:-0.333333 7:-0.6 8:-0.777778 9:-0.75 10:-0.333333 11:-0.333333 12:-0.333333 13:-0.333333 14:-0.6 15:-0.5 16:-0.5 17:-0.428571 18:-0.666667 19:0.333333 20:0.333333 21:1 22:1 23:1 24:-1 25:-0.6 27:-1 28:-1 29:-1 30:-1 31:-1 32:-1 33:-1 34:-1 35:-1 36:-1 37:-1 38:-1 39:-1 40:-0.333333 41:-0.6 42:-0.6 43:-0.5 44:-0.333333 45:-0.333333 46:-0.333333 47:-0.333333 48:-1 49:-1 50:1 51:-0.5 52:-0.5 53:-0.5 54:-0.6 55:-1 56:-1 57:-1 58:-0.333333 59:-1 60:-1 61:-1 62:-1 63:-1 64:-1 65:-0.2 66:-1 67:0.111111 68:-0.5 69:0.2 70:-0.428571 74:-1 75:-1 76:-1 77:-1 79:1 80:1 90:1 91:1 104:1 
1.82952513174337 1:-0.777778 2:-0.777778 3:-0.75 4:-0.333333 5:-0.333333 6:-0.333333 7:-0.6 8:0.777778 9:0.5 10:-0.333333 11:-0.333333 12:0.333333 13:-1 14:0.2 15:-0.5 16:0.5 17:-0.714286 18:-0.666667 19:-0.333333 20:-0.333333 24:-1 25:-1 26:-1 27:0.111111 28:0.111111 29:0.777778 30:-1 31:0.333333 32:0.333333 33:0.555556 34:0.111111 35:-1 36:0.333333 37:0.333333 38:-1 40:0.111111 41:0.2 42:-0.6 44:-0.333333 45:-0.333333 46:-0.333333 47:-0.333333 48:-0.5 49:-0.333333 50:1 51:-0.5 52:-0.5 53:-0.5 54:-0.6 55:-1 56:-1 57:-1 58:-1 59:-1 60:-1 61:0.111111 62:-1 63:-0.111111 64:-0.111111 65:-1 66:-1 67:-0.333333 69:-0.6 70:-0.428571 72:1 78:-0.5 79:1 81:1 89:-0.5 92:1 99:1 104:1 
8 1:-0.777778 2:-1 3:-0.75 4:-0.333333 5:-0.333333 6:-0.333333 7:-0.6 8:-0.777778 9:-1 10:-0.333333 11:-0.333333 12:-0.333333 13:-0.333333 14:-0.2 15:-1 16:0.5 17:-0.714286 18:-0.666667 19:-1 20:-1 21:-1 23:1 24:0.111111 25:-1 26:-1 27:-0.555556 28:-1 29:-1 30:-1 31:-1 32:-0.111111 33:-1 34:-1 35:-1 36:-1 37:-1 38:-1 39:-1 40:-1 41:0.6 42:-0.6 43:-0.5 44:-0.333333 45:-0.333333 46:-0.333333 47:-0.333333 48:-0.5 49:-0.333333 50:-0.333333 51:-0.5 52:-0.5 53:-0.5 54:-0.6 55:-1 56:-1 57:-1 58:-1 59:-1 60:-1 61:-0.333333 62:-1 63:-1 64:-1 65:-0.6 66:-1 67:-0.111111 68:-1 69:-0.2 70:0.714286 73:1 78:-0.5 79:1 80:1 90:1 92:1 104:1 
5.292032770860033 1:-0.777778 2:-1 3:-0.75 4:-0.333333 5:-0.333333 6:-0.333333 7:-0.6 8:-0.777778 9:-1 10:-1 11:-1 12:-1 13:-1 14:-0.6 15:-0.5 16:0.5 17:-1 18:-0.666667 19:0.333333 20:-1 23:-1 24:-1 25:-1 26:-1 27:0.555556 28:-0.111111 29:-1 30:-1 31:0.555556 32:-1 33:-1 34:-1 35:0.555556 36:-0.111111 37:-1 38:-1 39:-1 40:-1 41:-0.2 42:-0.2 44:-0.333333 45:-0.333333 46:-0.333333 47:-1 48:-1 49:-1 50:1 51:-0.5 52:-0.5 53:-0.5 54:-0.2 55:-1 56:-1 57:-1 58:-1 59:-1 60:-1 61:-0.333333 62:-1 63:-0.333333 64:-0.333333 65:-1 66:-1 67:0.777778 68:-0.5 69:0.6 70:0.714286 72:1 78:0.5 79:1 86:1 89:-0.5 90:1 92:1 104:1 
5.861840380221873 1:-0.777778 2:-1 3:-0.75 4:-0.333333 5:-0.333333 6:-0.333333 7:-0.6 8:-0.777778 9:-1 10:-0.333333 11:-0.333333 12:-0.333333 13:-0.333333 14:-0.6 15:-1 16:-0.5 17:-0.428571 18:-0.666667 19:0.333333 20:-0.333333 22:1 24:-1 25:-0.6 26:-1 27:-0.333333 28:-0.333333 29:-1 30:-1 31:-0.333333 32:-1 33:-0.333333 34:-1 35:-1 36:-0.333333 37:-1 38:-1 39:-0.25 40:-0.333333 41:-1 42:-0.6 43:-0.5 44:-0.333333 45:-0.333333 46:-0.333333 47:0.333333 48:-0.5 49:-1 50:1 51:-0.5 52:-0.5 53:-0.5 54:-0.6 55:-1 56:-1 57:-1 58:-1 59:-1 60:-1 61:-0.333333 62:-1 63:-1 64:-1 65:-0.2 66:0.6 67:0.777778 68:-0.5 69:0.2 70:-1 72:1 78:-0.5 79:1 80:1 81:1 89:-0.5 92:1 93:1 104:1 
2.7933332024016 1:0.555556 2:-0.555556 4:-0.333333 5:-0.333333 6:0.333333 7:0.2 8:0.555556 9:-0.5 10:1 11:-0.333333 12:0.333333 13:0.333333 14:-0.6 15:-0.5 16:-0.5 17:-0.714286 18:-0.666667 19:-0.333333 20:-0.333333 24:-1 25:-0.6 27:-0.333333 28:-1 29:-0.333333 30:-1 31:-0.555556 32:-0.555556 33:-1 34:-0.333333 35:-1 36:-1 37:-1 38:-1 39:-1 40:-0.555556 41:-1 42:-0.2 43:-0.5 44:-0.333333 45:-0.333333 46:-0.333333 47:-0.333333 48:-1 49:-1 50:-0.333333 51:-0.5 52:-0.5 53:-0.5 54:-0.6 55:0.333333 56:-1 57:-1 58:-1 59:-1 60:-1 61:-1 62:-1 63:-1 64:-1 65:-0.2 66:0.6 67:-0.111111 69:0.6 70:-0.714286 71:1 72:1 73:1 74:1 75:1 76:1 77:1 78:-0.5 79:1 81:1 89:-0.5 90:1 91:1 104:1 
4.045006642360637 1:0.555556 2:0.111111 3:-0.5 4:-0.333333 5:-0.333333 6:-0.333333 7:0.2 8:-0.777778 9:-1 10:-0.333333 11:-0.333333 12:-0.333333 13:-0.333333 14:-0.6 15:-0.5 16:-0.5 17:-0.714286 19:0.333333 20:0.333333 21:1 24:-1 25:-0.6 27:-1 28:-0.111111 29:-1 30:-1 31:0.111111 32:-1 33:0.333333 34:-1 35:-0.777778 36:-0.333333 37:-1 39:-1 40:0.333333 41:-1 42:-0.2 43:1 44:-0.333333 45:-0.333333 46:0.333333 47:-0.333333 48:-0.5 49:-1 50:-0.333333 52:0.5 53:-0.5 54:-0.6 55:-1 56:-1 57:-1 58:-1 59:-1 60:-1 61:-1 62:-1 63:-0.333333 64:-1 65:-0.2 66:0.6 67:-0.111111 69:0.2 70:-0.714286 72:1 78:0.5 79:1 80:1 89:-0.5 90:1 91:1 96:1 104:1 
7.780492413841401 1:0.333333 2:-0.333333 3:-0.25 4:-0.333333 5:-0.333333 6:-0.333333 7:-0.6 8:0.333333 9:-0.25 10:-0.333333 11:-0.333333 12:0.333333 13:-0.333333 14:-0.6 15:-0.5 16:-0.5 17:-0.428571 18:-0.666667 19:0.333333 20:-0.333333 22:1 24:-1 25:-0.6 26:-1 27:-0.333333 28:-1 29:-1 30:-1 31:-0.333333 32:-1 33:-1 34:-1 35:-0.333333 36:-1 37:-1 38:-0.25 39:-1 40:-0.333333 41:-1 42:-0.2 43:-0.5 44:-0.333333 45:-0.333333 46:-0.333333 47:-0.333333 48:-0.5 49:-1 50:-0.333333 51:-0.5 52:-0.5 53:-0.5 54:-0.6 55:-1 56:-1 57:-1 58:-1 59:-1 60:-1 61:-0.333333 62:-1 63:-1 64:-1 65:-1 66:-1 67:-0.555556 69:-0.2 70:-0.428571 72:1 73:1 78:-0.5 79:1 81:1 89:-0.5 92:1 104:1 
1.400789828276604 1:0.777778 2:-0.111111 4:-0.333333 5:-0.333333 6:-0.333333 7:-0.6 8:0.777778 9:-0.25 10:-0.333333 11:0.333333 12:0.333333 13:0.333333 14:-0.6 15:-0.5 16:-0.5 17:-0.142857 18:-0.333333 19:0.333333 20:-0.333333 21:1 22:1 24:-1 25:-0.6 26:-1 27:-0.333333 28:-0.333333 29:-1 30:-0.333333 31:-0.333333 32:-1 33:-0.333333 34:-1 35:-1 36:-0.333333 37:-1 38:-1 39:-0.25 40:-0.333333 41:-1 42:-0.2 44:-0.333333 45:-0.333333 46:0.333333 47:-0.333333 48:-0.5 49:-1 50:-0.333333 51:-0.5 52:-0.5 53:-0.5 54:-0.6 55:-1 56:-1 58:-0.333333 59:-1 60:-1 61:-0.333333 62:-1 63:-1 64:-1 65:-1 66:-1 67:-0.555556 69:0.6 70:0.714286 71:1 74:1 78:-0.5 79:1 81:1 89:-0.5 90:1 104:1 
6.639592644094046 1:-0.777778 2:-1 3:-1 4:-1 5:-1 6:-1 7:-1 8:0.333333 10:1 11:-0.333333 12:-0.333333 13:0.333333 14:-0.6 15:-0.5 16:0.5 17:-0.714286 18:-0.666667 19:-0.333333 20:-0.333333 24:-1 25:-0.6 27:-0.555556 28:-1 29:-0.777778 30:-1 31:-1 32:-0.777778 33:-0.555556 34:-0.555556 35:-1 36:-1 37:-1 38:-1 39:-1 40:-0.333333 41:-1 42:-0.2 43:1 44:-0.333333 45:-0.333333 46:-0.333333 47:-0.333333 48:-0.5 49:-0.333333 50:-0.333333 51:-0.5 52:-0.5 53:-0.5 54:0.2 55:-1 56:-1 57:-1 58:-1 59:-1 60:-1 61:-1 62:-1 63:-0.555556 64:-1 65:-0.2 66:0.2 67:1 68:-0.5 69:-0.2 70:0.142857 78:-0.5 79:1 81:1 89:-0.5 90:1 104:1 
8 1:-0.777778 2:-1 3:-1 4:-1 5:-1 6:-1 7:-1 8:-0.777778 9:-1 10:-1 11:-1 12:-1 13:-1 14:-0.6 15:-0.5 16:-0.5 17:1 18:-0.333333 19:-0.333333 20:-0.333333 22:1 24:-1 25:-0.6 27:-1 28:-1 29:-1 30:-1 31:-1 32:-1 33:-1 34:-1 35:-1 36:-1 37:-1 38:-0.25 39:-1 40:-0.333333 41:-1 42:-0.2 43:-0.5 44:-0.333333 45:-0.333333 46:-0.333333 47:-0.333333 48:-0.5 49:-0.333333 50:-0.333333 51:-0.5 52:-0.5 53:-0.5 54:-0.6 55:-1 56:-1 57:-1 58:-1 59:-1 60:-1 61:-1 62:-1 63:-1 64:-1 65:-1 66:-1 67:-0.111111 69:0.2 70:-0.142857 72:1 78:-0.5 79:1 80:1 87:1 89:-0.5 92:1 104:1 
8 1:-0.555556 2:-0.333333 3:-0.25 4:-0.333333 5:-0.333333 6:-0.333333 7:-0.6 8:-0.777778 9:-1 10:-1 11:-1 12:-1 13:-1 14:-0.6 15:-0.5 16:-0.5 17:-0.428571 18:-0.666667 19:0.333333 20:-0.333333 24:-1 25:-0.6 27:-1 28:-1 29:-1 30:-0.333333 31:-1 32:-1 33:-1 34:-1 35:-1 36:-1 37:-1 38:-1 39:-1 40:-0.333333 41:-1 42:-0.6 43:0.5 44:0.333333 45:-0.333333 46:-0.333333 47:-0.333333 48:-0.5 49:-0.333333 50:-0.333333 51:-0.5 52:-0.5 53:-0.5 54:0.2 55:-1 56:-1 57:-1 58:-0.333333 59:-1 60:-1 61:-1 62:-1 63:-1 64:-1 65:-1 66:-1 67:-0.111111 69:-0.6 70:-0.428571 72:1 78:-0.5 79:1 81:1 89:-0.5 92:1 104:1 
2.110380780784734 1:0.111111 2:0.777778 3:-0.25 4:-1 5:1 6:0.333333 7:0.2 8:0.111111 9:-0.5 10:-0.333333 11:-0.333333 12:-0.333333 13:-0.333333 14:0.2 15:-0.5 16:0.5 17:-0.428571 18:0.333333 19:-0.333333 20:-0.333333 24:-0.555556 25:-0.6 27:0.555556 28:0.111111 29:-0.111111 30:-0.555556 31:0.777778 32:1 33:0.777778 34:0.777778 35:-0.555556 36:1 37:0.777778 38:-0.75 39:1 40:0.555556 41:-0.6 42:-0.2 44:-0.333333 45:1 46:0.333333 47:-0.333333 48:-1 49:-1 50:-0.333333 51:-0.5 52:-0.5 53:-0.5 54:0.2 55:0.111111 56:-0.75 57:-0.666667 58:-0.777778 59:-0.714286 60:1 61:1 62:-0.75 63:-1 64:0.333333 65:-0.2 66:0.6 67:-0.111111 69:-0.2 70:-0.714286 71:1 78:-0.5 79:1 81:1 89:-0.5 90:1 101:1 104:1 
7.477625816752392 1:-0.777778 2:-1 3:-1 4:-1 5:-1 6:-1 7:-1 8:-0.333333 10:-0.333333 11:-0.333333 12:0.333333 13:0.333333 14:-0.2 15:-0.5 16:-0.5 17:-0.714286 18:-0.666667 19:-0.333333 20:-0.333333 24:-1 25:-0.6 27:0.333333 28:-0.111111 29:-1 30:-1 31:-0.333333 32:-0.555556 33:0.111111 34:0.111111 35:-1 36:-1 37:-1 38:-0.25 39:-1 40:-1 41:-1 42:-0.6 43:-0.5 44:-0.333333 45:-0.333333 46:-0.333333 47:-0.333333 48:-1 49:-1 50:-0.333333 51:-0.5 52:-0.5 53:-0.5 54:-0.6 55:-1 56:-1 57:-1 58:-1 59:-1 60:-1 61:-1 62:-1 63:-1 64:-1 65:-1 66:-1 67:-0.111111 69:0.2 70:-0.428571 71:1 78:-0.5 79:1 81:1 89:-0.5 93:1 99:1 104:1 
4.442687696286758 1:0.111111 2:0.777778 3:-0.5 4:-0.333333 5:-0.333333 6:-0.333333 7:-0.2 8:-0.777778 9:-0.75 10:1 11:0.333333 12:0.333333 13:0.333333 14:-1 15:-0.5 16:0.5 17:-0.428571 18:-0.666667 19:-0.333333 20:-0.333333 21:1 23:1 24:-0.333333 25:0.2 27:-0.555556 28:-0.777778 29:0.111111 30:-1 31:-1 32:-1 33:-1 34:-0.333333 35:-0.555556 36:-0.111111 37:-0.777778 38:-0.75 39:-0.5 40:-0.555556 41:-0.6 42:-0.6 43:-0.5 44:-0.333333 45:-0.333333 46:-0.333333 47:-0.333333 48:-0.5 49:-0.333333 50:-0.333333 51:-0.5 52:-0.5 53:-0.5 54:-0.6 55:-1 56:-1 57:-0.333333 58:-0.555556 59:-0.428571 60:-1 61:-1 62:-1 63:-1 64:-1 65:-0.6 66:-0.2 67:-0.777778 68:-0.5 69:0.2 70:-0.142857 72:1 78:-0.5 79:1 81:1 87:1 89:-0.5 90:1 97:1 104:1 
3.205368738780988 1:1 2:-0.555556 4:-0.333333 5:1 6:0.333333 7:0.2 8:1 9:-0.25 10:-0.333333 11:-0.333333 12:0.333333 13:0.333333 14:-0.6 15:-0.5 16:-0.5 17:-0.428571 18:-0.333333 19:-0.333333 20:0.333333 24:-1 25:-0.6 27:-1 28:-1 29:-1 30:-1 31:-1 32:-1 33:-1 34:-1 35:-1 36:-1 37:-1 38:-1 39:-1 40:-0.333333 41:-0.6 42:-0.2 43:-0.5 44:-0.333333 45:-0.333333 46:-0.333333 47:-0.333333 48:-0.5 49:-0.333333 50:-0.333333 51:-0.5 52:-0.5 53:-0.5 54:-0.6 55:-1 56:-1 57:-1 58:-1 59:-1 60:-1 61:-1 62:-1 63:-1 64:-1 65:-1 66:-1 67:-0.111111 69:0.2 70:0.714286 71:1 79:1 87:1 89:-0.5 90:1 92:1 104:1 
1.383721752666465 1:0.333333 2:0.555556 3:-0.25 4:-1 5:-0.333333 6:0.333333 7:0.2 8:-0.777778 9:-1 10:-0.333333 11:-0.333333 12:-0.333333 13:-0.333333 14:-0.6 15:-0.5 16:-0.5 17:-0.714286 18:-0.666667 19:0.333333 20:-0.333333 24:-1 25:-0.6 26:-1 27:0.777778 28:0.777778 29:-1 30:-1 31:0.777778 32:-0.555556 33:1 34:-1 35:-1 36:-1 37:-1 38:-1 39:-1 40:-1 41:-1 42:-0.2 43:-0.5 44:-0.333333 45:-0.333333 46:-0.333333 47:-0.333333 48:-1 49:-1 50:-0.333333 51:-0.5 52:-0.5 53:-0.5 54:-0.6 55:0.777778 56:-1 57:-1 58:-1 59:-1 60:-1 61:-1 62:-1 63:-1 64:-0.777778 65:-1 66:-1 67:-0.555556 69:-0.2 70:-0.428571 71:1 78:-0.5 79:1 80:1 89:-0.5 90:-1 91:-1 92:-1 93:-1 94:-1 95:-1 96:-1 97:-1 98:-1 99:-1 100:-1 101:-1 102:-1 103:-1 104:-1 
6.646289739547968 1:0.555556 2:0.555556 3:-1 4:-0.333333 5:-0.333333 6:0.333333 7:-0.2 8:0.555556 9:0.75 10:-0.333333 11:-0.333333 12:0.333333 13:0.333333 14:-0.6 15:-0.5 16:0.5 17:-0.428571 18:-0.666667 19:-0.333333 20:0.333333 24:-1 25:-0.6 27:0.111111 28:-1 29:0.111111 30:-0.111111 31:-0.111111 32:-0.333333 33:-0.111111 34:0.111111 35:0.111111 36:-1 37:-1 40:-1 41:-1 42:-0.2 43:-0.5 44:-0.333333 45:-0.333333 46:-0.333333 47:-0.333333 48:-1 49:-1 50:1 51:-0.5 52:-0.5 53:-0.5 54:-0.2 55:-1 56:-0.5 57:-1 58:-1 59:-1 60:-1 61:-0.111111 62:-1 63:-1 64:-1 65:-1 66:-1 67:-0.111111 69:0.2 70:-0.428571 71:1 79:1 87:1 89:0.5 91:1 92:1 104:1 
6.260422140277685 1:0.111111 2:-0.333333 3:-0.25 4:-0.333333 5:-0.333333 6:-0.333333 7:-0.6 8:-0.777778 9:-1 10:-0.333333 11:-0.333333 12:-0.333333 13:-0.333333 14:-0.6 15:-0.5 16:-0.5 17:-0.714286 18:-0.666667 19:0.333333 20:-1 24:-1 25:-0.6 26:-1 27:-0.333333 28:-0.333333 29:-1 30:-0.333333 31:-0.333333 32:-1 33:-0.333333 34:-0.333333 35:-1 36:-1 37:-1 38:-1 39:-0.25 40:-0.333333 41:-1 42:-0.6 43:-0.5 44:-0.333333 45:-0.333333 46:-0.333333 47:-0.333333 48:-1 49:0.333333 50:-0.333333 51:-0.5 52:-0.5 53:-0.5 54:0.6 55:-1 56:-0.25 57:-1 58:-1 59:-1 60:-1 61:-1 62:-1 63:-1 64:-1 65:-1 66:-1 67:-0.111111 69:-0.2 70:-0.428571 72:1 73:1 78:-0.5 79:1 81:1 89:-0.5 92:1 104:1 
2.62070781622337 1:0.555556 2:-0.333333 3:-0.25 4:-0.333333 5:1 6:-0.333333 7:-0.6 8:0.777778 9:0.25 10:1 11:0.333333 12:0.333333 13:0.333333 14:-0.6 15:-0.5 17:-0.714286 18:-0.666667 19:0.333333 20:-1 24:-1 25:-0.6 27:0.777778 28:0.777778 29:-0.333333 30:-1 31:-1 32:-0.777778 33:-1 34:-0.333333 35:-1 36:-0.777778 37:-1 38:-1 39:-1 40:0.555556 41:-1 42:-0.2 44:0.333333 45:-0.333333 46:-0.333333 47:-0.333333 48:-0.5 49:0.333333 50:-0.333333 51:-0.5 52:-0.5 53:-0.5 54:-0.6 55:0.777778 56:-1 57:-1 58:-1 59:-1 60:0.25 61:-1 62:-1 63:-1 64:-1 65:-1 66:-1 67:-0.111111 68:-0.5 69:-0.2 70:-0.142857 71:1 78:-0.5 79:1 81:1 89:-0.5 95:1 104:1 
0.976026883080123 1:-0.777778 2:-1 3:-0.75 4:-0.333333 5:-0.333333 6:-0.333333 7:-0.6 8:0.111111 9:-0.25 10:-0.333333 11:-0.333333 12:-0.333333 13:-0.333333 14:-0.2 15:-0.5 16:0.5 17:-0.428571 18:-0.666667 19:0.333333 20:-0.333333 24:-1 25:-0.6 26:-1 27:-0.333333 28:-1 29:-0.333333 30:-1 31:-1 32:-1 33:-1 34:-0.333333 35:-1 36:-1 37:-1 38:-1 39:-0.25 40:-0.333333 41:-1 42:-0.6 43:-0.5 44:-0.333333 45:-0.333333 46:-0.333333 47:-1 48:-1 49:-1 50:-1 51:-0.5 52:-0.5 53:-0.5 54:-0.6 55:-1 56:-1 58:-0.333333 59:-1 60:-1 61:-1 62:-1 63:-1 64:-1 65:-0.6 66:-0.6 67:-0.333333 69:0.2 70:-0.428571 72:1 78:-0.5 79:-1 80:-1 81:-1 82:-1 83:-1 84:-1 85:-1 86:-1 87:-1 88:-1 89:-0.5 90:1 92:1 104:1 
8 1:-0.777778 2:-1 3:-0.75 4:-0.333333 5:-0.333333 6:-0.333333 7:-0.6 8:-0.777778 9:-1 10:-0.333333 11:-0.333333 12:-0.333333 13:-0.333333 14:-0.6 15:-0.5 16:0.5 17:-0.142857 18:-0.333333 19:-0.333333 20:0.333333 24:-0.111111 25:1 27:0.333333 28:-1 29:-1 30:-1 31:-0.111111 32:-0.333333 33:-1 34:-1 35:-1 36:-0.333333 37:-1 38:-1 39:-1 40:-1 41:-1 42:-0.6 43:1 44:-0.333333 45:-0.333333 46:-0.333333 47:-0.333333 48:-0.5 49:-0.333333 50:-0.333333 51:-0.5 52:-0.5 53:-0.5 54:-0.6 55:-1 56:-1 57:-1 58:-1 59:-1 60:-1 61:-0.333333 62:-1 63:-1 64:-1 65:-0.2 66:0.6 67:-0.111111 68:-0.5 69:-0.2 70:-0.428571 71:1 78:-0.5 79:1 81:1 87:1 89:-0.5 90:1 91:1 99:1 104:1 
6.062695149514209 1:-0.777778 2:-1 3:-0.75 4:-0.333333 5:-0.333333 6:-0.333333 7:-0.6 8:-0.555556 9:0.75 10:-0.333333 11:-0.333333 12:0.333333 13:0.333333 14:-0.6 15:-0.5 16:0.5 17:-0.428571 18:-0.666667 19:-0.333333 20:-0.333333 24:-1 25:-0.6 27:0.111111 28:-1 29:-1 30:-1 31:-1 32:-1 33:-1 34:-1 35:-1 36:-1 37:-1 38:-1 39:-1 40:-0.333333 41:-1 42:-0.2 43:-0.5 44:-0.333333 45:-0.333333 46:0.333333 47:-0.333333 48:-0.5 49:-1 50:-0.333333 51:-0.5 52:-0.5 53:-0.5 54:-0.6 55:-0.333333 56:-1 57:-1 58:-1 59:-1 60:-1 61:-0.111111 62:-1 63:-1 64:-1 65:-0.2 66:0.6 67:1 68:-0.5 69:0.2 70:-0.428571 72:1 73:1 79:1 80:1 87:1 89:0.5 90:1 104:1 
7.037998428419461 1:-0.777778 2:-1 3:-0.75 4:-0.333333 5:-0.333333 6:-0.333333 7:-0.6 8:1 10:1 11:-0.333333 12:0.333333 13:0.333333 14:-0.2 15:-0.5 16:-0.5 17:-0.714286 18:-0.666667 19:-0.333333 20:0.333333 24:-1 25:-0.6 27:0.111111 28:-1 29:-0.111111 30:-1 31:0.111111 32:-0.111111 33:-1 34:-1 35:-0.111111 36:-1 37:-1 38:-1 39:-1 40:-0.333333 41:-1 42:-0.6 43:-0.5 44:-0.333333 45:-0.333333 46:0.333333 47:-0.333333 48:-0.5 49:-0.333333 50:-0.333333 51:-0.5 52:-0.5 53:-0.5 54:-0.6 55:-1 56:-1 57:-1 58:-1 59:-1 60:-1 61:-0.111111 62:-1 63:-1 64:-1 65:-0.6 66:-0.6 67:-0.111111 69:-0.2 70:-0.428571 71:1 72:1 81:1 89:-0.5 90:1 92:1 104:1 
4.560181924315825 1:-0.777778 2:-1 3:-0.75 4:-0.333333 5:-0.333333 6:-0.333333 7:-0.6 8:1 9:-0.25 10:1 11:0.333333 12:0.333333 13:0.333333 14:-0.2 15:-0.5 16:-0.5 17:-0.714286 18:-0.666667 19:-0.333333 20:0.333333 21:1 24:-1 25:-0.6 27:-1 28:-1 29:-0.333333 30:-1 31:-1 32:-1 33:-1 34:-1 35:-1 36:-1 37:-1 38:-1 39:-1 40:-0.333333 41:-1 42:1 43:-0.5 44:-0.333333 45:-0.333333 46:-0.333333 47:-0.333333 48:-0.5 49:-0.333333 50:1 51:-0.5 52:-0.5 53:-0.5 54:-0.6 55:-1 56:-0.5 57:-1 58:-0.555556 59:-1 60:-1 61:-1 62:-1 63:-0.111111 64:-1 65:-0.6 66:-0.6 67:-0.111111 68:-0.5 69:-0.2 70:-0.428571 71:1 79:1 87:1 91:1 92:1 99:1 104:1 
8 1:-0.777778 2:-1 3:-0.75 4:-0.333333 5:-0.333333 6:-0.333333 7:-0.6 8:-0.777778 9:-1 10:-0.333333 11:-0.333333 12:-0.333333 13:-0.333333 14:-0.6 15:-0.5 16:-0.5 17:-0.714286 18:-0.333333 19:-0.333333 20:0.333333 24:-1 25:-0.6 27:-1 28:-1 29:-1 30:-1 31:-1 32:-1 33:-1 34:-1 35:-1 36:-1 37:-1 38:-1 39:-1 40:-1 41:-1 42:-0.6 43:-0.5 44:-0.333333 45:-0.333333 46:-0.333333 47:-0.333333 48:-0.5 49:-0.333333 50:-0.333333 51:-0.5 52:-0.5 53:-0.5 54:-0.6 55:-1 56:-1 57:-1 58:-1 59:-1 60:-1 61:-1 62:-1 63:-1 64:-1 65:-1 66:-1 67:1 68:-0.5 69:0.2 70:-0.428571 71:1 79:1 81:1 92:1 104:1 
8 1:-0.777778 2:-1 3:-0.75 4:-0.333333 5:-0.333333 6:-0.333333 7:-0.6 8:-0.777778 9:-1 10:-0.333333 11:-0.333333 12:-0.333333 13:-0.333333 14:-0.6 15:-0.5 16:-0.5 17:-0.714286 18:-0.666667 19:-0.333333 20:0.333333 24:-1 25:-0.6 27:-1 28:-1 29:-1 30:-1 31:-0.333333 32:-1 33:-0.333333 34:-1 35:-1 36:-1 37:-1 38:-1 39:-1 40:-0.555556 41:-1 42:-0.6 43:-0.5 44:-0.333333 45:-0.333333 46:-0.333333 47:-0.333333 48:-0.5 49:-0.333333 50:-0.333333 51:-0.5 52:-0.5 53:-0.5 54:-0.2 55:-1 56:-1 57:-1 58:-1 59:-1 60:-1 61:-1 62:-1 63:-1 64:-1 65:-1 66:-1 67:-0.111111 69:-0.2 70:-0.428571 71:1 78:-0.5 81:1 89:-0.5 90:1 92:1 104:1 
8 1:-0.777778 2:-1 3:-1 4:-1 5:-1 6:-1 7:-1 8:-1 9:-1 10:-1 11:-1 12:-1 13:-1 14:-0.6 15:-0.5 16:0.5 17:-0.142857 18:-0.333333 19:-0.333333 20:0.333333 24:-0.333333 25:0.6 27:-1 28:-1 29:-1 30:-1 31:-1 32:-1 33:-1 34:-1 35:-1 36:-1 37:-1 38:-1 39:-1 40:-0.555556 41:-1 42:-0.6 43:-0.5 44:-0.333333 45:-0.333333 46:0.333333 47:-0.333333 48:-0.5 49:-0.333333 50:-0.333333 51:-0.5 52:-0.5 53:-0.5 54:-0.6 55:-1 56:-1 57:-1 58:-1 59:-1 60:-1 61:-1 62:-1 63:-1 64:-1 65:-1 66:-1 67:0.777778 69:0.2 70:-0.142857 71:1 79:1 81:1 89:-0.5 90:1 91:1 104:1 
3.302136964745582 1:-0.777778 2:-1 3:-1 4:-1 5:-1 6:-1 7:-1 8:-0.777778 9:-1 10:-1 11:-1 12:-1 13:-1 14:-0.6 15:-0.5 16:-0.5 17:-0.714286 18:-0.666667 19:0.333333 20:-0.333333 24:-1 25:-0.6 27:-1 28:-1 29:-1 30:-1 31:-1 32:-1 33:-1 34:-1 35:-1 36:-1 37:-1 38:-1 39:-1 40:-0.555556 41:-1 42:-0.6 43:-0.5 44:-0.333333 45:-0.333333 46:-0.333333 47:-0.333333 48:-0.5 49:-1 50:-0.333333 51:-0.5 52:-0.5 53:-0.5 54:-0.6 55:-0.555556 56:-1 57:-1 58:-1 59:-1 60:-0.75 61:-0.555556 62:-1 63:-1 64:-1 65:-0.2 66:0.6 67:1 68:-0.5 69:-0.2 70:-0.428571 71:1 72:-1 73:-1 74:-1 75:-1 76:-1 77:-1 78:-0.5 80:-1 81:1 82:-1 83:-1 84:-1 85:-1 86:-1 87:-1 88:-1 89:-0.5 90:1 92:1 104:1 
8 1:-0.777778 2:-1 3:-1 4:-1 5:-1 6:-1 7:-1 8:-0.777778 9:-1 10:-1 11:-1 12:-1 13:-1 14:-0.6 15:-0.5 16:-0.5 17:-0.714286 18:-0.666667 19:-0.333333 20:0.333333 24:-1 25:-0.6 27:-0.333333 28:-1 29:-1 30:-1 31:-1 32:-0.555556 33:-1 34:-0.333333 35:-1 36:-1 37:-1 38:-1 39:-1 40:-0.555556 41:-1 42:-0.6 43:-0.5 44:-0.333333 45:-0.333333 46:0.333333 47:-0.333333 48:-0.5 49:0.333333 50:0.333333 51:-0.5 52:-0.5 53:-0.5 54:-0.6 55:-1 56:-1 57:-1 58:-1 59:-1 60:-1 61:-1 62:-1 63:-1 64:-1 65:-1 66:-1 67:1 68:-0.5 69:-0.2 70:-0.428571 71:1 78:-0.5 81:1 89:-0.5 90:1 104:1 
8 1:-0.777778 2:-1 3:-1 4:-1 5:-1 6:-1 7:-1 8:-0.777778 9:-1 10:-1 11:-1 12:-1 13:-1 14:-0.2 15:-0.5 16:0.5 17:-0.714286 18:-0.666667 19:-0.333333 20:-0.333333 24:-1 25:-0.6 27:-0.333333 28:-1 29:-0.555556 30:-1 31:-1 32:-0.555556 33:-1 34:-0.111111 35:-1 36:-1 37:-1 38:-1 39:-1 40:-0.333333 41:-1 42:-0.6 44:-0.333333 45:-0.333333 46:0.333333 47:-0.333333 48:-1 49:-1 50:-0.333333 51:-0.5 52:-0.5 53:-0.5 54:-0.6 55:-1 56:-1 57:-1 58:-1 59:-1 60:-1 61:-0.333333 62:-1 63:-1 64:-1 65:-0.2 66:0.2 67:-0.111111 69:-0.2 70:-0.428571 71:1 79:1 81:1 89:-0.5 90:1 91:1 92:1 104:1 
8 1:-0.777778 2:-1 3:-1 4:-1 5:-1 6:-1 7:-1 8:-0.777778 9:-1 10:-1 11:-1 12:-1 13:-1 14:-0.6 15:-0.5 16:0.5 17:-0.428571 18:-0.333333 19:-0.333333 20:0.333333 24:-1 25:-0.6 27:-1 28:-1 29:-1 30:-1 31:-0.555556 32:-1 33:-1 34:-1 35:-1 36:-1 37:-1 38:-0.25 39:-1 40:-1 41:-1 42:-0.6 43:-0.5 44:-0.333333 45:-0.333333 46:-0.333333 47:-0.333333 48:-1 49:-1 50:-0.333333 51:-0.5 52:-0.5 53:-0.5 54:-0.6 55:-1 56:-1 57:-1 58:-1 59:-1 60:-1 61:-1 62:-1 63:-1 64:-1 65:-1 66:-1 67:-0.111111 68:-0.5 69:-0.2 70:-0.142857 71:1 78:-0.5 79:1 81:1 92:1 93:1 99:1 104:1 
8 1:-0.777778 2:-1 3:-1 4:-1 5:-1 6:-1 7:-1 8:-0.777778 9:-1 10:-1 11:-1 12:-1 13:-1 14:-0.6 15:-0.5 17:-0.428571 18:-0.666667 19:-0.333333 20:0.333333 24:-1 25:-0.6 27:-0.111111 28:-1 29:-1 30:-1 31:-1 32:-0.555556 33:-1 34:-0.111111 35:-1 36:-1 37:-1 38:-1 39:-1 40:-1 41:-1 42:-0.6 43:-0.5 44:-0.333333 45:-0.333333 46:-0.333333 47:-0.333333 48:-1 49:-1 50:-0.333333 51:-0.5 52:-0.5 53:-0.5 54:-0.6 55:-1 56:-1 57:-1 58:-1 59:-1 60:-1 61:-0.333333 62:-1 63:-1 64:-1 65:-0.2 66:0.6 67:-0.111111 69:-0.2 70:0.428571 73:1 79:1 81:1 89:0.5 90:1 96:1 104:1 
8 1:-0.777778 2:-1 3:-1 4:-1 5:-1 6:-1 7:-1 8:-0.777778 9:-1 10:-1 11:-1 12:-1 13:-1 14:-0.6 15:-0.5 16:-0.5 17:-0.714286 18:-0.666667 19:0.333333 20:-0.333333 24:-1 25:-0.6 27:-1 28:-1 29:-1 30:-1 31:-1 32:-1 33:-1 34:-1 35:-1 36:-1 37:-1 38:-1 39:-1 40:-0.333333 41:-1 42:-0.6 43:-0.5 44:-0.333333 45:-0.333333 46:-0.333333 47:-0.333333 48:-1 49:-1 50:-0.333333 51:-0.5 52:-0.5 53:-0.5 54:-0.2 55:-1 56:-1 57:-1 58:-1 59:-1 60:-1 61:-1 62:-1 63:-1 64:-1 65:-1 66:-1 67:-0.111111 69:-0.2 70:-0.142857 71:1 72:1 78:-0.5 79:1 80:1 92:1 104:1 
8 1:0.111111 2:-0.555556 3:-0.25 4:-0.333333 5:-0.333333 6:-0.333333 7:-0.6 8:-0.777778 9:-1 10:-1 11:-1 12:-1 13:-1 14:-0.6 15:-0.5 16:-0.5 17:-0.714286 18:-0.666667 19:-0.333333 20:-0.333333 24:-1 25:-0.6 26:-1 27:-0.333333 28:-1 29:-1 30:-1 31:-1 32:-0.333333 33:-1 34:-1 35:-1 36:-1 37:-1 38:-1 39:-0.25 40:-1 41:-1 42:-0.6 43:-0.5 44:-0.333333 45:-0.333333 46:-0.333333 47:-0.333333 48:-1 49:-1 50:-1 51:-0.5 52:-0.5 53:-0.5 54:-0.6 55:-1 56:-1 57:-1 58:-1 59:-1 60:-1 61:-1 62:-1 63:-1 64:-1 65:-1 66:-1 67:1 68:-0.5 69:-0.2 70:-0.428571 72:1 78:-0.5 79:1 81:1 89:-0.5 92:1 104:1 
8 1:-0.777778 2:-1 3:-1 4:-1 5:-1 6:-1 7:-1 8:-0.777778 9:-1 10:-1 11:-1 12:-1 13:-1 14:-0.6 15:-0.5 16:0.5 17:-0.428571 18:-0.666667 19:-0.333333 20:0.333333 24:-1 25:-0.6 27:-1 28:-1 29:-1 30:-1 31:-1 32:-1 33:-1 34:-1 35:-1 36:-1 37:-1 38:-0.25 39:-1 40:-1 41:-1 42:-0.6 44:-0.333333 45:-0.333333 46:0.333333 47:-0.333333 48:-1 49:0.333333 50:-0.333333 51:-0.5 52:-0.5 53:-0.5 54:-0.6 55:-1 56:-1 57:-1 58:-1 59:-1 60:-1 61:-1 62:-1 63:-1 64:-1 65:-1 66:-1 67:-0.333333 69:-0.2 70:-0.142857 71:1 78:-0.5 79:1 81:1 89:-0.5 90:1 91:1 92:1 104:1 
2.096569480104411 1:0.555556 2:-0.555556 3:1 4:-0.333333 5:-0.333333 6:-0.333333 7:-0.6 8:-0.777778 9:-1 10:-1 11:-1 12:-1 13:-1 14:-0.6 15:-0.5 16:0.5 17:-0.714286 18:-0.666667 19:-0.333333 20:0.333333 24:-0.555556 25:-0.2 27:0.333333 28:-0.777778 29:-0.777778 30:-0.777778 31:-0.555556 32:-0.777778 33:-0.555556 34:-0.111111 35:-1 36:-1 37:-1 38:-0.25 39:-1 40:-1 41:-1 42:-0.6 43:-0.5 44:-0.333333 45:-0.333333 46:-0.333333 47:-0.333333 48:-1 49:-1 50:-0.333333 51:-0.5 52:-0.5 53:-0.5 54:-0.6 55:-1 56:-1 57:-1 58:-1 59:-1 60:-1 61:-1 62:-1 63:-1 64:-1 65:-1 66:-1 67:0.777778 68:-0.5 69:-0.2 70:-0.428571 71:1 81:1 90:1 91:1 104:1 
7.876289874425774 1:-0.777778 2:-1 3:-1 4:-1 5:-1 6:-1 7:-1 8:-0.777778 9:-1 10:-1 11:-1 12:-1 13:-1 14:-0.6 15:-0.5 16:-0.5 17:-0.714286 18:-0.666667 19:0.333333 20:-0.333333 24:-1 25:-0.6 27:-0.333333 28:-0.333333 29:-0.333333 30:-1 31:-1 32:-1 33:-1 34:-0.333333 35:-1 36:-1 37:-1 38:-1 39:-0.25 40:-0.333333 41:-1 42:-0.6 43:-0.5 44:-0.333333 45:-0.333333 46:-0.333333 47:-0.333333 48:-1 49:-1 50:-0.333333 51:-0.5 52:-0.5 53:-0.5 54:-0.6 55:-1 56:-1 58:-0.333333 59:-1 60:-1 61:-1 62:-1 63:-1 64:-0.333333 65:-0.2 66:0.6 67:-0.555556 69:-0.6 70:-0.428571 72:1 73:1 78:-0.5 81:1 89:-0.5 92:1 104:1 
8 1:-0.777778 2:-1 3:-1 4:-1 5:-1 6:-1 7:-1 8:-0.777778 9:-1 10:-1 11:-1 12:-1 13:-1 14:-0.6 15:-0.5 16:-0.5 17:-0.714286 18:-0.666667 19:0.333333 20:-0.333333 24:-1 25:-0.6 27:-0.333333 28:-1 29:-1 30:-1 31:-1 32:-1 33:-1 34:-1 35:-1 36:-1 37:-1 38:-1 39:-1 40:-1 41:-1 42:-0.6 43:-0.5 44:-0.333333 45:-0.333333 46:-0.333333 47:-0.333333 48:-1 49:-1 50:-0.333333 51:-0.5 52:-0.5 53:-0.5 54:-0.6 55:-1 56:-0.25 57:-1 58:-1 59:-1 60:-1 61:-0.555556 62:-1 63:-1 64:-1 65:-0.6 66:-0.6 67:-0.111111 69:-0.2 70:-0.428571 71:1 78:-0.5 81:1 89:-0.5 90:1 99:1 104:1 
2.391433645926197 1:-0.777778 2:-1 3:-1 4:-1 5:-1 6:-1 7:-1 8:-0.777778 9:-1 10:-1 11:-1 12:-1 13:-1 14:-0.6 15:-0.5 16:0.5 17:-0.714286 18:-0.666667 19:0.333333 20:-0.333333 24:-0.777778 25:-0.6 26:-1 27:-0.333333 28:0.111111 29:-1 30:-1 31:-1 32:-1 33:-1 34:0.111111 35:-1 36:-1 37:-1 38:-1 39:-0.25 40:-0.333333 41:-1 42:-0.6 43:-0.5 44:-0.333333 45:-0.333333 46:-0.333333 47:-0.333333 48:-1 49:-1 50:0.333333 51:-0.5 52:-0.5 53:-0.5 54:-0.2 55:-0.333333 56:-1 57:-1 58:-1 59:-1 60:-1 61:-1 62:-1 63:-1 64:-0.333333 65:-0.2 66:-0.2 67:-0.777778 69:-0.2 70:-0.714286 72:1 78:-0.5 81:1 89:-0.5 90:1 92:1 104:1 
8 1:-0.555556 2:-0.333333 3:-0.25 4:1 5:0.333333 6:-0.333333 7:-0.6 8:-0.777778 9:-1 10:-1 11:-1 12:-1 13:-1 14:-0.2 15:-0.5 16:-0.5 17:-0.428571 18:-0.666667 19:0.333333 20:-0.333333 24:-1 25:-0.6 27:-0.333333 28:-0.333333 29:-1 30:-0.333333 31:-1 32:-1 33:-0.333333 34:-1 35:-1 36:-1 37:-1 38:-1 39:-1 40:0.111111 41:-1 42:-0.6 43:-0.5 44:-0.333333 45:-0.333333 46:-0.333333 47:-0.333333 48:-0.5 49:-1 50:-0.333333 51:-0.5 52:-0.5 53:-0.5 54:0.2 55:-0.333333 56:-1 57:-1 58:-1 59:-1 60:-1 61:-1 62:-1 63:-1 64:-1 65:-1 66:-1 67:-0.111111 69:-0.2 70:-0.142857 76:1 78:-0.5 81:1 87:1 91:1 104:1 
8 1:-0.777778 2:-1 3:-1 4:-1 5:-1 6:-1 7:-1 8:-0.777778 9:-1 10:-1 11:-1 12:-1 13:-1 14:-0.6 16:0.5 17:-0.142857 18:-0.666667 19:0.333333 20:-0.333333 24:-1 25:-0.6 27:0.111111 28:-0.333333 29:-0.333333 30:-0.333333 31:-0.333333 32:-1 33:-1 34:-0.333333 35:-1 36:-1 37:-1 38:-1 39:-1 40:-0.333333 41:-1 42:-0.6 43:-0.5 44:-0.333333 45:-0.333333 46:-0.333333 47:-0.333333 48:-0.5 49:-1 50:-0.333333 51:-0.5 52:-0.5 53:-0.5 54:0.2 55:-1 56:-1 57:-1 58:-1 59:-1 60:-1 61:-1 62:-1 63:-1 64:-0.333333 65:-1 66:-1 67:-0.777778 69:-0.6 70:-1 72:1 78:-0.5 89:-0.5 92:1 104:1 
8 1:-0.333333 2:-0.333333 3:-0.25 4:-0.333333 5:-0.333333 6:-0.333333 7:-0.6 8:-0.777778 9:-1 10:-1 11:-1 12:-1 13:-1 14:-0.6 15:-0.5 16:-0.5 17:-0.714286 18:-0.666667 19:-0.333333 20:-0.333333 24:-1 25:-0.6 27:-0.555556 28:-1 29:-1 30:-1 31:-1 32:-1 33:-1 34:-1 35:-1 36:-1 37:-1 38:-1 39:-1 40:-1 41:-1 42:-0.6 43:-0.5 44:-0.333333 45:-0.333333 46:-0.333333 47:-0.333333 48:-0.5 49:-1 50:-0.333333 51:-0.5 52:-0.5 53:-0.5 54:-0.6 55:-0.555556 56:-1 57:-1 58:-1 59:-1 60:-1 61:-1 62:-1 63:-1 64:-1 65:-1 66:-1 67:-0.111111 69:-0.2 70:-0.428571 71:1 78:-0.5 81:1 89:-0.5 90:1 99:1 104:1 
5.043369136147203 1:-0.777778 2:-1 3:-1 4:-1 5:-1 6:-1 7:-1 8:-0.777778 9:-1 10:-1 11:-1 12:-1 13:-1 14:-0.6 15:-0.5 16:-0.5 17:-0.714286 18:-0.666667 19:0.333333 20:-0.333333 24:-1 25:-0.6 27:-0.333333 28:-1 29:-1 30:-1 31:-1 32:-1 33:-1 34:-1 35:-1 36:-1 37:-1 38:-1 39:-1 40:-1 41:-1 42:-1 43:-1 44:-1 45:-1 46:-1 47:-1 48:-1 49:-1 50:-0.333333 51:-0.5 52:-0.5 53:-0.5 54:-0.6 55:-0.555556 56:-0.75 57:-1 58:-1 59:-1 60:-1 61:-0.333333 62:-1 63:-1 64:-1 65:-0.2 66:0.6 67:-0.111111 69:0.2 70:-0.428571 72:1 78:-0.5 80:1 82:1 83:1 84:1 85:1 86:1 87:1 88:1 89:-0.5 93:1 99:1 104:1 
7.679244591960824 1:0.333333 2:-0.111111 3:0.75 4:-0.333333 5:-0.333333 6:-0.333333 7:0.2 8:-0.777778 9:-1 10:-1 11:-1 12:-1 13:-1 14:-0.6 15:-0.5 16:0.5 17:-0.714286 18:-0.666667 19:-0.333333 20:-0.333333 24:-1 25:-0.6 27:-0.555556 28:-1 29:-1 30:-1 31:-1 32:-1 33:-1 34:-1 35:-1 36:-1 37:-1 38:-1 39:-1 40:-1 41:-1 42:-0.6 43:-0.5 44:-0.333333 45:-0.333333 46:-0.333333 47:-0.333333 48:-1 49:-1 50:-0.333333 51:-0.5 52:-0.5 53:-0.5 54:-0.6 55:-1 56:-1 57:-1 58:-1 59:-1 60:-1 61:-1 62:-1 63:-1 64:-1 65:-1 66:-1 67:1 69:-0.2 70:-0.428571 71:1 78:-0.5 81:1 89:-0.5 90:1 104:1 
8 1:-0.333333 2:-1 3:-1 4:-1 5:-1 6:-1 7:-1 8:-0.777778 9:-1 10:-1 11:-1 12:-1 13:-1 14:-0.6 16:-0.5 17:-0.142857 18:-0.333333 19:0.333333 20:-0.333333 24:-1 25:-0.6 27:-1 28:-1 29:-1 30:-1 31:-1 32:-1 33:-1 34:-1 35:-1 36:-1 37:-1 38:-1 39:-1 40:-1 41:-1 42:-0.6 43:-0.5 44:-0.333333 45:-0.333333 46:0.333333 47:-0.333333 48:-1 49:-1 50:-0.333333 51:-0.5 52:-0.5 53:-0.5 54:-0.6 55:-1 56:-1 57:-1 58:-1 59:-1 60:-1 61:-1 62:-1 63:-1 64:-1 65:-1 66:-1 67:-0.111111 69:-0.2 70:-0.428571 71:1 78:-0.5 81:1 89:-0.5 91:1 104:1 
8 1:-0.777778 2:-1 3:-1 4:-1 5:-1 6:-1 7:-1 8:-0.777778 9:-1 10:-1 11:-1 12:-1 13:-1 14:-0.6 15:-0.5 16:-0.5 17:-0.714286 18:-0.666667 19:-0.333333 20:-0.333333 24:-1 25:-0.6 27:-1 28:-1 29:-1 30:-1 31:-1 32:-1 33:-1 34:-1 35:-1 36:-1 37:-1 38:-1 39:-1 40:-1 41:-1 42:-0.6 43:-0.5 44:-0.333333 45:-0.333333 46:-0.333333 47:-0.333333 48:-1 49:-1 50:-0.333333 51:-0.5 52:-0.5 53:-0.5 54:-0.6 55:-1 56:-1 57:-1 58:-1 59:-1 60:-1 61:-1 62:-1 63:-1 64:-1 65:-1 66:-1 67:0.555556 69:-0.2 70:0.714286 77:1 78:-0.5 81:1 89:-0.5 90:1 91:1 99:1 104:1 
8 1:0.555556 2:-0.555556 4:-0.333333 5:-0.333333 6:-0.333333 7:-0.6 8:0.777778 9:-0.5 10:-0.333333 11:-0.333333 12:-0.333333 13:-0.333333 14:-0.2 15:-0.5 16:-0.5 17:-0.714286 18:-0.666667 19:0.333333 20:-0.333333 24:-1 25:-0.6 27:-0.777778 28:-1 29:-1 30:-1 31:-0.777778 32:-1 33:-1 34:-0.111111 35:-1 36:-1 37:-1 38:-1 39:-1 40:-1 41:-1 42:-0.2 43:-0.5 44:-0.333333 45:-0.333333 46:-0.333333 47:-0.333333 48:-1 49:-1 50:-0.333333 51:-0.5 52:-0.5 53:-0.5 54:-0.2 55:-1 56:-1 58:-1 59:-1 60:-1 61:-1 62:-1 63:-1 64:-1 65:-1 66:-1 67:-0.111111 69:-0.2 70:0.714286 71:1 79:1 88:1 89:-1 90:1 104:1 
8 1:0.333333 2:-0.555556 3:0.75 4:-0.333333 5:-0.333333 6:-0.333333 7:-0.6 8:0.111111 9:-0.5 10:-0.333333 11:-0.333333 12:-0.333333 13:-0.333333 14:-0.6 15:-0.5 16:-0.5 17:-0.714286 18:-0.666667 19:-0.333333 20:-0.333333 24:-1 25:-0.6 27:-0.333333 28:-1 29:-1 30:-0.333333 31:-0.333333 32:-1 33:-0.555556 34:-0.111111 35:-1 36:-1 37:-1 38:-1 39:-1 40:-1 41:-1 42:-0.6 43:-0.5 44:-0.333333 45:-0.333333 46:-0.333333 47:-0.333333 48:-1 49:-1 50:-0.333333 51:-0.5 52:-0.5 53:-0.5 54:-0.6 55:-1 56:-1 57:-1 58:-1 59:-1 60:-1 61:-0.333333 62:-1 63:-1 64:-1 65:-1 66:-1 67:1 68:-0.5 69:-0.2 70:0.714286 71:1 79:1 87:1 89:-0.5 90:1 104:1 
8 1:0.111111 2:-0.333333 3:-0.25 4:-0.333333 5:-0.333333 6:-0.333333 7:-0.6 8:0.111111 9:-0.25 10:-0.333333 11:-0.333333 12:-0.333333 13:-0.333333 14:-0.6 15:-0.5 16:-0.5 17:-0.714286 18:-1 19:0.333333 20:-0.333333 24:-1 25:-0.6 26:-1 27:-1 28:-1 29:-0.333333 30:-0.333333 31:-1 32:-1 33:-1 34:0.111111 35:-1 36:-1 37:-1 38:-1 39:-1 40:-0.333333 41:-1 42:-0.6 43:-0.5 44:-0.333333 45:-0.333333 46:0.333333 47:-0.333333 48:-0.5 49:-1 50:-1 51:-0.5 52:-0.5 53:-0.5 54:0.2 55:-1 56:-0.25 57:-1 58:-1 59:-1 60:-1 61:-1 62:-1 63:-1 64:-1 65:-1 66:-1 67:-0.111111 69:0.6 70:-0.142857 72:1 78:-0.5 79:1 80:1 87:1 89:-0.5 90:1 104:1 
8 1:0.333333 2:-0.333333 4:-0.333333 5:-0.333333 6:-0.333333 7:-0.6 8:-1 9:-1 10:-0.333333 11:0.333333 12:-0.333333 13:-0.333333 14:-0.6 15:-0.5 16:-0.5 17:-0.714286 18:-0.666667 19:0.333333 20:-0.333333 24:-1 25:-0.6 27:-1 28:-1 29:-1 30:-1 31:-0.333333 32:-1 33:-1 34:-1 35:-1 36:-1 37:-1 38:-0.25 39:-1 40:-0.333333 41:-1 42:-0.6 43:-0.5 44:-0.333333 45:-0.333333 46:-0.333333 47:-0.333333 48:-1 49:-1 50:-0.333333 51:-0.5 52:-0.5 53:-0.5 54:-0.2 55:-1 56:-1 57:-1 58:-1 59:-1 60:-1 61:-1 62:-1 63:-1 64:-1 65:-1 66:-1 67:-0.111111 69:0.6 70:-0.142857 72:1 78:-0.5 79:1 80:1 85:1 87:1 92:1 104:1 
8 1:0.555556 2:-1 3:-0.25 4:-0.333333 5:-0.333333 6:-0.333333 7:-0.6 8:-0.777778 9:-1 10:-0.333333 11:-0.333333 12:-0.333333 13:-0.333333 14:-0.6 15:-0.5 16:-0.5 17:-0.714286 18:-0.666667 19:0.333333 20:-0.333333 24:-1 25:-0.6 27:-1 28:-1 29:-1 30:-1 31:-1 32:-1 33:-1 34:-1 35:-1 36:-1 37:-1 38:-1 39:-1 40:-1 41:-1 42:-0.6 43:-0.5 44:-0.333333 45:1 46:0.333333 47:-0.333333 48:-1 49:-1 50:-0.333333 51:-0.5 52:-0.5 53:-0.5 54:-0.6 55:-1 56:-1 58:-0.333333 59:-1 60:-1 61:-1 62:-1 63:-1 64:-1 65:-1 66:-1 67:-0.777778 69:0.2 70:-0.142857 76:1 78:-0.5 81:1 89:-0.5 92:1 104:1 
8 1:-0.777778 2:-1 3:-0.75 4:-0.333333 5:-0.333333 6:-0.333333 7:-0.6 8:0.333333 9:-1 10:-0.333333 11:-0.333333 12:-0.333333 13:-0.333333 14:-0.6 15:-0.5 17:-0.714286 18:-0.666667 19:0.333333 20:-0.333333 24:-1 25:-0.6 27:-0.333333 28:-0.333333 29:-0.333333 30:-1 31:-1 32:0.111111 33:-1 34:-1 35:-1 36:-0.333333 37:-1 38:-1 39:-1 40:-1 41:-1 42:-0.6 43:-0.5 44:-0.333333 45:-0.333333 46:-0.333333 47:-0.333333 48:-1 49:-1 50:1 51:-0.5 52:-0.5 53:-0.5 54:-0.2 55:-1 56:-1 57:-1 58:-1 59:-1 60:-1 61:-1 62:-1 63:-1 64:-1 65:-1 66:-1 67:-0.111111 69:0.2 70:-0.142857 71:1 78:-0.5 79:1 87:1 89:-0.5 92:1 104:1 
8 1:-0.777778 2:-1 3:-1 4:-1 5:-1 6:-1 7:-1 8:-0.777778 9:-1 10:-1 11:-1 12:-1 13:-1 14:-0.6 15:0.5 16:-0.5 17:-0.142857 18:-0.333333 19:-0.333333 20:-0.333333 24:-1 25:-0.6 27:0.333333 28:-1 29:-0.333333 30:-1 31:-1 32:-0.111111 33:-1 34:-1 35:-1 36:-1 37:-1 38:-1 39:-1 40:-1 41:-1 42:0.2 43:-0.5 44:-0.333333 45:-0.333333 46:0.333333 47:-0.333333 48:-0.5 49:-0.333333 50:-0.333333 51:-0.5 52:-0.5 53:-0.5 54:-0.2 55:-0.333333 56:-1 57:-1 58:-1 59:-1 60:-1 61:-1 62:-1 63:-1 64:-1 65:-0.2 66:0.2 67:-0.111111 69:-0.2 70:-0.428571 76:1 78:-0.5 79:1 87:1 91:1 95:1 104:1 
8 1:-0.777778 2:-1 3:-0.75 4:-0.333333 5:-0.333333 6:-0.333333 7:-0.6 8:-0.777778 9:-1 10:-0.333333 11:-0.333333 12:-0.333333 13:-0.333333 14:-0.6 15:-0.5 16:-0.5 17:-0.714286 18:-0.666667 19:0.333333 20:-0.333333 24:-1 25:-0.6 27:-1 28:-1 29:-1 30:-1 31:-1 32:-1 33:-1 34:-1 35:-1 36:-1 37:-1 38:-1 39:-0.25 40:-0.333333 41:-1 42:-0.6 43:-0.5 44:-0.333333 45:-0.333333 46:-1 47:-0.333333 48:-0.5 49:-1 50:-1 51:-0.5 52:-0.5 53:-0.5 54:0.6 55:-1 56:-1 57:-1 58:-1 59:-1 60:-1 61:-1 62:-1 63:-1 64:-1 65:-0.2 66:0.2 67:-0.777778 69:0.2 70:-0.142857 76:1 78:-0.5 79:1 81:1 89:-0.5 92:1 104:1 
8 1:-0.777778 2:-1 3:-0.75 4:-0.333333 5:-0.333333 6:-0.333333 7:-0.6 8:-0.777778 9:-1 10:-0.333333 11:-0.333333 12:-0.333333 13:-0.333333 14:-0.6 16:-0.5 17:-0.714286 18:-0.333333 19:0.333333 20:-0.333333 24:-1 25:-0.6 27:-0.333333 28:-1 29:-0.333333 30:-0.333333 31:-1 32:-0.333333 33:-1 34:-1 35:-0.333333 36:-0.333333 37:-1 38:-1 39:-1 40:-0.333333 41:-1 42:-0.6 43:-0.5 44:-0.333333 45:-0.333333 46:-0.333333 47:-0.333333 48:-1 49:-1 50:-0.333333 51:-0.5 52:-0.5 53:-0.5 54:-0.6 55:-1 56:-1 58:-0.333333 59:-1 60:-1 61:-1 62:-1 63:-1 64:-1 65:-0.6 66:-0.6 67:1 68:-0.5 69:0.6 70:-0.142857 72:1 78:-0.5 79:1 81:1 89:-0.5 90:1 92:1 104:1 
8 1:-0.777778 2:-1 3:-0.75 4:-0.333333 5:-0.333333 6:-0.333333 7:-0.6 8:-0.777778 9:-1 10:-0.333333 11:-0.333333 12:-0.333333 13:-0.333333 14:-0.2 15:-0.5 16:0.5 17:-0.428571 18:-0.666667 19:0.333333 20:-0.333333 24:-1 25:-0.6 27:-1 28:-1 29:-1 30:-1 31:-1 32:-0.333333 33:-1 34:-1 35:1 36:-1 37:-1 38:-1 39:-1 40:0.777778 41:-1 42:-0.6 43:-0.5 44:-0.333333 45:-0.333333 46:-0.333333 47:-0.333333 48:-0.5 49:-1 50:-0.333333 51:-0.5 52:-0.5 53:-0.5 54:-0.6 55:-1 56:-1 57:-1 58:-0.111111 59:-1 60:-1 61:-1 62:-1 63:0.333333 64:-1 65:-0.2 66:0.2 67:0.777778 68:-0.5 69:0.6 70:-0.428571 72:1 78:0.5 79:1 80:1 87:1 90:1 91:1 104:1 
8 1:-0.777778 2:-1 3:-0.75 4:-0.333333 5:-0.333333 6:-0.333333 7:-0.6 8:-0.777778 9:-1 10:-0.333333 11:-0.333333 12:-0.333333 13:-0.333333 14:-0.2 15:-0.5 16:-0.5 17:-0.142857 18:-0.333333 19:-0.333333 20:0.333333 24:-1 25:-0.6 27:-0.111111 28:-1 29:-1 30:-0.333333 31:-1 32:-1 33:-1 34:-0.333333 35:-1 36:-1 37:-1 38:-1 39:-0.5 40:-1 41:-1 42:-0.6 43:-0.5 44:-0.333333 45:-0.333333 46:-0.333333 47:-0.333333 48:-0.5 49:-0.333333 50:-0.333333 51:-0.5 52:-0.5 53:-0.5 54:-0.6 55:-1 56:-1 57:-1 58:-1 59:-1 60:-1 61:-0.333333 62:-1 63:-1 64:-1 65:-0.2 66:0.2 67:0.555556 69:0.2 70:-0.428571 71:1 78:-0.5 81:1 89:-0.5 90:1 91:1 99:1 104:1 
8 1:-0.777778 2:-1 3:-0.75 4:-0.333333 5:-0.333333 6:-0.333333 7:-0.6 8:-0.777778 9:-1 10:-0.333333 11:-0.333333 12:-0.333333 13:-0.333333 14:-0.6 15:-0.5 16:-0.5 17:-0.714286 18:-0.666667 19:0.333333 20:-0.333333 24:-1 25:-0.6 27:-0.333333 28:-1 29:-1 30:-1 31:-1 32:-1 33:-1 34:-1 35:-1 36:-0.333333 37:-1 38:-1 39:-1 40:-0.333333 41:-1 42:-0.6 43:-0.5 44:0.333333 45:-0.333333 46:-0.333333 47:-0.333333 48:-0.5 49:-1 50:-1 51:-0.5 52:-0.5 53:-0.5 54:-0.6 55:-1 56:-1 57:-1 58:-1 59:-1 60:-1 61:-1 62:-1 63:-1 64:-1 65:-1 66:-1 67:-0.111111 69:-0.2 70:-0.142857 75:1 78:-0.5 79:1 87:1 89:-0.5 92:1 104:1 
8 1:-0.777778 2:-1 3:-0.75 4:-0.333333 5:-0.333333 6:-0.333333 7:-0.6 8:-0.777778 9:-1 10:-0.333333 11:-0.333333 12:-0.333333 13:-0.333333 14:-0.6 15:-0.5 16:-0.5 17:-0.714286 18:-0.666667 19:-0.333333 20:0.333333 24:-1 25:-0.6 27:-1 28:-1 29:-1 30:-1 31:-1 32:-1 33:-1 34:-1 35:-0.555556 36:-1 37:-1 38:-1 39:-1 40:-1 41:-1 42:-0.6 43:-0.5 44:-0.333333 45:-0.333333 46:0.333333 47:-0.333333 48:-1 49:-1 50:-0.333333 51:-0.5 52:-0.5 53:-0.5 54:-0.6 55:-1 56:-1 57:-1 58:-0.111111 59:-1 60:-1 61:-0.111111 62:-1 63:-1 64:-1 65:0.2 66:-0.6 67:-0.555556 69:-0.2 70:-0.142857 71:1 79:1 87:1 89:-0.5 90:1 91:1 104:1 
8 1:-0.777778 2:-1 3:-0.75 4:-0.333333 5:-0.333333 6:-0.333333 7:-0.6 8:-0.777778 9:-0.5 10:-0.333333 11:-0.333333 12:0.333333 13:0.333333 14:-0.2 15:-0.5 16:0.5 17:-0.428571 18:-0.666667 19:0.333333 20:0.333333 24:-1 25:-0.6 27:-1 28:-1 29:-1 30:-1 31:-1 32:-0.333333 33:-1 34:-1 35:-1 36:-1 37:-1 38:-1 39:-1 40:-0.333333 41:-1 42:-0.2 43:-0.5 44:-0.333333 45:-0.333333 46:0.333333 47:-0.333333 48:-0.5 49:-1 50:-0.333333 51:-0.5 52:-0.5 53:-0.5 54:-0.6 55:-1 56:-1 57:-1 58:-1 59:-1 60:-1 61:-1 62:-1 63:-1 64:-1 65:-1 66:-1 67:0.555556 69:-0.2 70:-0.428571 71:1 78:-0.5 81:1 89:0.5 91:1 92:1 104:1 
8 1:-0.777778 2:-1 3:-0.75 4:-0.333333 5:-0.333333 6:-0.333333 7:-0.6 8:0.333333 10:-0.333333 11:-0.333333 12:-0.333333 13:-0.333333 14:-0.6 15:-0.5 16:0.5 17:-0.714286 18:-0.666667 19:-0.333333 20:-0.333333 24:-1 25:-0.6 27:-0.333333 28:-1 29:-1 30:-1 31:-1 32:-1 33:-1 34:-1 35:-1 36:-1 37:-1 38:-1 39:-1 40:-1 41:-1 42:-0.6 43:-0.5 44:-0.333333 45:-0.333333 46:-0.333333 47:-0.333333 48:-0.5 49:-0.333333 50:-0.333333 51:-0.5 52:-0.5 53:-0.5 54:-0.6 55:-1 56:-1 57:-1 58:-1 59:-1 60:-1 61:-1 62:-1 63:-1 64:-1 65:-0.6 66:-0.6 67:0.555556 69:-0.2 70:0.714286 71:1 78:-0.5 79:1 87:1 89:0.5 90:1 91:1 104:1 
7.133328683199466 1:0.111111 2:0.333333 4:-0.333333 5:-0.333333 6:-0.333333 7:-0.6 8:-0.777778 9:-1 10:-0.333333 11:-0.333333 12:-0.333333 13:-0.333333 14:-0.6 16:-0.5 17:-0.714286 18:-0.333333 19:-0.333333 20:-0.333333 22:1 24:-0.111111 25:0.6 27:-0.333333 28:-0.555556 29:0.111111 30:-1 31:-1 32:-1 33:-1 34:0.333333 35:-1 36:0.555556 37:-0.555556 39:-1 40:-0.333333 41:-1 42:-0.6 43:-0.5 44:-0.333333 45:-0.333333 46:-0.333333 47:-0.333333 48:-0.5 49:-0.333333 50:-0.333333 51:-0.5 52:-0.5 53:-0.5 54:-0.6 55:-0.111111 56:-1 57:-1 58:-1 59:-1 60:0.75 61:0.111111 62:-1 63:-1 64:-1 65:-0.6 66:-0.6 67:-0.111111 69:-0.2 70:-0.142857 73:1 78:0.5 79:1 81:1 90:1 104:1 
4.679471648190492 1:-0.777778 2:-1 3:-0.75 4:-0.333333 5:-0.333333 6:-0.333333 7:-0.6 8:-0.777778 9:-1 10:-0.333333 11:-0.333333 12:-0.333333 13:-0.333333 14:-0.6 16:-0.5 17:-0.142857 19:-0.333333 20:-0.333333 24:-1 25:-0.6 27:0.111111 28:-1 29:-1 30:-1 31:-1 32:-1 33:-1 34:0.111111 35:-1 36:-1 37:-1 38:-1 39:-0.25 40:0.555556 41:-1 42:-0.2 43:-0.5 44:-0.333333 45:-0.333333 46:0.333333 47:-0.333333 48:-0.5 49:-0.333333 50:1 51:-0.5 52:-0.5 53:-0.5 54:0.2 55:-0.111111 56:-1 57:-1 58:-1 59:-1 60:-1 61:-1 62:-1 63:-0.111111 64:0.333333 65:0.2 66:0.6 67:-0.111111 69:0.2 70:-0.428571 72:1 73:1 78:-0.5 79:1 81:1 88:1 89:0.5 92:1 96:1 104:1 
2.046117957821017 1:0.777778 2:-0.333333 3:-0.25 4:-0.333333 5:-0.333333 6:1 7:0.2 8:-0.777778 9:-1 10:-0.333333 11:-0.333333 12:-0.333333 13:-0.333333 14:-0.6 17:0.142857 18:-0.333333 19:-0.333333 20:0.333333 24:-1 25:-0.6 27:-1 28:-1 29:-1 30:-1 31:-1 32:-1 33:-1 34:-1 35:-1 36:-1 37:0.111111 38:0.25 39:-1 40:-0.333333 41:-1 42:-0.6 43:-0.5 44:-0.333333 45:-0.333333 46:-0.333333 47:-0.333333 48:-0.5 49:-0.333333 50:-0.333333 51:-0.5 52:-0.5 53:-0.5 54:-0.6 55:0.111111 56:-0.25 58:-1 59:-1 60:-1 61:-1 62:-1 63:-0.333333 64:0.111111 65:-0.6 66:-0.6 67:-0.777778 68:-0.5 69:1 70:-0.428571 72:1 73:1 74:1 78:-0.5 79:1 80:1 83:1 87:1 89:-0.5 91:1 104:1 
3.755691847293405 1:0.111111 2:0.777778 4:-0.333333 5:-0.333333 6:-0.333333 7:-0.6 8:0.111111 9:0.75 10:-0.333333 11:-0.333333 12:0.333333 13:0.333333 14:-0.6 15:-0.5 16:-0.5 17:-0.714286 18:-0.666667 19:-0.333333 20:0.333333 24:-1 25:-0.6 27:-0.111111 28:-1 29:-1 30:-1 31:-1 32:-1 33:-0.111111 34:-1 35:-1 36:-1 37:-1 38:0.5 39:-1 40:-0.333333 41:-1 42:-0.6 43:-0.5 44:-0.333333 45:-0.333333 46:-0.333333 47:-0.333333 48:-0.5 49:0.333333 50:-0.333333 51:-0.5 52:-0.5 53:-0.5 54:-0.6 55:0.111111 56:0.25 58:-1 59:-1 60:-1 61:-1 62:-1 63:-1 64:-1 65:0.2 66:-0.6 67:-0.111111 69:0.6 70:-0.142857 71:1 79:1 81:1 89:-0.5 92:1 99:1 104:1 
8 1:-0.777778 2:-1 3:-0.75 4:-0.333333 5:-0.333333 6:-0.333333 7:-0.6 8:-0.777778 9:-1 10:-0.333333 11:-0.333333 12:-0.333333 13:-0.333333 14:-0.6 15:-0.5 16:0.5 17:-0.428571 18:-0.333333 19:-0.333333 20:0.333333 22:1 24:-0.555556 25:0.6 27:-0.333333 28:-0.333333 29:-1 30:-1 31:-1 32:-1 33:-1 34:-1 35:-0.333333 36:-1 37:-1 38:-1 39:-1 40:-1 41:-0.2 42:-0.2 43:-0.5 44:-0.333333 45:-0.333333 46:-0.333333 47:-0.333333 48:-0.5 49:-0.333333 50:-0.333333 51:-0.5 52:-0.5 53:-0.5 54:0.6 55:-1 56:-1 57:-1 58:-1 59:-1 60:-1 61:-1 62:-1 63:-1 64:-1 65:-0.6 66:-0.6 67:1 69:0.2 70:0.428571 73:1 78:0.5 79:1 87:1 90:1 104:1 
8 1:0.555556 2:0.111111 3:-0.5 4:1 5:1 6:0.333333 7:-0.2 8:-0.777778 9:-1 10:-0.333333 11:-0.333333 12:-0.333333 13:-0.333333 14:-0.6 16:-0.5 17:-0.428571 18:-0.333333 19:-0.333333 20:-0.333333 24:-1 25:-0.6 27:-0.333333 28:-1 29:-0.777778 30:-1 31:-1 32:-1 33:-1 34:-1 35:-1 36:-1 37:-1 38:-1 39:-1 40:0.555556 41:-1 42:0.6 43:-0.5 44:-0.333333 45:-0.333333 46:-0.333333 47:-0.333333 48:-0.5 49:-0.333333 50:-0.333333 51:-0.5 52:-0.5 53:-0.5 54:-0.6 55:-1 56:-1 57:-1 58:-1 59:-1 60:-1 61:-1 62:-1 63:-1 64:-1 65:-0.6 66:-0.6 67:-0.777778 69:0.2 70:-0.142857 71:1 78:0.5 79:1 87:1 92:1 104:1 
8 1:0.555556 2:-0.333333 4:-0.333333 5:-0.333333 6:-0.333333 7:-0.6 8:0.555556 9:-0.25 10:-0.333333 11:-0.333333 12:-0.333333 13:-0.333333 14:-0.6 16:-0.5 17:-0.142857 18:-0.333333 19:0.333333 20:-0.333333 24:-1 25:-0.6 27:0.111111 28:-1 29:-1 30:-1 31:-1 32:-1 33:-1 34:-1 35:-1 36:-1 37:-1 38:-1 39:-1 40:-1 41:-1 42:-0.6 43:-0.5 44:-0.333333 45:-0.333333 46:-0.333333 47:-0.333333 48:-0.5 49:-0.333333 50:-0.333333 51:-0.5 52:-0.5 53:-0.5 54:-0.6 55:-1 56:-1 57:-1 58:-1 59:-1 60:-1 61:-1 62:-1 63:-1 64:-1 65:-0.6 66:-0.6 67:-0.111111 69:0.2 70:-0.142857 72:1 78:-0.5 79:1 80:1 87:1 89:-0.5 92:1 104:1 
2.558047298040994 1:0.111111 2:-0.333333 3:-0.25 4:-0.333333 5:-0.333333 6:0.333333 7:-0.6 8:0.111111 9:-0.25 10:1 11:0.333333 12:0.333333 13:0.333333 14:-0.6 15:-0.5 17:-0.714286 18:-0.666667 19:-0.333333 20:0.333333 24:-1 25:-0.6 27:-0.555556 28:-1 29:-1 30:-1 31:-1 32:-1 33:-1 34:-1 35:-1 36:-1 37:-1 38:-1 39:-1 40:-1 41:-1 42:-0.6 43:-0.5 44:-0.333333 45:-0.333333 46:0.333333 47:-0.333333 48:1 49:-0.333333 50:-0.333333 51:-0.5 52:-0.5 53:-0.5 54:-0.6 55:-1 56:-1 57:-1 58:-1 59:-1 60:-1 61:-1 62:-1 63:-1 64:-1 65:-0.6 66:-0.6 67:0.555556 69:-0.2 70:-0.428571 73:1 78:-0.5 79:1 87:1 89:-0.5 90:1 92:1 104:1 
2.012358849770618 1:1 2:0.111111 4:-0.333333 5:-0.333333 6:-0.333333 7:0.2 8:1 10:-0.333333 11:-0.333333 12:0.333333 13:0.333333 14:-0.6 15:0.5 16:-0.5 17:-0.142857 18:-0.333333 19:-0.333333 20:0.333333 24:-1 25:-0.6 27:0.111111 28:-1 29:-1 30:-1 31:-1 32:-0.111111 33:-0.555556 34:0.111111 35:-1 36:-1 37:-1 39:-1 40:-1 41:-1 42:-0.6 43:-0.5 44:-0.333333 45:-0.333333 46:-0.333333 47:-0.333333 48:1 49:0.333333 50:-0.333333 51:-0.5 52:-0.5 53:-0.5 54:-0.6 55:-1 56:-1 57:-1 58:-1 59:-1 60:-1 61:-0.111111 62:-1 63:-1 64:-1 65:-0.6 66:-0.6 67:0.333333 69:-0.2 70:-0.142857 71:1 78:-0.5 79:1 88:1 89:-0.5 92:1 99:1 104:1 
8 1:0.555556 2:-0.333333 3:-0.25 4:-0.333333 5:-0.333333 6:-0.333333 7:0.2 8:-0.777778 9:-1 10:-0.333333 11:-0.333333 12:-0.333333 13:-0.333333 14:-0.2 15:-0.5 16:-0.5 17:-0.714286 18:-0.666667 19:0.333333 20:0.333333 24:-1 25:-0.6 27:-1 28:-1 29:-1 30:-1 31:-0.111111 32:-1 33:-0.111111 34:-0.111111 35:-1 36:-1 37:-1 38:-1 39:-0.25 40:-1 41:-1 42:-0.6 43:-0.5 44:-0.333333 45:-0.333333 46:-0.333333 47:-0.333333 48:1 49:-0.333333 50:-0.333333 51:-0.5 52:-0.5 53:-0.5 54:-0.6 55:-1 56:-1 57:-1 58:-1 59:-1 60:-1 61:-0.111111 62:-1 63:-0.111111 64:-1 65:-0.6 66:-0.6 67:-0.111111 68:-0.5 69:-0.2 70:-0.142857 71:1 79:1 87:1 90:1 104:1 
8 1:0.333333 2:-0.333333 3:-0.5 4:-0.333333 5:-0.333333 6:-0.333333 7:-0.6 8:-0.555556 9:-0.25 10:-0.333333 11:-0.333333 12:-0.333333 13:-0.333333 14:-0.6 15:-0.5 16:0.5 17:-0.142857 18:-0.666667 19:0.333333 20:-0.333333 24:-1 25:-0.6 27:-0.333333 28:-1 29:-0.333333 30:-0.333333 31:-1 32:-1 33:-1 34:-0.333333 35:-1 36:-0.333333 37:-1 38:-1 39:-0.25 40:-0.333333 41:-1 42:-0.6 43:-0.5 44:-0.333333 45:-0.333333 46:-0.333333 47:-0.333333 48:-0.5 49:-0.333333 50:-0.333333 51:-0.5 52:-0.5 53:-0.5 54:-0.2 55:-1 56:-1 57:-1 58:-1 59:-1 60:-1 61:-1 62:-1 63:-1 64:-1 65:-0.2 66:0.2 67:-0.777778 69:-0.6 70:-0.714286 72:1 78:-0.5 79:1 87:1 89:-0.5 92:1 104:1 
8 1:0.111111 2:-0.555556 3:-0.25 4:-0.333333 5:-0.333333 6:-0.333333 7:-0.6 8:-0.777778 9:-1 10:-0.333333 11:-0.333333 12:-0.333333 13:-0.333333 14:-0.6 15:-0.5 16:1 17:-0.714286 18:-0.666667 19:0.333333 20:-0.333333 24:-1 25:-0.6 27:-0.333333 28:-1 29:-1 30:-1 31:-1 32:-1 33:-1 34:-1 35:-0.111111 36:-1 37:-1 38:-1 39:-1 40:-1 41:-1 42:-0.6 43:-0.5 44:-0.333333 45:-0.333333 46:-0.333333 47:-0.333333 48:-0.5 49:-0.333333 50:-0.333333 51:-0.5 52:-0.5 53:-0.5 54:-0.6 55:-1 56:-1 57:-1 58:-1 59:-1 60:-1 61:-1 62:-1 63:-1 64:-1 65:-0.6 66:-0.6 67:-0.111111 68:-0.5 69:-0.2 70:-0.142857 72:1 74:1 78:0.5 79:1 81:1 89:-0.5 90:1 91:1 104:1 
8 1:-0.777778 2:-1 3:-0.75 4:-0.333333 5:-0.333333 6:-0.333333 7:-0.6 8:0.333333 9:0.25 10:-0.333333 11:-0.333333 12:0.333333 13:-0.333333 14:0.2 15:-0.5 16:0.5 17:-0.428571 18:-0.666667 19:-0.333333 20:0.333333 24:-0.777778 25:-0.6 27:-1 28:-1 29:-1 30:-1 31:-1 32:-1 33:-1 34:-1 35:-1 36:-1 37:-1 38:-1 39:-1 40:0.111111 41:-1 42:-0.6 43:-0.5 44:-0.333333 45:-0.333333 46:-0.333333 47:-0.333333 48:-0.5 49:-0.333333 50:-0.333333 51:-0.5 52:-0.5 53:-0.5 54:-0.6 55:-1 56:-1 57:-1 58:-1 59:-1 60:-1 61:-1 62:-1 63:-1 64:-1 65:-0.6 66:-0.6 67:-0.111111 69:0.6 70:-0.428571 73:1 78:-0.5 79:1 81:1 89:-0.5 90:1 104:1 
4.834671911857927 1:0.111111 2:0.555556 4:-0.333333 5:-0.333333 6:-0.333333 7:-0.6 8:-0.777778 9:-1 10:-0.333333 11:-0.333333 12:0.333333 13:-0.333333 14:-0.6 15:-0.5 16:-0.5 17:0.428571 18:-0.666667 19:-0.333333 20:-0.333333 24:-1 25:-0.6 27:-1 28:-0.111111 29:-1 30:-1 31:-1 32:-1 33:-1 34:-1 35:-1 36:-1 37:-1 38:-1 39:-1 40:-1 41:-1 42:-0.2 43:-0.5 44:-0.333333 45:-0.333333 46:-0.333333 47:-0.333333 48:-0.5 49:-0.333333 50:-0.333333 51:-0.5 52:-0.5 53:-0.5 54:-0.6 55:-1 56:-1 57:-1 58:-1 59:-1 60:-1 61:-1 62:-1 63:-1 64:-1 65:-0.6 66:-0.6 67:-0.111111 69:0.2 70:-0.428571 71:1 78:-0.5 81:1 89:0.5 90:1 94:1 104:1 
8 1:-0.777778 2:-1 3:-0.75 4:-0.333333 5:-0.333333 6:-0.333333 7:-0.6 8:-0.777778 9:-1 10:-0.333333 11:-0.333333 12:-0.333333 13:-0.333333 14:-0.2 15:-0.5 16:0.5 17:-0.428571 18:-0.333333 19:-0.333333 20:-0.333333 24:-1 25:-0.6 27:-0.777778 28:-1 29:-1 30:-1 31:-1 32:-1 33:-1 34:-1 35:-1 36:-1 37:-1 38:-1 39:-1 40:-1 41:-1 42:-0.6 43:-0.5 44:-0.333333 45:-0.333333 46:-0.333333 47:-0.333333 48:-0.5 49:-0.333333 50:1 51:-0.5 52:-0.5 53:-0.5 54:-0.2 55:-1 56:-1 57:-1 58:-1 59:-1 60:-1 61:-1 62:-1 63:-0.333333 64:-1 65:-0.2 66:0.2 67:0.555556 69:0.2 70:-0.142857 72:1 78:0.5 81:1 84:1 89:-0.5 90:1 96:1 104:1 
5.523756756636298 1:-0.777778 2:-1 3:-0.75 4:-0.333333 5:-0.333333 6:-0.333333 7:-0.6 8:-0.777778 9:-1 10:-0.333333 11:-0.333333 12:-0.333333 13:-0.333333 14:-0.2 15:-0.5 16:-0.5 17:0.142857 18:-0.666667 19:-0.333333 20:-0.333333 24:-1 25:-0.6 26:1 27:-1 28:-1 29:-1 30:-1 31:0.333333 32:-1 33:-1 34:-1 35:0.777778 36:-1 37:-1 38:-1 39:-1 40:-1 41:-1 42:-0.6 43:-0.5 44:-0.333333 45:-0.333333 46:-0.333333 47:-0.333333 48:-0.5 49:-0.333333 50:1 51:-0.5 52:-0.5 53:-0.5 54:0.6 55:-1 56:-1 58:-0.333333 59:-1 60:-1 61:-1 62:-1 63:-1 64:-1 65:-0.2 66:0.2 67:-0.111111 69:-0.2 70:-0.428571 76:1 81:1 88:-1 89:-0.5 95:1 96:1 104:1 
8 1:0.111111 2:-0.333333 3:-0.25 4:-0.333333 5:-0.333333 6:-0.333333 7:-0.6 8:-0.777778 9:-1 10:-0.333333 11:-0.333333 12:-0.333333 13:-0.333333 14:-0.6 15:-0.5 16:0.5 17:0.714286 18:-0.666667 19:-0.333333 20:-0.333333 24:-0.555556 25:0.6 27:-1 28:-1 29:-1 30:-1 31:-1 32:-1 33:-1 34:-1 35:-1 36:-1 37:-1 38:-1 39:-1 40:-1 41:-1 42:-0.6 43:-0.5 44:-0.333333 45:-0.333333 46:-0.333333 47:-0.333333 48:-0.5 49:-0.333333 50:-0.333333 51:-0.5 52:-0.5 53:-0.5 54:-0.6 55:-0.555556 56:-1 57:-1 58:-1 59:-1 60:-1 61:-1 62:-1 63:-1 64:-1 65:-0.6 66:-0.6 67:-0.111111 69:0.2 70:-0.428571 71:1 81:1 89:-0.5 104:1 
2.206300075607611 1:0.111111 2:-0.555556 3:-0.25 4:-0.333333 5:-0.333333 6:-0.333333 7:-0.2 8:-0.777778 9:-1 10:-0.333333 11:-0.333333 12:-0.333333 13:-0.333333 14:-0.6 15:-0.5 16:0.5 17:1 18:-0.666667 19:0.333333 20:-0.333333 24:-1 25:-0.6 27:-0.555556 28:-0.555556 29:-1 30:-1 31:-1 32:-1 33:-1 34:-1 35:-1 36:-1 37:-1 38:-1 39:-1 40:-1 41:-1 42:-0.6 43:-0.5 44:-0.333333 45:-0.333333 46:-0.333333 47:-0.333333 48:-0.5 49:-0.333333 50:-0.333333 51:-0.5 52:-0.5 53:-0.5 54:-0.6 55:-1 56:-1 57:-1 58:-1 59:-1 60:-1 61:-1 62:-1 63:-1 64:-1 65:-0.6 66:-0.6 67:1 69:-0.2 70:-0.714286 73:1 78:-0.5 81:1 89:-0.5 104:1 
8 1:-0.777778 2:-1 3:-0.75 4:-0.333333 5:-0.333333 6:-0.333333 7:-0.6 8:-0.777778 9:-1 10:-0.333333 11:-0.333333 12:-0.333333 13:-0.333333 14:-0.6 15:-0.5 16:0.5 17:-0.714286 18:-0.666667 19:-0.333333 20:-0.333333 24:-1 25:-0.6 27:-1 28:-1 29:-1 30:-1 31:-1 32:-1 33:-1 34:-1 35:-1 36:-1 37:-1 38:-1 39:-1 40:-0.333333 41:-1 42:-0.2 43:-0.5 44:0.333333 45:-0.333333 46:-0.333333 47:-0.333333 48:-0.5 49:-0.333333 50:-0.333333 51:-0.5 52:-0.5 53:-0.5 54:-0.2 55:-1 56:-0.5 57:-1 58:-1 59:-1 60:-1 61:-0.333333 62:-0.5 63:-1 64:-1 65:-0.6 66:-0.6 67:1 69:-0.2 70:-0.714286 73:1 78:-0.5 87:1 89:-0.5 97:1 104:1 
7.54209676132942 1:0.111111 2:-0.333333 3:-0.25 4:-0.333333 5:-0.333333 6:-0.333333 7:-0.6 8:0.111111 9:-1 10:-0.333333 11:-0.333333 12:-0.333333 13:-0.333333 14:-0.6 15:-0.5 16:0.5 17:-0.714286 18:-0.666667 19:-0.333333 20:-0.333333 24:-0.777778 25:-0.6 27:-0.333333 28:-0.333333 29:-0.555556 30:-0.333333 31:-1 32:-0.555556 33:-0.333333 34:-0.555556 35:-1 36:-1 37:-1 38:-0.25 39:-0.5 40:-1 41:-1 42:-0.6 43:0.5 44:-0.333333 45:0.333333 46:0.333333 47:-0.333333 49:-0.333333 50:-0.333333 51:-0.5 52:-0.5 53:-0.5 54:-0.6 55:-1 56:-1 57:-1 58:-1 59:-1 60:-1 61:-1 62:-1 63:-1 64:-1 65:-1 66:0.6 67:-0.111111 69:0.2 70:-0.142857 74:1 78:0.5 81:1 89:-0.5 104:1 
8 1:-0.777778 2:-1 3:-0.75 4:-0.333333 5:-0.333333 6:-0.333333 7:-0.6 8:-0.777778 9:-1 10:-0.333333 11:-0.333333 12:-0.333333 13:-0.333333 14:-0.6 16:0.5 17:-0.714286 18:-0.666667 19:-0.333333 20:-0.333333 21:1 24:-1 25:-0.6 27:-1 28:-1 29:-1 30:-1 31:-1 32:-1 33:-1 34:-1 35:-1 36:-1 37:-1 38:-1 39:-1 40:-0.333333 41:-1 42:-0.6 43:-0.5 44:-0.333333 45:-0.333333 46:-0.333333 47:-0.333333 48:-0.5 49:-0.333333 50:-0.333333 51:-0.5 52:-0.5 53:-0.5 54:-0.6 55:-1 56:-1 57:-1 58:-1 59:-1 60:-1 61:-1 62:-1 63:-1 64:-1 65:-0.6 66:0.6 67:-0.333333 69:0.2 70:-0.142857 73:1 78:-0.5 81:1 89:-0.5 104:1 
6.036150596869732 1:0.555556 2:-0.555556 3:-0.75 4:-0.333333 5:-0.333333 6:-0.333333 7:-0.6 8:-0.777778 9:-1 10:-0.333333 11:-0.333333 12:-0.333333 13:-0.333333 14:-0.6 15:-0.5 16:0.5 17:-0.428571 18:-0.666667 19:-0.333333 20:-0.333333 24:-1 25:-0.6 27:0.111111 28:-0.333333 29:-1 30:-1 31:-1 32:-0.333333 33:-1 34:-1 35:-1 36:-1 37:-1 38:-1 39:-1 40:-0.111111 41:-1 42:-0.6 43:-0.5 44:-0.333333 45:-0.333333 46:-0.333333 47:-0.333333 48:-0.5 49:-0.333333 50:0.333333 51:-1 52:-0.5 53:1 54:0.6 55:-0.333333 56:-1 57:-1 58:-1 59:-1 60:0.25 61:-0.111111 62:-1 63:-1 64:0.333333 65:-0.6 66:0.6 67:-0.111111 69:-0.2 70:-0.428571 71:1 78:-0.5 81:1 89:-0.5 92:1 93:1 104:1 
8 1:-0.777778 2:-1 3:-0.75 4:-0.333333 5:-0.333333 6:-0.333333 7:-0.6 8:-0.777778 9:-1 10:-0.333333 11:-0.333333 12:-0.333333 13:-0.333333 14:-0.6 15:-0.5 16:0.5 17:0.142857 19:-0.333333 20:-0.333333 24:-1 25:-0.6 27:-0.111111 28:-1 29:0.111111 30:-1 31:-1 32:-1 33:-1 34:-1 35:-1 36:-1 37:-1 38:-1 39:-1 40:-1 41:-1 42:-0.2 43:-0.5 44:-0.333333 45:-0.333333 46:-0.333333 47:-0.333333 48:-0.5 49:-0.333333 50:-0.333333 51:-0.5 52:-0.5 53:-0.5 54:0.6 55:-1 56:-1 57:-1 58:-1 59:-1 60:-1 61:0.555556 62:-1 63:-1 64:-0.555556 65:0.6 66:0.6 67:-0.111111 69:0.2 70:-0.428571 71:1 78:0.5 79:1 80:1 89:-0.5 93:1 99:1 100:1 104:1 
5.977677485367515 1:-0.777778 2:-1 3:-0.75 4:-0.333333 5:-0.333333 6:-0.333333 7:-0.6 8:-0.777778 9:-1 10:-0.333333 11:-0.333333 12:-0.333333 13:-0.333333 14:-0.6 15:-0.5 16:-0.5 17:0.142857 18:-0.666667 19:-0.333333 20:-0.333333 24:-1 25:-0.6 27:-0.777778 28:0.555556 29:-0.555556 30:-1 31:-1 32:-1 33:-1 34:-1 35:-1 36:0.555556 37:-1 38:-1 39:-1 40:-1 41:-1 42:-1 44:-0.333333 45:-0.333333 46:-0.333333 47:0.333333 48:-0.5 49:-0.333333 50:-0.333333 51:-0.5 52:-0.5 53:-0.5 54:-0.6 55:-0.111111 56:-0.25 57:-1 58:-1 59:-1 60:-1 61:0.111111 62:-1 63:-1 64:-1 65:-0.6 66:0.6 67:-0.111111 69:0.2 70:0.142857 76:1 79:1 80:1 89:-0.5 91:1 96:1 104:1 
6.171753168754452 1:-0.777778 2:-1 3:-0.75 4:-0.333333 5:-0.333333 6:-0.333333 7:-0.6 8:-0.777778 9:0.25 10:-0.333333 11:-0.333333 12:-0.333333 13:-0.333333 14:-0.2 16:0.5 17:-0.714286 18:-0.666667 19:0.333333 20:-0.333333 24:-1 25:-0.6 27:0.111111 28:-0.111111 29:-1 30:-1 31:-1 32:-1 33:-1 34:0.111111 35:-0.333333 36:-1 37:-1 38:-1 39:-1 40:0.333333 41:-1 42:-0.2 43:-0.5 44:-0.333333 45:-0.333333 46:-0.333333 47:-0.333333 48:-0.5 49:-0.333333 50:-0.333333 51:-0.5 52:-0.5 53:-0.5 54:-0.6 55:-1 56:-1 57:-1 58:-1 59:-1 60:-1 61:-1 62:-1 63:-1 64:-1 65:-0.2 66:0.6 67:-0.777778 69:-0.2 70:-0.428571 71:1 78:-0.5 79:1 81:1 89:-0.5 90:1 92:1 104:1 
5.389314107653786 1:0.111111 2:-0.555556 3:-0.25 4:-0.333333 5:-0.333333 6:-0.333333 7:-0.6 8:-0.777778 9:-1 10:1 11:-0.333333 12:-0.333333 13:-0.333333 14:-0.6 15:-0.5 16:-0.5 17:-0.714286 18:-0.666667 19:-0.333333 20:-0.333333 24:-1 25:-0.6 27:-1 28:-1 29:-1 30:-1 31:-1 32:-0.555556 33:-1 34:-1 35:-1 36:-1 37:-1 38:-1 39:-1 40:-0.555556 41:-1 42:-0.6 43:-0.5 44:-0.333333 45:-0.333333 46:-0.333333 47:-0.333333 48:-0.5 49:-0.333333 50:-0.333333 51:-0.5 52:-0.5 53:-0.5 54:-0.6 55:-1 56:-1 57:-1 58:-1 59:-1 60:-1 61:-1 62:-1 63:-1 64:-1 65:-0.6 66:-0.6 67:0.777778 69:-0.2 70:-0.142857 76:1 78:0.5 88:1 89:-0.5 90:1 100:1 104:1 
5.93136977275138 1:-0.777778 2:-1 3:-0.75 4:-0.333333 5:-0.333333 6:-0.333333 7:-0.6 8:-0.777778 9:-1 10:-0.333333 11:-0.333333 12:-0.333333 13:-0.333333 14:-0.6 16:-0.5 17:-0.142857 18:-0.666667 19:-0.333333 20:-0.333333 24:-0.111111 25:0.6 27:-0.333333 28:-1 29:-1 30:-1 31:-1 32:-1 33:-0.111111 34:-1 35:-1 36:-0.111111 37:-1 38:-1 39:-1 40:-0.555556 41:-1 42:-0.6 43:-0.5 44:-0.333333 45:1 46:-0.333333 47:-0.333333 48:-0.5 49:-0.333333 50:-0.333333 51:-0.5 52:-0.5 53:-0.5 54:-0.6 55:-1 56:-1 57:-1 58:-0.555556 59:-1 60:-1 61:-0.333333 62:-1 63:-1 64:-1 65:-0.6 66:0.6 67:0.333333 68:-0.5 69:0.6 70:-0.428571 72:1 81:1 89:0.5 91:1 96:1 104:1 
8 1:-0.777778 2:-0.555556 3:-0.75 4:-0.333333 5:-0.333333 6:-0.333333 7:-0.6 8:-0.777778 9:-1 10:-0.333333 11:-0.333333 12:-0.333333 13:-0.333333 14:-0.2 16:0.5 17:-0.142857 18:-0.333333 19:-0.333333 20:0.333333 24:-1 25:-0.2 27:-0.333333 28:-0.555556 29:-0.555556 30:-1 31:-1 32:-1 33:-1 34:-0.333333 35:-1 36:-1 37:-1 38:-1 39:-0.25 40:-1 41:-1 42:-0.2 43:-0.5 44:-0.333333 45:1 46:0.333333 47:-0.333333 48:-0.5 49:-0.333333 50:-0.333333 51:-0.5 52:-0.5 53:-0.5 54:-0.2 55:-0.333333 56:-0.75 57:-0.333333 58:-0.333333 59:-1 60:-1 61:-1 62:-1 63:-1 64:-1 65:-1 66:-0.2 67:-0.111111 69:0.2 70:-0.142857 71:1 76:1 78:-0.5 79:1 80:1 104:1 
8 1:-0.777778 2:-1 3:-0.75 4:-0.333333 5:-0.333333 6:-0.333333 7:-0.6 8:-0.777778 9:-1 10:-0.333333 11:-0.333333 12:-0.333333 13:-0.333333 14:-0.6 15:-0.5 16:-0.5 17:-0.714286 18:-0.666667 19:-0.333333 20:0.333333 24:-1 25:-0.6 27:-0.555556 28:-1 29:-1 30:-1 31:-1 32:-0.555556 33:-1 34:-1 35:-1 36:-1 37:-1 38:-1 39:-1 40:-1 41:-1 42:-0.6 43:-0.5 44:-0.333333 45:0.333333 46:-0.333333 47:-0.333333 48:-0.5 49:-0.333333 50:-0.333333 51:-0.5 52:-0.5 53:-0.5 54:-0.6 55:-0.555556 56:-1 57:-1 58:-1 59:-1 60:-1 61:-1 62:-1 63:-1 64:-1 65:-0.6 66:-0.6 67:1 68:-0.5 69:1 70:1 71:1 78:-0.5 89:-0.5 90:1 104:1 
8 1:-0.777778 2:-1 3:-0.75 4:-0.333333 5:-0.333333 6:-0.333333 7:-0.6 8:0.333333 9:-0.5 10:-0.333333 11:-0.333333 12:-0.333333 13:-0.333333 14:-0.2 15:-0.5 16:-0.5 17:-0.428571 18:-0.666667 19:-0.333333 20:0.333333 24:-1 25:-0.6 27:-1 28:-1 29:-1 30:-1 31:-1 32:-1 33:-1 34:-1 35:-1 36:-1 37:-1 38:-1 39:-1 40:-0.555556 41:-1 42:-0.6 43:-0.5 44:-0.333333 45:-0.333333 46:-0.333333 47:-0.333333 48:-0.5 49:-0.333333 50:-0.333333 51:-0.5 52:-0.5 53:-0.5 54:-0.2 55:-0.555556 56:-1 57:-1 58:-1 59:-1 60:-1 61:-1 62:-1 63:-1 64:-1 65:-0.6 66:-0.6 67:-0.111111 69:-0.6 70:-0.428571 72:1 79:1 81:1 89:-0.5 92:1 93:1 104:1 
3.451756539231417 1:1 2:-0.777778 3:-0.75 4:-0.333333 5:-0.333333 6:-0.333333 7:-0.6 8:-0.333333 9:-0.25 10:1 11:-0.333333 12:0.333333 13:0.333333 14:-0.6 15:-0.5 16:-0.5 17:-0.714286 18:-0.666667 19:-0.333333 20:-0.333333 24:-1 25:-0.6 27:-0.555556 28:-1 29:-1 30:-1 31:-1 32:-0.333333 33:-0.333333 34:-1 35:-1 36:-1 37:-1 38:-1 39:-1 40:-1 41:-1 42:-0.2 43:-0.5 44:-0.333333 45:0.333333 46:-0.333333 47:-0.333333 48:-1 49:-0.333333 50:-0.333333 51:-0.5 52:-0.5 53:-0.5 54:-0.6 55:-1 57:-1 58:-1 59:0.142857 60:-1 61:-1 62:-1 63:-1 64:-1 65:-0.2 66:0.6 67:-0.111111 68:1 69:-0.2 70:-0.142857 76:1 78:-0.5 80:1 89:-0.5 104:1 
7.425905346775629 1:-0.777778 2:-1 3:-0.75 4:-0.333333 5:-0.333333 6:-0.333333 7:-0.6 8:-0.777778 9:-1 10:-0.333333 11:-0.333333 12:-0.333333 13:-0.333333 14:-0.6 15:-0.5 16:-0.5 17:0.142857 19:0.333333 20:-0.333333 24:-1 25:-0.6 27:0.333333 28:-1 29:-1 30:-1 31:-1 32:-1 33:-1 34:0.111111 35:0.333333 36:-1 37:-1 38:-1 39:-1 40:-1 41:-1 42:-0.6 43:-0.5 44:-0.333333 45:-0.333333 46:-0.333333 47:-0.333333 48:-0.5 49:-0.333333 50:-0.333333 51:-0.5 52:-0.5 53:-0.5 54:-0.6 55:0.333333 57:-1 58:-1 59:-1 60:-1 61:-1 62:-1 63:0.555556 64:-1 65:-0.2 66:0.2 67:-0.111111 69:-0.2 70:-0.428571 73:1 74:1 83:1 89:0.5 92:1 96:1 104:1 
8 1:-0.777778 2:-1 3:-0.75 4:-0.333333 5:-0.333333 6:-0.333333 7:-0.6 8:-0.777778 9:-1 10:-0.333333 11:-0.333333 12:-0.333333 13:-0.333333 14:-0.6 16:-0.5 17:0.142857 18:-0.333333 19:-0.333333 20:-0.333333 24:-1 25:-0.6 27:0.333333 28:-0.333333 29:-0.555556 30:-1 31:-1 32:-1 33:-1 34:-0.333333 35:-1 36:-1 37:-1 38:-1 40:-1 41:-1 42:-0.2 43:-0.5 44:-0.333333 45:-0.333333 46:-0.333333 47:-0.333333 48:-0.5 49:-0.333333 50:-0.333333 51:-0.5 52:-0.5 53:-0.5 54:-0.2 55:-1 56:-1 57:-1 58:-1 59:-1 60:-0.5 61:-1 62:-1 63:-1 64:-1 65:-0.6 66:-0.6 67:-0.777778 69:0.2 70:0.714286 71:1 79:1 81:1 85:1 89:-0.5 92:1 104:1 
8 1:-0.777778 2:-1 3:-0.75 4:-0.333333 5:-0.333333 6:-0.333333 7:-0.6 8:-0.777778 9:-1 10:-0.333333 11:-0.333333 12:-0.333333 13:-0.333333 14:-0.6 15:1 16:-0.5 17:-0.142857 18:-0.666667 19:-0.333333 20:-0.333333 24:-1 25:-0.6 27:-1 28:-1 29:-1 30:-1 31:-1 32:-1 33:-1 34:-1 35:-1 36:-1 37:-1 38:-1 39:-1 40:-1 41:-1 42:-0.2 43:-0.5 44:-0.333333 45:-0.333333 46:-0.333333 47:-0.333333 48:-0.5 49:-0.333333 50:-0.333333 51:-0.5 52:-0.5 53:-0.5 54:-0.6 55:-0.333333 56:-1 57:-1 58:-1 59:-1 60:-1 61:-1 62:-1 63:-1 64:-1 65:0.2 66:0.2 67:-0.111111 69:0.2 70:-0.428571 71:1 78:-0.5 79:1 80:1 89:-0.5 90:1 104:1 
6.324087898814667 1:-0.777778 2:-1 3:-0.75 4:-0.333333 5:-0.333333 6:-0.333333 7:-0.6 8:-0.777778 9:-1 10:-0.333333 11:-0.333333 12:-0.333333 13:-0.333333 14:-0.2 15:-0.5 16:0.5 17:0.142857 18:-0.333333 19:0.333333 20:-0.333333 24:-0.555556 25:-0.6 27:-1 28:-1 29:-1 30:-1 31:-1 32:-1 33:-1 34:-1 35:-1 36:-1 37:-1 38:-1 39:-1 40:0.777778 41:-1 42:-0.6 43:-0.5 44:-0.333333 45:-0.333333 46:-0.333333 47:-0.333333 48:-0.5 49:-0.333333 50:-0.333333 51:-0.5 52:-0.5 53:-0.5 54:-0.2 55:-0.777778 56:-0.75 57:-0.666667 58:-0.777778 59:-0.714286 60:-0.75 61:-0.111111 62:-0.75 63:-0.777778 64:0.111111 65:-0.6 66:-0.6 67:-0.111111 69:-0.6 70:-0.714286 72:1 73:1 74:1 79:1 80:1 83:1 89:0.5 92:1 96:1 104:1 
3.597822009601161 1:0.555556 2:0.555556 3:-0.5 4:-0.333333 5:-0.333333 6:0.333333 7:-0.6 8:-0.777778 9:-1 10:-0.333333 11:-0.333333 12:-0.333333 13:-0.333333 14:-0.6 15:-0.5 16:0.5 17:0.142857 18:-0.666667 19:-0.333333 20:-0.333333 21:1 22:1 24:-1 25:-0.6 27:-1 28:-0.333333 29:-1 30:-1 31:-1 32:-1 33:-1 34:-1 35:-1 36:-1 37:-1 39:-1 40:-0.333333 41:-1 42:-0.6 43:-0.5 44:-0.333333 45:-0.333333 46:-0.333333 47:-0.333333 48:-0.5 49:-0.333333 50:0.333333 51:-0.5 52:-0.5 53:-0.5 54:0.6 55:-0.555556 56:-1 57:-1 58:-1 59:-1 60:-1 61:-1 62:-1 63:-1 64:-1 65:-0.6 66:-0.6 67:-0.111111 69:-0.2 70:-0.142857 72:1 77:1 79:1 81:1 89:-0.5 90:1 104:1 
1.408855861600574 1:-0.777778 2:-1 3:-0.75 4:-0.333333 5:-0.333333 6:-0.333333 7:0.2 8:0.555556 9:0.5 10:-0.333333 11:-0.333333 12:1 13:0.333333 14:-0.6 16:-0.5 17:-0.142857 18:-0.333333 19:0.333333 20:-0.333333 24:-1 25:-0.6 27:0.111111 28:-0.555556 29:-1 30:0.333333 31:-1 32:0.111111 33:-1 34:0.111111 35:0.111111 36:-1 37:-1 38:-1 39:0.25 40:-1 41:-1 42:-0.2 43:-0.5 44:-0.333333 45:1 46:-0.333333 47:-0.333333 48:-0.5 49:-0.333333 50:-0.333333 51:-0.5 52:-0.5 53:-0.5 54:-0.6 55:-1 56:-1 57:-1 58:-1 59:-1 60:-1 61:-1 62:-1 63:-1 64:0.111111 65:0.2 66:0.2 67:-0.111111 69:0.2 70:-0.428571 71:-1 72:1 73:1 79:1 80:1 83:1 87:1 91:1 92:1 104:1 
3.611444191284639 1:0.555556 2:0.777778 3:-0.5 4:1 5:1 6:-0.333333 7:0.2 8:0.777778 9:0.75 10:-0.333333 11:-0.333333 12:-0.333333 13:-0.333333 14:-0.6 15:-0.5 16:-0.5 17:-0.428571 18:-0.666667 19:-0.333333 20:-0.333333 24:-1 25:-0.6 27:-0.333333 28:-0.333333 29:-0.333333 30:-0.333333 31:-0.111111 32:0.333333 33:-1 34:0.111111 35:-0.333333 36:-1 37:-1 38:-0.25 39:-0.25 40:-0.333333 41:-1 42:-0.6 43:-0.5 44:-0.333333 45:-0.333333 46:-0.333333 47:-0.333333 48:-0.5 49:-0.333333 50:-0.333333 51:-0.5 52:-0.5 53:-0.5 54:0.6 55:0.333333 56:-0.25 58:-0.333333 59:-0.142857 60:-1 61:0.777778 62:-1 63:-1 64:0.333333 65:-0.2 66:0.2 67:-0.333333 69:-0.6 70:-0.142857 72:1 73:1 78:-0.5 79:1 80:1 87:1 104:1 
8 1:-0.777778 2:-1 3:-0.75 4:-0.333333 5:-0.333333 6:-0.333333 7:-0.6 8:-0.777778 9:-1 10:-0.333333 11:-0.333333 12:-0.333333 13:-0.333333 14:-0.2 15:-0.5 16:0.5 17:0.142857 19:-0.333333 20:-0.333333 24:-1 25:-0.6 27:-1 28:-1 29:-1 30:-1 31:-1 32:-0.333333 33:0.333333 34:-1 35:-1 36:-1 37:-1 38:-1 39:-1 40:-1 41:-1 42:-0.2 43:-0.5 44:0.333333 45:-0.333333 46:-0.333333 47:-0.333333 48:-0.5 49:-0.333333 50:0.333333 51:-0.5 52:-0.5 53:-0.5 54:-0.6 55:-0.111111 56:-1 57:-1 58:-1 59:-1 60:-1 61:-1 62:-1 63:-1 64:-1 65:0.2 66:0.2 67:-0.111111 69:-0.6 70:-0.428571 71:1 76:1 78:-0.5 79:1 81:1 89:-0.5 93:1 104:1 
7.920949397002288 1:-0.777778 2:-1 3:-0.75 4:-0.333333 5:-0.333333 6:-0.333333 7:-0.6 8:0.111111 9:-0.25 10:1 11:-0.333333 12:-0.333333 13:1 14:-0.6 15:-0.5 16:-0.5 17:-0.428571 18:-0.666667 19:-0.333333 20:-0.333333 24:-1 25:-0.6 27:-0.333333 28:-1 29:-1 30:-1 31:-0.333333 32:-1 33:-1 34:-0.333333 35:-1 36:-1 37:-1 38:-1 39:-1 40:-0.333333 41:-1 42:-0.6 43:-0.5 44:-0.333333 45:-0.333333 46:-0.333333 47:-0.333333 48:-0.5 49:-0.333333 50:-0.333333 51:-0.5 52:-0.5 53:-0.5 54:-0.6 55:-1 56:-1 57:-1 58:-1 59:-1 60:-1 61:-1 62:-1 63:-0.111111 64:-1 65:-1 66:0.6 67:1 68:-0.5 69:-0.2 70:-0.142857 73:1 78:-0.5 79:1 81:1 89:-0.5 104:1 
5.88765963051514 1:0.555556 2:-0.777778 3:-0.25 4:-0.333333 5:-0.333333 6:-0.333333 7:-0.6 8:0.555556 9:-0.25 10:1 11:0.333333 12:0.333333 13:0.333333 14:-0.6 15:-0.5 16:-0.5 17:-0.714286 18:-0.333333 19:-0.333333 20:-0.333333 22:1 23:1 24:-1 25:-0.6 27:-1 28:-1 29:-1 30:-1 31:-1 32:-1 33:-0.111111 34:-0.555556 35:-0.111111 36:-1 37:-1 38:-1 39:-0.25 40:-0.333333 41:-1 42:-0.6 43:-0.5 44:-0.333333 45:1 46:0.333333 47:-0.333333 48:-0.5 49:0.333333 50:-0.333333 51:-0.5 52:-0.5 53:-0.5 54:-0.2 55:-0.555556 56:-1 57:-1 58:-1 59:-1 60:-1 61:-0.111111 62:-1 63:-1 64:-1 65:-0.2 66:0.6 67:-0.777778 69:-0.2 70:-0.428571 72:1 78:-0.5 79:1 80:1 89:-0.5 90:1 92:1 104:1 
7.029918624962638 1:-0.333333 2:-0.333333 3:-0.25 4:-0.333333 5:-0.333333 6:0.333333 7:-0.6 8:-0.333333 9:-0.25 10:1 11:0.333333 12:0.333333 13:0.333333 14:-0.6 15:-0.5 16:0.5 17:0.714286 18:-0.666667 19:-0.333333 20:-0.333333 22:1 24:-1 25:-0.6 27:-0.333333 28:-1 29:-1 30:-1 31:-1 32:-1 33:-1 34:-0.333333 35:-1 36:-1 37:-1 38:-1 39:-0.25 40:-0.333333 41:-1 42:-0.6 43:-0.5 44:-0.333333 45:-0.333333 46:-0.333333 47:-0.333333 48:-0.5 49:-1 50:-0.333333 51:-0.5 52:-0.5 53:-0.5 54:0.6 55:-1 56:-1 57:-1 58:-1 59:-1 60:-1 61:-1 62:-1 63:-1 64:-1 65:-0.6 66:-0.6 67:-0.777778 69:-0.2 70:-0.428571 78:-0.5 81:1 89:-0.5 90:1 92:1 104:1 
8 1:0.333333 2:-0.555556 3:-0.75 4:-0.333333 5:-0.333333 6:0.333333 7:-0.6 8:-0.777778 9:-1 10:-0.333333 11:-0.333333 12:-0.333333 13:-0.333333 14:-0.6 15:-0.5 16:0.5 17:0.714286 19:-0.333333 20:0.333333 23:1 24:-1 25:-0.6 27:-1 28:-0.333333 29:-1 30:-1 31:-1 32:-1 33:-1 34:-1 35:-0.333333 36:-1 37:-1 38:-1 39:-1 40:0.111111 41:-1 42:-0.6 43:-0.5 44:-0.333333 45:-0.333333 46:0.333333 47:-0.333333 48:-0.5 49:-0.333333 50:-0.333333 51:-0.5 52:-0.5 53:-0.5 54:-0.6 55:-1 56:-1 57:-1 58:-1 59:-1 60:-1 61:-1 62:-1 63:-1 64:-1 65:-0.6 66:-0.6 67:0.777778 68:-0.5 69:0.6 70:-0.428571 72:1 73:1 78:-0.5 79:1 81:1 89:-0.5 90:1 101:1 104:1 
8 1:-0.777778 2:-1 3:-0.75 4:-0.333333 5:-0.333333 6:-0.333333 7:-0.6 8:-0.777778 9:-0.75 10:-0.333333 11:-0.333333 12:-0.333333 13:-0.333333 14:-0.6 15:-0.5 17:-0.142857 18:-0.666667 19:0.333333 20:-0.333333 21:1 24:-0.333333 25:0.2 27:-1 28:-1 29:-1 30:-1 31:-1 32:-1 33:-1 34:-0.333333 35:-1 36:-0.333333 37:-1 38:-1 39:-1 40:-1 41:-1 42:-0.6 43:-0.5 44:-0.333333 45:-0.333333 46:-0.333333 47:-0.333333 48:-0.5 49:-0.333333 50:1 51:-0.5 52:-0.5 53:-0.5 54:0.6 55:-0.333333 56:-1 57:-1 58:-1 59:-1 60:-1 61:-1 62:-1 63:-0.111111 64:-0.555556 65:-0.6 66:-0.6 67:-0.111111 69:-0.6 70:-0.714286 72:1 73:1 78:-0.5 79:1 81:1 89:-0.5 95:1 104:1 
8 1:0.111111 2:-0.333333 3:-0.5 4:-0.333333 5:1 6:0.333333 7:0.2 8:-0.777778 9:-0.75 10:-0.333333 11:-0.333333 12:-0.333333 13:-0.333333 14:-0.6 15:-0.5 17:-0.714286 18:-0.666667 19:-0.333333 20:-0.333333 24:-0.777778 25:-0.6 27:-0.333333 28:-1 29:-1 30:-1 31:-1 32:-1 33:-1 34:-1 35:-1 36:-0.555556 37:-1 38:-1 39:-1 40:-1 41:-1 42:-0.6 43:-0.5 44:-0.333333 45:-0.333333 46:-0.333333 47:-0.333333 48:-0.5 49:-0.333333 50:1 51:-0.5 52:-0.5 53:-0.5 54:-0.6 55:-0.333333 56:-1 57:-1 58:-1 59:-0.142857 60:-1 61:-0.555556 62:-1 63:-1 64:-1 65:-0.6 66:-0.2 67:-0.111111 69:-0.2 70:-0.428571 72:1 78:-0.5 79:1 80:1 89:-0.5 92:1 95:1 104:1 
8 1:-0.777778 2:-0.333333 3:-0.25 4:-0.333333 5:-0.333333 6:-0.333333 7:-0.6 8:-0.777778 9:-1 10:-0.333333 11:-0.333333 12:-0.333333 13:-0.333333 14:-0.6 15:-0.5 16:-0.5 17:-0.428571 18:-0.666667 19:-0.333333 20:-0.333333 23:1 24:-1 25:-0.6 27:-1 28:-1 29:-1 30:-1 31:-1 32:-0.777778 33:-1 34:-0.111111 35:-1 36:-0.333333 37:-1 38:-1 39:-1 40:-0.111111 41:-1 42:-0.6 43:1 44:-0.333333 45:-0.333333 46:-0.333333 47:-0.333333 48:-0.5 49:-0.333333 50:0.333333 51:-0.5 52:-0.5 53:-0.5 54:0.6 55:-1 56:-1 57:-1 58:-1 59:-1 60:-1 61:-1 62:-1 63:-1 64:-1 65:-0.2 66:0.2 67:1 68:-0.5 69:0.2 70:-0.142857 77:1 78:0.5 79:1 81:1 89:-0.5 91:1 96:1 100:1 104:1 
8 1:-0.777778 2:-1 3:-0.75 4:-0.333333 5:-0.333333 6:-0.333333 7:-0.6 8:-0.777778 9:-1 10:-0.333333 11:-0.333333 12:-0.333333 13:-0.333333 14:-0.6 16:0.5 17:-0.714286 18:-0.666667 19:0.333333 20:0.333333 24:-1 25:-0.6 27:-0.333333 28:-1 29:-1 30:-1 31:-1 32:-1 33:-1 34:-0.333333 35:-1 36:-1 37:-0.333333 38:-1 39:-1 40:-1 41:-1 42:-0.2 43:-0.5 44:-0.333333 45:-0.333333 46:-0.333333 47:-0.333333 48:-0.5 49:-0.333333 50:-0.333333 51:-0.5 52:-0.5 53:-0.5 54:-0.6 55:-1 56:-1 57:-1 58:-1 59:-1 60:-1 61:-1 62:-1 63:0.111111 64:-1 65:-0.6 66:0.6 67:-0.111111 69:-0.2 70:-0.428571 72:1 73:1 79:1 80:1 89:-0.5 91:1 104:1 
8 1:-0.777778 2:-1 3:-0.75 4:-0.333333 5:-0.333333 6:-0.333333 7:-0.6 8:0.777778 9:0.25 10:-0.333333 11:0.333333 12:0.333333 13:-0.333333 14:-0.6 15:-0.5 16:-0.5 17:-0.714286 18:-0.666667 19:-0.333333 20:-0.333333 24:-1 25:-0.6 27:-0.333333 28:-0.333333 29:-1 30:-1 31:-1 32:-1 33:-1 34:-0.333333 35:-1 36:-1 37:-1 38:-1 39:-1 40:-0.333333 41:-1 42:-0.6 43:-0.5 44:-0.333333 45:-0.333333 46:-0.333333 47:-0.333333 48:-0.5 49:-0.333333 50:-0.333333 51:-0.5 52:-0.5 53:-0.5 54:-0.6 55:-1 56:-1 57:-1 58:-1 59:-1 60:-0.25 61:-1 62:-1 63:-1 64:-1 65:-0.6 66:0.2 67:-0.777778 69:-0.2 70:-0.428571 71:1 78:-0.5 79:1 81:1 89:-0.5 90:1 104:1 
3.015918541652522 1:0.555556 2:-0.333333 3:-0.25 4:-0.333333 5:1 6:0.333333 7:0.2 8:-0.777778 9:0.75 10:1 11:1 12:-0.333333 13:-0.333333 14:-0.2 17:-0.428571 18:-0.333333 19:0.333333 20:-0.333333 24:-1 25:-0.6 27:0.111111 28:-1 29:-0.555556 30:-1 31:-1 32:-1 33:-1 34:0.111111 35:-1 36:-1 37:-1 38:-1 39:-0.5 40:-0.555556 41:-1 42:-0.2 43:1 44:-0.333333 45:-0.333333 46:0.333333 47:-0.333333 48:-0.5 49:-0.333333 50:-0.333333 51:-0.5 52:-0.5 53:-0.5 54:0.6 55:-1 56:-1 57:-1 58:-1 59:-1 60:-1 61:0.555556 62:-1 63:-0.333333 64:0.555556 65:-0.2 66:0.2 67:-0.111111 69:-0.2 70:-0.428571 72:1 74:1 78:-0.5 79:1 81:1 83:1 89:0.5 90:1 92:1 104:1 
2.581220192166544 1:-0.777778 2:-1 3:-0.75 4:-0.333333 5:-0.333333 6:-0.333333 7:-0.6 8:0.111111 9:0.5 10:-0.333333 11:-0.333333 12:-0.333333 13:1 14:1 15:-0.5 16:0.5 17:-0.428571 18:-0.666667 19:0.333333 20:-0.333333 21:1 24:-0.777778 25:-0.6 27:0.111111 28:-0.333333 29:-0.333333 30:0.111111 31:-1 32:-1 33:-1 34:-1 35:-1 36:-1 37:-1 38:-1 39:-1 40:0.333333 41:-1 42:-1 43:-0.5 44:-0.333333 45:-0.333333 46:0.333333 47:-0.333333 48:-0.5 49:-0.333333 50:1 51:-0.5 52:-0.5 53:-0.5 54:0.6 55:0.333333 56:-1 57:-1 58:-1 59:-1 60:-1 61:-1 62:-1 63:-1 64:0.111111 65:0.2 66:0.2 67:-0.777778 69:0.2 70:-0.428571 72:1 78:-0.5 79:1 81:1 89:-0.5 91:1 92:1 104:1 
8 1:-0.777778 2:-1 3:-0.75 4:-0.333333 5:-0.333333 6:-0.333333 7:-0.6 8:-0.777778 9:-0.25 10:-0.333333 11:-0.333333 12:0.333333 13:-0.333333 14:-0.2 15:-0.5 17:-0.714286 18:-0.666667 19:0.333333 20:-0.333333 24:-1 25:-0.6 27:0.111111 28:-0.333333 29:-1 30:-1 31:0.111111 32:-1 33:-1 34:-1 35:-1 36:-1 37:-1 38:-1 39:-1 40:-1 41:-1 42:-0.6 43:-0.5 44:-0.333333 45:-0.333333 46:-0.333333 47:-0.333333 48:-0.5 49:-0.333333 50:-0.333333 51:-0.5 52:-0.5 53:-0.5 54:-0.6 55:-1 56:-1 57:-1 58:-1 59:-1 60:-1 61:-1 62:-1 63:-1 64:-1 65:-0.2 66:0.2 67:-0.111111 68:-0.5 69:-0.2 70:-0.428571 72:1 78:-0.5 79:1 81:1 89:-0.5 90:1 104:1 
8 1:-0.777778 2:-1 3:-0.75 4:-0.333333 5:-0.333333 6:-0.333333 7:-0.6 8:-0.777778 9:-1 10:-0.333333 11:-0.333333 12:-0.333333 13:-0.333333 14:-0.6 15:-0.5 17:-0.714286 18:-0.666667 19:0.333333 20:-0.333333 24:-1 25:-0.6 27:0.111111 28:-1 29:-0.555556 30:-1 31:-1 32:0.111111 33:-0.333333 34:-1 35:-1 36:-1 37:-1 38:-1 39:-1 40:-1 41:-1 42:-0.2 43:-0.5 44:-0.333333 45:-0.333333 46:-0.333333 47:-0.333333 48:-0.5 49:-0.333333 50:-0.333333 51:-0.5 52:-0.5 53:-0.5 54:-0.6 55:-1 56:-1 57:-1 58:-1 59:-1 60:-1 61:0.111111 62:-1 63:-0.555556 64:-1 65:-0.6 66:-0.6 67:-0.777778 69:-0.6 70:0.714286 73:1 78:-0.5 79:1 80:1 89:-0.5 90:1 104:1 
8 1:-0.777778 2:-1 3:-0.75 4:-0.333333 5:-0.333333 6:-0.333333 7:-0.6 8:-0.777778 9:-1 10:-0.333333 11:-0.333333 12:-0.333333 13:-0.333333 14:-0.6 15:-0.5 16:-0.5 17:-0.428571 18:-0.666667 19:-0.333333 20:-0.333333 24:-1 25:-0.6 27:-1 28:-1 29:-1 30:-1 31:-1 32:-0.111111 33:-1 34:-0.333333 35:-0.333333 36:-1 37:-1 38:-1 39:-1 40:-0.111111 41:-1 42:-0.2 43:-0.5 44:-0.333333 45:-0.333333 46:-0.333333 47:-0.333333 48:-0.5 49:-0.333333 50:0.333333 51:-0.5 52:-0.5 53:-0.5 54:-0.6 55:-0.333333 56:-1 58:-1 59:-1 60:-1 61:-1 62:-1 63:-1 64:-1 65:0.2 66:0.6 67:-0.111111 69:-0.2 70:-0.142857 75:1 76:1 79:1 80:1 85:1 89:-0.5 92:1 104:1 
8 1:-0.777778 2:-1 3:-0.75 4:-0.333333 5:-0.333333 6:-0.333333 7:-0.6 8:0.111111 9:-1 10:0.333333 11:-0.333333 12:0.333333 13:-0.333333 14:-0.6 15:-0.5 16:-0.5 17:0.142857 18:-0.666667 19:-0.333333 20:-0.333333 24:-1 25:-0.6 26:1 27:-0.333333 28:-0.333333 29:-1 30:-1 31:-1 32:-1 33:-1 34:-0.333333 35:-1 36:-1 37:-1 38:-1 39:-1 40:-0.333333 41:-1 42:-0.6 43:-0.5 44:-0.333333 45:-0.333333 46:-0.333333 47:-0.333333 48:-0.5 49:-0.333333 50:-0.333333 51:-0.5 52:-0.5 53:-0.5 54:-0.6 55:-0.333333 56:-1 57:-1 58:-1 59:-1 60:-1 61:-1 62:-1 63:-1 64:-1 65:-1 66:-1 67:-0.777778 68:-0.5 69:-0.6 70:-0.714286 78:-0.5 89:-0.5 104:1 
8 1:-0.777778 2:-1 3:-0.75 4:-0.333333 5:-0.333333 6:-0.333333 7:-0.6 8:-0.777778 9:-1 10:-0.333333 11:-0.333333 12:-0.333333 13:-0.333333 14:-0.6 15:-0.5 17:0.142857 18:-0.666667 19:-0.333333 20:-0.333333 24:-1 25:-0.6 27:-0.333333 28:-1 29:-1 30:-1 31:-1 32:-1 33:-1 34:-1 35:-1 36:-1 37:-1 38:-1 39:-1 40:-1 41:-1 42:-0.6 43:-0.5 44:-0.333333 45:-0.333333 46:-0.333333 47:-0.333333 48:-0.5 49:-0.333333 50:-0.333333 51:-0.5 52:-0.5 53:-0.5 54:-0.6 55:-1 56:-1 57:-1 58:-1 59:-1 60:-1 61:-1 62:-1 63:-1 64:-1 65:-0.6 66:-0.6 67:1 69:0.2 70:-0.428571 72:1 74:1 78:0.5 79:1 80:1 89:0.5 90:1 91:1 104:1 
8 1:-0.777778 2:-1 3:-0.75 4:-0.333333 5:-0.333333 6:-0.333333 7:-0.6 8:0.111111 9:-0.75 10:-0.333333 11:-0.333333 12:0.333333 13:0.333333 14:-0.6 15:-0.5 16:0.5 17:0.142857 18:-0.333333 19:-0.333333 20:-0.333333 24:0.333333 25:-0.6 27:-0.333333 28:-0.333333 29:-1 30:-1 31:-0.333333 32:-0.333333 33:-1 34:-0.333333 35:-0.333333 36:-1 37:-1 38:-1 39:-1 40:-1 41:-1 42:-0.2 44:-0.333333 45:-0.333333 46:-0.333333 47:-0.333333 48:-0.5 49:-0.333333 50:-0.333333 51:-0.5 52:-0.5 53:-0.5 54:-0.2 55:-0.333333 56:-1 57:-1 58:-1 59:-1 60:-1 61:-0.333333 62:-1 63:-1 64:-1 65:0.2 66:-0.2 67:-0.333333 69:0.2 70:-0.428571 74:1 76:1 79:1 81:1 89:0.5 91:1 92:1 104:1 
8 1:-0.777778 2:-0.333333 3:-0.25 4:-0.333333 5:-0.333333 6:-0.333333 7:-0.6 8:-0.777778 9:-1 10:-0.333333 11:-0.333333 12:-0.333333 13:-0.333333 14:-0.6 15:-0.5 16:-0.5 17:-0.714286 18:-0.666667 19:-0.333333 20:-0.333333 24:-1 25:-0.6 27:-1 28:-1 29:-1 30:-1 31:-1 32:-1 33:-1 34:-1 35:-0.333333 36:-1 37:-1 38:-1 39:-1 40:-1 41:-1 42:-0.6 43:-0.5 44:-0.333333 45:-0.333333 46:-0.333333 47:-0.333333 48:-0.5 49:-0.333333 50:-0.333333 51:-0.5 52:-0.5 53:-0.5 54:-0.6 55:-1 56:-1 57:-1 58:-1 59:-1 60:-1 61:-1 62:-1 63:-1 64:-1 65:-0.6 66:-0.6 67:-0.777778 68:-0.5 69:0.2 70:-0.428571 73:1 76:1 78:-0.5 79:1 81:1 83:1 89:-0.5 92:1 93:1 104:1 
4.87339783159179 1:0.333333 2:-0.333333 3:-0.5 4:-0.333333 5:-0.333333 6:1 7:-0.6 8:-0.777778 9:-1 10:-0.333333 11:-0.333333 12:-0.333333 13:-0.333333 14:-0.6 15:-0.5 16:0.5 17:0.714286 18:-0.666667 19:-0.333333 20:-0.333333 24:-0.555556 25:0.6 27:-1 28:-1 29:-1 30:-1 31:0.111111 32:-1 33:-1 34:-1 35:-1 36:-1 37:-1 38:-1 39:-0.5 40:-0.333333 41:-1 42:-0.2 43:-0.5 44:-0.333333 45:-0.333333 46:-0.333333 47:-0.333333 48:-0.5 49:-0.333333 50:-0.333333 51:-0.5 52:-0.5 53:-0.5 54:-0.6 55:-1 56:-1 57:-1 58:-1 59:-1 60:-1 61:-1 62:-1 63:-1 64:-1 65:-0.6 66:-0.6 67:1 68:-0.5 69:0.2 70:-0.428571 74:1 78:-0.5 79:1 81:1 89:-0.5 92:1 93:1 104:1 
8 1:0.777778 2:0.111111 4:-0.333333 5:-0.333333 6:-0.333333 7:-0.6 8:-0.777778 9:-1 10:-0.333333 11:-0.333333 12:-0.333333 13:-0.333333 14:0.2 15:-0.5 16:0.5 17:-0.714286 18:-0.666667 19:-0.333333 20:-0.333333 21:1 24:-1 25:-0.6 27:-1 28:-0.555556 29:-1 30:-1 31:-1 32:-1 33:-1 34:-1 35:-1 36:-1 37:-1 38:-1 39:-1 40:0.111111 41:-1 42:-0.2 44:-0.333333 45:-0.333333 46:-0.333333 47:-0.333333 48:-0.5 49:0.333333 50:-0.333333 51:-0.5 52:-0.5 53:-0.5 54:-0.6 55:-1 56:-1 57:-1 58:-1 59:-1 60:-1 61:-1 62:-1 63:-1 64:-1 65:-0.2 66:0.6 67:-0.111111 68:-0.5 69:-0.2 70:-0.428571 71:1 78:-0.5 79:1 81:1 89:-0.5 92:1 101:1 104:1 
8 1:-0.777778 2:-1 3:-0.75 4:-0.333333 5:-0.333333 6:-0.333333 7:-0.6 8:-0.777778 9:-1 10:-0.333333 11:-0.333333 12:-0.333333 13:-0.333333 14:-0.6 15:-0.5 16:-0.5 17:-0.714286 18:-0.666667 19:-0.333333 20:-0.333333 24:-1 25:-0.6 27:-0.333333 28:-1 29:-1 30:-1 31:-1 32:-1 33:-1 34:-1 35:-1 36:-0.333333 37:-1 38:-1 39:-1 40:-1 41:-1 42:-0.2 43:-0.5 44:-0.333333 45:-0.333333 46:-0.333333 47:-0.333333 48:-0.5 49:-0.333333 50:1 51:-0.5 52:-0.5 53:-0.5 54:-0.6 55:0.111111 56:-1 57:-1 58:-1 59:-1 60:-1 61:-1 62:-1 63:-1 64:-1 65:-0.6 66:-0.6 67:-0.777778 69:0.2 70:0.714286 71:1 78:-0.5 79:1 83:1 87:1 89:-0.5 96:1 104:1 
8 1:0.333333 2:0.777778 3:1 4:0.333333 5:-0.333333 6:1 7:-0.2 8:-0.777778 9:0.5 10:1 11:-0.333333 12:-0.333333 13:-0.333333 14:-0.6 16:-0.5 17:-0.714286 18:-0.333333 19:-0.333333 20:-0.333333 24:-1 25:-0.6 27:-1 28:-1 29:-1 30:-1 31:-1 32:-1 33:-1 34:-1 35:-1 36:-1 37:-1 38:-1 39:-1 40:-0.333333 41:-1 42:-0.2 43:-0.5 44:-0.333333 45:-0.333333 46:-0.333333 47:-0.333333 48:-0.5 49:-0.333333 50:-0.333333 51:-0.5 52:-0.5 53:-0.5 54:-0.6 55:-0.333333 56:-1 57:-1 58:-1 59:-1 60:-1 61:-1 62:-1 63:-1 64:-1 65:-0.6 66:-0.6 67:-0.777778 69:0.2 70:-0.428571 71:1 78:-0.5 79:1 81:1 92:1 99:1 104:1 
8 1:-0.777778 2:-1 3:-0.75 4:-0.333333 5:-0.333333 6:-0.333333 7:-0.6 8:0.555556 9:0.5 10:-0.333333 11:0.333333 12:0.333333 13:0.333333 14:-0.6 16:-0.5 17:-0.142857 18:-0.333333 19:-0.333333 20:-0.333333 24:-1 25:-0.6 27:-0.333333 28:-0.333333 29:-1 30:-1 31:-1 32:-1 33:-1 34:-1 35:-1 36:-1 37:-1 38:-1 39:-1 40:-1 41:-1 42:-0.6 43:-0.5 44:-0.333333 45:-0.333333 46:-0.333333 47:-0.333333 48:-0.5 49:-0.333333 50:-0.333333 51:-0.5 52:-0.5 53:-0.5 54:-0.6 55:-0.333333 56:-1 57:-1 58:-1 59:-1 60:-1 61:-1 62:-1 63:-1 64:-1 65:0.2 66:-0.2 67:-0.333333 69:0.2 70:-0.428571 76:1 79:1 81:1 89:-0.5 91:1 104:1 
3.90547965011177 1:0.111111 2:-0.333333 3:-0.25 4:-0.333333 5:1 6:0.333333 7:0.2 8:-0.777778 9:-1 10:-0.333333 11:-0.333333 12:-0.333333 13:-0.333333 14:-0.6 15:-0.5 16:-0.5 17:-0.714286 18:-0.333333 19:-0.333333 20:-0.333333 22:1 24:-1 25:-0.6 27:-0.333333 28:-0.333333 29:-1 30:-1 31:-0.333333 32:-1 33:-1 34:-0.333333 35:-1 36:0.111111 37:-1 38:-1 39:-1 40:0.555556 41:-1 42:-0.2 43:-0.5 44:-0.333333 45:-0.333333 46:0.333333 47:-0.333333 48:-0.5 49:-0.333333 50:1 51:-0.5 52:-0.5 53:-0.5 54:0.6 55:-1 56:-1 57:-1 58:-1 59:-1 60:-1 61:-1 62:-1 63:-0.333333 64:-0.555556 65:0.2 66:-0.6 67:-0.111111 68:-0.5 69:-0.2 70:-0.428571 73:1 75:1 78:-0.5 79:1 81:1 82:1 92:1 96:1 104:1 
8 1:-0.777778 2:-1 3:-0.75 4:-0.333333 5:-0.333333 6:-0.333333 7:-0.6 8:-0.777778 9:-1 10:-0.333333 11:-0.333333 12:-0.333333 13:-0.333333 14:-0.6 17:-0.428571 18:-0.333333 19:-0.333333 20:-0.333333 23:1 24:-1 25:-0.6 27:-1 28:-1 29:-1 30:-1 31:-1 32:-1 33:-1 34:-1 35:-1 36:-1 37:-1 38:-1 39:-1 40:-0.111111 41:-1 42:-0.2 43:-0.5 44:-0.333333 45:-0.333333 46:0.333333 47:-0.333333 48:-0.5 49:-0.333333 50:0.333333 51:-0.5 52:-0.5 53:-0.5 54:0.6 55:-0.333333 56:-1 57:-1 58:-1 59:-1 60:-0.25 61:-0.555556 62:-1 63:-1 64:-1 65:-0.2 66:0.6 67:-0.777778 69:-0.6 70:-0.428571 71:1 78:-0.5 79:1 88:1 89:-0.5 90:1 92:1 104:1 
1.889858747452405 1:0.111111 2:-0.555556 3:-0.75 4:-0.333333 5:-0.333333 6:-0.333333 7:-0.6 8:-0.777778 9:-1 10:-0.333333 11:-0.333333 12:-0.333333 13:-0.333333 14:-0.2 15:-0.5 16:0.5 17:-0.428571 19:-0.333333 20:-0.333333 21:1 22:1 23:1 24:-0.333333 25:0.6 27:-1 28:0.111111 29:-1 30:-1 31:0.111111 32:-1 33:-0.111111 34:-1 35:-1 36:-0.333333 37:-1 38:-1 39:-1 40:0.111111 41:-1 42:-0.6 43:-0.5 44:-0.333333 45:-0.333333 46:0.333333 47:-0.333333 48:-0.5 49:-0.333333 50:1 51:-0.5 52:-0.5 53:-0.5 54:1 55:-1 56:-1 57:-1 58:-1 59:-1 60:-1 61:-1 62:-1 63:0.333333 64:-1 65:-0.6 66:-0.6 67:0.333333 68:-0.5 69:-0.2 70:-0.428571 76:1 78:-0.5 79:1 81:1 88:1 89:-0.5 90:1 92:1 104:1 
1.153564549964429 1:0.333333 2:-0.333333 3:-0.75 4:-0.333333 5:1 6:0.333333 7:0.2 8:-0.777778 9:-1 10:-0.333333 11:-0.333333 12:-0.333333 13:-0.333333 14:-0.6 16:0.5 17:-0.142857 18:-0.333333 19:-0.333333 20:0.333333 22:1 24:-1 25:-0.2 27:-1 28:-1 29:-1 30:-1 31:-1 32:-1 33:-1 34:-0.333333 35:-1 36:-0.333333 37:-1 38:-1 39:-1 40:-0.111111 41:-1 42:-0.6 43:1 44:-0.333333 45:-0.333333 46:-0.333333 47:0.333333 48:-0.5 49:-0.333333 50:1 51:-0.5 52:-0.5 53:-0.5 54:0.6 55:-0.333333 56:-1 57:-1 58:-1 59:-1 61:-0.333333 62:-1 63:-0.333333 64:-1 65:0.2 66:0.6 67:-0.777778 68:-0.5 69:0.2 70:-0.428571 72:1 73:1 74:1 78:-0.5 79:1 80:1 87:1 89:0.5 90:1 92:1 104:1 
5.649277176209066 1:0.777778 2:-0.111111 3:-0.25 4:-0.333333 5:1 6:0.333333 7:0.2 8:-0.777778 9:-1 10:-0.333333 11:-0.333333 12:-0.333333 13:-0.333333 14:-0.2 15:-0.5 17:-0.428571 18:-0.333333 19:0.333333 20:-0.333333 22:1 24:-1 25:-0.6 27:-0.111111 28:-0.333333 29:-1 30:-1 31:-1 32:-1 33:-1 34:0.111111 35:-1 36:0.111111 37:-1 38:-1 39:-1 40:-1 41:-1 42:-0.6 43:-0.5 44:-0.333333 45:-0.333333 46:-0.333333 47:-0.333333 48:-0.5 49:-0.333333 50:-0.333333 51:-0.5 52:-0.5 53:-0.5 54:-0.6 55:-0.333333 56:-1 57:-1 58:-1 59:-1 61:-0.333333 62:-1 63:-1 64:-0.111111 65:0.2 66:0.6 67:-0.111111 69:-0.2 70:-0.428571 72:1 73:1 78:-0.5 79:1 80:1 87:1 90:1 91:1 104:1 
3.028650742034775 1:0.777778 2:-0.333333 4:-0.333333 5:1 6:1 7:0.2 8:0.777778 9:-0.25 10:1 11:-0.333333 12:0.333333 13:-0.333333 14:-0.6 16:0.5 17:-0.142857 18:-0.333333 19:-0.333333 20:0.333333 22:1 24:-1 25:-0.6 27:-0.111111 28:-0.333333 29:-1 30:-1 31:-1 32:-1 33:-1 34:0.111111 35:-0.333333 36:0.333333 37:-1 38:-1 39:-1 40:-1 41:-1 42:-0.6 43:-0.5 44:-0.333333 45:-0.333333 46:0.333333 47:-0.333333 48:-0.5 49:-0.333333 50:-0.333333 51:-0.5 52:-0.5 53:-0.5 54:0.6 55:-0.333333 56:-1 57:-1 58:-1 59:-1 60:-1 61:-0.333333 62:-1 63:-0.111111 64:-0.111111 65:-0.2 66:0.6 67:-0.111111 69:-0.2 70:-0.714286 72:1 73:1 78:-0.5 79:1 80:1 87:1 90:1 91:1 104:1 
4.020136247384644 1:-0.777778 2:-1 3:-0.75 4:-0.333333 5:-0.333333 6:-0.333333 7:1 8:-1 9:-0.25 10:-0.333333 11:0.333333 12:-0.333333 13:0.333333 14:0.2 16:0.5 17:-0.428571 19:0.333333 20:0.333333 21:1 24:-1 25:-0.6 27:-0.333333 28:-1 29:-1 30:-1 31:-0.333333 32:-0.333333 33:-1 34:-0.111111 35:-1 36:-1 37:-1 38:-1 39:-1 40:-0.333333 41:-1 42:-0.6 43:-0.5 44:-0.333333 45:-0.333333 46:-0.333333 47:-0.333333 48:-0.5 49:-0.333333 50:-0.333333 51:-0.5 52:-0.5 53:-0.5 54:0.6 55:-0.333333 56:-1 57:-1 58:-1 59:-1 60:-1 61:-1 62:-1 63:-0.333333 64:-0.333333 65:-0.6 66:-0.6 67:-0.777778 69:-0.6 70:-0.428571 72:1 73:1 78:-0.5 79:1 80:1 87:1 89:0.5 90:1 91:1 104:1 
5.977942237651853 1:-0.777778 2:-1 3:-0.75 4:-0.333333 5:-0.333333 6:-0.333333 7:-0.6 8:-0.777778 9:-1 10:-0.333333 11:-0.333333 12:-0.333333 13:-0.333333 14:-0.2 15:-0.5 16:-0.5 17:-0.428571 19:-0.333333 20:-0.333333 22:1 24:-1 25:-0.6 27:-0.333333 28:-1 29:-1 30:-1 31:-0.333333 32:-1 33:-1 34:-1 35:-1 36:-1 37:-1 38:-1 39:-1 40:0.111111 41:-1 42:-0.2 43:-0.5 44:-0.333333 45:-0.333333 46:-0.333333 47:-0.333333 48:-0.5 49:-0.333333 50:1 51:-0.5 52:-0.5 53:-0.5 54:-0.2 55:-0.333333 56:-1 57:-1 58:-1 59:-1 60:-1 61:-0.333333 62:-1 63:-0.333333 64:-1 65:0.2 66:0.6 67:-0.111111 69:-0.6 70:-0.428571 72:1 73:1 78:-0.5 79:1 80:1 87:1 89:0.5 90:1 91:1 104:1 
8 1:-0.777778 2:-1 3:-0.75 4:-0.333333 5:-0.333333 6:-0.333333 7:-0.6 8:-0.777778 9:-0.25 10:-0.333333 11:0.333333 12:0.333333 13:0.333333 14:-0.6 15:-0.5 16:-0.5 17:-0.142857 18:-0.666667 19:-0.333333 20:0.333333 24:-1 25:-0.6 27:-1 28:-1 29:-1 30:-1 31:-1 32:-1 33:-1 34:-1 35:-1 36:-1 37:-1 38:-1 39:-1 40:-1 41:-1 42:-0.6 43:-0.5 44:-0.333333 45:1 46:-0.333333 47:-0.333333 48:-0.5 49:-0.333333 50:-0.333333 51:-0.5 52:-0.5 53:-0.5 54:-0.6 55:-1 56:-1 57:-1 58:-1 59:-1 60:-1 61:-0.333333 62:-1 63:-1 64:-1 65:-0.6 66:-0.6 67:-0.111111 69:-0.2 70:-0.142857 76:1 78:-0.5 89:0.5 91:1 104:1 
3.144994609726997 1:0.333333 2:-0.333333 3:-0.25 4:-0.333333 5:-0.333333 6:0.333333 7:-0.6 8:0.111111 9:0.25 10:-0.333333 11:-0.333333 12:0.333333 13:-0.333333 14:-0.6 16:-0.5 17:-0.428571 18:-0.666667 19:1 20:-0.333333 24:-1 25:-0.6 27:0.333333 28:-1 29:-1 30:-1 31:-1 32:0.555556 33:0.333333 34:0.555556 35:-1 36:-1 37:-1 38:-1 39:0.25 40:-1 41:-1 42:-0.2 43:-0.5 44:-0.333333 45:-0.333333 46:-0.333333 47:-0.333333 48:-0.5 49:-0.333333 50:-0.333333 51:-0.5 52:-0.5 53:-0.5 54:-0.6 55:-1 56:-1 57:-1 58:-1 59:-1 60:-1 61:-1 62:-1 63:-1 64:-1 65:-0.2 66:0.2 67:-0.111111 69:0.6 70:0.714286 74:1 78:0.5 79:1 80:1 87:1 89:-0.5 90:1 104:1 
-1.199006373368694 1:-0.333333 2:-1 3:-0.25 4:1 5:-1 6:0.333333 7:-0.6 8:-0.777778 9:-1 10:-0.333333 11:-0.333333 12:-0.333333 13:-0.333333 14:0.2 15:-0.5 16:-0.5 17:-0.714286 18:-0.666667 19:0.333333 20:-0.333333 24:-1 25:-0.6 27:-1 28:-0.777778 29:-1 30:-0.777778 31:-1 32:-1 33:-1 34:-0.777778 35:-1 36:-1 37:-1 38:-1 39:-0.75 40:-1 41:-1 42:-0.2 43:-0.5 44:-0.333333 45:-0.333333 46:0.333333 47:-0.333333 48:-1 49:-0.333333 50:-0.333333 51:-0.5 52:-0.5 53:-0.5 54:-0.2 55:-1 56:-1 57:-1 58:-1 59:-1 60:-1 61:-1 62:-1 63:-1 64:-1 65:-1 66:-0.2 67:-0.111111 68:-0.5 69:0.2 70:-0.428571 72:-1 73:-1 74:-1 75:-1 76:-1 77:-1 78:-1 79:-1 81:1 87:1 88:-1 89:-0.5 90:1 92:1 104:1 
-1.236328690762145 1:1 2:-0.555556 3:-0.25 4:-0.333333 5:-0.333333 6:0.333333 7:-0.6 8:-0.777778 9:-0.75 10:1 11:-0.333333 12:0.333333 13:0.333333 14:-0.6 15:-0.5 16:0.5 17:-0.714286 19:-0.333333 20:0.333333 21:1 24:-1 25:-0.6 27:-1 28:-1 29:0.111111 30:-1 31:-1 32:-1 33:-1 34:0.111111 35:-1 36:0.111111 37:-1 38:-1 39:-1 40:-0.333333 41:-0.2 42:-0.6 43:-0.5 44:-0.333333 45:-0.333333 46:-0.333333 47:-0.333333 48:-0.5 49:-0.333333 50:1 51:-0.5 52:-0.5 53:-0.5 54:-0.6 55:-1 56:-1 57:-1 58:-1 59:-1 60:-1 61:-0.555556 62:-1 63:-1 64:-1 65:-0.6 66:-0.6 67:-0.777778 68:-0.5 69:0.2 70:-0.428571 71:1 72:-1 73:-1 74:-1 75:-1 76:-1 77:-1 78:-0.5 79:1 80:-1 81:1 82:-1 83:-1 84:-1 85:-1 86:-1 87:-1 88:-1 89:-0.5 90:-1 91:-1 92:1 93:-1 94:-1 95:-1 96:-1 97:-1 98:-1 99:-1 100:-1 101:-1 102:-1 103:-1 104:-1 
-4.969569732600273 1:-0.777778 2:-1 3:-0.75 4:-0.333333 5:-0.333333 6:-0.333333 7:-0.6 8:-0.777778 9:-1 10:1 11:-0.333333 12:-0.333333 13:-0.333333 14:-0.6 15:0.5 17:-0.714286 18:-0.333333 19:0.333333 20:-0.333333 24:-1 25:-0.6 27:-0.111111 28:-1 29:-1 30:-1 31:-1 32:-1 33:0.111111 34:-0.333333 35:-1 36:0.111111 37:-1 38:-1 39:-1 40:-0.111111 41:-1 42:-0.6 43:-0.5 44:-0.333333 45:-0.333333 46:-0.333333 47:-0.333333 48:-0.5 49:-1 50:-0.333333 51:-0.5 52:-0.5 53:-0.5 54:-0.6 55:-1 56:-1 57:-1 58:-1 59:-1 60:-1 61:-1 62:-1 63:-0.555556 64:-1 65:-0.6 66:-0.6 67:0.777778 69:0.6 70:0.714286 76:1 78:0.5 79:1 80:1 89:-0.5 90:1 104:1 
-1.070413907630004 1:-0.777778 2:-1 3:-0.75 4:-0.333333 5:-0.333333 6:-0.333333 7:-0.6 8:-0.777778 9:-1 10:-0.333333 11:-0.333333 12:-0.333333 13:-0.333333 14:-0.6 15:-0.5 16:-0.5 17:-0.714286 18:-0.666667 19:0.333333 20:-0.333333 24:-1 25:-0.6 27:-0.555556 28:-1 29:-1 30:-1 31:-1 32:-1 33:-1 34:-1 35:-1 36:-1 37:-1 38:-0.5 39:-0.25 40:-1 41:-1 42:-1 43:-0.5 44:-0.333333 45:-0.333333 46:-0.333333 47:-0.333333 48:-0.5 49:-0.333333 50:-0.333333 51:-0.5 52:-0.5 53:-0.5 54:-0.6 55:0.111111 56:0.25 57:-1 58:-1 59:-1 60:0.25 61:-0.333333 62:-1 63:-1 64:-1 65:-0.2 66:0.6 67:-0.555556 68:-0.5 69:0.2 70:-0.428571 71:1 76:1 78:-0.5 79:1 81:1 89:-0.5 90:1 104:1 
-2.081907893336783 1:0.555556 2:0.777778 3:-1 4:-0.333333 5:-0.333333 6:-0.333333 7:0.2 8:-0.777778 9:-1 10:-0.333333 11:-0.333333 12:-0.333333 13:-0.333333 14:-0.6 16:0.5 17:-0.428571 18:-0.333333 19:-0.333333 20:0.333333 24:-1 25:-0.6 27:0.111111 28:-0.111111 29:-0.111111 30:-0.111111 31:-0.111111 32:-0.111111 33:-1 34:-1 35:-0.555556 36:-0.333333 37:-1 38:-1 39:-0.5 40:-0.111111 41:-1 42:-1 43:-0.5 44:0.333333 45:-0.333333 46:-0.333333 47:-0.333333 48:-1 49:-1 50:1 51:-0.5 52:-0.5 53:-0.5 54:-0.6 55:-0.111111 57:-0.333333 58:-1 59:-0.142857 61:-1 62:-1 63:-1 64:-1 65:-0.6 66:-0.6 67:-0.111111 69:0.2 70:-0.714286 78:-0.5 79:1 81:1 89:-0.5 91:1 99:1 104:1 
-1.559189677692749 1:-0.333333 2:-0.777778 3:-0.75 4:1 5:-0.333333 6:-1 7:-0.6 8:-0.777778 9:-1 10:-0.333333 11:-0.333333 12:-0.333333 13:-0.333333 14:-0.2 15:-0.5 16:-0.5 17:-0.714286 18:-0.666667 19:-0.333333 20:-0.333333 24:-1 25:0.6 27:-0.555556 28:-0.555556 29:-1 30:-1 31:-1 32:-0.333333 33:-0.111111 34:-1 35:-1 36:-1 37:-0.555556 38:-1 39:-1 40:-1 41:-0.2 42:-0.6 43:-0.5 44:0.333333 45:-0.333333 46:-0.333333 47:-0.333333 48:-0.5 49:-0.333333 50:1 51:-0.5 52:-0.5 53:-0.5 54:-0.2 55:-0.777778 56:-1 57:-0.666667 58:-1 59:-1 60:-0.25 61:-1 62:-1 63:-1 64:-0.555556 65:-0.2 66:0.6 67:-1 68:-1 69:-1 70:-1 71:-1 73:1 77:1 78:-0.5 79:-1 80:-1 81:-1 82:-1 83:-1 84:-1 85:-1 86:-1 87:-1 88:-1 89:-1 91:1 104:1 
-2.800385480452924 1:-0.777778 2:-1 3:-0.75 4:-0.333333 5:-0.333333 6:-0.333333 7:-0.6 8:-0.777778 9:-1 10:-0.333333 11:-0.333333 12:-0.333333 13:-0.333333 14:0.2 15:-0.5 16:-0.5 17:-0.714286 18:-1 19:-1 20:1 24:-0.777778 25:-0.6 26:-1 27:0.555556 28:-0.333333 29:-1 30:-1 31:-0.555556 32:-1 33:-1 34:-0.555556 35:-1 36:-0.555556 37:-1 38:-1 39:-1 40:-1 41:-0.2 42:0.6 43:1 44:-0.333333 45:-0.333333 46:0.333333 47:-0.333333 48:-0.5 49:-1 50:1 52:-0.5 53:-0.5 54:-0.6 55:-1 56:-1 57:-1 58:-1 59:-1 60:-1 61:-0.777778 62:-1 63:-0.555556 64:-1 65:-0.2 66:0.2 67:1 68:-0.5 69:-0.2 70:-0.142857 71:1 78:-0.5 79:1 87:1 93:1 104:1 
-3.863817609792925 1:-0.777778 2:-1 3:-0.75 4:-0.333333 5:-0.333333 6:-0.333333 7:-0.6 8:-0.777778 9:-1 10:-0.333333 11:-0.333333 12:-0.333333 13:-0.333333 14:-0.2 15:-0.5 16:0.5 17:0.714286 19:-0.333333 20:0.333333 24:-1 25:-0.6 27:0.111111 28:-1 29:-1 30:-1 31:0.111111 32:-1 33:-1 34:-0.555556 35:-1 36:-1 37:-0.555556 38:-1 39:-1 40:-1 41:-0.6 42:-0.2 43:-0.5 44:-0.333333 45:-0.333333 46:0.333333 47:-0.333333 48:0.5 49:-1 50:-0.333333 51:-0.5 52:-0.5 54:0.6 55:-1 56:-1 57:-0.333333 58:-0.555556 59:-1 60:-1 61:-0.555556 62:-1 63:-1 64:-1 65:-0.2 66:-0.6 67:-0.777778 68:-0.5 69:-0.2 70:-0.142857 74:1 78:-0.5 79:1 81:1 89:-0.5 90:1 104:1 
-0.6451451807778849 1:-0.777778 2:-0.777778 3:-0.75 4:-0.333333 5:-0.333333 6:-0.333333 7:-0.6 8:-0.777778 9:-1 10:-0.333333 11:-0.333333 12:-0.333333 13:-0.333333 14:-0.6 15:-0.5 16:-0.5 17:-0.714286 18:-0.666667 19:0.333333 20:-0.333333 24:-1 25:-0.6 26:1 27:-1 28:-1 29:-1 30:-0.777778 31:-1 32:-1 33:-1 34:-1 35:-1 36:-1 37:-1 38:-1 39:-1 40:-1 41:-1 42:-0.2 43:-0.5 44:-0.333333 45:1 46:0.333333 47:-0.333333 48:0.5 49:-1 50:-0.333333 51:-0.5 52:-0.5 53:-0.5 54:-0.6 55:-1 56:-1 57:-0.333333 58:-1 59:-1 60:-1 61:-1 62:-1 63:-1 64:-1 65:-0.2 66:0.6 67:-0.111111 69:0.2 70:-1 71:-1 72:-1 73:-1 74:-1 75:-1 76:-1 77:-1 78:-1 79:-1 80:-1 81:-1 82:-1 83:-1 84:-1 85:-1 86:-1 87:-1 88:-1 89:-1 90:-1 91:-1 92:-1 93:-1 94:-1 95:-1 96:-1 97:-1 98:-1 99:-1 100:-1 101:-1 102:-1 103:-1 104:-1 
-0.3375650242071564 1:-0.777778 2:-1 3:-0.75 4:-0.333333 5:-0.333333 6:-0.333333 7:-0.6 8:-0.777778 9:-1 10:-0.333333 11:-0.333333 12:-0.333333 13:-0.333333 14:-0.6 16:0.5 17:0.714286 19:-0.333333 20:0.333333 24:-1 25:-0.6 27:0.111111 28:0.111111 29:-1 30:-1 31:-1 32:0.111111 33:-1 34:-1 35:-1 36:-1 37:-1 38:-1 39:-1 40:-0.555556 41:-1 42:-0.2 43:-0.5 44:-0.333333 45:-0.333333 46:-0.333333 47:-0.333333 48:-1 49:0.333333 50:-0.333333 51:-0.5 52:-0.5 53:-0.5 54:-0.6 55:-1 56:-1 57:-1 58:-1 59:-1 60:-0.25 61:-0.555556 62:-1 63:-1 64:-1 65:-0.2 66:-0.2 67:-0.333333 69:0.2 70:-1 71:-1 72:-1 73:-1 74:-1 75:-1 76:-1 77:-1 78:-1 79:-1 80:-1 81:-1 82:-1 83:-1 84:-1 85:-1 86:-1 87:-1 88:-1 89:-1 90:-1 91:-1 92:-1 93:-1 94:-1 95:-1 96:-1 97:-1 98:-1 99:-1 100:-1 101:-1 102:-1 103:-1 104:-1 
-4.238859704510272 1:-0.777778 2:-1 3:-0.75 4:-0.333333 5:-0.333333 6:-0.333333 7:-0.6 8:-0.111111 9:1 10:1 11:-0.333333 12:0.333333 13:0.333333 14:-1 16:0.5 17:-0.714286 18:-0.666667 19:0.333333 20:-0.333333 24:-0.333333 25:-0.6 27:-0.333333 28:-1 29:-0.555556 30:-1 31:-0.333333 32:0.111111 33:0.777778 34:-1 35:-1 36:-1 37:0.111111 38:0.75 39:-0.75 40:1 41:-1 42:-0.6 43:-0.5 44:0.333333 45:-0.333333 46:-1 47:-0.333333 48:-1 49:-1 50:-0.333333 51:-0.5 52:-0.5 53:-1 54:-0.6 55:-1 56:-1 57:-1 58:-1 59:-1 60:-1 61:-1 62:-1 63:-1 64:-1 65:-0.2 66:-0.2 67:-0.777778 68:-0.5 69:0.6 70:-0.714286 71:1 72:1 78:0.5 79:1 81:1 87:1 89:0.5 90:1 99:1 104:1 
-5.232950065899844 1:0.111111 2:0.333333 4:1 5:1 6:0.333333 7:-0.2 8:0.777778 9:0.5 10:1 11:-0.333333 12:0.333333 13:0.333333 14:0.2 15:-0.5 16:0.5 17:-0.428571 18:-0.333333 19:-0.333333 20:0.333333 24:-0.333333 25:0.6 26:-1 27:-1 28:-0.555556 29:-1 30:-1 31:-0.333333 32:-1 33:0.111111 34:-0.555556 35:-1 36:-1 37:-1 38:-1 39:-1 40:-0.555556 41:-1 42:-0.6 43:-0.5 44:-0.333333 45:-0.333333 46:-0.333333 47:-0.333333 48:-1 49:-1 50:1 51:-0.5 52:-0.5 54:-0.6 55:-1 56:-1 57:-1 58:-1 59:-1 60:-0.5 61:-1 62:-1 63:-1 64:-1 65:-0.6 66:-0.6 67:-0.333333 69:-0.2 70:-0.428571 76:1 78:-0.5 79:1 81:1 89:-0.5 91:1 104:1 
